weights = {
    "conv0.weight": [
        [
            [
                [
                    0.12758633494377136,
                    -0.25694146752357483,
                    -1.1221826076507568
                ],
                [
                    -0.03183485195040703,
                    -0.3370741307735443,
                    -0.23205554485321045
                ],
                [
                    0.8946739435195923,
                    0.914315402507782,
                    0.12787139415740967
                ]
            ]
        ],
        [
            [
                [
                    -0.45969918370246887,
                    1.4164695739746094,
                    0.4150797426700592
                ],
                [
                    -2.0367441177368164,
                    -2.1687307357788086,
                    -1.614255666732788
                ],
                [
                    2.5669233798980713,
                    1.2368016242980957,
                    1.4394994974136353
                ]
            ]
        ],
        [
            [
                [
                    1.4562510251998901,
                    0.08783040195703506,
                    -0.810937762260437
                ],
                [
                    0.5214467644691467,
                    0.7881652116775513,
                    -0.1652638018131256
                ],
                [
                    -1.2460262775421143,
                    1.0153664350509644,
                    0.07900028675794601
                ]
            ]
        ],
        [
            [
                [
                    -0.4729660749435425,
                    1.0201326608657837,
                    -0.6540645956993103
                ],
                [
                    0.3821645975112915,
                    0.4267672300338745,
                    -0.24850717186927795
                ],
                [
                    1.1982581615447998,
                    -0.732641875743866,
                    -0.1714821457862854
                ]
            ]
        ],
        [
            [
                [
                    -0.44027379155158997,
                    2.2761616706848145,
                    0.38734734058380127
                ],
                [
                    0.7150121331214905,
                    0.43519356846809387,
                    -0.3851015865802765
                ],
                [
                    0.3292595446109772,
                    -2.277719020843506,
                    -1.6129083633422852
                ]
            ]
        ],
        [
            [
                [
                    -0.9619078040122986,
                    -0.3773321211338043,
                    1.1000628471374512
                ],
                [
                    0.18075795471668243,
                    0.22506681084632874,
                    0.3495733141899109
                ],
                [
                    1.0854750871658325,
                    0.5180871486663818,
                    -1.1620818376541138
                ]
            ]
        ],
        [
            [
                [
                    1.5690124034881592,
                    -0.54998779296875,
                    -0.5570108294487
                ],
                [
                    0.2771904766559601,
                    0.053515829145908356,
                    -1.1197831630706787
                ],
                [
                    -1.3212958574295044,
                    1.2493326663970947,
                    -1.0617254972457886
                ]
            ]
        ],
        [
            [
                [
                    -0.10555633902549744,
                    0.282001256942749,
                    0.0632866770029068
                ],
                [
                    0.3752954304218292,
                    0.26827022433280945,
                    0.42253607511520386
                ],
                [
                    0.7834755778312683,
                    -0.4951932430267334,
                    0.03967425972223282
                ]
            ]
        ],
        [
            [
                [
                    2.1194114685058594,
                    1.8013499975204468,
                    1.852658987045288
                ],
                [
                    0.5159300565719604,
                    0.4136940538883209,
                    0.021499542519450188
                ],
                [
                    -2.6873562335968018,
                    -1.993912935256958,
                    -1.8189631700515747
                ]
            ]
        ],
        [
            [
                [
                    0.8933261036872864,
                    -1.2972184419631958,
                    -0.5185978412628174
                ],
                [
                    0.3242615759372711,
                    -0.08799944072961807,
                    -0.2682812213897705
                ],
                [
                    -0.31377992033958435,
                    1.6874639987945557,
                    -0.08327483385801315
                ]
            ]
        ],
        [
            [
                [
                    0.9072518348693848,
                    1.0787094831466675,
                    0.44179847836494446
                ],
                [
                    -0.9816863536834717,
                    -1.244120717048645,
                    -0.817149817943573
                ],
                [
                    0.38939419388771057,
                    0.46967950463294983,
                    0.29962849617004395
                ]
            ]
        ],
        [
            [
                [
                    -0.7535569667816162,
                    1.9546138048171997,
                    -0.8124643564224243
                ],
                [
                    0.5383486151695251,
                    -0.06086990609765053,
                    -0.530552327632904
                ],
                [
                    1.4617223739624023,
                    -1.71333909034729,
                    0.2871096432209015
                ]
            ]
        ],
        [
            [
                [
                    -1.007479190826416,
                    0.5185835361480713,
                    0.7818124294281006
                ],
                [
                    0.21417848765850067,
                    -0.5505324602127075,
                    0.16969835758209229
                ],
                [
                    1.1559665203094482,
                    -0.4425155818462372,
                    -0.8097274899482727
                ]
            ]
        ],
        [
            [
                [
                    -2.205446481704712,
                    2.2137832641601562,
                    -0.3431440591812134
                ],
                [
                    -0.052149560302495956,
                    0.31271710991859436,
                    -0.8832030892372131
                ],
                [
                    2.3446829319000244,
                    -1.189903974533081,
                    -1.1579045057296753
                ]
            ]
        ],
        [
            [
                [
                    0.24547049403190613,
                    1.1001760959625244,
                    -0.008162710815668106
                ],
                [
                    -0.9868191480636597,
                    0.12109513580799103,
                    0.5621269345283508
                ],
                [
                    -0.3905387222766876,
                    -0.6747277975082397,
                    0.6238682270050049
                ]
            ]
        ],
        [
            [
                [
                    -3.001836061477661,
                    -1.3859076499938965,
                    -1.1895054578781128
                ],
                [
                    0.41434940695762634,
                    0.7657650709152222,
                    0.8529608845710754
                ],
                [
                    2.510061264038086,
                    1.084686040878296,
                    1.294470191001892
                ]
            ]
        ],
        [
            [
                [
                    -1.6140059232711792,
                    -0.09108220040798187,
                    1.4256867170333862
                ],
                [
                    0.1409868448972702,
                    -0.5707515478134155,
                    -0.4558851718902588
                ],
                [
                    1.7643311023712158,
                    0.6857883930206299,
                    -1.2163718938827515
                ]
            ]
        ],
        [
            [
                [
                    0.8706371784210205,
                    -0.10147383064031601,
                    -0.266017347574234
                ],
                [
                    0.29144901037216187,
                    -0.17518572509288788,
                    -0.22597089409828186
                ],
                [
                    -0.6028775572776794,
                    0.6291371583938599,
                    -0.3224382698535919
                ]
            ]
        ],
        [
            [
                [
                    0.7402837872505188,
                    -1.9652308225631714,
                    -0.6060414910316467
                ],
                [
                    0.2555236518383026,
                    -0.254891961812973,
                    -0.5734006762504578
                ],
                [
                    -0.8844283223152161,
                    2.2034401893615723,
                    0.041410550475120544
                ]
            ]
        ]
    ],
    "bn1.running_mean": [
        0.7784819602966309,
        5.605193857299268e-45,
        2.0780789852142334,
        0.3605017364025116,
        5.605193857299268e-45,
        5.605193857299268e-45,
        4.627907752990723,
        12.066143989562988,
        2.2175779342651367,
        3.3050730228424072,
        2.8782756328582764,
        5.605193857299268e-45,
        0.38938823342323303,
        0.401773065328598,
        5.605193857299268e-45,
        2.449176788330078,
        2.5512542724609375,
        0.39656177163124084,
        0.5294269323348999
    ],
    "bn1.running_var": [
        23.570966720581055,
        5.605193857299268e-45,
        58.51796340942383,
        7.404183387756348,
        5.605193857299268e-45,
        5.605193857299268e-45,
        87.13351440429688,
        71.56388854980469,
        49.59743881225586,
        58.994171142578125,
        40.406002044677734,
        5.605193857299268e-45,
        6.332949161529541,
        3.7587082386016846,
        5.605193857299268e-45,
        47.159507751464844,
        40.585411071777344,
        6.2245354652404785,
        7.437244415283203
    ],
    "bn1.num_batches_tracked": 9022,
    "conv1.weight": [
        [
            [
                [
                    0.008811699226498604,
                    -0.8979938626289368,
                    -0.22327132523059845
                ],
                [
                    -0.3101999759674072,
                    -0.06507144123315811,
                    0.196074441075325
                ],
                [
                    -0.18195243179798126,
                    0.7759491801261902,
                    0.165485680103302
                ]
            ],
            [
                [
                    0.09687958657741547,
                    0.07630383223295212,
                    0.3688863217830658
                ],
                [
                    -0.19200262427330017,
                    0.417786568403244,
                    0.36155441403388977
                ],
                [
                    -0.4721888601779938,
                    -0.11629462987184525,
                    -0.04561943933367729
                ]
            ],
            [
                [
                    0.3878808915615082,
                    -0.8491798043251038,
                    0.2893267571926117
                ],
                [
                    -0.07911146432161331,
                    -0.7402654886245728,
                    0.13445281982421875
                ],
                [
                    -0.30154672265052795,
                    0.6314076781272888,
                    0.4063403606414795
                ]
            ],
            [
                [
                    -0.07200513780117035,
                    -0.42507314682006836,
                    -0.22639012336730957
                ],
                [
                    -0.08837328106164932,
                    0.22679561376571655,
                    -0.05076709762215614
                ],
                [
                    -0.16941162943840027,
                    0.3601777255535126,
                    0.0004204237484373152
                ]
            ],
            [
                [
                    0.0798707827925682,
                    0.12546099722385406,
                    0.07176920771598816
                ],
                [
                    -0.15979212522506714,
                    0.9765559434890747,
                    0.13583730161190033
                ],
                [
                    -0.06591426581144333,
                    -0.03604650869965553,
                    -0.06930352002382278
                ]
            ],
            [
                [
                    0.10017821192741394,
                    0.043511923402547836,
                    0.2589656412601471
                ],
                [
                    -0.06770352274179459,
                    0.2043847292661667,
                    -0.06338395923376083
                ],
                [
                    -0.32902735471725464,
                    0.3160119652748108,
                    -0.1776760369539261
                ]
            ],
            [
                [
                    0.05565391108393669,
                    -1.038072109222412,
                    -0.991532564163208
                ],
                [
                    -0.5628429651260376,
                    -0.07330665737390518,
                    -0.35333704948425293
                ],
                [
                    0.052945028990507126,
                    -0.17381124198436737,
                    -0.17510740458965302
                ]
            ],
            [
                [
                    0.14479343593120575,
                    -0.2883824408054352,
                    0.04113023355603218
                ],
                [
                    -0.10458596795797348,
                    -0.3873603641986847,
                    -0.4036237299442291
                ],
                [
                    -0.25033625960350037,
                    0.33083978295326233,
                    -0.00899454765021801
                ]
            ],
            [
                [
                    -0.007518465165048838,
                    -0.32803982496261597,
                    0.24665533006191254
                ],
                [
                    0.3841985762119293,
                    0.10798018425703049,
                    0.05865265429019928
                ],
                [
                    -0.20957769453525543,
                    -0.4319863021373749,
                    -0.2902378439903259
                ]
            ],
            [
                [
                    0.23026320338249207,
                    -1.1216257810592651,
                    -0.37403738498687744
                ],
                [
                    -0.5122613906860352,
                    -0.09808913618326187,
                    -0.1083623543381691
                ],
                [
                    -0.3004947900772095,
                    1.223179578781128,
                    -0.050125665962696075
                ]
            ],
            [
                [
                    0.10961995273828506,
                    -0.07772784680128098,
                    0.32972949743270874
                ],
                [
                    0.06370718032121658,
                    0.17929747700691223,
                    0.1340724527835846
                ],
                [
                    -0.052578072994947433,
                    0.05082475021481514,
                    -0.03665393218398094
                ]
            ],
            [
                [
                    -0.004141037352383137,
                    -0.2968195378780365,
                    0.13844206929206848
                ],
                [
                    -0.16066884994506836,
                    1.120574951171875,
                    0.22171750664710999
                ],
                [
                    -0.0240530613809824,
                    0.19549070298671722,
                    0.0006538499146699905
                ]
            ],
            [
                [
                    -0.3375594913959503,
                    0.48970696330070496,
                    -0.024246325716376305
                ],
                [
                    -0.5425333380699158,
                    0.15631867945194244,
                    0.1241517886519432
                ],
                [
                    -0.41110366582870483,
                    -0.40988996624946594,
                    -0.15441158413887024
                ]
            ],
            [
                [
                    -0.018972815945744514,
                    -0.6303826570510864,
                    -0.2151494324207306
                ],
                [
                    -0.06977272033691406,
                    0.7647663354873657,
                    0.6904508471488953
                ],
                [
                    0.1317092627286911,
                    0.051465485244989395,
                    0.20227830111980438
                ]
            ],
            [
                [
                    -0.6389298439025879,
                    1.1204372644424438,
                    -0.7189778089523315
                ],
                [
                    0.12560172379016876,
                    -0.46842077374458313,
                    0.6995879411697388
                ],
                [
                    0.09258698672056198,
                    -0.5543602705001831,
                    -0.18722383677959442
                ]
            ],
            [
                [
                    -0.12576913833618164,
                    -0.09375810623168945,
                    -0.3069687485694885
                ],
                [
                    -0.2593858242034912,
                    0.37937071919441223,
                    0.2742663621902466
                ],
                [
                    -0.7440060973167419,
                    0.07821864634752274,
                    -0.009738161228597164
                ]
            ],
            [
                [
                    -0.1749335080385208,
                    1.1243830919265747,
                    0.2604328989982605
                ],
                [
                    -0.21187366545200348,
                    0.15273287892341614,
                    0.4048250913619995
                ],
                [
                    -0.22405557334423065,
                    -0.7753793597221375,
                    -0.1558525264263153
                ]
            ],
            [
                [
                    0.07528164237737656,
                    -0.21932350099086761,
                    -0.400234580039978
                ],
                [
                    -0.20232996344566345,
                    -0.10278942435979843,
                    -0.23627574741840363
                ],
                [
                    -0.02430269494652748,
                    -0.0226866714656353,
                    -0.044732168316841125
                ]
            ],
            [
                [
                    -0.005201694089919329,
                    0.2898387014865875,
                    -0.17781692743301392
                ],
                [
                    -0.2543661296367645,
                    -0.2322978675365448,
                    0.02580896019935608
                ],
                [
                    -0.05547334626317024,
                    -0.46293309330940247,
                    -0.30626174807548523
                ]
            ]
        ],
        [
            [
                [
                    0.015318340621888638,
                    0.029245983809232712,
                    -0.052106574177742004
                ],
                [
                    0.027413006871938705,
                    0.022009581327438354,
                    0.03237736597657204
                ],
                [
                    -0.1295175999403,
                    0.006583663169294596,
                    -0.03691134601831436
                ]
            ],
            [
                [
                    -0.0032590990886092186,
                    -0.017998604103922844,
                    0.022809691727161407
                ],
                [
                    -0.031991180032491684,
                    0.02404027245938778,
                    -0.030957328155636787
                ],
                [
                    -0.0938660055398941,
                    -0.05899916589260101,
                    0.007767294067889452
                ]
            ],
            [
                [
                    -0.13791446387767792,
                    -0.0829855427145958,
                    -0.06419914215803146
                ],
                [
                    -0.011572456918656826,
                    0.027033887803554535,
                    0.06485777348279953
                ],
                [
                    -0.013736928813159466,
                    -0.08952733874320984,
                    -0.05515146255493164
                ]
            ],
            [
                [
                    -0.12784262001514435,
                    -0.07784215360879898,
                    0.019869405776262283
                ],
                [
                    -0.18564113974571228,
                    -0.06649351865053177,
                    -0.10426057875156403
                ],
                [
                    -0.3317757546901703,
                    0.026493169367313385,
                    0.020406512543559074
                ]
            ],
            [
                [
                    0.03211301192641258,
                    0.051046013832092285,
                    0.06245638057589531
                ],
                [
                    -0.05695369467139244,
                    0.024581734091043472,
                    0.061339523643255234
                ],
                [
                    -0.011758523061871529,
                    0.06142175570130348,
                    0.029202060773968697
                ]
            ],
            [
                [
                    -0.023525912314653397,
                    -0.03541215881705284,
                    0.03627363219857216
                ],
                [
                    -0.03390524536371231,
                    -0.030609680339694023,
                    -0.041646309196949005
                ],
                [
                    -0.10838685184717178,
                    -0.07515367865562439,
                    0.048618532717227936
                ]
            ],
            [
                [
                    0.016167230904102325,
                    -0.02134339138865471,
                    -0.05334177240729332
                ],
                [
                    0.04411337524652481,
                    0.031975146383047104,
                    -0.006426887586712837
                ],
                [
                    -0.06266752630472183,
                    0.04958251863718033,
                    0.014726687222719193
                ]
            ],
            [
                [
                    -0.09909951686859131,
                    0.048345208168029785,
                    0.05068497359752655
                ],
                [
                    -0.10554610937833786,
                    0.013292207382619381,
                    -0.048238303512334824
                ],
                [
                    -0.13628974556922913,
                    0.025600068271160126,
                    -0.005782368127256632
                ]
            ],
            [
                [
                    -0.07798787206411362,
                    -0.04244578629732132,
                    -0.022984733805060387
                ],
                [
                    -0.06922586262226105,
                    -0.01291037630289793,
                    0.06444363296031952
                ],
                [
                    -0.055457789450883865,
                    -0.07092753052711487,
                    -0.005766963120549917
                ]
            ],
            [
                [
                    0.0008478604722768068,
                    0.0015947319334372878,
                    -0.08206897228956223
                ],
                [
                    -0.05316096544265747,
                    -0.0919841006398201,
                    -0.046648625284433365
                ],
                [
                    -0.012143777683377266,
                    -0.09825263172388077,
                    0.0028087696991860867
                ]
            ],
            [
                [
                    0.045769449323415756,
                    -0.006551642902195454,
                    -0.05247652158141136
                ],
                [
                    -0.03970205783843994,
                    0.0027750451117753983,
                    -0.06181899458169937
                ],
                [
                    0.01850043796002865,
                    -0.08446095883846283,
                    -0.07983404397964478
                ]
            ],
            [
                [
                    -0.10319843143224716,
                    -0.0298778023570776,
                    0.03617970272898674
                ],
                [
                    -0.13763368129730225,
                    0.04596632719039917,
                    -0.04475153982639313
                ],
                [
                    -0.13780470192432404,
                    -0.015633150935173035,
                    -0.08873826265335083
                ]
            ],
            [
                [
                    -0.02569817192852497,
                    0.013219363056123257,
                    0.06012633070349693
                ],
                [
                    -0.09394066035747528,
                    -0.07993680983781815,
                    0.04786311462521553
                ],
                [
                    -0.2729658782482147,
                    0.0002527609176468104,
                    -0.07698601484298706
                ]
            ],
            [
                [
                    -0.0561927855014801,
                    -0.09496437758207321,
                    -0.04073720425367355
                ],
                [
                    -0.07683021575212479,
                    -0.08300969004631042,
                    0.010538378730416298
                ],
                [
                    -0.13257606327533722,
                    -0.017455916851758957,
                    -0.06804501265287399
                ]
            ],
            [
                [
                    -0.23781602084636688,
                    -0.046379122883081436,
                    0.0058786929585039616
                ],
                [
                    -0.16145963966846466,
                    0.01839909702539444,
                    -0.03533397987484932
                ],
                [
                    -0.5302344560623169,
                    -0.09893342107534409,
                    -0.09429346770048141
                ]
            ],
            [
                [
                    -0.006670757196843624,
                    -0.05206922069191933,
                    0.038579028099775314
                ],
                [
                    -0.07645811140537262,
                    -0.05058033764362335,
                    -0.05809159576892853
                ],
                [
                    0.007929080165922642,
                    -0.029257990419864655,
                    0.05835086107254028
                ]
            ],
            [
                [
                    -0.1269662231206894,
                    0.009992259554564953,
                    -0.03309549763798714
                ],
                [
                    -0.28339874744415283,
                    -0.047603972256183624,
                    -0.026378266513347626
                ],
                [
                    -0.5665057897567749,
                    -0.08750327676534653,
                    0.02078315243124962
                ]
            ],
            [
                [
                    -0.029387813061475754,
                    -0.07791515439748764,
                    -0.050160832703113556
                ],
                [
                    0.016656234860420227,
                    0.05007082596421242,
                    -0.07832954823970795
                ],
                [
                    -0.02486463263630867,
                    0.015482228249311447,
                    0.029172364622354507
                ]
            ],
            [
                [
                    -0.10660857707262039,
                    -0.05924855172634125,
                    0.00090744998306036
                ],
                [
                    -0.17115722596645355,
                    -0.04207569360733032,
                    0.001951292040757835
                ],
                [
                    -0.47527602314949036,
                    0.023943927139043808,
                    -0.04532536864280701
                ]
            ]
        ],
        [
            [
                [
                    0.021744392812252045,
                    -0.1779574602842331,
                    -0.07260790467262268
                ],
                [
                    -0.18960177898406982,
                    -0.26110899448394775,
                    -0.020412227138876915
                ],
                [
                    0.11862427741289139,
                    -0.03759098798036575,
                    -0.04485079646110535
                ]
            ],
            [
                [
                    0.16766904294490814,
                    0.03835272416472435,
                    -0.029736686497926712
                ],
                [
                    0.021586300805211067,
                    0.17611536383628845,
                    -0.125161811709404
                ],
                [
                    0.3104892671108246,
                    -0.14417338371276855,
                    -0.2239052802324295
                ]
            ],
            [
                [
                    0.13693293929100037,
                    0.022797340527176857,
                    -0.29727256298065186
                ],
                [
                    -0.4368162751197815,
                    0.3081529438495636,
                    -0.24807462096214294
                ],
                [
                    -0.5199722647666931,
                    0.6617607474327087,
                    -0.3906538486480713
                ]
            ],
            [
                [
                    0.3305095434188843,
                    -0.20563191175460815,
                    -0.30811408162117004
                ],
                [
                    0.05512170121073723,
                    -0.14144624769687653,
                    -0.22152824699878693
                ],
                [
                    0.08162548393011093,
                    -0.014938943088054657,
                    -0.31297528743743896
                ]
            ],
            [
                [
                    -0.15815097093582153,
                    -0.10440843552350998,
                    -0.1869470626115799
                ],
                [
                    -0.1548742800951004,
                    -0.18540918827056885,
                    -0.02431224100291729
                ],
                [
                    -0.2886536121368408,
                    -0.20716261863708496,
                    -0.03045782446861267
                ]
            ],
            [
                [
                    0.1486293375492096,
                    0.027084337547421455,
                    -0.10586690902709961
                ],
                [
                    -0.06432187557220459,
                    0.15070892870426178,
                    -0.0024625854566693306
                ],
                [
                    0.004265029449015856,
                    0.17096057534217834,
                    -0.18233844637870789
                ]
            ],
            [
                [
                    -0.27719688415527344,
                    0.24879945814609528,
                    -0.006072919350117445
                ],
                [
                    -0.17875657975673676,
                    0.17101088166236877,
                    0.0959455743432045
                ],
                [
                    0.042439088225364685,
                    0.3128012716770172,
                    0.254177063703537
                ]
            ],
            [
                [
                    0.39779067039489746,
                    -0.30151695013046265,
                    -0.03307702764868736
                ],
                [
                    0.4527040421962738,
                    -0.2008509337902069,
                    -0.13777057826519012
                ],
                [
                    0.21973717212677002,
                    -0.12033513933420181,
                    -0.16890564560890198
                ]
            ],
            [
                [
                    0.5180002450942993,
                    0.03836444392800331,
                    0.39203253388404846
                ],
                [
                    0.31183475255966187,
                    -0.1690775454044342,
                    0.2586982250213623
                ],
                [
                    -0.5550593733787537,
                    -0.3060176968574524,
                    0.07021598517894745
                ]
            ],
            [
                [
                    -0.17014607787132263,
                    -0.10235600173473358,
                    -0.18981797993183136
                ],
                [
                    -0.2981041669845581,
                    -0.17393383383750916,
                    0.04107525572180748
                ],
                [
                    -0.16442851722240448,
                    -0.015905408188700676,
                    -0.10528576374053955
                ]
            ],
            [
                [
                    -0.03833828493952751,
                    -0.16604198515415192,
                    -0.0701303482055664
                ],
                [
                    -0.052710264921188354,
                    -0.13256101310253143,
                    -0.0696275606751442
                ],
                [
                    -0.1440477818250656,
                    -0.08784522861242294,
                    -0.16894911229610443
                ]
            ],
            [
                [
                    0.22599105536937714,
                    -0.46392300724983215,
                    -0.18594524264335632
                ],
                [
                    0.1726367473602295,
                    -0.32430532574653625,
                    -0.16799186170101166
                ],
                [
                    0.2601300776004791,
                    -0.2599189877510071,
                    -0.23417603969573975
                ]
            ],
            [
                [
                    0.24329406023025513,
                    -0.2559736967086792,
                    0.03327066823840141
                ],
                [
                    0.6238884329795837,
                    -0.30651646852493286,
                    0.21977107226848602
                ],
                [
                    0.26479747891426086,
                    -0.30999046564102173,
                    0.08049597591161728
                ]
            ],
            [
                [
                    0.10327378660440445,
                    0.10449308902025223,
                    -0.2871084213256836
                ],
                [
                    -0.0625348910689354,
                    0.09925650805234909,
                    -0.3359546959400177
                ],
                [
                    0.10161613672971725,
                    -0.16465669870376587,
                    -0.24086420238018036
                ]
            ],
            [
                [
                    0.3143789768218994,
                    -0.4609445035457611,
                    -0.12929250299930573
                ],
                [
                    0.7325217127799988,
                    -0.07755391299724579,
                    -0.07118387520313263
                ],
                [
                    -0.31481680274009705,
                    0.48133549094200134,
                    0.01686183363199234
                ]
            ],
            [
                [
                    -0.14010284841060638,
                    0.1850086748600006,
                    0.06730207055807114
                ],
                [
                    -0.3636101484298706,
                    0.35274356603622437,
                    -0.213470920920372
                ],
                [
                    0.2171839326620102,
                    0.07663358747959137,
                    -0.3756484389305115
                ]
            ],
            [
                [
                    0.11775759607553482,
                    -0.06546684354543686,
                    0.0803198367357254
                ],
                [
                    0.33897390961647034,
                    -0.027651887387037277,
                    0.1302396059036255
                ],
                [
                    0.2342137098312378,
                    -0.15738070011138916,
                    0.06643544137477875
                ]
            ],
            [
                [
                    -0.11003013700246811,
                    0.026165317744016647,
                    -0.048084791749715805
                ],
                [
                    -0.09331094473600388,
                    -0.1523357629776001,
                    0.014340696856379509
                ],
                [
                    -0.10027145594358444,
                    0.07371018826961517,
                    0.06920791417360306
                ]
            ],
            [
                [
                    -0.05930373817682266,
                    0.22478953003883362,
                    0.0750231146812439
                ],
                [
                    -0.04254012554883957,
                    0.08759143203496933,
                    0.21538186073303223
                ],
                [
                    0.08974397927522659,
                    0.08332055062055588,
                    0.11097031086683273
                ]
            ]
        ],
        [
            [
                [
                    -0.09106741100549698,
                    -0.021475082263350487,
                    -0.2388107180595398
                ],
                [
                    -0.20342391729354858,
                    -0.4760996401309967,
                    0.3457772731781006
                ],
                [
                    -0.10538209974765778,
                    -0.6026577353477478,
                    0.10852955281734467
                ]
            ],
            [
                [
                    -0.18590176105499268,
                    0.33396342396736145,
                    -0.32226651906967163
                ],
                [
                    -0.15931068360805511,
                    0.13097238540649414,
                    -0.11614640802145004
                ],
                [
                    -0.13886475563049316,
                    -0.47434839606285095,
                    -0.05213257670402527
                ]
            ],
            [
                [
                    -0.31082338094711304,
                    0.8557747006416321,
                    -0.15576288104057312
                ],
                [
                    -0.20214231312274933,
                    0.6951906085014343,
                    -0.8083595633506775
                ],
                [
                    -0.1466711312532425,
                    0.024744242429733276,
                    -0.370016872882843
                ]
            ],
            [
                [
                    -0.13344892859458923,
                    -0.39250361919403076,
                    0.04340663179755211
                ],
                [
                    -0.06564008444547653,
                    0.2255580723285675,
                    -0.0026010284200310707
                ],
                [
                    -0.12865962088108063,
                    0.5404345989227295,
                    -0.025439785793423653
                ]
            ],
            [
                [
                    -0.15007051825523376,
                    -0.6295062899589539,
                    -0.25350654125213623
                ],
                [
                    -0.3355392813682556,
                    0.34670519828796387,
                    0.2943217158317566
                ],
                [
                    -0.23126240074634552,
                    0.8856102824211121,
                    -0.9258590936660767
                ]
            ],
            [
                [
                    -0.18859583139419556,
                    -0.5675305128097534,
                    0.310637503862381
                ],
                [
                    -0.14008069038391113,
                    -0.026669900864362717,
                    -0.08267088979482651
                ],
                [
                    -0.01196838915348053,
                    0.056274499744176865,
                    0.061332203447818756
                ]
            ],
            [
                [
                    -0.21645839512348175,
                    0.24063096940517426,
                    -0.4339694082736969
                ],
                [
                    -0.3198602795600891,
                    -0.5982108116149902,
                    1.077336072921753
                ],
                [
                    -0.30637887120246887,
                    -0.2490164190530777,
                    0.3273851275444031
                ]
            ],
            [
                [
                    -0.1287296712398529,
                    -0.3209366798400879,
                    0.8919224739074707
                ],
                [
                    -0.13663052022457123,
                    -0.3421304523944855,
                    0.3378913402557373
                ],
                [
                    0.051200173795223236,
                    0.30241644382476807,
                    0.3729242980480194
                ]
            ],
            [
                [
                    -0.3185673952102661,
                    0.09023648500442505,
                    0.850604236125946
                ],
                [
                    -0.42385807633399963,
                    0.5044101476669312,
                    1.015893578529358
                ],
                [
                    -0.3363182842731476,
                    0.29667648673057556,
                    -0.3753228485584259
                ]
            ],
            [
                [
                    -0.29350656270980835,
                    -0.08082941174507141,
                    -0.38123995065689087
                ],
                [
                    -0.34696531295776367,
                    -0.7505947947502136,
                    0.7933142185211182
                ],
                [
                    -0.33327245712280273,
                    -0.8877671360969543,
                    0.5835087895393372
                ]
            ],
            [
                [
                    -0.07365437597036362,
                    -0.09202396124601364,
                    0.076358862221241
                ],
                [
                    -0.17305850982666016,
                    0.3513086438179016,
                    0.09246085584163666
                ],
                [
                    -0.16147178411483765,
                    0.06567149609327316,
                    -0.1225237175822258
                ]
            ],
            [
                [
                    -0.15078561007976532,
                    -0.9651880264282227,
                    0.19997800886631012
                ],
                [
                    -0.24506860971450806,
                    -0.22275575995445251,
                    0.15507031977176666
                ],
                [
                    -0.20410725474357605,
                    0.6194639801979065,
                    -0.3911707401275635
                ]
            ],
            [
                [
                    -0.07580728828907013,
                    -0.220053032040596,
                    0.4822266697883606
                ],
                [
                    -0.220011368393898,
                    -0.9648222327232361,
                    0.5731006860733032
                ],
                [
                    -0.16996468603610992,
                    0.7295618653297424,
                    0.49797844886779785
                ]
            ],
            [
                [
                    -0.2654397487640381,
                    0.12161311507225037,
                    -0.20368850231170654
                ],
                [
                    -0.3193902373313904,
                    -0.5313704609870911,
                    0.0432337187230587
                ],
                [
                    -0.4536387622356415,
                    0.7643904685974121,
                    -0.6426109075546265
                ]
            ],
            [
                [
                    -0.40595555305480957,
                    0.2502051591873169,
                    -0.5257194638252258
                ],
                [
                    -0.4045502543449402,
                    -0.4964751601219177,
                    -0.9674599766731262
                ],
                [
                    -0.35582977533340454,
                    0.3886275291442871,
                    0.3837951123714447
                ]
            ],
            [
                [
                    -0.219393789768219,
                    0.11983097344636917,
                    -0.6502192616462708
                ],
                [
                    -0.0421292819082737,
                    1.0610965490341187,
                    -0.41320735216140747
                ],
                [
                    -0.12109251320362091,
                    -1.1713130474090576,
                    0.9642125964164734
                ]
            ],
            [
                [
                    -0.16747188568115234,
                    0.1460743546485901,
                    0.10524147003889084
                ],
                [
                    -0.2878308594226837,
                    -0.5987929701805115,
                    0.2941141426563263
                ],
                [
                    -0.30437642335891724,
                    -0.1259816437959671,
                    0.12403088063001633
                ]
            ],
            [
                [
                    -0.15856774151325226,
                    0.06298243999481201,
                    -0.18483278155326843
                ],
                [
                    -0.1705949306488037,
                    -0.3011256754398346,
                    0.4298175871372223
                ],
                [
                    -0.15140734612941742,
                    -0.2544713318347931,
                    0.06529373675584793
                ]
            ],
            [
                [
                    -0.1779509037733078,
                    0.5309088230133057,
                    -0.4597527086734772
                ],
                [
                    -0.2282547801733017,
                    -0.7264093160629272,
                    0.47371867299079895
                ],
                [
                    -0.28653162717819214,
                    -0.9064839482307434,
                    0.34163811802864075
                ]
            ]
        ],
        [
            [
                [
                    -0.08642254024744034,
                    -0.045799270272254944,
                    -0.05285927653312683
                ],
                [
                    0.02564004808664322,
                    -0.07562647759914398,
                    0.03169083222746849
                ],
                [
                    0.05615808814764023,
                    0.0015410932246595621,
                    -0.01812809146940708
                ]
            ],
            [
                [
                    0.10496727377176285,
                    -0.21607251465320587,
                    -0.002795981476083398
                ],
                [
                    -0.013390633277595043,
                    0.0015569267561659217,
                    0.0238728616386652
                ],
                [
                    0.0365489237010479,
                    -0.03986625745892525,
                    -0.0638497918844223
                ]
            ],
            [
                [
                    -0.17330457270145416,
                    -0.032622791826725006,
                    -0.016372952610254288
                ],
                [
                    -0.09158279001712799,
                    0.0036830974277108908,
                    -0.05005345866084099
                ],
                [
                    -0.16092607378959656,
                    -0.07652758061885834,
                    -0.07394514232873917
                ]
            ],
            [
                [
                    -0.10198520869016647,
                    0.11258207261562347,
                    0.013371912762522697
                ],
                [
                    -0.00031480719917453825,
                    0.0487016960978508,
                    -0.08588460087776184
                ],
                [
                    -0.013616081327199936,
                    0.04548608884215355,
                    -0.091025210916996
                ]
            ],
            [
                [
                    0.03555351495742798,
                    0.06565211713314056,
                    0.06718190014362335
                ],
                [
                    -0.03327081352472305,
                    0.02016153372824192,
                    -0.05291006341576576
                ],
                [
                    -0.011731761507689953,
                    0.004763694945722818,
                    0.014530578628182411
                ]
            ],
            [
                [
                    -0.03684166818857193,
                    0.003764260560274124,
                    0.0023603213485330343
                ],
                [
                    -0.038925111293792725,
                    -0.0019489536061882973,
                    -0.04828641191124916
                ],
                [
                    -0.1549416035413742,
                    -0.06786339730024338,
                    -0.03106227144598961
                ]
            ],
            [
                [
                    -0.06609749048948288,
                    0.03946344926953316,
                    -0.015092758461833
                ],
                [
                    -0.01837008260190487,
                    -0.0010130656883120537,
                    0.03288901224732399
                ],
                [
                    0.010682147927582264,
                    -0.09084656089544296,
                    -0.08680520951747894
                ]
            ],
            [
                [
                    -0.08031166344881058,
                    -0.07619869709014893,
                    -0.011461765505373478
                ],
                [
                    -0.15921176970005035,
                    -0.11583767086267471,
                    0.006969174835830927
                ],
                [
                    -0.048902325332164764,
                    -0.1247205138206482,
                    0.002111680107191205
                ]
            ],
            [
                [
                    -0.09969069808721542,
                    0.0353471115231514,
                    0.020575741305947304
                ],
                [
                    0.04716048762202263,
                    -0.09002289175987244,
                    -0.07942933589220047
                ],
                [
                    0.013854277320206165,
                    0.034644171595573425,
                    0.017013460397720337
                ]
            ],
            [
                [
                    -0.09351492673158646,
                    -0.16813285648822784,
                    -0.04567946866154671
                ],
                [
                    -0.2003650814294815,
                    -0.04624082148075104,
                    -0.13179101049900055
                ],
                [
                    -0.1605205237865448,
                    -0.0704381987452507,
                    -0.11794938147068024
                ]
            ],
            [
                [
                    -0.03500048816204071,
                    -0.1022232174873352,
                    -0.0825451985001564
                ],
                [
                    0.008880910463631153,
                    -0.04455694928765297,
                    -0.06416283547878265
                ],
                [
                    -0.04349053278565407,
                    -0.11152476817369461,
                    -0.0697900578379631
                ]
            ],
            [
                [
                    0.00352726923301816,
                    0.09494703263044357,
                    0.007682697847485542
                ],
                [
                    -0.045138731598854065,
                    0.031239870935678482,
                    0.0018458889098837972
                ],
                [
                    -0.043793462216854095,
                    -0.02133040502667427,
                    0.04628611356019974
                ]
            ],
            [
                [
                    -0.2144574373960495,
                    -0.18153499066829681,
                    -0.028706874698400497
                ],
                [
                    -0.0349266491830349,
                    -0.08821133524179459,
                    -0.013514295220375061
                ],
                [
                    -0.04389866068959236,
                    -0.04071537032723427,
                    -0.009698688052594662
                ]
            ],
            [
                [
                    0.04342878982424736,
                    0.01723121851682663,
                    -0.07736190408468246
                ],
                [
                    -0.009570235386490822,
                    0.007984253577888012,
                    0.03427303954958916
                ],
                [
                    -0.07394039630889893,
                    -0.00557897612452507,
                    -0.06080074608325958
                ]
            ],
            [
                [
                    -0.3623327314853668,
                    -0.08472033590078354,
                    -0.05554516240954399
                ],
                [
                    -0.1988004595041275,
                    -0.08662267029285431,
                    -0.06681150943040848
                ],
                [
                    -0.2085312008857727,
                    -0.12989112734794617,
                    0.011051296256482601
                ]
            ],
            [
                [
                    -0.03610390052199364,
                    -0.026468904688954353,
                    0.025890756398439407
                ],
                [
                    -0.06316971033811569,
                    0.018574612215161324,
                    0.026310378685593605
                ],
                [
                    -0.024986259639263153,
                    -0.03714252635836601,
                    0.022253481671214104
                ]
            ],
            [
                [
                    -0.20182712376117706,
                    -0.07336055487394333,
                    -0.07335477322340012
                ],
                [
                    -0.1228974238038063,
                    -0.09162207692861557,
                    -0.029844142496585846
                ],
                [
                    -0.05519729107618332,
                    -0.10157511383295059,
                    -0.09287285804748535
                ]
            ],
            [
                [
                    -0.0960412323474884,
                    -0.05816555395722389,
                    0.007074901368469
                ],
                [
                    -0.01912112906575203,
                    0.02873835153877735,
                    -0.06222793459892273
                ],
                [
                    -0.035850513726472855,
                    0.016079485416412354,
                    0.0511024072766304
                ]
            ],
            [
                [
                    -0.2996899485588074,
                    -0.11897474527359009,
                    0.017443249002099037
                ],
                [
                    -0.18048858642578125,
                    -0.08497688919305801,
                    -0.0479624904692173
                ],
                [
                    -0.16860833764076233,
                    -0.04173397272825241,
                    -0.08978656679391861
                ]
            ]
        ],
        [
            [
                [
                    -0.10018911212682724,
                    0.019846858456730843,
                    -0.043783821165561676
                ],
                [
                    -0.012019935064017773,
                    0.055273815989494324,
                    -0.0007249469053931534
                ],
                [
                    -0.06552121043205261,
                    -0.040392786264419556,
                    -0.018536832183599472
                ]
            ],
            [
                [
                    -0.0762048065662384,
                    -0.07519277185201645,
                    -0.03227682784199715
                ],
                [
                    -0.1640152484178543,
                    0.06617064028978348,
                    -0.049815334379673004
                ],
                [
                    -0.03187216818332672,
                    -0.010282459668815136,
                    -0.05351635813713074
                ]
            ],
            [
                [
                    0.0025878322776407003,
                    -0.03143434599041939,
                    0.009380867704749107
                ],
                [
                    -0.01402177195996046,
                    -0.08325527608394623,
                    0.033610373735427856
                ],
                [
                    -0.051933128386735916,
                    -0.030200190842151642,
                    0.017669029533863068
                ]
            ],
            [
                [
                    -0.10327254235744476,
                    -0.08817420154809952,
                    -0.0319678895175457
                ],
                [
                    -0.12394101917743683,
                    0.013206392526626587,
                    0.05311201140284538
                ],
                [
                    -0.2093314528465271,
                    -0.04339726269245148,
                    0.055372823029756546
                ]
            ],
            [
                [
                    0.037176016718149185,
                    0.057943809777498245,
                    -0.050131797790527344
                ],
                [
                    -0.0498201958835125,
                    -0.047022122889757156,
                    -0.09882673621177673
                ],
                [
                    0.02437569946050644,
                    0.07045846432447433,
                    0.002005546120926738
                ]
            ],
            [
                [
                    0.0007514993194490671,
                    0.01972992718219757,
                    -0.06512238830327988
                ],
                [
                    0.07294022291898727,
                    -0.07598402351140976,
                    -0.07517540454864502
                ],
                [
                    -0.012063814327120781,
                    0.060530226677656174,
                    -0.00435595354065299
                ]
            ],
            [
                [
                    -0.031142249703407288,
                    -0.009714351035654545,
                    0.020515743643045425
                ],
                [
                    -0.0811891034245491,
                    0.03738012909889221,
                    0.031844425946474075
                ],
                [
                    -0.03982863947749138,
                    -0.05740823224186897,
                    -0.027875397354364395
                ]
            ],
            [
                [
                    -0.044834282249212265,
                    -0.06342480331659317,
                    0.03438565880060196
                ],
                [
                    -0.03015512228012085,
                    0.017518997192382812,
                    -0.03384021297097206
                ],
                [
                    -0.014887413010001183,
                    -0.07035341113805771,
                    -0.0810711458325386
                ]
            ],
            [
                [
                    0.0004958529025316238,
                    -0.022120485082268715,
                    -0.023120297119021416
                ],
                [
                    -0.01553167961537838,
                    0.01588035561144352,
                    0.021607493981719017
                ],
                [
                    -0.050815463066101074,
                    0.04428986459970474,
                    -0.06736143678426743
                ]
            ],
            [
                [
                    -0.0627593994140625,
                    -0.0006305848946794868,
                    -0.059372592717409134
                ],
                [
                    -0.03460970148444176,
                    -0.09290580451488495,
                    -0.06091758981347084
                ],
                [
                    0.025334693491458893,
                    -0.0556754469871521,
                    -0.10394302755594254
                ]
            ],
            [
                [
                    -0.009689835831522942,
                    -0.07545022666454315,
                    -0.0794600173830986
                ],
                [
                    -0.05228360369801521,
                    -0.03098115511238575,
                    -0.08254225552082062
                ],
                [
                    -0.07226121425628662,
                    -0.02079171873629093,
                    -0.07882098108530045
                ]
            ],
            [
                [
                    -0.08394603431224823,
                    -0.06267037987709045,
                    -0.07599922269582748
                ],
                [
                    -0.06198250129818916,
                    -0.08502817153930664,
                    -0.07287272810935974
                ],
                [
                    -0.04802154004573822,
                    -0.0036452000495046377,
                    0.057011570781469345
                ]
            ],
            [
                [
                    -0.11887314915657043,
                    -0.03369009122252464,
                    -0.011280184611678123
                ],
                [
                    -0.10798071324825287,
                    0.05976956710219383,
                    -0.07923053950071335
                ],
                [
                    -0.10580047965049744,
                    -0.06562648713588715,
                    -0.047196850180625916
                ]
            ],
            [
                [
                    -0.09565912932157516,
                    0.01083486620336771,
                    -0.08130066841840744
                ],
                [
                    -0.0455305241048336,
                    -0.0914793387055397,
                    0.023335834965109825
                ],
                [
                    -0.12421360611915588,
                    0.029688792303204536,
                    -0.09201932698488235
                ]
            ],
            [
                [
                    -0.2462964653968811,
                    -0.11378422379493713,
                    0.06696604192256927
                ],
                [
                    -0.2705509662628174,
                    -0.11455105990171432,
                    0.05173230916261673
                ],
                [
                    -0.21014583110809326,
                    -0.23258914053440094,
                    -0.09549303352832794
                ]
            ],
            [
                [
                    -0.02321968972682953,
                    -0.034777045249938965,
                    0.05499757081270218
                ],
                [
                    0.03139905259013176,
                    -0.030844200402498245,
                    0.01796935871243477
                ],
                [
                    0.003957122098654509,
                    0.006638739723712206,
                    -0.057448599487543106
                ]
            ],
            [
                [
                    -0.29216158390045166,
                    0.03433189541101456,
                    -0.06341453641653061
                ],
                [
                    -0.358026385307312,
                    -0.040870070457458496,
                    -0.006889105308800936
                ],
                [
                    -0.27604302763938904,
                    -0.11250155419111252,
                    -0.022488970309495926
                ]
            ],
            [
                [
                    -0.07740695774555206,
                    0.010997303761541843,
                    -0.0405888706445694
                ],
                [
                    0.02339942753314972,
                    -0.065233513712883,
                    -0.06271392852067947
                ],
                [
                    -0.09625933319330215,
                    -0.05415010452270508,
                    0.04390857741236687
                ]
            ],
            [
                [
                    -0.16590461134910583,
                    -0.046233881264925,
                    -0.0019294676603749394
                ],
                [
                    -0.2219662368297577,
                    0.03891050070524216,
                    0.05242709815502167
                ],
                [
                    -0.25499650835990906,
                    -0.18720649182796478,
                    0.033799514174461365
                ]
            ]
        ],
        [
            [
                [
                    0.2924513518810272,
                    0.7619397044181824,
                    0.23329612612724304
                ],
                [
                    0.18471257388591766,
                    0.016148902475833893,
                    0.4845934808254242
                ],
                [
                    0.17558103799819946,
                    -0.5059971809387207,
                    -0.02133478783071041
                ]
            ],
            [
                [
                    -0.3602217733860016,
                    -0.2679499685764313,
                    -0.5181246399879456
                ],
                [
                    -1.2465914487838745,
                    -0.6153091788291931,
                    -0.2661139965057373
                ],
                [
                    0.07672280073165894,
                    0.09522361308336258,
                    0.4659907817840576
                ]
            ],
            [
                [
                    0.27081993222236633,
                    -0.03197560831904411,
                    -0.014504527673125267
                ],
                [
                    -0.2455645650625229,
                    0.22489646077156067,
                    0.6022242903709412
                ],
                [
                    -0.2412845343351364,
                    0.591288149356842,
                    0.4881933033466339
                ]
            ],
            [
                [
                    0.2224196493625641,
                    0.38146132230758667,
                    0.08136698603630066
                ],
                [
                    -0.07998691499233246,
                    -0.2735859751701355,
                    0.25687363743782043
                ],
                [
                    -0.12995505332946777,
                    -0.4185050427913666,
                    -0.11425040662288666
                ]
            ],
            [
                [
                    0.3065117299556732,
                    0.23206481337547302,
                    0.20129960775375366
                ],
                [
                    0.3147675395011902,
                    -0.7739272117614746,
                    -0.1359979212284088
                ],
                [
                    -0.9434465765953064,
                    -0.6635204553604126,
                    -0.534523606300354
                ]
            ],
            [
                [
                    -0.10651000589132309,
                    -0.34195852279663086,
                    -0.4418273866176605
                ],
                [
                    -0.451414555311203,
                    0.010242927819490433,
                    0.01840299367904663
                ],
                [
                    -0.23827721178531647,
                    0.3065715730190277,
                    0.3407888114452362
                ]
            ],
            [
                [
                    -0.48976999521255493,
                    0.8724574446678162,
                    0.23188313841819763
                ],
                [
                    0.18575777113437653,
                    -0.029840784147381783,
                    0.6352089643478394
                ],
                [
                    0.7306249737739563,
                    -0.5055865049362183,
                    -0.07971176505088806
                ]
            ],
            [
                [
                    0.0635397806763649,
                    0.40256035327911377,
                    -0.39466890692710876
                ],
                [
                    -0.15114308893680573,
                    0.045049604028463364,
                    -0.011898661963641644
                ],
                [
                    -0.1418713629245758,
                    -0.054397162050008774,
                    0.050726789981126785
                ]
            ],
            [
                [
                    0.1285383701324463,
                    -0.5420231819152832,
                    -0.29018938541412354
                ],
                [
                    0.447726845741272,
                    0.1815088540315628,
                    -0.48412758111953735
                ],
                [
                    0.1728649139404297,
                    0.8014099597930908,
                    0.04018643870949745
                ]
            ],
            [
                [
                    0.2370128482580185,
                    1.3482314348220825,
                    -0.007938823662698269
                ],
                [
                    0.17339564859867096,
                    0.34397339820861816,
                    0.6309482455253601
                ],
                [
                    0.6483682990074158,
                    -0.17695191502571106,
                    0.3774009943008423
                ]
            ],
            [
                [
                    0.17041194438934326,
                    -0.0779472142457962,
                    -0.4009890556335449
                ],
                [
                    -0.1736474335193634,
                    -0.40987470746040344,
                    -0.424507200717926
                ],
                [
                    -0.20402763783931732,
                    -0.05260232090950012,
                    -0.06337732076644897
                ]
            ],
            [
                [
                    0.5743937492370605,
                    0.16796237230300903,
                    0.04190947860479355
                ],
                [
                    -0.08621373772621155,
                    -0.7749429941177368,
                    -0.05675901100039482
                ],
                [
                    -0.12024126201868057,
                    -0.6597186326980591,
                    -0.13552406430244446
                ]
            ],
            [
                [
                    -0.8871186971664429,
                    -0.1930260956287384,
                    -0.03550194948911667
                ],
                [
                    -0.26038289070129395,
                    -0.32158759236335754,
                    0.22314798831939697
                ],
                [
                    1.2452392578125,
                    0.7258371710777283,
                    0.16100028157234192
                ]
            ],
            [
                [
                    0.003816134063526988,
                    0.8129374980926514,
                    0.4280236065387726
                ],
                [
                    0.17855064570903778,
                    -0.349945604801178,
                    0.4556482434272766
                ],
                [
                    -0.6335321664810181,
                    -0.8857674598693848,
                    -0.47363144159317017
                ]
            ],
            [
                [
                    -0.38754409551620483,
                    -1.298573613166809,
                    1.884743571281433
                ],
                [
                    -1.0701314210891724,
                    -0.5284314751625061,
                    1.1957306861877441
                ],
                [
                    1.6476529836654663,
                    2.0707485675811768,
                    0.41488131880760193
                ]
            ],
            [
                [
                    0.9563921689987183,
                    -0.49277931451797485,
                    0.43592360615730286
                ],
                [
                    -0.9639512300491333,
                    -0.422119677066803,
                    0.29346203804016113
                ],
                [
                    -0.5709910988807678,
                    -0.36088478565216064,
                    0.34422752261161804
                ]
            ],
            [
                [
                    -0.6708332896232605,
                    -0.36137211322784424,
                    -0.07303141802549362
                ],
                [
                    -0.3991423547267914,
                    -0.2633078396320343,
                    0.24389098584651947
                ],
                [
                    0.5836257934570312,
                    0.8786602020263672,
                    0.4159345328807831
                ]
            ],
            [
                [
                    -0.15091988444328308,
                    0.4677433371543884,
                    0.12100771069526672
                ],
                [
                    0.2633432447910309,
                    -0.03061753697693348,
                    0.18559640645980835
                ],
                [
                    0.30681702494621277,
                    -0.1403595358133316,
                    -0.13700120151042938
                ]
            ],
            [
                [
                    -0.3955089747905731,
                    -0.07998746633529663,
                    0.0021652092691510916
                ],
                [
                    -0.3714454174041748,
                    -0.06651165336370468,
                    0.2664457857608795
                ],
                [
                    0.7604719400405884,
                    0.3140006959438324,
                    0.16140548884868622
                ]
            ]
        ],
        [
            [
                [
                    -0.06551399827003479,
                    -0.26516419649124146,
                    0.036789268255233765
                ],
                [
                    0.06374811381101608,
                    -0.5855327248573303,
                    0.056411515921354294
                ],
                [
                    0.010694734752178192,
                    -0.4701586961746216,
                    0.21372276544570923
                ]
            ],
            [
                [
                    0.5170623660087585,
                    0.04603045806288719,
                    0.344656765460968
                ],
                [
                    0.836625337600708,
                    0.39942458271980286,
                    0.7821942567825317
                ],
                [
                    0.5397878885269165,
                    0.31222158670425415,
                    0.7487828135490417
                ]
            ],
            [
                [
                    -0.7617942690849304,
                    -0.22651353478431702,
                    -0.6834859251976013
                ],
                [
                    0.2614709138870239,
                    -0.19458763301372528,
                    -0.6332076191902161
                ],
                [
                    0.3488789200782776,
                    0.03931829333305359,
                    0.011427911929786205
                ]
            ],
            [
                [
                    0.13114376366138458,
                    0.3493683338165283,
                    0.442508339881897
                ],
                [
                    0.46161970496177673,
                    0.010337146930396557,
                    0.3867310583591461
                ],
                [
                    0.3255929946899414,
                    -0.3249845802783966,
                    0.3281022906303406
                ]
            ],
            [
                [
                    0.3976823687553406,
                    0.35908710956573486,
                    0.5279269814491272
                ],
                [
                    0.44396665692329407,
                    0.4911528527736664,
                    0.03376546502113342
                ],
                [
                    0.4765087068080902,
                    0.3375493884086609,
                    0.1261982023715973
                ]
            ],
            [
                [
                    0.0669976994395256,
                    0.06629731506109238,
                    0.022849416360259056
                ],
                [
                    0.34182173013687134,
                    0.13666881620883942,
                    0.10489329695701599
                ],
                [
                    0.30428236722946167,
                    0.21278728544712067,
                    0.1736915558576584
                ]
            ],
            [
                [
                    -0.19835516810417175,
                    -0.13885532319545746,
                    0.19353961944580078
                ],
                [
                    0.3479683995246887,
                    0.29652735590934753,
                    0.21586471796035767
                ],
                [
                    0.17446669936180115,
                    0.11104744672775269,
                    -0.018855120986700058
                ]
            ],
            [
                [
                    -0.353025883436203,
                    0.3096867501735687,
                    -0.025890713557600975
                ],
                [
                    -0.24427269399166107,
                    -0.021258549764752388,
                    -0.03372953459620476
                ],
                [
                    -0.2475840151309967,
                    -0.32544201612472534,
                    0.17047129571437836
                ]
            ],
            [
                [
                    0.029744712635874748,
                    -0.42843690514564514,
                    0.04595634341239929
                ],
                [
                    0.9822336435317993,
                    0.11286669969558716,
                    -0.20157530903816223
                ],
                [
                    0.5909263491630554,
                    0.3726699650287628,
                    0.2645706236362457
                ]
            ],
            [
                [
                    -0.5829684138298035,
                    -0.6939988732337952,
                    -0.16520728170871735
                ],
                [
                    0.31636208295822144,
                    -0.34158724546432495,
                    0.0453670360147953
                ],
                [
                    0.1986360400915146,
                    -0.3125283122062683,
                    0.49835506081581116
                ]
            ],
            [
                [
                    -0.017905129119753838,
                    0.01092388667166233,
                    0.24264900386333466
                ],
                [
                    0.2726946175098419,
                    0.2217174619436264,
                    0.3019348084926605
                ],
                [
                    0.2708629369735718,
                    0.1479852795600891,
                    0.476993590593338
                ]
            ],
            [
                [
                    0.32991108298301697,
                    0.30040791630744934,
                    0.6040366888046265
                ],
                [
                    0.40066584944725037,
                    0.13259589672088623,
                    0.6292940378189087
                ],
                [
                    0.3397367298603058,
                    -0.297769159078598,
                    0.3058324158191681
                ]
            ],
            [
                [
                    -0.8966838717460632,
                    -0.43621066212654114,
                    -0.1432107836008072
                ],
                [
                    -0.442486047744751,
                    -0.0977385938167572,
                    0.06547301262617111
                ],
                [
                    -0.2135121077299118,
                    -0.33972781896591187,
                    0.19470079243183136
                ]
            ],
            [
                [
                    0.4479980766773224,
                    0.37120774388313293,
                    0.2310803085565567
                ],
                [
                    0.021293574944138527,
                    0.34168535470962524,
                    0.017833970487117767
                ],
                [
                    -0.2069428563117981,
                    0.3498430550098419,
                    -0.49954915046691895
                ]
            ],
            [
                [
                    -1.805801272392273,
                    0.17381510138511658,
                    0.1699857860803604
                ],
                [
                    -0.9756618142127991,
                    -0.6188583374023438,
                    0.0027742846868932247
                ],
                [
                    0.27141937613487244,
                    -1.1712948083877563,
                    0.4824863076210022
                ]
            ],
            [
                [
                    -0.1776447743177414,
                    0.35975196957588196,
                    -0.06442473083734512
                ],
                [
                    0.09152739495038986,
                    0.7030367255210876,
                    0.3657536208629608
                ],
                [
                    0.42233362793922424,
                    0.3987157642841339,
                    0.27332618832588196
                ]
            ],
            [
                [
                    -0.42963749170303345,
                    -0.36943158507347107,
                    0.07585477083921432
                ],
                [
                    -0.03935765102505684,
                    -0.1253667175769806,
                    0.25107312202453613
                ],
                [
                    0.32589951157569885,
                    -0.15313032269477844,
                    0.21444465219974518
                ]
            ],
            [
                [
                    -0.12701773643493652,
                    -0.006415827665477991,
                    0.22561107575893402
                ],
                [
                    0.08571244776248932,
                    0.11458484083414078,
                    0.08457420021295547
                ],
                [
                    -0.08851680904626846,
                    -0.010368439368903637,
                    -0.02571072429418564
                ]
            ],
            [
                [
                    -0.06870964169502258,
                    -0.2560378909111023,
                    0.28361883759498596
                ],
                [
                    0.1179405003786087,
                    -0.2983129322528839,
                    0.3238365948200226
                ],
                [
                    0.07945898175239563,
                    -0.3996308445930481,
                    0.21410119533538818
                ]
            ]
        ],
        [
            [
                [
                    -0.03528143838047981,
                    -0.11150150001049042,
                    0.05131873860955238
                ],
                [
                    0.33768558502197266,
                    0.10749197006225586,
                    0.07135877758264542
                ],
                [
                    -0.1893080770969391,
                    0.11765345931053162,
                    0.30866044759750366
                ]
            ],
            [
                [
                    -0.36321762204170227,
                    0.21180951595306396,
                    -0.19631542265415192
                ],
                [
                    -0.028120985254645348,
                    0.23841241002082825,
                    -0.2508995831012726
                ],
                [
                    -0.36098718643188477,
                    0.3316618502140045,
                    -0.05657513812184334
                ]
            ],
            [
                [
                    -0.4674626886844635,
                    0.026783235371112823,
                    0.06477445363998413
                ],
                [
                    0.9067960977554321,
                    0.17018218338489532,
                    -0.9983939528465271
                ],
                [
                    0.16907775402069092,
                    0.762071430683136,
                    -1.042710304260254
                ]
            ],
            [
                [
                    -0.15515750646591187,
                    0.0428694486618042,
                    -0.06134291738271713
                ],
                [
                    1.1632800102233887,
                    0.01525944098830223,
                    -0.2838701605796814
                ],
                [
                    0.9628949761390686,
                    0.09796372056007385,
                    -0.07520275563001633
                ]
            ],
            [
                [
                    -0.701632022857666,
                    0.08610760420560837,
                    -0.1620216816663742
                ],
                [
                    0.15367166697978973,
                    -0.08490292727947235,
                    -0.046995799988508224
                ],
                [
                    0.19819696247577667,
                    -0.11527062207460403,
                    -0.34675145149230957
                ]
            ],
            [
                [
                    0.09535084664821625,
                    -0.160690575838089,
                    -0.40388211607933044
                ],
                [
                    0.5242392420768738,
                    0.031420979648828506,
                    -0.5174959301948547
                ],
                [
                    0.09207384288311005,
                    0.22165116667747498,
                    -0.3304695188999176
                ]
            ],
            [
                [
                    0.6796180605888367,
                    0.36592045426368713,
                    -0.11164326965808868
                ],
                [
                    -0.06876851618289948,
                    0.11505990475416183,
                    0.030464479699730873
                ],
                [
                    -0.7382662296295166,
                    0.013236402533948421,
                    0.18746709823608398
                ]
            ],
            [
                [
                    -0.4780835211277008,
                    0.17950455844402313,
                    -0.37185072898864746
                ],
                [
                    0.45245882868766785,
                    0.6533056497573853,
                    -0.48480507731437683
                ],
                [
                    0.637172281742096,
                    0.4890185296535492,
                    -0.5139939785003662
                ]
            ],
            [
                [
                    -0.420955091714859,
                    -0.1691725105047226,
                    0.31387391686439514
                ],
                [
                    -0.2746789753437042,
                    -0.5211778879165649,
                    0.30197274684906006
                ],
                [
                    -0.12868531048297882,
                    -0.28863587975502014,
                    -0.2502199113368988
                ]
            ],
            [
                [
                    0.0587276890873909,
                    -0.2323027104139328,
                    0.2446107268333435
                ],
                [
                    0.988071858882904,
                    0.054460134357213974,
                    -0.2036779224872589
                ],
                [
                    0.11618715524673462,
                    0.3943593502044678,
                    0.23208382725715637
                ]
            ],
            [
                [
                    -0.07660779356956482,
                    -0.10242049396038055,
                    -0.18961843848228455
                ],
                [
                    0.32602670788764954,
                    -0.037508875131607056,
                    -0.2393493801355362
                ],
                [
                    0.1834665983915329,
                    0.08577919751405716,
                    -0.1801845133304596
                ]
            ],
            [
                [
                    -0.6468454003334045,
                    0.0302627794444561,
                    0.10627999156713486
                ],
                [
                    0.3452577292919159,
                    -0.14242325723171234,
                    -0.16434550285339355
                ],
                [
                    0.7592021226882935,
                    -0.01779460906982422,
                    -0.09678905457258224
                ]
            ],
            [
                [
                    0.028823768720030785,
                    0.1494082510471344,
                    0.3308890461921692
                ],
                [
                    0.02944883331656456,
                    0.07739561051130295,
                    0.4750835597515106
                ],
                [
                    0.2286917269229889,
                    0.11475932598114014,
                    0.44681960344314575
                ]
            ],
            [
                [
                    -0.41504737734794617,
                    0.31885141134262085,
                    -0.23674613237380981
                ],
                [
                    -0.32962995767593384,
                    -0.2727773189544678,
                    -0.27373790740966797
                ],
                [
                    -0.24134331941604614,
                    0.025980334728956223,
                    -0.13002325594425201
                ]
            ],
            [
                [
                    -0.9429749250411987,
                    -0.6910510659217834,
                    1.2263813018798828
                ],
                [
                    0.9832616448402405,
                    -1.662266492843628,
                    0.1926080286502838
                ],
                [
                    0.5660444498062134,
                    -1.0953255891799927,
                    -0.7911494374275208
                ]
            ],
            [
                [
                    -0.4436173141002655,
                    -0.06290309131145477,
                    -0.3661472797393799
                ],
                [
                    0.3418107032775879,
                    -0.24728956818580627,
                    -0.585979700088501
                ],
                [
                    -0.8478405475616455,
                    0.24831362068653107,
                    0.046390682458877563
                ]
            ],
            [
                [
                    0.10943235456943512,
                    0.39147281646728516,
                    0.4731803834438324
                ],
                [
                    -0.21369706094264984,
                    -0.06561318784952164,
                    0.6627879738807678
                ],
                [
                    -0.024865826591849327,
                    -0.1744118481874466,
                    0.6630983352661133
                ]
            ],
            [
                [
                    0.1768634021282196,
                    0.023558882996439934,
                    -0.020006531849503517
                ],
                [
                    0.05970480665564537,
                    0.033378735184669495,
                    0.0580311082303524
                ],
                [
                    -0.3262496590614319,
                    -0.00833581667393446,
                    0.09053138643503189
                ]
            ],
            [
                [
                    0.39958545565605164,
                    0.21523723006248474,
                    0.15246914327144623
                ],
                [
                    -0.03928135335445404,
                    -0.012947370298206806,
                    0.503268301486969
                ],
                [
                    -0.4819478690624237,
                    0.043702974915504456,
                    0.8401974439620972
                ]
            ]
        ],
        [
            [
                [
                    0.36590200662612915,
                    0.05582917109131813,
                    -0.12921269237995148
                ],
                [
                    0.3091263175010681,
                    0.010678989812731743,
                    -0.06264902651309967
                ],
                [
                    -0.1124999076128006,
                    -0.09604724496603012,
                    -0.1520792841911316
                ]
            ],
            [
                [
                    -0.42782142758369446,
                    -0.09729613363742828,
                    -0.06482385098934174
                ],
                [
                    0.12431413680315018,
                    0.01836317777633667,
                    0.01654188334941864
                ],
                [
                    0.29122549295425415,
                    0.26672449707984924,
                    0.00013922902871854603
                ]
            ],
            [
                [
                    -0.2321494221687317,
                    -0.2054135799407959,
                    -0.5238961577415466
                ],
                [
                    -0.07853371649980545,
                    0.049182742834091187,
                    -0.27204304933547974
                ],
                [
                    -0.10058590769767761,
                    0.09675248712301254,
                    -0.11331640928983688
                ]
            ],
            [
                [
                    0.2817947268486023,
                    0.024419637396931648,
                    -0.3089601993560791
