RES8_40_weights = {
  "conv0.weight": [
    [
      [
        [
          0.24575312435626984,
          -0.02296999841928482,
          -0.3644494414329529
        ],
        [
          -0.04381522163748741,
          -0.2545013129711151,
          0.20996630191802979
        ],
        [
          0.012400416657328606,
          0.41228607296943665,
          0.2839542031288147
        ]
      ]
    ],
    [
      [
        [
          -1.0792620182037354,
          -0.6103664040565491,
          -0.4538338780403137
        ],
        [
          -0.9411180019378662,
          -1.0804836750030518,
          -0.8073694705963135
        ],
        [
          2.085059881210327,
          1.7104718685150146,
          1.735750675201416
        ]
      ]
    ],
    [
      [
        [
          -1.0966023206710815,
          -0.07917719334363937,
          0.2043260931968689
        ],
        [
          0.46600961685180664,
          0.34465911984443665,
          0.39837679266929626
        ],
        [
          0.4371309280395508,
          0.5095047950744629,
          0.5294833779335022
        ]
      ]
    ],
    [
      [
        [
          -0.03924788534641266,
          -0.3562673330307007,
          -0.4417498707771301
        ],
        [
          -0.09659572690725327,
          -0.35754987597465515,
          -0.7436911463737488
        ],
        [
          0.0765685886144638,
          -0.35552504658699036,
          -0.47069209814071655
        ]
      ]
    ],
    [
      [
        [
          -1.5299999713897705,
          1.8566285371780396,
          0.040186330676078796
        ],
        [
          0.46018826961517334,
          0.5677251815795898,
          -0.5118706226348877
        ],
        [
          1.813979983329773,
          -1.5377477407455444,
          -0.37420761585235596
        ]
      ]
    ],
    [
      [
        [
          -0.7433817386627197,
          0.04045537859201431,
          -0.12550143897533417
        ],
        [
          -0.07355422526597977,
          -0.2664429545402527,
          -0.20422887802124023
        ],
        [
          1.0942583084106445,
          0.23672817647457123,
          0.2937167286872864
        ]
      ]
    ],
    [
      [
        [
          1.141788363456726,
          -0.818631112575531,
          -0.063634492456913
        ],
        [
          -0.16274511814117432,
          -0.16021503508090973,
          -0.574676513671875
        ],
        [
          -0.6546117067337036,
          1.3175495862960815,
          -0.3993593454360962
        ]
      ]
    ],
    [
      [
        [
          -0.21616727113723755,
          0.6285979151725769,
          -0.9470280408859253
        ],
        [
          0.026619726791977882,
          0.1309071034193039,
          0.014926418662071228
        ],
        [
          0.788688600063324,
          -0.5809392333030701,
          0.1023624986410141
        ]
      ]
    ],
    [
      [
        [
          0.1738152652978897,
          1.1065926551818848,
          -0.03777820244431496
        ],
        [
          0.21892492473125458,
          0.14944477379322052,
          -0.23260138928890228
        ],
        [
          0.15587261319160461,
          -0.9572133421897888,
          -0.4800281524658203
        ]
      ]
    ],
    [
      [
        [
          0.16126708686351776,
          0.8566967248916626,
          -0.713383138179779
        ],
        [
          0.16279862821102142,
          0.3824922442436218,
          -0.34419485926628113
        ],
        [
          0.2875480353832245,
          0.46576258540153503,
          -0.6542324423789978
        ]
      ]
    ],
    [
      [
        [
          -0.209183007478714,
          -0.606959879398346,
          0.15547844767570496
        ],
        [
          0.19472232460975647,
          -0.001380052650347352,
          -0.16723711788654327
        ],
        [
          0.3133092522621155,
          0.9060978889465332,
          -0.13802462816238403
        ]
      ]
    ],
    [
      [
        [
          -0.20540550351142883,
          0.8168056011199951,
          -0.35819292068481445
        ],
        [
          -0.3136286735534668,
          -0.04608701542019844,
          -1.0068600177764893
        ],
        [
          -0.17647425830364227,
          -0.3990444540977478,
          -0.7679315805435181
        ]
      ]
    ],
    [
      [
        [
          0.14797097444534302,
          0.4112931191921234,
          0.1071600541472435
        ],
        [
          0.4651433229446411,
          -0.4623224139213562,
          0.5894638299942017
        ],
        [
          0.47375258803367615,
          -0.9630025625228882,
          0.2692904770374298
        ]
      ]
    ],
    [
      [
        [
          -0.9798811674118042,
          0.795731782913208,
          0.1341933310031891
        ],
        [
          0.13346785306930542,
          0.2648693323135376,
          -0.4558984637260437
        ],
        [
          1.054467797279358,
          -0.7396335601806641,
          -0.5412232875823975
        ]
      ]
    ],
    [
      [
        [
          0.8574634194374084,
          0.06555556505918503,
          -0.8389862775802612
        ],
        [
          0.051090873777866364,
          0.052223145961761475,
          -0.01143284048885107
        ],
        [
          -0.7766026854515076,
          0.0003868778294418007,
          0.9277973771095276
        ]
      ]
    ],
    [
      [
        [
          -1.3068263530731201,
          -0.08821224421262741,
          0.3996303677558899
        ],
        [
          0.1921936273574829,
          0.2541140913963318,
          0.5211160182952881
        ],
        [
          1.2150799036026,
          0.2819150388240814,
          -0.11836159229278564
        ]
      ]
    ],
    [
      [
        [
          0.04133479297161102,
          0.24936789274215698,
          0.47558557987213135
        ],
        [
          -0.37216535210609436,
          -0.5061523914337158,
          0.09716476500034332
        ],
        [
          -0.5915536284446716,
          -0.5822345018386841,
          0.1662115901708603
        ]
      ]
    ],
    [
      [
        [
          0.3995896875858307,
          0.0636901929974556,
          -0.4052659273147583
        ],
        [
          0.08646667003631592,
          -0.1673884391784668,
          -0.3054821193218231
        ],
        [
          -0.2134884148836136,
          0.2726559638977051,
          -0.195875346660614
        ]
      ]
    ],
    [
      [
        [
          0.27638891339302063,
          0.04566851258277893,
          0.6990960240364075
        ],
        [
          -0.3634869456291199,
          -0.015122641809284687,
          0.8382335901260376
        ],
        [
          -1.15486478805542,
          -0.10587723553180695,
          0.6206709146499634
        ]
      ]
    ],
    [
      [
        [
          -0.14952078461647034,
          0.01564272679388523,
          0.3173612058162689
        ],
        [
          -0.28524088859558105,
          0.26949408650398254,
          -0.0283036008477211
        ],
        [
          0.1361168771982193,
          0.3339563310146332,
          -0.5685460567474365
        ]
      ]
    ],
    [
      [
        [
          1.0515908002853394,
          0.1621922254562378,
          0.5363589525222778
        ],
        [
          0.8058319687843323,
          0.7889001369476318,
          0.5568883419036865
        ],
        [
          -1.647296667098999,
          -0.8655078411102295,
          -1.227394700050354
        ]
      ]
    ],
    [
      [
        [
          0.9871373772621155,
          1.04823637008667,
          1.1138668060302734
        ],
        [
          -0.3304470479488373,
          -0.37265095114707947,
          -0.576572060585022
        ],
        [
          -0.5529099702835083,
          -0.5072365403175354,
          -0.8383123874664307
        ]
      ]
    ],
    [
      [
        [
          0.9243924021720886,
          -1.2911920547485352,
          0.36919617652893066
        ],
        [
          0.43608328700065613,
          -0.12845881283283234,
          -0.2764996588230133
        ],
        [
          -0.6409624814987183,
          1.666272759437561,
          -0.8146772980690002
        ]
      ]
    ],
    [
      [
        [
          0.18631264567375183,
          -0.25746482610702515,
          0.26933130621910095
        ],
        [
          0.1625574231147766,
          -0.10735980421304703,
          0.010987366549670696
        ],
        [
          -0.22067192196846008,
          0.4421592056751251,
          -0.23231318593025208
        ]
      ]
    ],
    [
      [
        [
          0.1525593101978302,
          0.06835787743330002,
          0.5816592574119568
        ],
        [
          -0.45914608240127563,
          0.06325331330299377,
          0.406293660402298
        ],
        [
          0.06573163717985153,
          0.011050420813262463,
          -0.6159638166427612
        ]
      ]
    ],
    [
      [
        [
          0.11914044618606567,
          -0.3476725220680237,
          -0.6999227404594421
        ],
        [
          -0.08678723871707916,
          0.0715017169713974,
          -0.1594046652317047
        ],
        [
          0.36837106943130493,
          0.5837671160697937,
          0.4158490300178528
        ]
      ]
    ],
    [
      [
        [
          0.8155852556228638,
          0.3857249915599823,
          0.17347127199172974
        ],
        [
          -1.126625657081604,
          -0.6659470200538635,
          -0.42979300022125244
        ],
        [
          0.5273751616477966,
          0.7469152808189392,
          0.002842852845788002
        ]
      ]
    ],
    [
      [
        [
          0.03855062648653984,
          0.9037749171257019,
          -0.664043664932251
        ],
        [
          0.32182592153549194,
          -0.15578943490982056,
          -0.1928510069847107
        ],
        [
          0.07702568918466568,
          -0.6777529716491699,
          0.14260070025920868
        ]
      ]
    ],
    [
      [
        [
          0.6575601100921631,
          0.20795923471450806,
          -0.031495798379182816
        ],
        [
          0.07290846109390259,
          -0.08464701473712921,
          0.05976635590195656
        ],
        [
          -0.07793935388326645,
          -0.004423356149345636,
          -0.450028657913208
        ]
      ]
    ],
    [
      [
        [
          0.5076752305030823,
          -0.5274093747138977,
          -0.3762551546096802
        ],
        [
          -0.06274144351482391,
          -0.372353732585907,
          -0.4617983102798462
        ],
        [
          -0.10257254540920258,
          1.1784186363220215,
          0.10651310533285141
        ]
      ]
    ],
    [
      [
        [
          0.016320085152983665,
          0.1521354615688324,
          -0.40698006749153137
        ],
        [
          0.38248586654663086,
          -0.1232740730047226,
          -0.3656318187713623
        ],
        [
          0.5549528002738953,
          -0.1349552720785141,
          0.055790022015571594
        ]
      ]
    ],
    [
      [
        [
          -0.17779168486595154,
          -0.3381352126598358,
          -0.5337987542152405
        ],
        [
          -0.3748549222946167,
          0.32867562770843506,
          0.27558422088623047
        ],
        [
          0.7288211584091187,
          0.16066469252109528,
          0.10759297758340836
        ]
      ]
    ],
    [
      [
        [
          -0.4592166543006897,
          -0.6257047653198242,
          -0.6855090260505676
        ],
        [
          1.0143564939498901,
          0.99759840965271,
          0.42945966124534607
        ],
        [
          -0.17269355058670044,
          -0.24743229150772095,
          -0.2894890010356903
        ]
      ]
    ],
    [
      [
        [
          -1.5796653032302856,
          1.3504788875579834,
          -0.3961588740348816
        ],
        [
          0.12365446984767914,
          0.14437514543533325,
          -0.632269024848938
        ],
        [
          1.8047250509262085,
          -1.1794922351837158,
          -0.09612167626619339
        ]
      ]
    ],
    [
      [
        [
          0.0062594665214419365,
          0.748974621295929,
          0.10465681552886963
        ],
        [
          -0.4302993416786194,
          -0.5291075110435486,
          -0.29878658056259155
        ],
        [
          0.5774264335632324,
          -0.0883801206946373,
          0.21386851370334625
        ]
      ]
    ],
    [
      [
        [
          0.2536422312259674,
          0.29260513186454773,
          -0.33323121070861816
        ],
        [
          -0.07204531878232956,
          0.20551007986068726,
          -0.07582953572273254
        ],
        [
          -0.3250966966152191,
          -0.2534804046154022,
          0.24365079402923584
        ]
      ]
    ],
    [
      [
        [
          0.9280527830123901,
          1.0805684328079224,
          1.185691237449646
        ],
        [
          0.40828603506088257,
          0.23650719225406647,
          -0.23893527686595917
        ],
        [
          -1.1101938486099243,
          -1.2396262884140015,
          -1.0937113761901855
        ]
      ]
    ],
    [
      [
        [
          0.02612515166401863,
          -0.11450300365686417,
          -0.029701516032218933
        ],
        [
          0.1732362061738968,
          0.4266529381275177,
          0.25556638836860657
        ],
        [
          0.00956750474870205,
          -0.12206384539604187,
          -0.16064709424972534
        ]
      ]
    ],
    [
      [
        [
          0.8525183796882629,
          -0.33793172240257263,
          -0.5466839671134949
        ],
        [
          0.2648521661758423,
          0.24626323580741882,
          0.0018590944819152355
        ],
        [
          -0.49950283765792847,
          0.789868175983429,
          -0.26446032524108887
        ]
      ]
    ],
    [
      [
        [
          -0.09411836415529251,
          0.6178113222122192,
          -0.7498632073402405
        ],
        [
          0.21724189817905426,
          0.309594064950943,
          -0.19805866479873657
        ],
        [
          0.4080188274383545,
          -0.8525165319442749,
          1.0337433815002441
        ]
      ]
    ],
    [
      [
        [
          -1.952206015586853,
          -0.6209135055541992,
          -1.2455564737319946
        ],
        [
          0.4539320170879364,
          0.5351758003234863,
          0.2954951524734497
        ],
        [
          1.5778396129608154,
          0.21747109293937683,
          0.8933765888214111
        ]
      ]
    ],
    [
      [
        [
          0.02117651142179966,
          -0.22160691022872925,
          0.020510099828243256
        ],
        [
          -0.09120386093854904,
          -0.39065688848495483,
          -0.5950425863265991
        ],
        [
          0.1872824728488922,
          0.6595798134803772,
          0.5726804137229919
        ]
      ]
    ],
    [
      [
        [
          0.9453479051589966,
          0.2983382046222687,
          -0.09388863295316696
        ],
        [
          0.005335559137165546,
          0.11196763813495636,
          0.14880527555942535
        ],
        [
          -0.7024007439613342,
          0.07595071941614151,
          0.20795123279094696
        ]
      ]
    ],
    [
      [
        [
          1.159105896949768,
          -0.19857057929039001,
          0.021230213344097137
        ],
        [
          0.20565593242645264,
          0.18957826495170593,
          -0.6332100033760071
        ],
        [
          -1.0816614627838135,
          0.0948018878698349,
          0.18187735974788666
        ]
      ]
    ],
    [
      [
        [
          1.677599310874939,
          -1.1867529153823853,
          -0.8790437579154968
        ],
        [
          0.202517569065094,
          0.383659303188324,
          -0.48570841550827026
        ],
        [
          -1.6505382061004639,
          1.6507620811462402,
          0.27460429072380066
        ]
      ]
    ]
  ],
  "bn1.running_mean": [
    2.047614003553246e-19,
    1.5953632593154907,
    2.5424962043762207,
    0.004452967084944248,
    0.07240269333124161,
    1.7502399714430794e-05,
    8.6976957321167,
    5.121933460235596,
    3.834625720977783,
    0.2298659235239029,
    1.5035799741744995,
    1.7802190780639648,
    3.020275831222534,
    1.1487339735031128,
    4.790524959564209,
    1.0481899976730347,
    8.267279624938965,
    0.6201648116111755,
    6.337284088134766,
    0.11484628170728683,
    2.66267991065979,
    2.5864858627319336,
    1.353080153465271,
    2.171381711959839,
    0.4027307629585266,
    2.3698601722717285,
    4.9105730056762695
  ],
  "bn1.running_var": [
    2.41182622360574e-22,
    35.281436920166016,
    39.6629524230957,
    0.10649492591619492,
    1.413517713546753,
    1.2956774298800156e-05,
    135.9368438720703,
    179.1698455810547,
    181.70074462890625,
    2.0640907287597656,
    28.343015670776367,
    8.815235137939453,
    21.442258834838867,
    4.574234962463379,
    38.1049690246582,
    23.28098487854004,
    207.3332061767578,
    9.990808486938477,
    53.85081100463867,
    3.6193759441375732,
    46.51628494262695,
    43.32197952270508,
    38.104209899902344,
    85.29634094238281,
    21.19567108154297,
    67.34771728515625,
    180.81918334960938
  ],
  "bn1.num_batches_tracked": 10410,
  "scale1.scale": [
    -2.2603553588851355e-06,
    -0.0007395969587378204,
    0.007588161155581474,
    0.009254323318600655,
    0.010655710473656654,
    0.014087846502661705,
    0.01762428693473339,
    0.033672574907541275,
    0.03749198466539383,
    0.05281602218747139,
    0.26268866658210754,
    0.29808148741722107,
    0.30195358395576477,
    0.30349546670913696,
    0.3386259377002716,
    0.3513410985469818,
    0.3657163679599762,
    0.36784783005714417,
    0.38177916407585144,
    0.4411424994468689,
    0.4500591456890106,
    0.4545992612838745,
    0.48859041929244995,
    0.5554864406585693,
    0.58934086561203,
    0.6281198859214783,
    0.6397037506103516
  ],
  "scale1.drop_indices": [
    33,
    42,
    41,
    8,
    36,
    3,
    7,
    23,
    37,
    39,
    29,
    31,
    20,
    24,
    40,
    21,
    10,
    30
  ],
  "scale1.keep_indices": [
    4,
    12,
    13,
    0,
    2,
    35,
    9,
    27,
    34,
    1,
    32,
    11,
    25,
    16,
    18,
    38,
    6,
    15,
    19,
    14,
    28,
    5,
    44,
    43,
    17,
    26,
    22
  ],
  "conv1.weight": [
    [
      [
        [
          -0.016225051134824753,
          0.03617330640554428,
          -0.02536788210272789
        ],
        [
          -0.03555138409137726,
          0.022953016683459282,
          -0.016000092029571533
        ],
        [
          0.0329672172665596,
          -0.02259824052453041,
          -0.00421242555603385
        ]
      ],
      [
        [
          -0.029419779777526855,
          0.020075295120477676,
          0.014959433116018772
        ],
        [
          -0.049270160496234894,
          0.014965269714593887,
          -0.006920726969838142
        ],
        [
          -0.024242239072918892,
          -0.0028298816177994013,
          0.029340991750359535
        ]
      ],
      [
        [
          0.015678774565458298,
          0.018209371715784073,
          0.007460340857505798
        ],
        [
          -0.0026863631792366505,
          -0.028967631980776787,
          -0.027041316032409668
        ],
        [
          -0.04080112650990486,
          -0.03415309265255928,
          0.01870499737560749
        ]
      ],
      [
        [
          -0.012564664706587791,
          -0.023253705352544785,
          -0.013828625902533531
        ],
        [
          -0.026960324496030807,
          0.01747993566095829,
          0.03355269879102707
        ],
        [
          -0.04370668902993202,
          0.0055975476279854774,
          0.009927976876497269
        ]
      ],
      [
        [
          0.017498888075351715,
          -0.012600691057741642,
          0.003667726181447506
        ],
        [
          0.011365379206836224,
          0.03734482824802399,
          -0.04928155988454819
        ],
        [
          -0.01924297772347927,
          -0.04264839366078377,
          -0.02556563727557659
        ]
      ],
      [
        [
          -0.010921096429228783,
          0.02398674376308918,
          -0.03741571307182312
        ],
        [
          0.011713346466422081,
          0.03045341558754444,
          -0.02467293106019497
        ],
        [
          -0.011288268491625786,
          -0.02622988447546959,
          0.008820932358503342
        ]
      ],
      [
        [
          -0.030011765658855438,
          -0.025140240788459778,
          -0.03821386769413948
        ],
        [
          -0.049590885639190674,
          0.023060228675603867,
          -0.01113675907254219
        ],
        [
          -0.004263215232640505,
          -0.031716831028461456,
          0.029221955686807632
        ]
      ],
      [
        [
          -0.0382637158036232,
          -0.02947501838207245,
          -0.04303371161222458
        ],
        [
          -0.054437607526779175,
          0.029103882610797882,
          -0.03932217136025429
        ],
        [
          -0.017119666561484337,
          -0.028286969289183617,
          0.015779979526996613
        ]
      ],
      [
        [
          0.0045846556313335896,
          -0.05066446587443352,
          0.03227636218070984
        ],
        [
          -0.05622323229908943,
          -0.011538577266037464,
          -0.007811722345650196
        ],
        [
          -0.018546370789408684,
          0.015471618622541428,
          0.03796679154038429
        ]
      ],
      [
        [
          9.745846909936517e-06,
          -0.027584057301282883,
          0.024987544864416122
        ],
        [
          0.023554839193820953,
          -0.0035305735655128956,
          -0.01907086931169033
        ],
        [
          -0.0027872473001480103,
          0.028241414576768875,
          0.000632136594504118
        ]
      ],
      [
        [
          -0.016676122322678566,
          -0.05234767869114876,
          -0.03129962831735611
        ],
        [
          0.027912016957998276,
          -0.017675595358014107,
          -0.0066358307376503944
        ],
        [
          0.012509938329458237,
          -0.04377264901995659,
          -0.005749672185629606
        ]
      ],
      [
        [
          -0.025847427546977997,
          0.020891446620225906,
          0.030209137126803398
        ],
        [
          0.0060847061686217785,
          0.01967392861843109,
          -0.04929647967219353
        ],
        [
          -0.025262420997023582,
          -0.0042528086341917515,
          -0.04648890718817711
        ]
      ],
      [
        [
          -0.01142991241067648,
          -0.042842231690883636,
          0.01601264625787735
        ],
        [
          0.0062226951122283936,
          -0.058916158974170685,
          0.0363355316221714
        ],
        [
          0.0038775813300162554,
          -0.04835626110434532,
          0.04290207102894783
        ]
      ],
      [
        [
          -0.052351243793964386,
          -0.04171176999807358,
          -0.030619535595178604
        ],
        [
          -0.019206393510103226,
          -0.005546666216105223,
          -0.018689341843128204
        ],
        [
          -0.052697617560625076,
          -0.020731449127197266,
          0.03281337022781372
        ]
      ],
      [
        [
          -0.005802278872579336,
          0.02262899838387966,
          -0.00017162026779260486
        ],
        [
          -0.04353022575378418,
          -0.04629690572619438,
          0.013711806386709213
        ],
        [
          -0.07972808927297592,
          -0.02331729419529438,
          -0.018379107117652893
        ]
      ],
      [
        [
          0.018892791122198105,
          -0.009117832407355309,
          -0.023176496848464012
        ],
        [
          -0.007647119928151369,
          -0.05031353235244751,
          -0.013860330916941166
        ],
        [
          -0.002125062746927142,
          -0.007454754319041967,
          -0.0064024850726127625
        ]
      ],
      [
        [
          -0.01818973198533058,
          -0.041504647582769394,
          -0.03351636603474617
        ],
        [
          -0.021055493503808975,
          -0.015128813683986664,
          -0.017134152352809906
        ],
        [
          -0.007700000423938036,
          0.016164598986506462,
          -0.016678063198924065
        ]
      ],
      [
        [
          -0.016950462013483047,
          -0.016624324023723602,
          0.009211203083395958
        ],
        [
          -0.0028069985564798117,
          0.0166170597076416,
          -0.04461278021335602
        ],
        [
          -0.01911500282585621,
          0.02355143614113331,
          0.0023285134229809046
        ]
      ],
      [
        [
          -0.04865402355790138,
          0.011644321493804455,
          -0.01711416058242321
        ],
        [
          -0.09265291690826416,
          -0.008105315268039703,
          -0.019275851547718048
        ],
        [
          -0.06358353048563004,
          -0.00015372748021036386,
          0.005002870690077543
        ]
      ],
      [
        [
          -0.04454820230603218,
          -0.039122503250837326,
          -0.014232851564884186
        ],
        [
          -0.07849948853254318,
          0.009923750534653664,
          -0.03787218779325485
        ],
        [
          0.005782302934676409,
          0.011704332195222378,
          -0.04681113734841347
        ]
      ],
      [
        [
          0.031218254938721657,
          -0.05142867565155029,
          -0.006483878940343857
        ],
        [
          -0.03456270694732666,
          -0.04498578608036041,
          0.003803621046245098
        ],
        [
          -0.02819535881280899,
          0.02089405059814453,
          -0.03849212825298309
        ]
      ],
      [
        [
          0.026068564504384995,
          0.026229117065668106,
          0.027397798374295235
        ],
        [
          -0.035570017993450165,
          -0.038884133100509644,
          -0.03453974798321724
        ],
        [
          0.027094874531030655,
          -0.03165726363658905,
          -0.00826447643339634
        ]
      ],
      [
        [
          -0.008851727470755577,
          0.004531041253358126,
          -0.0443834625184536
        ],
        [
          0.03787624090909958,
          -0.04487456753849983,
          0.04304209351539612
        ],
        [
          -0.017464885488152504,
          -0.026309486478567123,
          -0.010159704834222794
        ]
      ],
      [
        [
          0.006900304928421974,
          -0.015482688322663307,
          -0.05042886361479759
        ],
        [
          0.025795280933380127,
          0.04047223925590515,
          0.0234502162784338
        ],
        [
          0.039475854486227036,
          0.007237590383738279,
          -0.004096552263945341
        ]
      ],
      [
        [
          -0.07705589383840561,
          -0.046392980962991714,
          -0.036862872540950775
        ],
        [
          -0.059097789227962494,
          0.008929460309445858,
          -0.024174997583031654
        ],
        [
          -0.03296235576272011,
          -0.001778942416422069,
          -0.03573043644428253
        ]
      ],
      [
        [
          -0.011739525943994522,
          0.03798002749681473,
          0.03588809445500374
        ],
        [
          0.027382424101233482,
          -0.015461184084415436,
          -0.0008697300218045712
        ],
        [
          0.018872013315558434,
          -0.023607540875673294,
          -0.02085113897919655
        ]
      ],
      [
        [
          0.03774464502930641,
          -0.0003316724905744195,
          -0.03494448959827423
        ],
        [
          0.037358105182647705,
          0.0009491740493103862,
          0.02458614483475685
        ],
        [
          -0.04480670392513275,
          0.00627011526376009,
          0.028158266097307205
        ]
      ],
      [
        [
          -0.01822999119758606,
          -0.03379274159669876,
          0.03215327486395836
        ],
        [
          0.0056226057931780815,
          0.0015296150231733918,
          0.006340821739286184
        ],
        [
          -0.005268335808068514,
          0.015550564043223858,
          -0.014374008402228355
        ]
      ],
      [
        [
          -0.05478273704648018,
          0.012066876515746117,
          0.0022506536915898323
        ],
        [
          -0.020700177177786827,
          -0.01952407695353031,
          -0.01441601850092411
        ],
        [
          -0.0211050882935524,
          1.845586120907683e-05,
          -0.04354485869407654
        ]
      ],
      [
        [
          -0.058339931070804596,
          0.009490947239100933,
          -0.030702419579029083
        ],
        [
          -0.017710037529468536,
          0.0032939582597464323,
          0.00603437889367342
        ],
        [
          0.01775716058909893,
          0.0002784472890198231,
          0.011298224329948425
        ]
      ],
      [
        [
          -0.023305509239435196,
          -0.0050018420442938805,
          0.007100491784512997
        ],
        [
          0.006895221769809723,
          -0.06749849021434784,
          -0.03019869327545166
        ],
        [
          -0.05089810863137245,
          -0.03547172620892525,
          0.02076726220548153
        ]
      ],
      [
        [
          -0.049497563391923904,
          -0.04678761959075928,
          0.02599990926682949
        ],
        [
          -0.03061237372457981,
          0.026752084493637085,
          0.013206440024077892
        ],
        [
          0.008827765472233295,
          0.03399965912103653,
          -0.04627520963549614
        ]
      ],
      [
        [
          0.03152884915471077,
          0.012049456126987934,
          -0.03348437324166298
        ],
        [
          0.010159258730709553,
          -0.017912384122610092,
          -0.02060852199792862
        ],
        [
          -0.006088267080485821,
          -0.028302952647209167,
          0.04104328155517578
        ]
      ],
      [
        [
          0.02774365432560444,
          -0.011283732019364834,
          -0.048303280025720596
        ],
        [
          -0.020566139370203018,
          -0.011396528221666813,
          0.026155002415180206
        ],
        [
          -0.006384646520018578,
          0.007819047197699547,
          0.007126014679670334
        ]
      ],
      [
        [
          -0.04364538565278053,
          -0.035075344145298004,
          -0.04871022328734398
        ],
        [
          -0.022187460213899612,
          0.005782598629593849,
          -0.005254505667835474
        ],
        [
          0.033389560878276825,
          -0.01581159606575966,
          -0.032662052661180496
        ]
      ],
      [
        [
          -0.012091794051229954,
          -0.02437124028801918,
          -0.010777364484965801
        ],
        [
          0.021094921976327896,
          -0.016117913648486137,
          0.03861558437347412
        ],
        [
          -0.008482379838824272,
          -0.033008527010679245,
          0.032877445220947266
        ]
      ],
      [
        [
          -0.0388605110347271,
          -0.0023846395779401064,
          -0.002598818391561508
        ],
        [
          0.005712097976356745,
          -0.053465113043785095,
          0.0008377688936889172
        ],
        [
          -0.02504616789519787,
          0.01563209854066372,
          0.01502385176718235
        ]
      ],
      [
        [
          0.003281105076894164,
          0.012238658964633942,
          -0.01423531025648117
        ],
        [
          -0.019371356815099716,
          0.020873505622148514,
          -0.04077573120594025
        ],
        [
          -0.04884914681315422,
          -0.010610303841531277,
          -0.020646031945943832
        ]
      ],
      [
        [
          -0.010220705531537533,
          0.03197126090526581,
          -0.012712900526821613
        ],
        [
          -0.05427395552396774,
          -0.03305680677294731,
          0.04111027717590332
        ],
        [
          -0.022883735597133636,
          -0.032688021659851074,
          0.019488897174596786
        ]
      ],
      [
        [
          -0.005107160657644272,
          -0.05446068197488785,
          0.03512997180223465
        ],
        [
          0.01527422945946455,
          0.028858546167612076,
          0.018906649202108383
        ],
        [
          -0.026211634278297424,
          -0.03191529959440231,
          0.021844418719410896
        ]
      ],
      [
        [
          -0.0301253329962492,
          -0.0036529686767607927,
          -0.05192110314965248
        ],
        [
          -0.04652083292603493,
          -0.004446440376341343,
          -0.007513461634516716
        ],
        [
          -0.034720227122306824,
          -0.057694002985954285,
          0.026312656700611115
        ]
      ],
      [
        [
          -0.044853758066892624,
          -0.04856221005320549,
          0.0421551875770092
        ],
        [
          -0.020384598523378372,
          -0.04112861678004265,
          -0.0397629514336586
        ],
        [
          0.019895752891898155,
          -0.0024183595087379217,
          -0.03368289768695831
        ]
      ],
      [
        [
          0.0009327736916020513,
          -0.019540458917617798,
          -0.0019277951214462519
        ],
        [
          -0.05249440297484398,
          -0.049494922161102295,
          -0.0327172689139843
        ],
        [
          -0.031161831691861153,
          -0.04038218408823013,
          0.04649261385202408
        ]
      ],
      [
        [
          -0.02210543118417263,
          -0.022969067096710205,
          0.01187761127948761
        ],
        [
          -0.0729280412197113,
          -0.0338665172457695,
          0.014594129286706448
        ],
        [
          -0.057644329965114594,
          0.012095666490495205,
          0.0014272852567955852
        ]
      ],
      [
        [
          -0.055019158869981766,
          -0.05796509608626366,
          0.008378062397241592
        ],
        [
          0.007938864640891552,
          -0.02218526415526867,
          -0.04539730027318001
        ],
        [
          -0.04124078527092934,
          -0.005197957158088684,
          -0.0005771665601059794
        ]
      ]
    ],
    [
      [
        [
          -0.01822550594806671,
          0.0025095981545746326,
          -0.009561451151967049
        ],
        [
          -0.061126209795475006,
          0.043584518134593964,
          0.014356037601828575
        ],
        [
          -0.06738381087779999,
          -0.026004845276474953,
          0.03479614108800888
        ]
      ],
      [
        [
          0.014920440502464771,
          -0.01852724701166153,
          0.02919030375778675
        ],
        [
          0.019299466162919998,
          0.03315966576337814,
          0.03316955640912056
        ],
        [
          -0.022845719009637833,
          0.04579641669988632,
          -0.06498327106237411
        ]
      ],
      [
        [
          -0.06362888962030411,
          0.018982982262969017,
          -0.011650662869215012
        ],
        [
          -0.004122729878872633,
          0.0010343778412789106,
          0.005695674102753401
        ],
        [
          -0.0443682037293911,
          0.052341278642416,
          -0.018587961792945862
        ]
      ],
      [
        [
          -0.1086043193936348,
          0.16424250602722168,
          0.024449441581964493
        ],
        [
          -0.09891247004270554,
          0.06413900852203369,
          -0.0687045007944107
        ],
        [
          -0.12482133507728577,
          0.06960201263427734,
          0.015121693722903728
        ]
      ],
      [
        [
          -0.0075418539345264435,
          -0.006337500177323818,
          -0.02141423523426056
        ],
        [
          -0.014018620364367962,
          0.06049192324280739,
          0.005619167350232601
        ],
        [
          -0.055720824748277664,
          -0.002806658623740077,
          -0.0008298457250930369
        ]
      ],
      [
        [
          -0.010833467356860638,
          -0.046552225947380066,
          -0.052451569586992264
        ],
        [
          -0.0003379557456355542,
          -0.019826678559184074,
          -0.034461092203855515
        ],
        [
          -0.009635201655328274,
          0.0324118472635746,
          0.023796238005161285
        ]
      ],
      [
        [
          -0.02912185713648796,
          0.04601956531405449,
          0.017210589721798897
        ],
        [
          -0.047797758132219315,
          0.09725436568260193,
          -0.03309953957796097
        ],
        [
          -0.06363360583782196,
          0.06843411177396774,
          -0.020377807319164276
        ]
      ],
      [
        [
          -0.02921670489013195,
          -0.007970515638589859,
          -0.07653899490833282
        ],
        [
          -0.0020255136769264936,
          -0.017578179016709328,
          -0.0634562149643898
        ],
        [
          -0.006812082137912512,
          -0.0035442612133920193,
          0.020609073340892792
        ]
      ],
      [
        [
          0.020865485072135925,
          -0.018416984006762505,
          -0.030593998730182648
        ],
        [
          -0.054136745631694794,
          0.018770169466733932,
          -0.014824941754341125
        ],
        [
          -0.051375020295381546,
          0.04695777967572212,
          -0.019621605053544044
        ]
      ],
      [
        [
          -0.05497830733656883,
          -0.0050324974581599236,
          -0.05679212510585785
        ],
        [
          -0.06430788338184357,
          0.03514498472213745,
          0.03531812131404877
        ],
        [
          -0.07038170099258423,
          0.10748999565839767,
          -0.017055222764611244
        ]
      ],
      [
        [
          -0.042223893105983734,
          0.0035525609273463488,
          -0.0015114848501980305
        ],
        [
          -0.012349682860076427,
          0.06960240006446838,
          -0.03629728779196739
        ],
        [
          -0.05768441781401634,
          0.08800019323825836,
          -0.04063435271382332
        ]
      ],
      [
        [
          -0.05526741221547127,
          0.10168392956256866,
          -0.007515664212405682
        ],
        [
          -0.13710768520832062,
          0.019544897601008415,
          0.00012320408131927252
        ],
        [
          -0.06917227804660797,
          0.0949842631816864,
          -0.050585951656103134
        ]
      ],
      [
        [
          -0.042977575212717056,
          0.039636313915252686,
          0.012197424657642841
        ],
        [
          0.0015899125719442964,
          0.03743492066860199,
          -0.024145472794771194
        ],
        [
          -0.06997904926538467,
          -0.02301928400993347,
          0.0034084287472069263
        ]
      ],
      [
        [
          -0.042547401040792465,
          -0.002965128980576992,
          -0.009656709618866444
        ],
        [
          0.006777317728847265,
          0.03505484759807587,
          0.012161516584455967
        ],
        [
          -0.02110237441956997,
          0.04313954338431358,
          -0.035178449004888535
        ]
      ],
      [
        [
          -0.07236190885305405,
          -0.02271314337849617,
          -0.028651628643274307
        ],
        [
          -0.02010231651365757,
          -0.018703235313296318,
          0.013888715766370296
        ],
        [
          -0.05380260944366455,
          -0.010027914308011532,
          -0.03237195312976837
        ]
      ],
      [
        [
          -0.029675299301743507,
          -0.05508456379175186,
          -0.022249002009630203
        ],
        [
          0.012552183121442795,
          -0.04932432994246483,
          0.009095931425690651
        ],
        [
          -0.025877604261040688,
          -0.05553431808948517,
          -0.004819405730813742
        ]
      ],
      [
        [
          -0.05435742437839508,
          0.09845243394374847,
          0.026866121217608452
        ],
        [
          -0.05535478889942169,
          0.04107624664902687,
          0.030137289315462112
        ],
        [
          -0.0419803261756897,
          0.005371460225433111,
          0.026185931637883186
        ]
      ],
      [
        [
          -0.05984066054224968,
          0.04190575331449509,
          0.009029281325638294
        ],
        [
          -0.043296534568071365,
          0.009450757876038551,
          -0.00422154413536191
        ],
        [
          -0.06707368046045303,
          0.04336702451109886,
          0.0006447163177654147
        ]
      ],
      [
        [
          -0.08642381429672241,
          0.04365837201476097,
          0.02159396931529045
        ],
        [
          -0.08257460594177246,
          0.012683131732046604,
          0.02620449848473072
        ],
        [
          -0.10419236123561859,
          0.1150079220533371,
          0.037536654621362686
        ]
      ],
      [
        [
          -0.0631631538271904,
          0.00439084880053997,
          -0.0325896218419075
        ],
        [
          -0.09121385961771011,
          0.017402004450559616,
          -0.020996741950511932
        ],
        [
          -0.016233889386057854,
          0.015958817675709724,
          0.012589115649461746
        ]
      ],
      [
        [
          -0.06804899871349335,
          0.043160080909729004,
          0.04072863981127739
        ],
        [
          -0.052344437688589096,
          0.0014138391707092524,
          0.016145993024110794
        ],
        [
          -0.058326270431280136,
          -0.026018280535936356,
          0.02165978215634823
        ]
      ],
      [
        [
          0.03134963661432266,
          -0.008771763183176517,
          -0.01226629875600338
        ],
        [
          -0.05131092295050621,
          -0.035443879663944244,
          0.02590208314359188
        ],
        [
          0.036788005381822586,
          -0.012056234292685986,
          -0.03119567781686783
        ]
      ],
      [
        [
          -0.02908940427005291,
          0.020779434591531754,
          -0.07361004501581192
        ],
        [
          -0.05341337248682976,
          0.0111528430134058,
          -0.055635180324316025
        ],
        [
          -0.031690921634435654,
          0.08421161025762558,
          -0.02644425444304943
        ]
      ],
      [
        [
          -0.057617370039224625,
          0.03891800343990326,
          0.033218320459127426
        ],
        [
          0.0038105936255306005,
          0.02426980994641781,
          0.014123626984655857
        ],
        [
          0.02371167577803135,
          -0.04076200723648071,
          -0.035455215722322464
        ]
      ],
      [
        [
          -0.06463757902383804,
          0.03662082925438881,
          -0.02764318697154522
        ],
        [
          -0.11135482043027878,
          0.00430930033326149,
          -0.01062549278140068
        ],
        [
          -0.0049248309805989265,
          0.09041640907526016,
          0.021517369896173477
        ]
      ],
      [
        [
          -0.04638613387942314,
          -0.026858791708946228,
          -0.014165598899126053
        ],
        [
          -0.06385736912488937,
          0.01337732095271349,
          -0.01683896966278553
        ],
        [
          0.016326425597071648,
          0.022232377901673317,
          0.01558395940810442
        ]
      ],
      [
        [
          -0.018758801743388176,
          -0.03524011746048927,
          0.04641082137823105
        ],
        [
          0.016054734587669373,
          -0.036447443068027496,
          -0.026188144460320473
        ],
        [
          -0.0005965543678030372,
          -0.02648785710334778,
          0.02700023725628853
        ]
      ],
      [
        [
          -0.056683242321014404,
          -0.009122745133936405,
          -0.04097379744052887
        ],
        [
          0.009508516639471054,
          0.004742227960377932,
          -0.03877291455864906
        ],
        [
          -0.0032567023299634457,
          0.0036991846282035112,
          -0.027833690866827965
        ]
      ],
      [
        [
          -0.08641824126243591,
          -0.045595720410346985,
          -0.03860868886113167
        ],
        [
          -0.047463562339544296,
          0.05465644225478172,
          -0.07773995399475098
        ],
        [
          -0.05482880398631096,
          0.03738957270979881,
          -0.009263860993087292
        ]
      ],
      [
        [
          0.012940017506480217,
          -0.05590519309043884,
          -0.02745760604739189
        ],
        [
          -0.004631645046174526,
          -0.04097689315676689,
          0.0043744114227592945
        ],
        [
          -0.06636843830347061,
          0.03518035262823105,
          -0.005284308455884457
        ]
      ],
      [
        [
          -0.04450758546590805,
          0.029640819877386093,
          -0.005670871119946241
        ],
        [
          -0.0015285033732652664,
          0.07622075080871582,
          -0.07850220799446106
        ],
        [
          -0.022459043189883232,
          0.11569367349147797,
          -0.03630765527486801
        ]
      ],
      [
        [
          0.030501505360007286,
          -0.03592807799577713,
          0.03240862861275673
        ],
        [
          -0.0029799730982631445,
          -0.04452129825949669,
          -0.014110206626355648
        ],
        [
          0.034301433712244034,
          -0.018398098647594452,
          -0.017839452251791954
        ]
      ],
      [
        [
          -0.021279124543070793,
          -0.02934134379029274,
          0.006953628733754158
        ],
        [
          0.029329050332307816,
          0.007040753960609436,
          -0.003285860875621438
        ],
        [
          -0.0036156477872282267,
          -0.0326540507376194,
          -0.03172694891691208
        ]
      ],
      [
        [
          -0.030545810237526894,
          -0.026233725249767303,
          -0.009593034163117409
        ],
        [
          -0.02667316608130932,
          0.03238186985254288,
          -0.030589798465371132
        ],
        [
          -0.005890726111829281,
          0.08410512655973434,
          -0.0010456760646775365
        ]
      ],
      [
        [
          0.00786848459392786,
          -0.030728455632925034,
          0.016683366149663925
        ],
        [
          -0.04687060788273811,
          0.012020534835755825,
          -0.036415308713912964
        ],
        [
          -0.014501580037176609,
          0.023274630308151245,
          0.02902418002486229
        ]
      ],
      [
        [
          0.005019003991037607,
          0.020450377836823463,
          0.004843743983656168
        ],
        [
          -0.0243191160261631,
          0.039737410843372345,
          0.014976348727941513
        ],
        [
          -0.02088674157857895,
          -0.007125901523977518,
          -0.03590603172779083
        ]
      ],
      [
        [
          -0.031046506017446518,
          0.027770690619945526,
          -0.03254358470439911
        ],
        [
          0.005329944659024477,
          0.04510210454463959,
          0.034336838871240616
        ],
        [
          -0.04443442076444626,
          0.00403705146163702,
          0.02297769859433174
        ]
      ],
      [
        [
          -0.06852738559246063,
          0.012787855230271816,
          -0.04063132032752037
        ],
        [
          -0.055592041462659836,
          -0.03641138970851898,
          -0.026347776874899864
        ],
        [
          -0.04701530188322067,
          -0.002573939273133874,
          0.006496649235486984
        ]
      ],
      [
        [
          -0.004574885591864586,
          0.01217613834887743,
          -0.03639233484864235
        ],
        [
          -0.06382963061332703,
          -0.04998743161559105,
          -0.036849480122327805
        ],
        [
          -0.04515311121940613,
          0.026733122766017914,
          -0.048565007746219635
        ]
      ],
      [
        [
          -0.07605081796646118,
          0.014307742938399315,
          -0.039020586758852005
        ],
        [
          -0.030372796580195427,
          -0.04667099565267563,
          0.011665300466120243
        ],
        [
          -0.00874085072427988,
          -0.04670269414782524,
          0.006108650006353855
        ]
      ],
      [
        [
          -0.05353814736008644,
          0.010481820441782475,
          0.025706889107823372
        ],
        [
          -0.07352897524833679,
          0.026647673919796944,
          0.014184240251779556
        ],
        [
          -0.005877566058188677,
          0.05602497607469559,
          -0.017630936577916145
        ]
      ],
      [
        [
          -0.038041263818740845,
          0.023877248167991638,
          -0.03054017387330532
        ],
        [
          -0.06215769052505493,
          0.016957387328147888,
          -0.03683289512991905
        ],
        [
          -0.05038407817482948,
          0.010599199682474136,
          -0.02487119846045971
        ]
      ],
      [
        [
          -0.061335496604442596,
          -0.06961618363857269,
          0.038585685193538666
        ],
        [
          -0.017559662461280823,
          0.017005333676934242,
          -0.04157709702849388
        ],
        [
          -0.0962194949388504,
          0.019577831029891968,
          -0.01531401090323925
        ]
      ],
      [
        [
          -0.019223546609282494,
          0.016912199556827545,
          -0.0013918612385168672
        ],
        [
          -0.02776465192437172,
          0.02170569822192192,
          0.03452790156006813
        ],
        [
          -0.03583221882581711,
          -0.048255737870931625,
          -0.03219141066074371
        ]
      ],
      [
        [
          0.008562630042433739,
          -0.021302049979567528,
          0.033098600804805756
        ],
        [
          -0.0386430062353611,
          -0.055226247757673264,
          -0.0032867302652448416
        ],
        [
          -0.05029411241412163,
          -0.012487898580729961,
          0.005223131272941828
        ]
      ]
    ],
    [
      [
        [
          0.0054911235347390175,
          0.04940717667341232,
          0.05820319056510925
        ],
        [
          0.052988652139902115,
          0.02015896514058113,
          -0.04249102994799614
        ],
        [
          -0.00515068881213665,
          0.0031034364365041256,
          -0.03063245676457882
        ]
      ],
      [
        [
          -0.05055144801735878,
          -0.10344060510396957,
          -0.009111630730330944
        ],
        [
          -0.10432373732328415,
          0.033924855291843414,
          -0.061589937657117844
        ],
        [
          -0.061672359704971313,
          0.10332534462213516,
          -0.09002695232629776
        ]
      ],
      [
        [
          -0.0441523976624012,
          0.010311438702046871,
          0.01795363798737526
        ],
        [
          -0.13300777971744537,
          -0.026997234672307968,
          -0.03791855275630951
        ],
        [
          -0.2239817976951599,
          0.07209417968988419,
          -0.04194534942507744
        ]
      ],
      [
        [
          -0.1493578404188156,
          0.02102767303586006,
          0.06489715725183487
        ],
        [
          -0.17725853621959686,
          0.003563806414604187,
          -0.06777764111757278
        ],
        [
          0.11846371740102768,
          -0.10298240184783936,
          -0.15576614439487457
        ]
      ],
      [
        [
          0.12436211854219437,
          -0.062071144580841064,
          -0.04407866299152374
        ],
        [
          0.014195200987160206,
          -0.0149267902597785,
          -0.014343527145683765
        ],
        [
          -0.04863687604665756,
          0.046676065772771835,
          -0.016305746510624886
        ]
      ],
      [
        [
          -0.03431231901049614,
          -0.07597358524799347,
          0.02894837222993374
        ],
        [
          -0.06048566475510597,
          0.023274490609765053,
          -0.0010246314341202378
        ],
        [
          -0.09375251084566116,
          0.029764793813228607,
          -0.02224644646048546
        ]
      ],
      [
        [
          0.03370030224323273,
          0.0652250126004219,
          0.030664974823594093
        ],
        [
          0.08614505082368851,
          0.018405308946967125,
          -0.007678505964577198
        ],
        [
          0.06912610679864883,
          -0.06974208354949951,
          -0.048500508069992065
        ]
      ],
      [
        [
          0.08385836333036423,
          -0.03831101208925247,
          -0.037916939705610275
        ],
        [
          0.05868582800030708,
          -0.014394732192158699,
          -0.04038453847169876
        ],
        [
          -0.06872579455375671,
          -0.019068334251642227,
          -0.01178867556154728
        ]
      ],
      [
        [
          0.08613427728414536,
          -0.03350517153739929,
          -0.07562805712223053
        ],
        [
          0.07904090732336044,
          -0.021470481529831886,
          -0.0650196224451065
        ],
        [
          0.001874288427643478,
          -0.014540990814566612,
          -0.0778215304017067
        ]
      ],
      [
        [
          0.25649261474609375,
          0.061394743621349335,
          -0.0037137994077056646
        ],
        [
          0.23130235075950623,
          0.0068060653284192085,
          -0.04995224252343178
        ],
        [
          -0.07513244450092316,
          -0.01020989753305912,
          -0.03793810307979584
        ]
      ],
      [
        [
          0.013682455755770206,
          0.007797224447131157,
          -0.08434204757213593
        ],
        [
          0.09701257944107056,
          -0.01570960506796837,
          -0.06856074929237366
        ],
        [
          0.03794224560260773,
          -0.06372544914484024,
          -0.06666550040245056
        ]
      ],
      [
        [
          -0.17478792369365692,
          0.05462267994880676,
          0.07316161692142487
        ],
        [
          -0.12751074135303497,
          0.05497612804174423,
          0.004218463320285082
        ],
        [
          -0.02610429748892784,
          -0.11381847411394119,
          -0.053983382880687714
        ]
      ],
      [
        [
          0.04340076819062233,
          0.0698215663433075,
          0.042438291013240814
        ],
        [
          0.05552561208605766,
          0.08007321506738663,
          0.05564400553703308
        ],
        [
          0.14234435558319092,
          0.041512761265039444,
          0.03964785113930702
        ]
      ],
      [
        [
          0.027929656207561493,
          -0.01868252456188202,
          -0.04248566925525665
        ],
        [
          0.06448828428983688,
          0.008183600381016731,
          -0.0358210913836956
        ],
        [
          0.00883491337299347,
          0.012188364751636982,
          0.01654955931007862
        ]
      ],
      [
        [
          -0.060461241751909256,
          -0.026152145117521286,
          0.03697308525443077
        ],
        [
          -0.027520135045051575,
          0.012110910378396511,
          -0.036037418991327286
        ],
        [
          0.027483103796839714,
          -0.0010024098446592689,
          -0.01964033581316471
        ]
      ],
      [
        [
          0.023632578551769257,
          -0.0857388973236084,
          -0.027272112667560577
        ],
        [
          -0.0841374397277832,
          0.029740236699581146,
          -0.07117872685194016
        ],
        [
          -0.09290405362844467,
          0.04985355958342552,
          -0.01346988882869482
        ]
      ],
      [
        [
          -0.08122757822275162,
          -0.017825353890657425,
          0.005285483784973621
        ],
        [
          -0.03305245190858841,
          0.10304803401231766,
          -0.01848164014518261
        ],
        [
          0.2401500791311264,
          0.030259734019637108,
          -0.07748134434223175
        ]
      ],
      [
        [
          0.0692816972732544,
          -0.02426648512482643,
          -0.032097794115543365
        ],
        [
          0.1319759041070938,
          -0.0356563962996006,
          -0.06247881054878235
        ],
        [
          0.002519149798899889,
          -0.07472208887338638,
          0.003717496059834957
        ]
      ],
      [
        [
          0.03835856914520264,
          0.11326825618743896,
          -0.07503166794776917
        ],
        [
          -0.06170724332332611,
          0.19628329575061798,
          -0.07315638661384583
        ],
        [
          0.052027154713869095,
          0.1411883682012558,
          -0.1339457482099533
        ]
      ],
      [
        [
          0.05231005325913429,
          0.07897523790597916,
          0.10455714911222458
        ],
        [
          0.0563795305788517,
          0.14730383455753326,
          0.10749568790197372
        ],
        [
          0.08474624156951904,
          0.1570138782262802,
          0.0544261708855629
        ]
      ],
      [
        [
          -0.02368459850549698,
          -0.05102623999118805,
          -0.016047371551394463
        ],
        [
          0.03770428150892258,
          -0.04759917035698891,
          -0.006503955461084843
        ],
        [
          0.05365341156721115,
          0.021062707528471947,
          0.027274074032902718
        ]
      ],
      [
        [
          -0.018873613327741623,
          -0.010372791439294815,
          -0.025114301592111588
        ],
        [
          -0.04225355386734009,
          -0.01429529394954443,
          -0.02977505512535572
        ],
        [
          0.0787501409649849,
          -0.08036074787378311,
          -0.06824315339326859
        ]
      ],
      [
        [
          0.08055628836154938,
          0.058899473398923874,
          -0.025279993191361427
        ],
        [
          0.10257869958877563,
          0.02929825894534588,
          -0.04683592915534973
        ],
        [
          0.017982466146349907,
          -0.03744626045227051,
          -0.032942429184913635
        ]
      ],
      [
        [
          -0.02953958325088024,
          -0.02761274203658104,
          0.020303601399064064
        ],
        [
          -0.008509662002325058,
          -0.013502778485417366,
          -0.022879740223288536
        ],
        [
          -0.004023916553705931,
          -0.015898335725069046,
          -0.03396962583065033
        ]
      ],
      [
        [
          0.06497933715581894,
          0.04523816332221031,
          -0.04483466222882271
        ],
        [
          -0.06064879149198532,
          0.09495696425437927,
          -0.04493781179189682
        ],
        [
          0.04383007436990738,
          0.14916998147964478,
          -0.09296974539756775
        ]
      ],
      [
        [
          0.0698978528380394,
          0.05989618971943855,
          -0.0510161817073822
        ],
        [
          0.046183567494153976,
          0.02851075306534767,
          -0.02399432472884655
        ],
        [
          0.02338394522666931,
          0.025669293478131294,
          -0.054449837654829025
        ]
      ],
      [
        [
          -0.06551993638277054,
          0.0039825476706027985,
          -0.060495320707559586
        ],
        [
          -0.04062645882368088,
          0.008573842234909534,
          -0.06474122405052185
        ],
        [
          -0.05483947694301605,
          -0.0003065353666897863,
          -0.049100447446107864
        ]
      ],
      [
        [
          -0.008996779099106789,
          -0.030333220958709717,
          -0.07053294777870178
        ],
        [
          0.007909796200692654,
          -0.03509258106350899,
          0.011585990898311138
        ],
        [
          0.08446493744850159,
          -0.033473581075668335,
          -0.023836789652705193
        ]
      ],
      [
        [
          0.08644679188728333,
          0.024893105030059814,
          -0.07592415809631348
        ],
        [
          0.07596378028392792,
          0.02992318943142891,
          -0.02470945380628109
        ],
        [
          0.045114677399396896,
          -0.026900501921772957,
          0.0016738370759412646
        ]
      ],
      [
        [
          0.057245075702667236,
          -0.016383012756705284,
          0.005071358755230904
        ],
        [
          0.05347820371389389,
          -0.0008706131484359503,
          -0.038945943117141724
        ],
        [
          0.058792777359485626,
          -0.020715579390525818,
          -0.007372628897428513
        ]
      ],
      [
        [
          0.19966866075992584,
          0.024556895717978477,
          -0.0028983764350414276
        ],
        [
          0.10667784512042999,
          -0.03412817791104317,
          -0.03452054038643837
        ],
        [
          0.06299899518489838,
          -0.1301826536655426,
          -0.01286950334906578
        ]
      ],
      [
        [
          -0.025782698765397072,
          0.02786119468510151,
          -0.026626529172062874
        ],
        [
          0.02076871693134308,
          -0.009222788736224174,
          -0.03831365704536438
        ],
        [
          0.021172255277633667,
          0.07739157229661942,
          -0.012050223536789417
        ]
      ],
      [
        [
          0.042062509804964066,
          -0.031853172928094864,
          -0.002466518199071288
        ],
        [
          0.010114054195582867,
          -0.017800649628043175,
          -0.0053678457625210285
        ],
        [
          0.006540677044540644,
          -0.006431496236473322,
          -0.02084413170814514
        ]
      ],
      [
        [
          0.15227670967578888,
          0.040755726397037506,
          0.03399084880948067
        ],
        [
          0.0960022434592247,
          -0.022189674898982048,
          0.07153711467981339
        ],
        [
          -0.046414993703365326,
          0.03937889263033867,
          0.00903682317584753
        ]
      ],
      [
        [
          -0.04297693818807602,
          -0.01692100614309311,
          -0.025856507942080498
        ],
        [
          -0.0380583256483078,
          -0.05940111353993416,
          0.010349184274673462
        ],
        [
          0.02414689213037491,
          0.011186914518475533,
          -0.019020698964595795
        ]
      ],
      [
        [
          0.02966902032494545,
          -0.00407408969476819,
          0.024635683745145798
        ],
        [
          0.07722879946231842,
          0.017179448157548904,
          -0.014671007171273232
        ],
        [
          0.05833394452929497,
          0.04251362010836601,
          0.04716556519269943
        ]
      ],
      [
        [
          -0.014991204254329205,
          -0.02555817738175392,
          -0.0668177455663681
        ],
        [
          -0.04947840794920921,
          -0.014591280370950699,
          -0.04946479946374893
        ],
        [
          0.11075130850076675,
          -0.003792449366301298,
          -0.05094413831830025
        ]
      ],
      [
        [
          -0.01685144752264023,
          -0.05067003145813942,
          -0.021098081022500992
        ],
        [
          0.011239728890359402,
          -0.005096449516713619,
          -0.06951004266738892
        ],
        [
          -0.032672710716724396,
          -0.001389176002703607,
          0.029620876535773277
        ]
      ],
      [
        [
          0.03517812490463257,
          0.018420429900288582,
          -0.10827134549617767
        ],
        [
          0.017652058973908424,
          -0.043928321450948715,
          -0.09685317426919937
        ],
        [
          0.005485155154019594,
          0.016473406925797462,
          -0.03944901004433632
        ]
      ],
      [
        [
          -0.020463421940803528,
          -0.03027632273733616,
          -0.029570216313004494
        ],
        [
          0.05709836259484291,
          -0.011096312664449215,
          0.046994730830192566
        ],
        [
          0.049512580037117004,
          0.02601027861237526,
          0.01838802918791771
        ]
      ],
      [
        [
          0.04107083007693291,
          -0.05591800436377525,
          -0.0411183163523674
        ],
        [
          0.009278427809476852,
          0.039415109902620316,
          0.036882758140563965
        ],
        [
          -0.032734211534261703,
          0.0784803256392479,
          0.01653181202709675
        ]
      ],
      [
        [
          0.032708968967199326,
          0.053788620978593826,
          -0.05689537152647972
        ],
        [
          0.0034970201086252928,
          0.012992730364203453,
          -0.029259636998176575
        ],
        [
          0.06463403254747391,
          0.03759557381272316,
          0.011155892163515091
        ]
      ],
      [
        [
          -0.04438414052128792,
          -0.0790238231420517,
          -0.06612523645162582
        ],
        [
          -0.09880020469427109,
          -0.028290292248129845,
          -0.038785871118307114
        ],
        [
          -0.03108217567205429,
          0.0036191053222864866,
          -0.07662703096866608
        ]
      ],
      [
        [
          0.040009479969739914,
          0.028855588287115097,
          0.0236993208527565
        ],
        [
          0.0016799521399661899,
          -0.0223813746124506,
          0.026993555948138237
        ],
        [
          0.08373353630304337,
          0.05473271757364273,
          -0.031190792098641396
        ]
      ],
      [
        [
          0.051948182284832,
          0.013853133656084538,
          -0.06298064440488815
        ],
        [
          0.11848417669534683,
          0.050727251917123795,
          0.006502863019704819
        ],
        [
          0.0669199526309967,
          -0.05378143489360809,
          -0.01735793799161911
        ]
      ]
    ],
    [
      [
        [
          -0.07667721807956696,
          0.011925889179110527,
          0.007296343799680471
        ],
        [
          -0.03803064301609993,
          -0.017366988584399223,
          -0.05426189303398132
        ],
        [
          -0.04550955817103386,
          -0.026977241039276123,
          -0.030975351110100746
        ]
      ],
      [
        [
          -0.15002581477165222,
          0.02623293548822403,
          -0.04752973094582558
        ],
        [
          0.02276425063610077,
          -0.05555388331413269,
          0.009481116198003292
        ],
        [
          0.5835896730422974,
          -0.14145074784755707,
          -0.04953758418560028
        ]
      ],
      [
        [
          -0.0954219251871109,
          0.06461403518915176,
          -0.17136140167713165
        ],
        [
          -0.09034459292888641,
          -0.030859673395752907,
          -0.14301906526088715
        ],
        [
          0.19927442073822021,
          -0.05383923649787903,
          -0.08861850202083588
        ]
      ],
      [
        [
          -0.2310657799243927,
          0.13749010860919952,
          0.12292186915874481
        ],
        [
          0.18710963428020477,
          0.07457190006971359,
          0.06424327939748764
        ],
        [
          -0.20398931205272675,
          0.018392469733953476,
          0.09216301888227463
        ]
      ],
      [
        [
          -0.18511728942394257,
          -0.07110028713941574,
          -0.0599033385515213
        ],
        [
          -0.07087484747171402,
          -0.03876812756061554,
          -0.11408272385597229
        ],
        [
          0.06973482668399811,
          0.018124964088201523,
          -0.12794263660907745
        ]
      ],
      [
        [
          -0.019317837432026863,
          0.06255652010440826,
          0.004200010560452938
        ],
        [
          0.056449584662914276,
          -0.03422412648797035,
          -0.0040123481303453445
        ],
        [
          0.2658681571483612,
          0.023482980206608772,
          -0.11103343218564987
        ]
      ],
      [
        [
          -0.17827491462230682,
          -0.08512368053197861,
          -0.03911367431282997
        ],
        [
          -0.10105354338884354,
          -0.09644823521375656,
          0.01031582709401846
        ],
        [
          -0.06087913364171982,
          -0.04338601976633072,
          -0.04718344286084175
        ]
      ],
      [
        [
          -0.07824929058551788,
          -0.11327657103538513,
          -0.033410802483558655
        ],
        [
          -0.009203595109283924,
          -0.06755848973989487,
          -0.04963342472910881
        ],
        [
          0.006826464086771011,
          -0.08702652156352997,
          -0.09244094789028168
        ]
      ],
      [
        [
          -0.13353689014911652,
          -0.1484663039445877,
          -0.035026781260967255
        ],
        [
          -0.1558169275522232,
          -0.16128091514110565,
          -0.11033452302217484
        ],
        [
          -0.059038788080215454,
          -0.07097414135932922,
          -0.0010745285544544458
        ]
      ],
      [
        [
          -0.34219300746917725,
          -0.05805855244398117,
          -0.22351521253585815
        ],
        [
          -0.5207264423370361,
          -0.1389041692018509,
          -0.18747903406620026
        ],
        [
          -0.11901704221963882,
          -0.10595564544200897,
          -0.1462663859128952
        ]
      ],
      [
        [
          -0.1056346446275711,
          -0.11395213752985,
          -0.06317717581987381
        ],
        [
          -0.08104041963815689,
          -0.062450625002384186,
          -0.0712784007191658
        ],
        [
          0.0661671981215477,
          -0.03240293264389038,
          -0.04453720152378082
        ]
      ],
      [
        [
          -0.11227782070636749,
          0.06174474582076073,
          0.05987957864999771
        ],
        [
          0.17728306353092194,
          -0.0031311975326389074,
          0.03192630782723427
        ],
        [
          -0.15185530483722687,
          0.08544295281171799,
          0.07340506464242935
        ]
      ],
      [
        [
          0.08683646470308304,
          -0.06769510358572006,
          -0.058572690933942795
        ],
        [
          0.178489550948143,
          -0.05429436266422272,
          -0.06017632782459259
        ],
        [
          -0.14311298727989197,
          -0.02986566349864006,
          -0.06980659067630768
        ]
      ],
      [
        [
          -0.08750729262828827,
          -0.08390536904335022,
          -0.07622464746236801
        ],
        [
          -0.05311043933033943,
          -0.015651069581508636,
          -0.0685420036315918
        ],
        [
          0.030456652864813805,
          -0.03230256587266922,
          -0.00277561298571527
        ]
      ],
      [
        [
          0.136123389005661,
          -0.04729672521352768,
          -0.11577631533145905
        ],
        [
          0.03351692855358124,
          0.04434636980295181,
          -0.07097403705120087
        ],
        [
          -0.028406338766217232,
          0.0010770976077765226,
          -0.0489884614944458
        ]
      ],
      [
        [
          -0.13311095535755157,
          0.06915313750505447,
          -0.10928996652364731
        ],
        [
          -0.10389681905508041,
          0.009059210307896137,
          -0.05929470434784889
        ],
        [
          0.22711120545864105,
          0.005345452111214399,
          -0.1436946839094162
        ]
      ],
      [
        [
          -0.16493630409240723,
          -0.21908751130104065,
          -0.038122545927762985
        ],
        [
          0.3107263445854187,
          -0.22165998816490173,
          -0.02777177281677723
        ],
        [
          -0.4273913502693176,
          -0.17596487700939178,
          0.056548554450273514
        ]
      ],
      [
        [
          -0.14386652410030365,
          -0.09782537817955017,
          -0.10181726515293121
        ],
        [
          -0.24483820796012878,
          -0.14798887073993683,
          -0.023261642083525658
        ],
        [
          -0.1521018147468567,
          -0.0388144813477993,
          -0.05526094511151314
        ]
      ],
      [
        [
          -0.27838850021362305,
          -0.33888351917266846,
          -0.1869080662727356
        ],
        [
          0.08292903751134872,
          -0.3062075674533844,
          -0.23597745597362518
        ],
        [
          -0.3971545696258545,
          -0.3151717782020569,
          -0.004675301723182201
        ]
      ],
      [
        [
          -0.05891864001750946,
          -0.1405898928642273,
          -0.09866700321435928
        ],
        [
          0.1532411426305771,
          -0.09775981307029724,
          -0.15291061997413635
        ],
        [
          -0.03345103561878204,
          -0.05174989625811577,
          -0.07136434316635132
        ]
      ],
      [
        [
          0.05580991879105568,
          -0.01304149441421032,
          0.015066749416291714
        ],
        [
          0.15656141936779022,
          0.03259030357003212,
          -0.019090421497821808
        ],
        [
          -0.11355004459619522,
          -0.003218576079234481,
          0.09019222855567932
        ]
      ],
      [
        [
          -0.017358556389808655,
          -0.03731410205364227,
          -0.02630961686372757
        ],
        [
          0.06603416055440903,
          -0.025580044835805893,
          0.03802569955587387
        ],
        [
          -0.17055492103099823,
          -0.02273600734770298,
          0.035816799849271774
        ]
      ],
      [
        [
          -0.12577944993972778,
          -0.14859578013420105,
          -0.09600899368524551
        ],
        [
          -0.18863412737846375,
          -0.16978730261325836,
          -0.0769980177283287
        ],
        [
          -0.0802534967660904,
          -0.1307656317949295,
          -0.15309448540210724
        ]
      ],
      [
        [
          0.039843685925006866,
          -0.0284333024173975,
          0.003505383152514696
        ],
        [
          0.0634257048368454,
          0.026797795668244362,
          0.0021267025731503963
        ],
        [
          0.09166252613067627,
          0.005359376780688763,
          -0.0410260371863842
        ]
      ],
      [
        [
          -0.20486581325531006,
          -0.19483047723770142,
          -0.1426796019077301
        ],
        [
          0.06142125651240349,
          -0.23249809443950653,
          -0.08499252796173096
        ],
        [
          -0.14325906336307526,
          -0.21633557975292206,
          -0.0441574826836586
        ]
      ],
      [
        [
          -0.04449208453297615,
          -0.03170977905392647,
          -0.019896402955055237
        ],
        [
          -0.1453755646944046,
          -0.04164784029126167,
          -0.035081617534160614
        ],
        [
          -0.050950802862644196,
          -0.0966857373714447,
          -0.09667401760816574
        ]
      ],
      [
        [
          -0.02031378448009491,
          -0.012818684801459312,
          -0.010610156692564487
        ],
        [
          -0.021069373935461044,
          0.01627570204436779,
          -0.0401768833398819
        ],
        [
          0.07505194842815399,
          -0.038712844252586365,
          0.0014288329984992743
        ]
      ],
      [
        [
          -0.2112320065498352,
          -0.07539916783571243,
          -0.009263468906283379
        ],
        [
          -0.14177320897579193,
          -0.037736762315034866,
          -0.07788022607564926
        ],
        [
          -0.2860138714313507,
          -0.068827785551548,
          -0.010324286296963692
        ]
      ],
      [
        [
          0.00857322197407484,
          -0.12003914266824722,
          -0.05049945041537285
        ],
        [
          -0.055713802576065063,
          -0.12240597605705261,
          -0.03428717330098152
        ],
        [
          -0.03603370487689972,
          -0.09912457317113876,
          -0.01441079843789339
        ]
      ],
      [
        [
          -0.06643091887235641,
          -0.009592419490218163,
          -0.06855269521474838
        ],
        [
          -0.055300790816545486,
          -0.0970229059457779,
          -0.03616558387875557
        ],
        [
          -0.026583565399050713,
          -0.04893786832690239,
          -0.040929440408945084
        ]
      ],
      [
        [
          -0.20505154132843018,
          -0.18508601188659668,
          -0.09992032498121262
        ],
        [
          -0.13900448381900787,
          -0.23445124924182892,
          -0.06871914863586426
        ],
        [
          -0.20028281211853027,
          -0.15957291424274445,
          -0.12418856471776962
        ]
      ],
      [
        [
          0.009826771914958954,
          0.03259449452161789,
          -0.04771876335144043
        ],
        [
          -0.06368183344602585,
          -0.004948731977492571,
          -0.02753228135406971
        ],
        [
          0.12143094092607498,
          -0.06047177314758301,
          -0.029564497992396355
        ]
      ],
      [
        [
          0.044777628034353256,
          0.020811965689063072,
          -0.08680906146764755
        ],
        [
          -0.0035609884653240442,
          -0.0248374305665493,
          -0.01727951318025589
        ],
        [
          0.09540628641843796,
          -0.004897051025182009,
          -0.034917980432510376
        ]
      ],
      [
        [
          -0.21979916095733643,
          -0.05617287755012512,
          -0.12458180636167526
        ],
        [
          -0.0933828055858612,
          -0.06909481436014175,
          -0.062212023884058
        ],
        [
          0.040644071996212006,
          0.04252086207270622,
          -0.12514422833919525
        ]
      ],
      [
        [
          -0.02201051451265812,
          -0.023517407476902008,
          -0.06313037872314453
        ],
        [
          0.07812387496232986,
          0.0053492323495447636,
          -0.017204714938998222
        ],
        [
          0.02233208902180195,
          0.05045027658343315,
          0.025346074253320694
        ]
      ],
      [
        [
          0.09913354367017746,
          -0.09057628363370895,
          -0.02774905227124691
        ],
        [
          0.10855472832918167,
          -0.05909029021859169,
          -0.016771595925092697
        ],
        [
          0.005060405004769564,
          -0.05924133211374283,
          0.02105548232793808
        ]
      ],
      [
        [
          -0.06574729084968567,
          -0.08862549066543579,
          0.02653716877102852
        ],
        [
          -0.0036022451240569353,
          -0.0766591802239418,
          -0.06675390899181366
        ],
        [
          -0.1553536355495453,
          -0.011383680626749992,
          0.02816065214574337
        ]
      ],
      [
        [
          0.021421736106276512,
          -0.018035616725683212,
          -0.07357499748468399
        ],
        [
          0.0011904272250831127,
          0.05448446422815323,
          -0.045537590980529785
        ],
        [
          0.05919812247157097,
          0.0740814357995987,
          -0.015705443918704987
        ]
      ],
      [
        [
          -0.11164523661136627,
          -0.08017586171627045,
          -0.09111940860748291
        ],
        [
          -0.1824498027563095,
          -0.05617399513721466,
          -0.0062978616915643215
        ],
        [
          -0.020601125434041023,
          -0.05971400439739227,
          -0.06431172043085098
        ]
      ],
      [
        [
          0.1429411619901657,
          0.04290622100234032,
          -0.06382497400045395
        ],
        [
          0.10232860594987869,
          0.029185060411691666,
          -0.0024008925538510084
        ],
        [
          0.039209894835948944,
          0.034102845937013626,
          -0.038729459047317505
        ]
      ],
      [
        [
          -0.10739932954311371,
          0.023479288443922997,
          0.02629801630973816
        ],
        [
          -0.1299571394920349,
          -0.052609141916036606,
          -0.001726808026432991
        ],
        [
          0.22738389670848846,
          0.01079832948744297,
          -0.02019393816590309
        ]
      ],
      [
        [
          -0.05271367356181145,
          -0.059456050395965576,
          0.038052961230278015
        ],
        [
          0.03638167679309845,
          0.007699356880038977,
          -0.0630769357085228
        ],
        [
          0.11025803536176682,
          -0.017613355070352554,
          -0.030859725549817085
        ]
      ],
      [
        [
          -0.035550981760025024,
          0.05227653309702873,
          -0.1093984842300415
        ],
        [
          -0.08820785582065582,
          0.08360555768013,
          -0.06264492869377136
        ],
        [
          -0.0530395545065403,
          0.08514868468046188,
          -0.07384764403104782
        ]
      ],
      [
        [
          0.07570724934339523,
          -0.01634986326098442,
          -0.03797536715865135
        ],
        [
          0.027307748794555664,
          -0.028282633051276207,
          -0.0394374243915081
        ],
        [
          -0.09936851263046265,
          0.0027368683367967606,
          0.03426693007349968
        ]
      ],
      [
        [
          -0.10224809497594833,
          -0.0599515363574028,
          -0.1405848115682602
        ],
        [
          -0.13920748233795166,
          -0.031009959056973457,
          -0.006525102071464062
        ],
        [
          -0.10321884602308273,
          -0.10045652836561203,
          -0.09445163607597351
        ]
      ]
    ],
    [
      [
        [
          -0.06890634447336197,
          -0.04638170450925827,
          0.02058934047818184
        ],
        [
          -0.049936823546886444,
          0.006231695879250765,
          0.03442329540848732
        ],
        [
          -0.014730969443917274,
          0.008435461670160294,
          -0.0023576337844133377
        ]
      ],
      [
        [
          -0.02986629493534565,
          -0.019329292699694633,
          -0.037552785128355026
        ],
        [
          -0.0016708578914403915,
          0.0885295420885086,
          -0.005342068616300821
        ],
        [
          0.010168691165745258,
          0.07278387248516083,
          -0.01770596206188202
        ]
      ],
      [
        [
          -0.025994880124926567,
          -0.017537377774715424,
          -0.06528633087873459
        ],
        [
          0.002508652862161398,
          0.02879205346107483,
          0.02378108724951744
        ],
        [
          -0.05604157596826553,
          0.0039038872346282005,
          0.01875796727836132
        ]
      ],
      [
        [
          -0.047854676842689514,
          -0.16252490878105164,
          -0.025432933121919632
        ],
        [
          -0.10500945895910263,
          -0.11679325252771378,
          -0.022958368062973022
        ],
        [
          -0.03722992539405823,
          -0.028047095984220505,
          0.01019378937780857
        ]
      ],
      [
        [
          0.021877657622098923,
          -0.038752567023038864,
          -0.06479512155056
        ],
        [
          0.0008184920880012214,
          0.028105618432164192,
          0.03763778507709503
        ],
        [
          -0.0676480382680893,
          0.042042702436447144,
          0.03831684961915016
        ]
      ],
      [
        [
          -0.05160481482744217,
          -0.041399355977773666,
          0.015450862236320972
        ],
        [
          -0.04781312122941017,
          0.01846875622868538,
          0.01041291281580925
        ],
        [
          0.005428079981356859,
          0.03163610026240349,
          0.02802111767232418
        ]
      ],
      [
        [
          0.01139512937515974,
          -0.0665440484881401,
          0.05385194346308708
        ],
        [
          -0.07434821873903275,
          -0.019439516589045525,
          0.0048868064768612385
        ],
        [
          -0.047084011137485504,
          0.06277620792388916,
          0.014786455780267715
        ]
      ],
      [
        [
          0.013070523738861084,
          -0.01844884641468525,
          -0.0443892739713192
        ],
        [
          -0.022475477308034897,
          0.020043140277266502,
          0.01326869148761034
        ],
        [
          0.01069655455648899,
          -0.00453595444560051,
          -0.0155720803886652
        ]
      ],
      [
        [
          0.008872115053236485,
          -0.08157912641763687,
          -0.04407019913196564
        ],
        [
          0.0015280337538570166,
          0.014759304001927376,
          -0.013619398698210716
        ],
        [
          -0.03457944095134735,
          -0.027450386434793472,
          -0.04707075282931328
        ]
      ],
      [
        [
          -0.012147572822868824,
          -0.16025923192501068,
          0.025577493011951447
        ],
        [
          -0.07144655287265778,
          -0.01815994642674923,
          -0.005814317613840103
        ],
        [
          -0.004930470604449511,
          0.06481949239969254,
          0.014034190215170383
        ]
      ],
      [
        [
          -0.005647674202919006,
          -0.09605270624160767,
          -0.03783328831195831
        ],
        [
          -0.0675833448767662,
          0.01010009367018938,
          0.04321247711777687
        ],
        [
          -0.029808418825268745,
          0.012200159952044487,
          -0.03978922218084335
        ]
      ],
      [
        [
          -0.031449414789676666,
          -0.1035580262541771,
          -0.06229432672262192
        ],
        [
          -0.0794413834810257,
          0.02748672291636467,
          0.0035517318174242973
        ],
        [
          -0.05659317970275879,
          0.03704426437616348,
          -0.03322355076670647
        ]
      ],
      [
        [
          -0.06262426823377609,
          -0.15941718220710754,
          0.02448086068034172
        ],
        [
          -0.03225438669323921,
          0.01604577526450157,
          -0.0072077191434800625
        ],
        [
          -0.051032502204179764,
          0.016202861443161964,
          -0.029291754588484764
        ]
      ],
      [
        [
          0.0033941520377993584,
          -0.02927078865468502,
          -0.031615860760211945
        ],
        [
          -0.04786568507552147,
          0.031218938529491425,
          -0.012924153357744217
        ],
        [
          -0.01808740198612213,
          0.022322701290249825,
          -0.030674399808049202
        ]
      ],
      [
        [
          -0.026589173823595047,
          -0.05320451408624649,
          0.020735949277877808
        ],
        [
          -0.055741775780916214,
          0.029455037787556648,
          0.023374175652861595
        ],
        [
          -0.08292603492736816,
          0.05593163147568703,
          0.02552773803472519
        ]
      ],
      [
        [
          -0.032342568039894104,
          0.02456115186214447,
          0.008251436054706573
        ],
        [
          0.03195617347955704,
          0.03234991058707237,
          0.025356721132993698
        ],
        [
          -0.030566317960619926,
          0.02644692175090313,
          0.0038844277150928974
        ]
      ],
      [
        [
          -0.06286438554525375,
          -0.11167880147695541,
          0.023184793069958687
        ],
        [
          -0.10095207393169403,
          0.045802727341651917,
          0.024257980287075043
        ],
        [
          -0.05956561863422394,
          0.14236702024936676,
          -0.005132744554430246
        ]
      ],
      [
        [
          -0.06681375205516815,
          -0.025458604097366333,
          -0.021622220054268837
        ],
        [
          -0.0008836550405249,
          -0.06395597010850906,
          -0.0046910010278224945
        ],
        [
          -0.02955458126962185,
          0.013442367315292358,
          -0.003974436782300472
        ]
      ],
      [
        [
          -0.03673267737030983,
          -0.19757024943828583,
          -0.03196462243795395
        ],
        [
          -0.006407656241208315,
          0.02735232748091221,
          0.016953865066170692
        ],
        [
          -0.08015327155590057,
          0.21508818864822388,
          0.06511524319648743
        ]
      ],
      [
        [
          -0.033444587141275406,
          -0.1765439212322235,
          -0.07210289686918259
        ],
        [
          0.0010653587523847818,
          0.006638445891439915,
          0.015097666531801224
        ],
        [
          -0.0005542237777262926,
          0.09447437524795532,
          0.004756242968142033
        ]
      ],
      [
        [
          -0.04175235331058502,
          -0.0028617517091333866,
          -0.03485984355211258
        ],
        [
          0.012846387922763824,
          0.004416255746036768,
          0.006955813150852919
        ],
        [
          -0.04416029155254364,
          -0.013284246437251568,
          0.017609860748052597
        ]
      ],
      [
        [
          -0.010257076472043991,
          -0.05203981697559357,
          0.022884096950292587
        ],
        [
          -0.04222271963953972,
          0.0022745351307094097,
          -0.01710786111652851
        ],
        [
          -0.013692410662770271,
          0.00694617722183466,
          0.024250173941254616
        ]
      ],
      [
        [
          0.0186859592795372,
          -0.040560562163591385,
          0.02056935615837574
        ],
        [
          0.006148564163595438,
          -0.033383775502443314,
          -0.015375828370451927
        ],
        [
          -0.016506679356098175,
          0.03340376168489456,
          -0.039215587079524994
        ]
      ],
      [
        [
          -0.0318431556224823,
          -0.03995341435074806,
          -0.05673160031437874
        ],
        [
          -0.006642445456236601,
          0.04878264293074608,
          0.013832909986376762
        ],
        [
          -0.03148127719759941,
          -0.022068331018090248,
          -0.04329237714409828
        ]
      ],
      [
        [
          -0.034109145402908325,
          -0.09092990309000015,
          -0.054412249475717545
        ],
        [
          -0.06501955538988113,
          -0.020663799718022346,
          -0.0047096870839595795
        ],
        [
          -0.08320676535367966,
          0.05304824560880661,
          0.05553146079182625
        ]
      ],
      [
        [
          -0.037445612251758575,
          -0.05661144480109215,
          -0.011256841011345387
        ],
        [
          -0.057886797934770584,
          -0.003544205566868186,
          0.01913057453930378
        ],
        [
          -0.03432968631386757,
          0.01387050561606884,
          -0.001998603343963623
        ]
      ],
      [
        [
          -0.0596734955906868,
          0.016146548092365265,
          0.026388544589281082
        ],
        [
          0.0183488130569458,
          0.006317289546132088,
          0.018090689554810524
        ],
        [
          -0.05727311968803406,
          0.005745856091380119,
          -0.01751094125211239
        ]
      ],
      [
        [
          -0.051087528467178345,
          -0.05531305819749832,
          -0.02236182615160942
        ],
        [
          -0.04095178842544556,
          -0.018047785386443138,
          -0.031851090490818024
        ],
        [
          -0.045618318021297455,
          -0.023824401199817657,
          0.031752925366163254
        ]
      ],
      [
        [
          -0.026454364880919456,
          -0.05459122732281685,
          -0.013308100402355194
        ],
        [
          -0.051620446145534515,
          0.018288714811205864,
          0.04865773022174835
        ],
        [
          -0.015643440186977386,
          0.010495441034436226,
          -0.0504482239484787
        ]
      ],
      [
        [
          -0.05141860991716385,
          -0.04647126793861389,
          0.04320181533694267
        ],
        [
          0.006827428936958313,
          0.08241882175207138,
          0.03607484698295593
        ],
        [
          -0.006732296198606491,
          0.025030383840203285,
          0.039380669593811035
        ]
      ],
      [
        [
          -0.03016827255487442,
          -0.10208506137132645,
          -0.019129043444991112
        ],
        [
          -0.02853425405919552,
          -0.010510298423469067,
          0.04231470450758934
        ],
        [
          -0.0563461035490036,
          0.027873864397406578,
          -0.04285304248332977
        ]
      ],
      [
        [
          -0.03906416893005371,
          0.00519065884873271,
          -0.026107393205165863
        ],
        [
          -0.053611405193805695,
          0.051674406975507736,
          -0.004217907320708036
        ],
        [
          0.025997107848525047,
          -0.04952016845345497,
          0.010151618160307407
        ]
      ],
      [
        [
          -0.02990886941552162,
          -0.06416141986846924,
          -0.020204652100801468
        ],
        [
          -0.02940102107822895,
          0.02645867131650448,
          -0.016169529408216476
        ],
        [
          0.023329325020313263,
          0.008520876988768578,
          -0.01099762599915266
        ]
      ],
      [
        [
          -0.061528321355581284,
          -0.11757161468267441,
          -0.02449626475572586
        ],
        [
          -0.07594572752714157,
          0.01802820898592472,
          0.00778229208663106
        ],
        [
          -0.03743636980652809,
          -0.005074112676084042,
          0.028086062520742416
        ]
      ],
      [
        [
          0.01122586615383625,
          -0.04346516728401184,
          -0.034014876931905746
        ],
        [
          0.014551782980561256,
          0.05385562777519226,
          -0.05122140049934387
        ],
        [
          -0.024417245760560036,
          0.020247837528586388,
          -0.02384779043495655
        ]
      ],
      [
        [
          0.018800504505634308,
          -0.06982122361660004,
          0.03604841232299805
        ],
        [
          -0.020851651206612587,
          0.012344184331595898,
          -0.021916015073657036
        ],
        [
          -0.03367127105593681,
          0.05486521124839783,
          0.03009042888879776
        ]
      ],
      [
        [
          -0.017530057579278946,
          0.006410431116819382,
          -0.049920741468667984
        ],
        [
          0.0009131324477493763,
          0.04234325885772705,
          0.0036417171359062195
        ],
        [
          0.019892914220690727,
          0.03904562443494797,
          -0.04161405563354492
        ]
      ],
      [
        [
          -0.04394002631306648,
          -0.0209206435829401,
          -0.04619721695780754
        ],
        [
          -0.003646152326837182,
          0.04482021927833557,
          -0.0039000019896775484
        ],
        [
          -0.01581612043082714,
          0.011488359421491623,
          -0.039710164070129395
        ]
      ],
      [
        [
          -0.058961279690265656,
          -0.08271049708127975,
          -0.04727090895175934
        ],
        [
          -0.009596655145287514,
          0.029494650661945343,
          -0.02988509275019169
        ],
        [
          -0.06292036920785904,
          0.07327385991811752,
          -0.040456622838974
        ]
      ],
      [
        [
          -0.02413349412381649,
          -0.09150272607803345,
          -0.038298968225717545
        ],
        [
          0.0047555421479046345,
          -0.0363045260310173,
          -0.033063314855098724
        ],
        [
          0.024748625233769417,
          -0.015903932973742485,
          -0.017852716147899628
        ]
      ],
      [
        [
          -0.05779381841421127,
          -0.05148409307003021,
          -0.043913207948207855
        ],
        [
          -0.033453069627285004,
          0.05899869278073311,
          0.013330670073628426
        ],
        [
          -0.032334547489881516,
          -0.022867197170853615,
          0.027020830661058426
        ]
      ],
      [
        [
          -0.016742683947086334,
          -0.0769883245229721,
          -0.05511290580034256
        ],
        [
          -0.015777351334691048,
          0.06915248930454254,
          -0.016844196245074272
        ],
        [
          -0.015745939686894417,
          0.06072753295302391,
          -0.03155580163002014
        ]
      ],
      [
        [
