RES8_NARROW_40_weights = {
  "conv0.weight": [
    [
      [
        [
          1.4696799516677856,
          -1.9980862140655518,
          -1.2646145820617676
        ],
        [
          0.13783401250839233,
          0.06385345757007599,
          -0.2743549644947052
        ],
        [
          -0.8210527896881104,
          2.7238223552703857,
          0.5090129971504211
        ]
      ]
    ],
    [
      [
        [
          0.6244215369224548,
          1.0838639736175537,
          0.34115177392959595
        ],
        [
          -1.870430588722229,
          -1.6398283243179321,
          -1.8013997077941895
        ],
        [
          1.563174843788147,
          1.0689836740493774,
          1.1849684715270996
        ]
      ]
    ],
    [
      [
        [
          -0.4065283536911011,
          0.5992183089256287,
          -0.4344782531261444
        ],
        [
          1.027919888496399,
          0.6025623679161072,
          0.14167582988739014
        ],
        [
          -0.4341893494129181,
          -0.2268340289592743,
          0.5720745325088501
        ]
      ]
    ],
    [
      [
        [
          0.640620231628418,
          -0.10673808306455612,
          0.6267263293266296
        ],
        [
          -0.06428060680627823,
          -0.3225773274898529,
          -0.10588376224040985
        ],
        [
          0.18323250114917755,
          -0.3684295117855072,
          -0.12170053273439407
        ]
      ]
    ],
    [
      [
        [
          0.09062621742486954,
          1.2788047790527344,
          1.0386114120483398
        ],
        [
          0.809464156627655,
          0.5712076425552368,
          0.12444969266653061
        ],
        [
          -0.7020742893218994,
          -1.0462690591812134,
          -1.6815428733825684
        ]
      ]
    ],
    [
      [
        [
          -0.552848219871521,
          0.6206466555595398,
          -0.12207981199026108
        ],
        [
          0.1397174745798111,
          0.003126450115814805,
          0.25186434388160706
        ],
        [
          1.0011659860610962,
          -0.2605355679988861,
          -0.046528808772563934
        ]
      ]
    ],
    [
      [
        [
          2.068701982498169,
          -1.4261325597763062,
          0.4827469289302826
        ],
        [
          0.32686513662338257,
          0.2701563537120819,
          -0.701738715171814
        ],
        [
          -1.7471466064453125,
          2.1724300384521484,
          -1.2017849683761597
        ]
      ]
    ],
    [
      [
        [
          -2.406803607940674,
          2.444871664047241,
          -0.3678989112377167
        ],
        [
          0.25151145458221436,
          0.504755437374115,
          -0.40520790219306946
        ],
        [
          2.4034340381622314,
          -1.9933085441589355,
          0.06482802331447601
        ]
      ]
    ],
    [
      [
        [
          2.2921316623687744,
          0.871461808681488,
          1.632192611694336
        ],
        [
          0.5469050407409668,
          0.0829668939113617,
          -0.12288469821214676
        ],
        [
          -2.496692657470703,
          -0.9514700770378113,
          -1.6439391374588013
        ]
      ]
    ],
    [
      [
        [
          0.5684970617294312,
          -0.33795130252838135,
          -0.06508667021989822
        ],
        [
          0.25255087018013,
          -0.2912871539592743,
          -0.254453182220459
        ],
        [
          0.5013107061386108,
          0.8776941299438477,
          -0.5462711453437805
        ]
      ]
    ],
    [
      [
        [
          0.8486230373382568,
          0.6668491363525391,
          0.35763823986053467
        ],
        [
          -0.8398312330245972,
          -0.8310614228248596,
          -0.49944865703582764
        ],
        [
          0.27947041392326355,
          0.4022335410118103,
          0.28878507018089294
        ]
      ]
    ],
    [
      [
        [
          0.21315059065818787,
          1.5036450624465942,
          -0.29526588320732117
        ],
        [
          -0.14140240848064423,
          -0.357023686170578,
          -0.4215974509716034
        ],
        [
          0.4498806595802307,
          -0.9996119737625122,
          -0.4617880582809448
        ]
      ]
    ],
    [
      [
        [
          -0.2149224877357483,
          0.4921383261680603,
          -1.0963256359100342
        ],
        [
          0.2144484668970108,
          -0.030851326882839203,
          0.5403257608413696
        ],
        [
          0.7737558484077454,
          -0.14540985226631165,
          -0.05080611631274223
        ]
      ]
    ],
    [
      [
        [
          -1.3193206787109375,
          1.7473613023757935,
          -0.3000430464744568
        ],
        [
          0.3403128385543823,
          0.3326356112957001,
          -0.5581042766571045
        ],
        [
          1.7265878915786743,
          -1.3207272291183472,
          -0.22981998324394226
        ]
      ]
    ],
    [
      [
        [
          0.3195313513278961,
          0.7911666631698608,
          0.2859240770339966
        ],
        [
          -0.7456857562065125,
          -0.15564744174480438,
          0.6229469180107117
        ],
        [
          -0.6390237808227539,
          -0.7763715982437134,
          -0.1406765729188919
        ]
      ]
    ],
    [
      [
        [
          -2.3753151893615723,
          -1.8344255685806274,
          -1.2250303030014038
        ],
        [
          0.31121933460235596,
          0.5719114542007446,
          0.5631506443023682
        ],
        [
          2.0135018825531006,
          1.3585821390151978,
          0.9801162481307983
        ]
      ]
    ],
    [
      [
        [
          0.403374582529068,
          0.07870205491781235,
          0.15645425021648407
        ],
        [
          0.38379472494125366,
          0.1879388988018036,
          -0.09367150813341141
        ],
        [
          -0.15324030816555023,
          -0.07478220760822296,
          0.06360267847776413
        ]
      ]
    ],
    [
      [
        [
          0.37455111742019653,
          0.6684365272521973,
          -0.4646989405155182
        ],
        [
          0.11949151009321213,
          -0.10945995151996613,
          -0.8204754590988159
        ],
        [
          -0.05415584519505501,
          -0.19639462232589722,
          -0.645919680595398
        ]
      ]
    ],
    [
      [
        [
          0.2915322184562683,
          -0.5252917408943176,
          0.5912196040153503
        ],
        [
          -0.043969862163066864,
          0.22255729138851166,
          0.7812027335166931
        ],
        [
          -1.0046064853668213,
          0.6165639758110046,
          0.022366341203451157
        ]
      ]
    ]
  ],
  "bn1.running_mean": [
    5.292303085327148,
    0.47853171825408936,
    10.337674140930176,
    1.4442542791366577,
    1.0846611261367798,
    3.115717887878418,
    1.427842378616333,
    1.0352460145950317,
    1.1986002922058105,
    1.5070395469665527,
    2.748549222946167,
    1.4918415546417236
  ],
  "bn1.running_var": [
    43.62630844116211,
    3.060004234313965,
    51.90853500366211,
    9.54263687133789,
    20.85079002380371,
    26.893823623657227,
    30.587934494018555,
    17.30228042602539,
    20.482284545898438,
    44.31647872924805,
    86.09590911865234,
    38.117889404296875
  ],
  "bn1.num_batches_tracked": 10410,
  "scale1.scale": [
    0.4427037537097931,
    0.5225403308868408,
    0.5398038029670715,
    0.5403584837913513,
    0.582720935344696,
    0.5974061489105225,
    0.6568799614906311,
    0.6589257121086121,
    0.7271056175231934,
    0.8845984935760498,
    0.8871787786483765,
    0.9306203126907349
  ],
  "scale1.drop_indices": [
    12,
    16,
    5,
    6,
    17,
    13,
    18
  ],
  "scale1.keep_indices": [
    11,
    1,
    7,
    14,
    4,
    15,
    9,
    0,
    10,
    3,
    8,
    2
  ],
  "conv1.weight": [
    [
      [
        [
          -0.059915728867053986,
          0.20770181715488434,
          0.0779164582490921
        ],
        [
          0.11780089884996414,
          0.16716650128364563,
          0.07183356583118439
        ],
        [
          -0.044866278767585754,
          0.013253205455839634,
          -0.07710296660661697
        ]
      ],
      [
        [
          0.024898039177060127,
          0.17162342369556427,
          -0.04239385575056076
        ],
        [
          0.04128337278962135,
          0.2767508924007416,
          -0.13169896602630615
        ],
        [
          0.05700480937957764,
          0.2901008725166321,
          0.009501025080680847
        ]
      ],
      [
        [
          -0.49076178669929504,
          0.08711747080087662,
          -0.4036737382411957
        ],
        [
          -0.09564424306154251,
          0.27846089005470276,
          -0.4099315106868744
        ],
        [
          0.060103241354227066,
          0.2214711755514145,
          -0.26964372396469116
        ]
      ],
      [
        [
          0.43991783261299133,
          -0.5343960523605347,
          0.13934186100959778
        ],
        [
          0.1543358862400055,
          -0.2286359965801239,
          0.18075892329216003
        ],
        [
          0.1677609235048294,
          -0.19456785917282104,
          0.15231436491012573
        ]
      ],
      [
        [
          -0.23101051151752472,
          -0.07124467194080353,
          -0.08145838975906372
        ],
        [
          -0.3493066728115082,
          0.12868882715702057,
          -0.17342939972877502
        ],
        [
          -0.06762412190437317,
          0.16135188937187195,
          -0.08149483054876328
        ]
      ],
      [
        [
          -0.0837574154138565,
          -0.21380715072155,
          0.0014114901423454285
        ],
        [
          -0.0269946176558733,
          -0.011558812111616135,
          -0.11062409728765488
        ],
        [
          0.19751958549022675,
          0.16706043481826782,
          -0.021063748747110367
        ]
      ],
      [
        [
          -0.042269714176654816,
          0.21638767421245575,
          0.2490311712026596
        ],
        [
          -0.053538717329502106,
          0.11908402293920517,
          0.04481709003448486
        ],
        [
          -0.11041691899299622,
          0.061953604221343994,
          -0.00013940459757577628
        ]
      ],
      [
        [
          0.3339492082595825,
          0.15980000793933868,
          -0.07413005828857422
        ],
        [
          0.12586259841918945,
          0.09378146380186081,
          -0.16786648333072662
        ],
        [
          0.02430509775876999,
          0.02599083073437214,
          -0.15803997218608856
        ]
      ],
      [
        [
          0.052115362137556076,
          -0.020923985168337822,
          0.11879610270261765
        ],
        [
          -0.03797323256731033,
          0.03096439316868782,
          -0.10451837629079819
        ],
        [
          0.12544551491737366,
          0.08694522827863693,
          -0.1567317098379135
        ]
      ],
      [
        [
          0.1512410193681717,
          -0.3802853226661682,
          -0.0931851863861084
        ],
        [
          0.42898792028427124,
          -0.132589653134346,
          -0.12201658636331558
        ],
        [
          0.3421160876750946,
          -0.004208483267575502,
          -0.19382987916469574
        ]
      ],
      [
        [
          -0.08379723131656647,
          0.0012980190804228187,
          -0.0434529185295105
        ],
        [
          -0.03345855325460434,
          0.09776218980550766,
          -0.05754058435559273
        ],
        [
          0.011724075302481651,
          0.1496080458164215,
          0.049910929054021835
        ]
      ],
      [
        [
          -0.016197392717003822,
          -0.11881404370069504,
          -0.0493781678378582
        ],
        [
          -0.18028368055820465,
          -0.11307408660650253,
          -0.05183291807770729
        ],
        [
          -0.22681762278079987,
          0.04116729646921158,
          -0.10813043266534805
        ]
      ],
      [
        [
          -0.007237628567963839,
          -0.09741159528493881,
          -0.10323462635278702
        ],
        [
          0.008856834843754768,
          -0.0826321467757225,
          -0.10170137882232666
        ],
        [
          0.059787143021821976,
          0.020680993795394897,
          -0.08535365015268326
        ]
      ],
      [
        [
          0.3449406921863556,
          0.05539568513631821,
          -0.029630038887262344
        ],
        [
          0.15523266792297363,
          0.07765736430883408,
          -0.08183185011148453
        ],
        [
          0.003918138332664967,
          0.12250059843063354,
          -0.08272001892328262
        ]
      ],
      [
        [
          -0.12323644757270813,
          0.0806036964058876,
          -0.11387649923563004
        ],
        [
          -0.020376678556203842,
          0.37225982546806335,
          -0.12385367602109909
        ],
        [
          0.11383935064077377,
          0.25951075553894043,
          -0.013460509479045868
        ]
      ],
      [
        [
          0.3480375409126282,
          0.2829049825668335,
          -0.17749351263046265
        ],
        [
          0.3238934874534607,
          0.21505001187324524,
          -0.06272019445896149
        ],
        [
          0.1385163515806198,
          0.2567596435546875,
          0.08239178359508514
        ]
      ],
      [
        [
          -0.24177834391593933,
          -0.07330288738012314,
          -0.04237382858991623
        ],
        [
          -0.2294018417596817,
          0.052180252969264984,
          -0.09032628685235977
        ],
        [
          0.016982149332761765,
          0.14280058443546295,
          -0.05818773806095123
        ]
      ],
      [
        [
          0.1002148911356926,
          -0.19744424521923065,
          0.063090980052948
        ],
        [
          -0.032183170318603516,
          -0.10393169522285461,
          0.12154445797204971
        ],
        [
          -0.22693856060504913,
          0.04573968052864075,
          -0.05343983694911003
        ]
      ],
      [
        [
          -0.17522567510604858,
          0.22650010883808136,
          -0.2940642833709717
        ],
        [
          -0.114613838493824,
          0.4189143180847168,
          -0.35566267371177673
        ],
        [
          0.10764840245246887,
          0.4060198664665222,
          -0.19927188754081726
        ]
      ]
    ],
    [
      [
        [
          0.6591419577598572,
          0.15987752377986908,
          0.14409741759300232
        ],
        [
          0.8330303430557251,
          0.5461608171463013,
          0.3830189108848572
        ],
        [
          -0.24803844094276428,
          0.4433940351009369,
          -0.06879579275846481
        ]
      ],
      [
        [
          -0.09478625655174255,
          0.04681558534502983,
          -0.18011519312858582
        ],
        [
          0.00978007260710001,
          0.1811211258172989,
          0.03984769061207771
        ],
        [
          -0.08657735586166382,
          -0.057334642857313156,
          -0.03533973917365074
        ]
      ],
      [
        [
          -0.4397198557853699,
          0.0944584533572197,
          -0.04018288850784302
        ],
        [
          0.5346930623054504,
          0.2405702769756317,
          0.037068624049425125
        ],
        [
          0.32059311866760254,
          0.08570199459791183,
          -0.21586193144321442
        ]
      ],
      [
        [
          0.5011362433433533,
          0.14021441340446472,
          0.02974167838692665
        ],
        [
          -0.059332311153411865,
          -0.14654339849948883,
          -0.2344321608543396
        ],
        [
          -0.4391927123069763,
          -0.04443942382931709,
          -0.15332946181297302
        ]
      ],
      [
        [
          -0.10208822041749954,
          -0.010050978511571884,
          0.17638427019119263
        ],
        [
          -0.31846240162849426,
          0.05034898966550827,
          -0.20683416724205017
        ],
        [
          -0.0669163167476654,
          -0.027245286852121353,
          -0.06334974616765976
        ]
      ],
      [
        [
          -0.03627123311161995,
          0.1114506796002388,
          -0.10775195062160492
        ],
        [
          -0.07052984088659286,
          0.1927327662706375,
          -0.1911914199590683
        ],
        [
          -0.002672875300049782,
          -0.20612695813179016,
          -0.09615755081176758
        ]
      ],
      [
        [
          0.8319893479347229,
          0.2819710373878479,
          0.37183070182800293
        ],
        [
          0.9000345468521118,
          0.579142153263092,
          0.3955019414424896
        ],
        [
          -0.17929023504257202,
          0.28446754813194275,
          0.012148593552410603
        ]
      ],
      [
        [
          -0.6077554225921631,
          -0.17624597251415253,
          -0.28196123242378235
        ],
        [
          -0.29953330755233765,
          -0.025139395147562027,
          -0.14648357033729553
        ],
        [
          0.12132253497838974,
          -0.1412651240825653,
          0.08612130582332611
        ]
      ],
      [
        [
          0.06733173131942749,
          0.24880751967430115,
          0.04203303903341293
        ],
        [
          -0.051098886877298355,
          0.22700832784175873,
          -0.16509561240673065
        ],
        [
          -0.219878152012825,
          0.01788734272122383,
          -0.15385378897190094
        ]
      ],
      [
        [
          1.083328366279602,
          0.07452842593193054,
          0.212567538022995
        ],
        [
          -0.10444512218236923,
          0.21606303751468658,
          -0.21377836167812347
        ],
        [
          -0.8793436288833618,
          -0.016068121418356895,
          -0.13562829792499542
        ]
      ],
      [
        [
          -0.014397148042917252,
          0.04377773404121399,
          -0.09472812712192535
        ],
        [
          -0.1706797331571579,
          0.10284220427274704,
          -0.11484779417514801
        ],
        [
          -0.051238659769296646,
          -0.008267796598374844,
          -0.10815192013978958
        ]
      ],
      [
        [
          0.10793068259954453,
          -0.26470160484313965,
          0.09622090309858322
        ],
        [
          -0.46148788928985596,
          -0.03360302746295929,
          -0.22426272928714752
        ],
        [
          -0.2164495289325714,
          -0.019848326221108437,
          -0.03467768803238869
        ]
      ],
      [
        [
          0.020791739225387573,
          -0.07922472059726715,
          0.04419500008225441
        ],
        [
          -0.1348065882921219,
          -0.07403375208377838,
          -0.02507210709154606
        ],
        [
          -0.1866089403629303,
          0.04512586444616318,
          -0.06471666693687439
        ]
      ],
      [
        [
          -0.34024176001548767,
          -0.39433395862579346,
          -0.20764368772506714
        ],
        [
          -0.47780025005340576,
          -0.19466561079025269,
          -0.09117433428764343
        ],
        [
          -0.06911380589008331,
          -0.14582189917564392,
          0.09512048214673996
        ]
      ],
      [
        [
          -0.03582733869552612,
          -1.0297763347625732,
          -0.31338632106781006
        ],
        [
          0.12602679431438446,
          -0.2877447009086609,
          -0.08174076676368713
        ],
        [
          -0.3168255090713501,
          0.2771705389022827,
          0.02662590704858303
        ]
      ],
      [
        [
          -0.03259563073515892,
          0.04699821025133133,
          -0.4118231236934662
        ],
        [
          0.3734284043312073,
          -0.716676652431488,
          -0.08994370698928833
        ],
        [
          0.28024041652679443,
          -0.10825459659099579,
          -0.17752307653427124
        ]
      ],
      [
        [
          0.17697949707508087,
          0.09234131127595901,
          0.058117955923080444
        ],
        [
          -0.17833733558654785,
          0.06759054213762283,
          -0.07947234064340591
        ],
        [
          -0.19088469445705414,
          -0.07157856971025467,
          -0.04651084542274475
        ]
      ],
      [
        [
          0.5975774526596069,
          -0.22490377724170685,
          -0.020000699907541275
        ],
        [
          0.23969945311546326,
          -0.14025485515594482,
          -0.1225292980670929
        ],
        [
          -0.27383604645729065,
          0.0011891874019056559,
          -0.021941745653748512
        ]
      ],
      [
        [
          -0.3141842186450958,
          -0.7793723940849304,
          -0.37043851613998413
        ],
        [
          -0.017074717208743095,
          -0.6988087892532349,
          -0.1392105370759964
        ],
        [
          -0.19641250371932983,
          0.141837015748024,
          -0.06584146618843079
        ]
      ]
    ],
    [
      [
        [
          0.16836221516132355,
          0.18056228756904602,
          0.10049702227115631
        ],
        [
          0.38956090807914734,
          0.06528934091329575,
          0.21251974999904633
        ],
        [
          0.09969349950551987,
          -0.16330379247665405,
          0.033265601843595505
        ]
      ],
      [
        [
          0.5939422249794006,
          0.6127145290374756,
          0.528339684009552
        ],
        [
          0.5032677054405212,
          0.6782612800598145,
          0.7147396206855774
        ],
        [
          0.0027584244962781668,
          0.19388453662395477,
          0.3322325050830841
        ]
      ],
      [
        [
          0.32794564962387085,
          -0.054648831486701965,
          -0.31843486428260803
        ],
        [
          0.264003723859787,
          0.4085129201412201,
          -0.14174233376979828
        ],
        [
          -0.08041415363550186,
          0.060745127499103546,
          -0.14169444143772125
        ]
      ],
      [
        [
          -0.5856064558029175,
          0.05506839603185654,
          0.3948526680469513
        ],
        [
          -0.5624683499336243,
          -0.28959938883781433,
          0.4531407654285431
        ],
        [
          -0.7047287821769714,
          -0.3346378207206726,
          0.39539986848831177
        ]
      ],
      [
        [
          -0.0025816236156970263,
          -0.39977020025253296,
          0.03680107370018959
        ],
        [
          -0.12578560411930084,
          0.009076165966689587,
          0.18898214399814606
        ],
        [
          -0.04604136943817139,
          0.16304391622543335,
          0.00042658555321395397
        ]
      ],
      [
        [
          0.020158788189291954,
          0.15580400824546814,
          -0.045483339577913284
        ],
        [
          0.054719824343919754,
          0.32983097434043884,
          0.0872287005186081
        ],
        [
          -0.20406611263751984,
          0.08783924579620361,
          0.04769210144877434
        ]
      ],
      [
        [
          0.29025816917419434,
          0.4753584861755371,
          0.15963168442249298
        ],
        [
          0.24956077337265015,
          0.5505774021148682,
          0.1533472239971161
        ],
        [
          0.004335795063525438,
          0.29935193061828613,
          -0.1108706071972847
        ]
      ],
      [
        [
          -0.23641031980514526,
          0.1926984339952469,
          0.14818373322486877
        ],
        [
          -0.04306346923112869,
          0.3508935570716858,
          0.3616642355918884
        ],
        [
          0.008690171875059605,
          0.19361452758312225,
          0.08107129484415054
        ]
      ],
      [
        [
          0.5088807344436646,
          -0.09118252247571945,
          -0.025329481810331345
        ],
        [
          0.3928301930427551,
          0.3923809230327606,
          0.4671694338321686
        ],
        [
          0.260799765586853,
          0.7841036319732666,
          0.15368938446044922
        ]
      ],
      [
        [
          -0.11607576906681061,
          -0.021602055057883263,
          0.5581929087638855
        ],
        [
          -0.11930391192436218,
          0.14635415375232697,
          0.8029870390892029
        ],
        [
          -0.5483638048171997,
          0.060405436903238297,
          0.9063772559165955
        ]
      ],
      [
        [
          0.10439567267894745,
          0.11812827736139297,
          0.10173030942678452
        ],
        [
          0.0678987056016922,
          0.2025112807750702,
          0.22903300821781158
        ],
        [
          0.0471036322414875,
          0.19009599089622498,
          0.3079777657985687
        ]
      ],
      [
        [
          -0.07277423143386841,
          -0.35286322236061096,
          0.15532425045967102
        ],
        [
          -0.3018735647201538,
          -0.33880922198295593,
          0.3666389584541321
        ],
        [
          -0.16657428443431854,
          -0.03889855742454529,
          0.16882871091365814
        ]
      ],
      [
        [
          -0.3175494968891144,
          -0.14850108325481415,
          0.2735496163368225
        ],
        [
          -0.18908527493476868,
          0.012148294597864151,
          0.349048912525177
        ],
        [
          -0.2608523368835449,
          -0.13182573020458221,
          0.36356350779533386
        ]
      ],
      [
        [
          -0.14856725931167603,
          -0.19962948560714722,
          0.10572908818721771
        ],
        [
          -0.050649505108594894,
          -0.0802290216088295,
          0.34529051184654236
        ],
        [
          -0.048622213304042816,
          0.024482853710651398,
          0.030224312096834183
        ]
      ],
      [
        [
          -0.3066827058792114,
          0.06260021775960922,
          -0.033833231776952744
        ],
        [
          0.02832474187016487,
          -0.23789328336715698,
          0.07445560395717621
        ],
        [
          0.46324601769447327,
          -0.3015262484550476,
          0.3261003792285919
        ]
      ],
      [
        [
          -0.41225579380989075,
          0.1871868222951889,
          0.007000621873885393
        ],
        [
          0.3623180687427521,
          0.818443775177002,
          0.22841842472553253
        ],
        [
          0.23556137084960938,
          -0.2706298232078552,
          -0.2733851373195648
        ]
      ],
      [
        [
          -0.20517535507678986,
          0.06574562937021255,
          0.029185354709625244
        ],
        [
          -0.13935540616512299,
          0.11675882339477539,
          0.05192536860704422
        ],
        [
          -0.04532455652952194,
          -0.02484411559998989,
          0.13085994124412537
        ]
      ],
      [
        [
          0.2857630252838135,
          -0.20193883776664734,
          -0.010255149565637112
        ],
        [
          0.08576974272727966,
          -0.21196556091308594,
          -0.07447110861539841
        ],
        [
          0.06915248930454254,
          0.1145731657743454,
          0.07862928509712219
        ]
      ],
      [
        [
          -0.7304374575614929,
          0.03681989386677742,
          0.28492558002471924
        ],
        [
          -0.35733914375305176,
          -0.11807012557983398,
          0.1091010719537735
        ],
        [
          0.16836895048618317,
          -0.3234489858150482,
          0.37379518151283264
        ]
      ]
    ],
    [
      [
        [
          -0.6248134970664978,
          -0.7811574339866638,
          -0.289029985666275
        ],
        [
          -0.4827771782875061,
          -0.547789454460144,
          -0.1191314235329628
        ],
        [
          0.42614543437957764,
          0.23419703543186188,
          0.162925124168396
        ]
      ],
      [
        [
          -0.2823334336280823,
          0.24101565778255463,
          0.25736963748931885
        ],
        [
          0.06525827944278717,
          -0.34809136390686035,
          0.03263478726148605
        ],
        [
          -0.28890514373779297,
          -0.07605605572462082,
          -0.573344349861145
        ]
      ],
      [
        [
          -0.16467595100402832,
          0.3517995774745941,
          0.05437437444925308
        ],
        [
          0.09914503246545792,
          -0.3018677532672882,
          -0.18239274621009827
        ],
        [
          -0.15917393565177917,
          -0.8319551348686218,
          0.11698008328676224
        ]
      ],
      [
        [
          -1.6868544816970825,
          -0.7691401243209839,
          -0.6713701486587524
        ],
        [
          -0.1337975114583969,
          0.670329213142395,
          -0.05752124637365341
        ],
        [
          1.861917495727539,
          1.4163572788238525,
          0.12374866753816605
        ]
      ],
      [
        [
          0.13593707978725433,
          0.2611466944217682,
          0.6039146184921265
        ],
        [
          0.3598015606403351,
          0.557278037071228,
          0.15094351768493652
        ],
        [
          0.12258914858102798,
          -0.31159210205078125,
          -0.23600581288337708
        ]
      ],
      [
        [
          -0.6668254733085632,
          0.0724279060959816,
          -0.04279978573322296
        ],
        [
          0.671359658241272,
          -0.37627387046813965,
          -0.042920760810375214
        ],
        [
          0.6507842540740967,
          -0.2510867714881897,
          0.1500166654586792
        ]
      ],
      [
        [
          -0.2200341671705246,
          -0.38702571392059326,
          -0.049052122980356216
        ],
        [
          -0.4856283962726593,
          -0.433596134185791,
          -0.31975722312927246
        ],
        [
          -0.0977843850851059,
          -0.01486502680927515,
          -0.005153917707502842
        ]
      ],
      [
        [
          0.8808133602142334,
          0.5244231224060059,
          0.8340666890144348
        ],
        [
          0.39170822501182556,
          0.4348852336406708,
          0.16690419614315033
        ],
        [
          0.015099703334271908,
          0.28923559188842773,
          -0.10573245584964752
        ]
      ],
      [
        [
          0.05127032846212387,
          -0.233678936958313,
          0.1489046961069107
        ],
        [
          0.3669992983341217,
          0.10467854142189026,
          0.007631299085915089
        ],
        [
          0.12960562109947205,
          -0.13588003814220428,
          0.15116290748119354
        ]
      ],
      [
        [
          -1.543297529220581,
          -0.4698554277420044,
          -0.6808220148086548
        ],
        [
          0.01294942107051611,
          -0.4593694806098938,
          -0.509364664554596
        ],
        [
          1.1614097356796265,
          -0.10604311525821686,
          -0.3354286253452301
        ]
      ],
      [
        [
          -0.019957946613430977,
          0.29474708437919617,
          0.12770387530326843
        ],
        [
          0.048734817653894424,
          0.1250716894865036,
          -0.042160458862781525
        ],
        [
          0.13284650444984436,
          -0.12609800696372986,
          -0.14567947387695312
        ]
      ],
      [
        [
          -0.436238557100296,
          0.2644604742527008,
          0.22279135882854462
        ],
        [
          0.22201129794120789,
          0.5615792870521545,
          0.1580144166946411
        ],
        [
          0.3756435513496399,
          0.2351190447807312,
          -0.0035278978757560253
        ]
      ],
      [
        [
          -0.4196341931819916,
          0.18117132782936096,
          -0.06887911260128021
        ],
        [
          0.5605551600456238,
          0.06914163380861282,
          -0.10071222484111786
        ],
        [
          0.5705183744430542,
          -0.13034340739250183,
          -0.1836312711238861
        ]
      ],
      [
        [
          0.45887672901153564,
          0.04504481330513954,
          0.4819270372390747
        ],
        [
          0.3910089433193207,
          0.5077356696128845,
          0.1140253096818924
        ],
        [
          0.2030745893716812,
          0.3189232647418976,
          0.0011333602014929056
        ]
      ],
      [
        [
          0.9421640038490295,
          0.05263606831431389,
          -0.7564404010772705
        ],
        [
          -0.1556658297777176,
          -0.47257915139198303,
          -0.2156275361776352
        ],
        [
          -1.0542752742767334,
          -0.45392972230911255,
          0.22600680589675903
        ]
      ],
      [
        [
          -0.20770235359668732,
          0.4193543493747711,
          0.0893176794052124
        ],
        [
          0.4933273196220398,
          -0.8116167783737183,
          0.2328004091978073
        ],
        [
          -0.41047292947769165,
          0.6377824544906616,
          0.2710910737514496
        ]
      ],
      [
        [
          -0.1684996634721756,
          -0.003957525826990604,
          -0.21753235161304474
        ],
        [
          -0.09542763233184814,
          -0.13757061958312988,
          -0.03557617962360382
        ],
        [
          0.3587190508842468,
          -0.22739699482917786,
          0.20701459050178528
        ]
      ],
      [
        [
          -0.9071756601333618,
          -0.5609070658683777,
          -0.36401981115341187
        ],
        [
          0.24350154399871826,
          0.06551999598741531,
          -0.05388364568352699
        ],
        [
          0.47521257400512695,
          0.3759138882160187,
          -0.1333617866039276
        ]
      ],
      [
        [
          0.9134473204612732,
          0.5234147310256958,
          -0.8227953910827637
        ],
        [
          -0.42295095324516296,
          -0.577478289604187,
          -0.512964129447937
        ],
        [
          -1.4269975423812866,
          -0.6532598733901978,
          0.07167467474937439
        ]
      ]
    ],
    [
      [
        [
          -0.02779766358435154,
          -0.14553400874137878,
          -0.1276683360338211
        ],
        [
          -0.2356806993484497,
          -0.18230591714382172,
          -0.019706515595316887
        ],
        [
          -0.3377297818660736,
          0.06663874536752701,
          -0.03189229220151901
        ]
      ],
      [
        [
          0.351028174161911,
          -0.20015639066696167,
          -0.048566825687885284
        ],
        [
          0.03478693962097168,
          -0.22496847808361053,
          -0.013466672971844673
        ],
        [
          0.02153898775577545,
          -0.3071427345275879,
          -0.12419967353343964
        ]
      ],
      [
        [
          -0.13416187465190887,
          -0.1453016847372055,
          -0.16004730761051178
        ],
        [
          0.03944654390215874,
          -0.09826508909463882,
          -0.16508735716342926
        ],
        [
          -0.02625166065990925,
          -0.257247656583786,
          0.007850383408367634
        ]
      ],
      [
        [
          0.07946719229221344,
          0.2759178578853607,
          -0.05827264115214348
        ],
        [
          0.2508332133293152,
          0.2118273675441742,
          -0.13726814091205597
        ],
        [
          0.10006436705589294,
          0.23046740889549255,
          -0.04505526274442673
        ]
      ],
      [
        [
          -0.2672252655029297,
          -0.09379799664020538,
          0.03268733620643616
        ],
        [
          -0.13601703941822052,
          0.014962282031774521,
          -0.0946761965751648
        ],
        [
          0.12006373703479767,
          -0.021669793874025345,
          0.05819354206323624
        ]
      ],
      [
        [
          0.046945855021476746,
          -0.17509347200393677,
          0.02497275173664093
        ],
        [
          0.06518024951219559,
          -0.10871191322803497,
          0.03995335474610329
        ],
        [
          -0.09602334350347519,
          -0.11167184263467789,
          0.13163191080093384
        ]
      ],
      [
        [
          -0.01721961796283722,
          -0.05704360455274582,
          -0.13091760873794556
        ],
        [
          -0.2952592372894287,
          -0.0817129909992218,
          -0.03566362336277962
        ],
        [
          -0.11541903764009476,
          -0.1330600380897522,
          -0.07091211527585983
        ]
      ],
      [
        [
          0.06937845051288605,
          -0.10441208630800247,
          -0.05238724872469902
        ],
        [
          0.16310933232307434,
          0.027598636224865913,
          0.13266123831272125
        ],
        [
          0.27306631207466125,
          0.17549872398376465,
          0.1994149386882782
        ]
      ],
      [
        [
          0.13599766790866852,
          0.12687531113624573,
          0.05916910991072655
        ],
        [
          0.3196542263031006,
          0.054180487990379333,
          -0.1602523922920227
        ],
        [
          0.48587027192115784,
          0.08203332871198654,
          0.011146998964250088
        ]
      ],
      [
        [
          -0.19785970449447632,
          -0.619085431098938,
          -0.08166041225194931
        ],
        [
          -0.6322774887084961,
          -0.3409498631954193,
          -0.093421071767807
        ],
        [
          -0.6225526928901672,
          -0.15899361670017242,
          -0.001354485866613686
        ]
      ],
      [
        [
          -0.029292752966284752,
          -0.20030555129051208,
          -0.05877256393432617
        ],
        [
          0.01846333220601082,
          -0.16722717881202698,
          -0.06459362059831619
        ],
        [
          -0.03049667552113533,
          -0.21539561450481415,
          -0.10285194963216782
        ]
      ],
      [
        [
          -0.12075551599264145,
          0.06038607656955719,
          -0.03677493333816528
        ],
        [
          -0.26668334007263184,
          0.16399957239627838,
          -0.007671752944588661
        ],
        [
          -0.06674787402153015,
          0.14113196730613708,
          0.06960669904947281
        ]
      ],
      [
        [
          -0.05259297415614128,
          -0.2787914574146271,
          0.004866060800850391
        ],
        [
          0.018816132098436356,
          -0.1499696969985962,
          0.05287766456604004
        ],
        [
          -0.0061859628185629845,
          0.002228119410574436,
          0.08024386316537857
        ]
      ],
      [
        [
          -0.06022036820650101,
          -0.05783965811133385,
          -0.12058154493570328
        ],
        [
          -0.1841287761926651,
          0.12637996673583984,
          0.10323025286197662
        ],
        [
          -0.16952908039093018,
          0.26504236459732056,
          0.05356965214014053
        ]
      ],
      [
        [
          0.14279299974441528,
          -0.0031654268968850374,
          -0.31348058581352234
        ],
        [
          0.15328635275363922,
          -0.2860552668571472,
          -0.3551853597164154
        ],
        [
          -0.06552181392908096,
          -0.10681338608264923,
          -0.18614806234836578
        ]
      ],
      [
        [
          0.18146395683288574,
          0.01798584684729576,
          0.11683407425880432
        ],
        [
          0.564010739326477,
          0.18463096022605896,
          0.07900052517652512
        ],
        [
          0.20259547233581543,
          0.2715242803096771,
          0.06453579664230347
        ]
      ],
      [
        [
          0.014000738970935345,
          -0.17644865810871124,
          -0.08286930620670319
        ],
        [
          0.10342206805944443,
          -0.2339014858007431,
          -0.0269588865339756
        ],
        [
          0.13677671551704407,
          -0.23923474550247192,
          -0.024747589603066444
        ]
      ],
      [
        [
          -0.3836081027984619,
          0.19445154070854187,
          -0.11794885247945786
        ],
        [
          -0.539696455001831,
          0.38217365741729736,
          -0.2041204273700714
        ],
        [
          -0.3159419894218445,
          0.329657644033432,
          -0.06393402069807053
        ]
      ],
      [
        [
          0.03774347901344299,
          -0.2295084148645401,
          -0.3420568108558655
        ],
        [
          0.3069572150707245,
          -0.40787097811698914,
          -0.39186516404151917
        ],
        [
          0.1799154281616211,
          -0.15871839225292206,
          -0.26240697503089905
        ]
      ]
    ],
    [
      [
        [
          -0.7819529175758362,
          0.30268681049346924,
          0.38199764490127563
        ],
        [
          0.2611946165561676,
          -0.13321171700954437,
          -0.38608813285827637
        ],
        [
          0.6381612420082092,
          -0.3468616008758545,
          -0.21242304146289825
        ]
      ],
      [
        [
          -0.25568005442619324,
          -0.062153883278369904,
          -0.002847042866051197
        ],
        [
          -0.12130599468946457,
          -0.2701717019081116,
          -0.19717910885810852
        ],
        [
          0.39675626158714294,
          0.047279100865125656,
          0.13952778279781342
        ]
      ],
      [
        [
          -0.6583806276321411,
          0.5439713597297668,
          0.04411458969116211
        ],
        [
          -0.8272436261177063,
          -0.11631423234939575,
          0.42187821865081787
        ],
        [
          0.04423446208238602,
          -0.40307459235191345,
          0.18287776410579681
        ]
      ],
      [
        [
          0.2374592125415802,
          0.07535764575004578,
          0.4285440146923065
        ],
        [
          0.3749029338359833,
          0.09607065469026566,
          0.24661774933338165
        ],
        [
          0.15785335004329681,
          -0.345843642950058,
          0.09548752754926682
        ]
      ],
      [
        [
          -0.021726492792367935,
          0.1361934244632721,
          -0.23005793988704681
        ],
        [
          -0.540531575679779,
          0.18393313884735107,
          0.10311707109212875
        ],
        [
          -0.33645114302635193,
          0.16716161370277405,
          0.18956993520259857
        ]
      ],
      [
        [
          -0.05839432403445244,
          0.32724106311798096,
          0.00409100903198123
        ],
        [
          -0.43305328488349915,
          -0.3276474177837372,
          0.16519971191883087
        ],
        [
          0.291365385055542,
          -0.10351847112178802,
          0.015295690856873989
        ]
      ],
      [
        [
          -0.4123968482017517,
          0.06569386273622513,
          0.02373850904405117
        ],
        [
          -0.23521506786346436,
          -0.16015009582042694,
          -0.14523530006408691
        ],
        [
          0.43122801184654236,
          0.15926486253738403,
          0.19169940054416656
        ]
      ],
      [
        [
          -0.08358693867921829,
          0.19332891702651978,
          0.24814607203006744
        ],
        [
          0.003530096961185336,
          0.23985208570957184,
          0.4971679747104645
        ],
        [
          0.23112644255161285,
          0.29538363218307495,
          0.24564073979854584
        ]
      ],
      [
        [
          0.27508002519607544,
          0.00491190142929554,
          -0.20247724652290344
        ],
        [
          -0.6509191989898682,
          0.14207279682159424,
          -0.13700632750988007
        ],
        [
          -0.42287132143974304,
          0.020656632259488106,
          0.15436065196990967
        ]
      ],
      [
        [
          -0.8040009140968323,
          0.5868127346038818,
          -0.0530867837369442
        ],
        [
          0.10889596492052078,
          -0.04771049693226814,
          -0.21958494186401367
        ],
        [
          0.4697001874446869,
          -0.40376776456832886,
          -0.3238542675971985
        ]
      ],
      [
        [
          -0.0866544097661972,
          -0.10560993105173111,
          -0.09881771355867386
        ],
        [
          -0.21738077700138092,
          -0.06493905931711197,
          -0.11257429420948029
        ],
        [
          0.003134698374196887,
          -0.028125839307904243,
          0.09580406546592712
        ]
      ],
      [
        [
          -0.05005960911512375,
          -0.34493881464004517,
          -0.04078911617398262
        ],
        [
          0.1262487918138504,
          -0.10436481237411499,
          0.03455863147974014
        ],
        [
          -0.012574605643749237,
          -0.2339809238910675,
          0.07569999247789383
        ]
      ],
      [
        [
          -0.3241686224937439,
          0.30190902948379517,
          -0.058924250304698944
        ],
        [
          -0.05622801184654236,
          0.0928586795926094,
          0.043186355382204056
        ],
        [
          0.1075601875782013,
          0.0036551838275045156,
          -0.07877994328737259
        ]
      ],
      [
        [
          0.1800951063632965,
          0.485927551984787,
          0.31742918491363525
        ],
        [
          0.3775383532047272,
          0.2716079354286194,
          0.42517900466918945
        ],
        [
          0.38969042897224426,
          0.30957311391830444,
          0.26783111691474915
        ]
      ],
      [
        [
          0.5329885482788086,
          0.427543044090271,
          0.08955138921737671
        ],
        [
          -0.8504049181938171,
          0.43553560972213745,
          0.21183767914772034
        ],
        [
          -0.8807888031005859,
          -0.9687874913215637,
          0.17725351452827454
        ]
      ],
      [
        [
          0.2680109441280365,
          0.3386121988296509,
          0.44880256056785583
        ],
        [
          0.0694020688533783,
          -0.6376044750213623,
          -0.017745304852724075
        ],
        [
          0.3716542720794678,
          0.3032265603542328,
          -0.010282724164426327
        ]
      ],
      [
        [
          -0.14236034452915192,
          0.10964684188365936,
          -0.051203031092882156
        ],
        [
          -0.14773614704608917,
          -0.002007175935432315,
          0.233285591006279
        ],
        [
          -0.03548045828938484,
          -0.13311690092086792,
          0.12391785532236099
        ]
      ],
      [
        [
          -0.048754528164863586,
          0.09610021114349365,
          0.5680884122848511
        ],
        [
          0.6247274875640869,
          0.3753119707107544,
          0.1512635499238968
        ],
        [
          0.3661395013332367,
          0.2781672477722168,
          0.05674903467297554
        ]
      ],
      [
        [
          -0.025657201185822487,
          0.35472196340560913,
          0.0526682585477829
        ],
        [
          -1.092134714126587,
          0.20895560085773468,
          0.5481899976730347
        ],
        [
          -0.8174796104431152,
          -0.8285577893257141,
          0.36748456954956055
        ]
      ]
    ],
    [
      [
        [
          0.3341481387615204,
          -0.12855738401412964,
          -0.12018956989049911
        ],
        [
          0.6454225778579712,
          -0.4981807470321655,
          -0.2921392023563385
        ],
        [
          0.005061989650130272,
          0.021478069946169853,
          -0.06160370633006096
        ]
      ],
      [
        [
          -0.47557637095451355,
          -0.1635332554578781,
          -0.16156882047653198
        ],
        [
          -0.31603431701660156,
          -0.10414774715900421,
          -0.28392380475997925
        ],
        [
          0.17366133630275726,
          0.14017295837402344,
          -0.15271924436092377
        ]
      ],
      [
        [
          -0.8073216676712036,
          0.42706507444381714,
          0.15805663168430328
        ],
        [
          0.022838899865746498,
          0.15505141019821167,
          -0.10920830816030502
        ],
        [
          0.9455741047859192,
          0.3110295236110687,
          -0.47715556621551514
        ]
      ],
      [
        [
          1.803992748260498,
          -0.459465354681015,
          -0.1626080870628357
        ],
        [
          -0.32421326637268066,
          0.14778192341327667,
          0.0216091126203537
        ],
        [
          -0.8595110177993774,
          -0.3207804262638092,
          0.09091861546039581
        ]
      ],
      [
        [
          -0.5840685367584229,
          0.04793672263622284,
          -0.09978234022855759
        ],
        [
          -0.9310557842254639,
          -0.2842177748680115,
          0.025926465168595314
        ],
        [
          0.48476606607437134,
          0.2236430048942566,
          0.12545084953308105
        ]
      ],
      [
        [
          -0.5927608609199524,
          -0.060596998780965805,
          0.11299166083335876
        ],
        [
          -0.31816795468330383,
          -0.3060362637042999,
          0.0882994756102562
        ],
        [
          0.866247832775116,
          0.0012611927231773734,
          -0.19574180245399475
        ]
      ],
      [
        [
          0.304048091173172,
          0.07430768758058548,
          -0.08425289392471313
        ],
        [
          0.3664315938949585,
          -0.3165459632873535,
          -0.08001911640167236
        ],
        [
          0.18173183500766754,
          -0.07871479541063309,
          -0.00463087996467948
        ]
      ],
      [
        [
          0.2560514211654663,
          0.13078749179840088,
          -0.13194793462753296
        ],
        [
          -0.7487097382545471,
          -0.0690278634428978,
          -0.11124538630247116
        ],
        [
          -0.2872956395149231,
          0.0020303302444517612,
          0.0019751042127609253
        ]
      ],
      [
        [
          -0.6201618909835815,
          0.44978368282318115,
          -0.19630199670791626
        ],
        [
          -1.257132887840271,
          -0.4061304032802582,
          -0.19022488594055176
        ],
        [
          0.29113274812698364,
          0.2599451243877411,
          0.1494632065296173
        ]
      ],
      [
        [
          0.16352491080760956,
          -0.0792713537812233,
          -0.12695646286010742
        ],
        [
          0.6129157543182373,
          -0.26037633419036865,
          -0.12260862439870834
        ],
        [
          0.6515986323356628,
          -0.034568365663290024,
          -0.27373141050338745
        ]
      ],
      [
        [
          -0.17467662692070007,
          0.13836099207401276,
          -0.05865398049354553
        ],
        [
          -0.20104087889194489,
          -0.13215984404087067,
          -0.0438753105700016
        ],
        [
          0.06165691092610359,
          -0.033663757145404816,
          -0.09506800770759583
        ]
      ],
      [
        [
          -0.07215814292430878,
          -0.05340447276830673,
          -0.09939809888601303
        ],
        [
          -0.5076979994773865,
          0.03432212397456169,
          0.007222466170787811
        ],
        [
          -0.15006984770298004,
          0.23715373873710632,
          0.08925812691450119
        ]
      ],
      [
        [
          -0.10353576391935349,
          -0.04052542522549629,
          -0.026198353618383408
        ],
        [
          0.0923146903514862,
          -0.1811113804578781,
          0.015606381930410862
        ],
        [
          0.382622092962265,
          -0.08833414316177368,
          -0.04088041931390762
        ]
      ],
      [
        [
          0.9930185079574585,
          0.06885748356580734,
          0.08431623131036758
        ],
        [
          -0.3806515634059906,
          -0.03966580703854561,
          0.09923373907804489
        ],
        [
          -0.03974854573607445,
          0.10508682578802109,
          0.17165394127368927
        ]
      ],
      [
        [
          0.7480179667472839,
          1.036380410194397,
          -0.26076897978782654
        ],
        [
          -0.44242486357688904,
          0.005751620978116989,
          -0.014660589396953583
        ],
        [
          -0.24408651888370514,
          -1.306830883026123,
          -0.09536631405353546
        ]
      ],
      [
        [
          -0.032608259469270706,
          -0.2692539393901825,
          -0.2324744015932083
        ],
        [
          0.020626654848456383,
          -0.5781797766685486,
          -0.42437103390693665
        ],
        [
          0.18686887621879578,
          -0.04180574417114258,
          0.16794472932815552
        ]
      ],
      [
        [
          -0.09276185184717178,
          0.10379768908023834,
          -0.020793480798602104
        ],
        [
          -0.0968213751912117,
          -0.15743091702461243,
          0.02681858092546463
        ],
        [
          0.18126681447029114,
          0.01628151163458824,
          -0.012096512131392956
        ]
      ],
      [
        [
          0.43934938311576843,
          -0.42232951521873474,
          0.14426454901695251
        ],
        [
          0.2625296711921692,
          0.28326505422592163,
          0.2696262001991272
        ],
        [
          -0.4041876792907715,
          0.6815910935401917,
          0.19046315550804138
        ]
      ],
      [
        [
          0.1686629056930542,
          1.0812243223190308,
          -0.2958877384662628
        ],
        [
          -0.30510854721069336,
          0.26672741770744324,
          -0.40284672379493713
        ],
        [
          0.46409371495246887,
          -1.1503326892852783,
          -0.3667215406894684
        ]
      ]
    ],
    [
      [
        [
          -0.2556292712688446,
          -0.32634973526000977,
          -0.06822636723518372
        ],
        [
          -0.5036277174949646,
          -0.9436122179031372,
          -0.16173912584781647
        ],
        [
          0.17078280448913574,
          0.03735143691301346,
          0.04450400546193123
        ]
      ],
      [
        [
          -0.1530061960220337,
          0.09294402599334717,
          -0.1370285153388977
        ],
        [
          -0.3380381166934967,
          -0.3253684937953949,
          0.0643862783908844
        ],
        [
          -0.11848101764917374,
          -0.45049619674682617,
          0.010535657405853271
        ]
      ],
      [
        [
          0.7186645865440369,
          0.40146633982658386,
          -1.277916669845581
        ],
        [
          -0.4369830787181854,
          -0.6216738224029541,
          -0.5460819005966187
        ],
        [
          0.21889257431030273,
          -0.6936068534851074,
          0.12942366302013397
        ]
      ],
      [
        [
          0.5844353437423706,
          -0.34152844548225403,
          -0.08054309338331223
        ],
        [
          0.510640025138855,
          -0.3661815822124481,
          -0.22526288032531738
        ],
        [
          -0.41961026191711426,
          -0.33560729026794434,
          -0.19579769670963287
        ]
      ],
      [
        [
          0.3346894383430481,
          0.660507082939148,
          0.02768350951373577
        ],
        [
          -0.16563066840171814,
          0.38849934935569763,
          0.11867135018110275
        ],
        [
          -0.5973110795021057,
          -0.28798139095306396,
          0.2030615210533142
        ]
      ],
      [
        [
          0.8572332262992859,
          0.6504381895065308,
          -0.42801129817962646
        ],
        [
          -0.3893580138683319,
          0.015534669160842896,
          0.1552049219608307
        ],
        [
          -0.4533678889274597,
          -0.19421911239624023,
          0.12760332226753235
        ]
      ],
      [
        [
          -0.39997032284736633,
          -0.3594112992286682,
          -0.6310418844223022
        ],
        [
          -0.3705722987651825,
          -0.5716282725334167,
          -0.42172735929489136
        ],
        [
          -0.19315434992313385,
          0.0016515980241820216,
          0.09786724299192429
        ]
      ],
      [
        [
          0.7277262210845947,
          0.5131446123123169,
          0.6177932024002075
        ],
        [
          -0.19828850030899048,
          0.2376193255186081,
          1.1117587089538574
        ],
        [
          -0.059998780488967896,
          0.1151280626654625,
          0.7387062311172485
        ]
      ],
      [
        [
          -0.4870380163192749,
          0.5556190609931946,
          -0.3386172354221344
        ],
        [
          -0.11328571289777756,
          0.44355320930480957,
          -0.4042607545852661
        ],
        [
          -0.20117825269699097,
          -0.05242293328046799,
          -0.2278519570827484
        ]
      ],
      [
        [
          1.3921327590942383,
          -0.05427515506744385,
          -0.6091803908348083
        ],
        [
          -0.11217287927865982,
          -0.36481973528862,
          -0.2378559708595276
        ],
        [
          -0.07622190564870834,
          0.3908316493034363,
          0.426683634519577
        ]
      ],
      [
        [
          -0.01796111837029457,
          0.2506408989429474,
          -0.13903045654296875
        ],
        [
          -0.0561215803027153,
          0.0050824424251914024,
          -0.19183294475078583
        ],
        [
          -0.12787897884845734,
          -0.15402425825595856,
          -0.009425855241715908
        ]
      ],
      [
        [
          0.3129061758518219,
          0.5750451683998108,
          0.541388988494873
        ],
        [
          0.07743717730045319,
          0.48980477452278137,
          0.4301731288433075
        ],
        [
          -0.28151753544807434,
          0.29622912406921387,
          0.40372639894485474
        ]
      ],
      [
        [
          0.5861498713493347,
          0.3412705063819885,
          -0.09526805579662323
        ],
        [
          -0.31307148933410645,
          0.01808864250779152,
          0.17608211934566498
        ],
        [
          -0.35207509994506836,
          -0.057252854108810425,
          0.22341936826705933
        ]
      ],
      [
        [
          0.40356865525245667,
          0.5925263166427612,
          0.7046986818313599
        ],
        [
          -0.34039437770843506,
          0.5344633460044861,
          0.9236415028572083
        ],
        [
          -0.24890466034412384,
          0.3285219967365265,
          0.5606399178504944
        ]
      ],
      [
        [
          0.47597536444664,
          -1.0978482961654663,
          0.048116832971572876
        ],
        [
          -0.20615588128566742,
          -0.38299575448036194,
          -0.3667157292366028
        ],
        [
          -0.3392603099346161,
          0.40243661403656006,
          -0.4290409982204437
        ]
      ],
      [
        [
          -0.538611114025116,
          -0.5200043320655823,
          1.2038439512252808
        ],
        [
          -0.7219186425209045,
          -1.0267270803451538,
          0.6580342650413513
        ],
        [
          0.17206168174743652,
          -0.5649468898773193,
          -0.3410208523273468
        ]
      ],
      [
        [
          0.36806249618530273,
          0.2036305069923401,
          -0.23266057670116425
        ],
        [
          0.004571938421577215,
          0.004551592282950878,
          -0.05558165907859802
        ],
        [
          -0.1981963962316513,
          -0.32904136180877686,
          0.03757128491997719
        ]
      ],
      [
        [
          0.039672356098890305,
          -0.15884944796562195,
          0.1857864409685135
        ],
        [
          -0.13074666261672974,
          -0.23093678057193756,
          -0.1499459445476532
        ],
        [
          -0.4309121370315552,
          0.200591579079628,
          0.06079057231545448
        ]
      ],
      [
        [
          0.8350831270217896,
          -1.084559440612793,
          0.3656230866909027
        ],
        [
          -0.31746527552604675,
          -0.41120097041130066,
          0.31874528527259827
        ],
        [
          -0.3652500510215759,
          0.03520096465945244,
          -0.26682785153388977
        ]
      ]
    ],
    [
      [
        [
          -0.10623323172330856,
          0.3510458171367645,
          -0.08045878261327744
        ],
        [
          -0.005353855434805155,
          -0.4247910976409912,
          0.17820145189762115
        ],
        [
          -0.05928722023963928,
          -0.7232422828674316,
          -0.08213499188423157
        ]
      ],
      [
        [
          -0.09345608949661255,
          3.577145253075287e-05,
          0.03532037138938904
        ],
        [
          -0.31795167922973633,
          -0.5075924396514893,
          -0.0808238834142685
        ],
        [
          -0.2731822729110718,
          -0.3858931362628937,
          0.04600164666771889
        ]
      ],
      [
        [
          0.01556437648832798,
          0.15003161132335663,
          0.1111951470375061
        ],
        [
          -0.2313845157623291,
          -0.1398589015007019,
          0.3160068392753601
        ],
        [
          -0.27411335706710815,
          -0.4860352873802185,
          0.3455943167209625
        ]
      ],
      [
        [
          -0.16812656819820404,
          -0.1505298763513565,
          0.08766762167215347
        ],
        [
          -0.1924309879541397,
          0.17558453977108002,
          -0.055463749915361404
        ],
        [
          -0.1530105322599411,
          0.31151559948921204,
          -0.09601754695177078
        ]
      ],
      [
        [
          0.18765653669834137,
          0.13745757937431335,
          0.030681263655424118
        ],
        [
          -0.14636200666427612,
          0.13121512532234192,
          0.03235526382923126
        ],
        [
          -0.0360264852643013,
          -0.14634138345718384,
          0.2545676827430725
        ]
      ],
      [
        [
          -0.07190492004156113,
          -0.02435668371617794,
          -0.11958803981542587
        ],
        [
          -0.17924702167510986,
          -0.4059924781322479,
          0.03626153990626335
        ],
        [
          -0.1310041844844818,
          -0.3513837456703186,
          0.2772602438926697
        ]
      ],
      [
        [
          -0.10112883150577545,
          0.23385591804981232,
          0.006016278639435768
        ],
        [
          -0.09723988175392151,
          -0.21465055644512177,
          0.06887923926115036
        ],
        [
          0.01336253434419632,
          -0.29250267148017883,
          0.10143130272626877
        ]
      ],
      [
        [
          -0.08836029469966888,
          0.10877090692520142,
          0.05279849097132683
        ],
        [
          -0.016589121893048286,
          0.06845693290233612,
          0.21958115696907043
        ],
        [
          -0.019885128363966942,
          -0.021302752196788788,
          0.5857782959938049
        ]
      ],
      [
        [
          0.23172122240066528,
          0.012300444766879082,
          -0.14074921607971191
        ],
        [
          -0.025942055508494377,
          0.11282523721456528,
          -0.2146124243736267
        ],
        [
          -0.08442448079586029,
          -0.0288243368268013,
          -0.06309836357831955
        ]
      ],
      [
        [
          -0.26637452840805054,
          0.6983187198638916,
          -0.24501241743564606
        ],
        [
          -0.23567260801792145,
          -0.3639200031757355,
          0.09292510896921158
        ],
        [
          -0.3169082701206207,
          -1.0573400259017944,
          0.0015398464165627956
        ]
      ],
      [
        [
          0.010465954430401325,
          -0.010960009880363941,
          -0.11673995107412338
        ],
        [
          -0.07145968824625015,
          -0.10206708312034607,
          -0.0035392462741583586
        ],
        [
          -0.03080284222960472,
          -0.19365400075912476,
          -0.02348567359149456
        ]
      ],
      [
        [
          -0.13690534234046936,
          -0.012255054898560047,
          -0.16965532302856445
        ],
        [
          -0.08717264235019684,
          -0.03767218068242073,
          -0.1822175532579422
        ],
        [
          0.015523779205977917,
          -0.37048834562301636,
          0.061879344284534454
        ]
      ],
      [
        [
          -0.00527847558259964,
          0.26287415623664856,
          -0.1505529135465622
        ],
        [
          -0.0004709581844508648,
          0.01988702081143856,
          -0.049676038324832916
        ],
        [
          0.0533798411488533,
          -0.20418106019496918,
          0.005428853444755077
        ]
      ],
      [
        [
          -0.1509927213191986,
          0.33726537227630615,
          -0.11561883985996246
        ],
        [
          -0.08094653487205505,
          0.04198507219552994,
          0.004889864008873701
        ],
        [
          0.0341402143239975,
          -0.16781024634838104,
          0.17248207330703735
        ]
      ],
      [
        [
          0.1793162077665329,
          0.20748740434646606,
          0.7168380618095398
        ],
        [
          0.0029978195670992136,
          0.2909598648548126,
          0.32136037945747375
        ],
        [
          -0.07348395138978958,
          -0.29406026005744934,
          0.2541523277759552
        ]
      ],
      [
        [
          0.18055880069732666,
          0.3525513708591461,
          0.34654170274734497
        ],
        [
          -0.04348733276128769,
          -0.6447501182556152,
          0.29786157608032227
        ],
        [
          -0.01211990974843502,
          0.1488954871892929,
          0.11166270822286606
        ]
      ],
      [
        [
          -0.13804033398628235,
          -0.003033466637134552,
          -0.09659630060195923
        ],
        [
          -0.11913570016622543,
          -0.10195343941450119,
          0.03615642338991165
        ],
        [
          0.053307220339775085,
          -0.28425511717796326,
          0.08147810399532318
        ]
      ],
      [
        [
          -0.10541950166225433,
          0.21157805621623993,
          -0.07413001358509064
        ],
        [
          -0.03472355753183365,
          -0.04249457269906998,
          -0.14978116750717163
        ],
        [
          0.0024378474336117506,
          -0.3732716739177704,
          -0.04816281050443649
        ]
      ],
      [
        [
          -0.07052712142467499,
          0.40667015314102173,
          0.7334271669387817
        ],
        [
          -0.1873999536037445,
          0.08689295500516891,
          0.5537983775138855
        ],
        [
          -0.31188806891441345,
          -0.42905640602111816,
          0.43347740173339844
        ]
      ]
    ],
    [
      [
        [
          -0.7840394973754883,
          0.5311626195907593,
          0.6750056147575378
        ],
        [
          0.03666507452726364,
          0.33869680762290955,
          0.15908578038215637
        ],
        [
          0.30017730593681335,
          -0.040434036403894424,
          -0.1777397096157074
        ]
      ],
      [
        [
          -0.1467190682888031,
          0.2135510891675949,
          0.06966253370046616
        ],
        [
          -0.07709387689828873,
          0.0590105801820755,
          0.02980867028236389
        ],
        [
          -0.20649074018001556,
          0.02617158554494381,
          -0.29864954948425293
        ]
      ],
      [
        [
          0.3516344726085663,
          0.024823080748319626,
          0.562113881111145
        ],
        [
          -0.08967224508523941,
          0.2364497035741806,
          0.17386990785598755
        ],
        [
          -0.1265709102153778,
          0.38484781980514526,
          -0.41866257786750793
        ]
      ],
      [
        [
          -0.6986305713653564,
          -0.5251084566116333,
          -0.24597026407718658
        ],
        [
          0.8411414623260498,
          -0.5443284511566162,
          -0.13804757595062256
        ],
        [
          0.7850880026817322,
          -0.22301813960075378,
          0.1116001158952713
        ]
      ],
      [
        [
          0.6841585636138916,
          0.0941896066069603,
          -0.1519383192062378
        ],
        [
          0.1270195096731186,
          -0.021855296567082405,
          -0.11255529522895813
        ],
        [
          -0.044411223381757736,
          -0.009752136655151844,
          -0.1212143674492836
        ]
      ],
      [
        [
          0.15236152708530426,
          0.17884233593940735,
          -0.10096216946840286
        ],
        [
          -0.11883579194545746,
          0.16371546685695648,
          -0.3462718427181244
        ],
        [
          0.24078138172626495,
          -0.05707106739282608,
          -0.24578288197517395
        ]
      ],
      [
        [
          0.10037070512771606,
          0.5980246663093567,
          0.7231593728065491
        ],
        [
          0.2640230357646942,
          0.4003361165523529,
          -0.014658786356449127
        ],
        [
          -0.010034076869487762,
          0.5043826103210449,
          -0.2560439705848694
        ]
      ],
      [
        [
          -0.27059778571128845,
          0.3123645484447479,
          -0.36657777428627014
        ],
        [
          -0.84869784116745,
          -0.2958831191062927,
          -0.5463306307792664
        ],
        [
          0.0763368308544159,
          -0.21318700909614563,
          -0.6063770651817322
        ]
      ],
      [
        [
          0.584256649017334,
          0.07139556854963303,
          0.16521412134170532
        ],
        [
          -0.10251554101705551,
          -0.19150006771087646,
          0.14113043248653412
        ],
        [
          -1.0867551565170288,
          -0.16373515129089355,
          0.04015899822115898
        ]
      ],
      [
        [
          -0.6320671439170837,
          -0.10875770449638367,
          0.4534648060798645
        ],
        [
          0.10127414762973785,
          -0.20918944478034973,
          -0.20513944327831268
        ],
        [
          1.3972572088241577,
          -0.10103233903646469,
          -0.3378327488899231
        ]
      ],
      [
        [
          -0.0005941357230767608,
          -0.026239512488245964,
          0.10897170007228851
        ],
        [
          -0.11174143850803375,
          0.05886635184288025,
          -0.032696858048439026
        ],
        [
          -0.2928871512413025,
          0.11005731672048569,
          -0.09008747339248657
        ]
      ],
      [
        [
          -0.31224554777145386,
          -0.27798083424568176,
          -0.19386707246303558
        ],
        [
          -0.12983332574367523,
          -0.4336830675601959,
          -0.22174511849880219
        ],
        [
          0.4193437397480011,
          -0.10542437434196472,
          -0.17448797821998596
        ]
      ],
      [
        [
          -0.04111970588564873,
          0.02782202698290348,
          -0.03537539392709732
        ],
        [
          0.08114836364984512,
          -0.010544882155954838,
          -0.17840906977653503
        ],
        [
          0.5421098470687866,
          -0.03577832132577896,
          -0.06310146301984787
        ]
      ],
      [
        [
          -0.2394203096628189,
          0.12199867516756058,
          -0.46283090114593506
        ],
        [
          -0.16888785362243652,
          -0.28064408898353577,
          -0.4411245286464691
        ],
        [
          0.3833656311035156,
          -0.16502521932125092,
          -0.4082607626914978
        ]
      ],
      [
        [
          -1.0297571420669556,
          -1.3936353921890259,
          0.955501139163971
        ],
        [
          1.2321139574050903,
          -0.27865445613861084,
          0.6554864048957825
        ],
        [
          -0.09837266802787781,
          0.714519739151001,
          0.1593806892633438
        ]
      ],
      [
        [
          -0.7829503417015076,
          0.256224125623703,
          -0.4834897816181183
        ],
        [
          -0.839670717716217,
          -0.166643887758255,
          -0.1707889288663864
        ],
        [
          -0.04484260827302933,
          -0.43707275390625,
          -0.03114156424999237
        ]
      ],
      [
        [
          0.25036609172821045,
          -0.003323905635625124,
          0.059600938111543655
        ],
        [
          0.09956248104572296,
          0.0267061535269022,
          -0.095191590487957
        ],
        [
          0.11173601448535919,
          -0.022114163264632225,
          0.007031968794763088
        ]
      ],
      [
        [
          -0.4483756422996521,
          -0.007975712418556213,
          0.05152681842446327
        ],
        [
          0.1648666113615036,
          -0.3049597144126892,
          -0.0645902082324028
        ],
        [
          0.8553288578987122,
          -0.13186115026474,
          -0.08785665780305862
        ]
      ],
      [
        [
          -0.623356282711029,
          -1.311202049255371,
          0.4524969756603241
        ],
        [
          0.7912898659706116,
          -0.5468933582305908,
          0.18088749051094055
        ],
        [
          0.04041827470064163,
          0.536469042301178,
          -0.3624650835990906
        ]
      ]
    ],
    [
      [
        [
          -0.01930885575711727,
          0.5795981884002686,
          -0.16196170449256897
        ],
        [
          0.7244625687599182,
          0.3691946566104889,
          -0.015441465191543102
        ],
        [
          0.39195945858955383,
          0.15116000175476074,
          -0.22900542616844177
        ]
      ],
      [
        [
          -0.17860984802246094,
          -0.1876385509967804,
          -0.08359196037054062
        ],
        [
          -0.8170503973960876,
          -0.046621378511190414,
          -0.1349945366382599
        ],
        [
          -0.5168877840042114,
          -0.02909168042242527,
          -0.2184249758720398
        ]
      ],
      [
        [
          0.9423224329948425,
          -1.085471272468567,
          0.2798718810081482
        ],
        [
          0.06064667925238609,
          -0.1914641261100769,
          0.20082615315914154
        ],
        [
          -0.713229775428772,
          0.2457098811864853,
          0.12736797332763672
        ]
      ],
      [
        [
          -0.03714917600154877,
          0.29733407497406006,
          0.32912760972976685
        ],
        [
          0.22009101510047913,
          -0.3267515003681183,
          0.18565556406974792
        ],
        [
          0.5636138319969177,
          -0.5409072637557983,
          0.07550584524869919
        ]
      ],
      [
        [
          0.654276430606842,
          0.09872167557477951,
          -0.021504970267415047
        ],
        [
          0.2645886242389679,
          -0.23207110166549683,
          0.17783033847808838
        ],
        [
          -0.5354412794113159,
          -0.07046827673912048,
          -0.2700543999671936
        ]
      ],
      [
        [
          0.9943879246711731,
          -0.43947339057922363,
          0.27847132086753845
        ],
        [
          -0.35695144534111023,
          0.1440238356590271,
          0.18986287713050842
        ],
        [
          -1.15914785861969,
          0.23218661546707153,
          0.013521459884941578
        ]
      ],
      [
        [
          0.2169235795736313,
          0.26765918731689453,
          0.07336115092039108
        ],
        [
          0.8656343817710876,
          0.07132326066493988,
          0.141751229763031
        ],
        [
          0.2581722140312195,
          -0.14520610868930817,
          -0.1900395303964615
        ]
      ],
      [
        [
          0.24444043636322021,
          -0.33577102422714233,
          0.1355869472026825
        ],
        [
          -0.8102906942367554,
          0.14421901106834412,
          0.18760886788368225
        ],
        [
          -0.17320777475833893,
          0.08361198008060455,
          0.1655411571264267
        ]
      ],
      [
        [
          0.38296517729759216,
          0.031181450933218002,
          0.044718291610479355
        ],
        [
          0.8685358762741089,
          -0.2851974666118622,
          0.5263081192970276
        ],
        [
          -0.4223605990409851,
          -0.16486036777496338,
          -0.10652464628219604
        ]
      ],
      [
        [
          1.7480522394180298,
          0.5164597630500793,
          -0.15887898206710815
        ],
        [
          1.021583080291748,
          -0.1735830157995224,
          -0.24224147200584412
        ],
        [
          -1.7097282409667969,
          0.17705826461315155,
          -0.22093923389911652
        ]
      ],
      [
        [
          -0.047713492065668106,
          -0.2650603950023651,
          -0.05767432972788811
        ],
        [
          -0.33180272579193115,
          -0.34693121910095215,
          0.004822261165827513
        ],
        [
          -0.5303356051445007,
          0.10709060728549957,
          0.036359019577503204
        ]
      ],
      [
        [
          0.5830811858177185,
          0.5659812092781067,
          -0.03898373618721962
        ],
        [
          -0.42441296577453613,
          -0.25456199049949646,
          0.16301438212394714
        ],
        [
          -0.8927587866783142,
          0.1305004209280014,
          0.05125712975859642
        ]
      ],
      [
        [
          0.4491505026817322,
          -0.04803052917122841,
          -0.2475356012582779
        ],
        [
          -0.2721407115459442,
          -0.056371740996837616,
          -0.3097117245197296
        ],
        [
          -0.6554341912269592,
          0.11771097034215927,
          -0.08631078153848648
        ]
      ],
      [
        [
          -0.04429960995912552,
          0.010774181224405766,
          -0.1768781542778015
        ],
        [
          -0.7352677583694458,
          -0.303615927696228,
          -0.14796677231788635
        ],
        [
          -0.37878403067588806,
          -0.17698760330677032,
          -0.019206617027521133
        ]
      ],
      [
        [
          -1.2499722242355347,
          -0.7034856677055359,
          -0.41741788387298584
        ],
        [
          -0.5379062294960022,
          0.18946318328380585,
          -0.7639583945274353
        ],
        [
          2.3923747539520264,
          0.10162242501974106,
          -0.6485820412635803
        ]
      ],
      [
        [
          0.08624663949012756,
          0.15457415580749512,
          0.28943195939064026
        ],
        [
          -1.0026291608810425,
          0.8265426158905029,
          -0.01968550682067871
        ],
        [
          -0.05914262309670448,
          0.026706697419285774,
          -0.30137258768081665
        ]
      ],
      [
        [
          0.27424415946006775,
          -0.17163380980491638,
          0.16409263014793396
        ],
        [
          0.013013270683586597,
          0.05421800538897514,
          -0.07063019275665283
        ],
        [
          -0.23808075487613678,
          0.17936846613883972,
          -0.14230206608772278
        ]
      ],
      [
        [
          0.1691426932811737,
          0.45216694474220276,
          -0.5074788928031921
        ],
        [
          0.5301341414451599,
          -0.5388444662094116,
          -0.37172165513038635
        ],
        [
          -0.4219951033592224,
          -0.600649893283844,
          -0.3745938539505005
        ]
      ],
      [
        [
          -0.7055651545524597,
          -0.6765400171279907,
          -0.30438488721847534
        ],
        [
          -0.9479051828384399,
          0.059256747364997864,
          -0.521803081035614
        ],
        [
          1.4862209558486938,
          0.11861395835876465,
          -0.13181017339229584
        ]
      ]
    ],
    [
      [
        [
          0.05902913585305214,
          0.08933936059474945,
          0.1488027274608612
        ],
        [
          0.06256967037916183,
          -0.0487515851855278,
          0.23126694560050964
        ],
        [
          -0.19270996749401093,
          -0.053116023540496826,
          0.024656033143401146
        ]
      ],
      [
        [
          0.11325449496507645,
          0.321213960647583,
          0.08732698112726212
        ],
        [
          -0.10389743745326996,
          0.19092382490634918,
          0.04448345676064491
        ],
        [
          -0.27814412117004395,
          -0.1736387014389038,
          0.09059809148311615
        ]
      ],
      [
        [
          0.33367374539375305,
          0.530097246170044,
          -0.225081205368042
        ],
        [
          -0.18611003458499908,
          0.6114462614059448,
          -0.13331907987594604
        ],
        [
          -0.10906621813774109,
          0.06186462938785553,
          0.08540080487728119
        ]
      ],
      [
        [
          -0.3958775997161865,
          -0.19800354540348053,
          -0.07233060151338577
        ],
        [
          0.9037045240402222,
          -0.27032074332237244,
          -0.15771041810512543
        ],
        [
          -0.05591036006808281,
          -0.04092679172754288,
          -0.18450510501861572
        ]
      ],
      [
        [
          -0.12250564247369766,
          -0.3831309676170349,
          -0.24768492579460144
        ],
        [
          -0.12526001036167145,
          -0.020595617592334747,
          -0.0367695651948452
        ],
        [
          -0.47630932927131653,
          0.07004810124635696,
          -0.059547509998083115
        ]
      ],
      [
        [
          0.4398154318332672,
          0.5026800036430359,
          -0.1793317049741745
        ],
        [
          -0.025959428399801254,
          0.36894306540489197,
          0.028098581358790398
        ],
        [
          0.14029571413993835,
          0.03162664175033569,
          0.08550845086574554
        ]
      ],
      [
        [
          -0.3843728303909302,
          -0.19352856278419495,
          -0.057611096650362015
        ],
        [
          -0.08664655685424805,
          -0.022020816802978516,
          0.01239022333174944
        ],
        [
          -0.4078550338745117,
          -0.13750025629997253,
          0.08298813551664352
        ]
      ],
      [
        [
          -0.04234573245048523,
          0.07130776345729828,
          0.009996229782700539
        ],
        [
          0.898373007774353,
          0.34865808486938477,
          0.2021694928407669
        ],
        [
          0.12346737831830978,
          0.47537508606910706,
          0.37190327048301697
        ]
      ],
      [
        [
          -0.40418189764022827,
          -0.4963666498661041,
          -0.026333816349506378
        ],
        [
          -0.01294104102998972,
          0.21279151737689972,
          -0.11825929582118988
        ],
        [
          -0.7619140148162842,
          0.13058416545391083,
          -0.06583023816347122
        ]
      ],
      [
        [
          0.1231716200709343,
          -0.23919884860515594,
          -0.3052467703819275
        ],
        [
          -0.019754111766815186,
          -0.38804540038108826,
          -0.25461575388908386
        ],
        [
          0.7212215662002563,
          -0.19070063531398773,
          -0.30621013045310974
        ]
      ],
      [
        [
          -0.14170973002910614,
          -0.021609604358673096,
          0.0037004139740020037
        ],
        [
          -0.019963134080171585,
          0.06599520891904831,
          -0.06359746307134628
        ],
        [
          -0.29566726088523865,
          0.02048170007765293,
          -0.11369327455759048
        ]
      ],
      [
        [
          -0.2756384015083313,
          -0.2970806658267975,
          0.03224925324320793
        ],
        [
          0.1249195858836174,
          -0.2512131333351135,
          -0.033834245055913925
        ],
        [
          0.08032739162445068,
          0.1153850182890892,
          -0.18140572309494019
        ]
      ],
      [
        [
          0.09928318858146667,
          0.019840382039546967,
          -0.15045568346977234
        ],
        [
          -0.11810478568077087,
          -0.10804746299982071,
          0.02529812976717949
        ],
        [
          0.11141254752874374,
          -0.14134669303894043,
          -0.02288650907576084
        ]
      ],
      [
        [
          0.2355133295059204,
          -0.05250126123428345,
          -0.06719750910997391
        ],
        [
          0.30541712045669556,
          0.056135423481464386,
          0.1056000366806984
        ],
        [
          -0.059305332601070404,
          0.23187747597694397,
          0.04013684019446373
        ]
      ],
      [
        [
          0.378410279750824,
          -0.8525434136390686,
          -0.2233172357082367
        ],
        [
          0.8790411949157715,
          -0.6050920486450195,
          -0.48507821559906006
        ],
        [
          -0.9394170045852661,
          -0.22951045632362366,
          0.12648501992225647
        ]
      ],
      [
        [
          0.1143268421292305,
          0.3155107796192169,
          0.15865661203861237
        ],
        [
          -0.017738768830895424,
          0.08601219207048416,
          0.18407997488975525
        ],
        [
          0.540639340877533,
          -0.3919479548931122,
          0.21712961792945862
        ]
      ],
      [
        [
          0.13013248145580292,
          0.12805774807929993,
          -0.04306204989552498
        ],
        [
          0.09366562962532043,
          0.22627827525138855,
          -0.03817347437143326
        ],
        [
          0.09651271253824234,
          -0.03321826830506325,
          -0.037081558257341385
        ]
      ],
      [
        [
          -0.43488815426826477,
          -0.033591508865356445,
          0.059828270226716995
        ],
        [
          -0.38544154167175293,
          -0.6899496912956238,
          -0.14408931136131287
        ],
        [
          -0.09688572585582733,
          -0.15825079381465912,
          -0.2296103984117508
        ]
      ],
      [
        [
          0.26933860778808594,
          -1.1063498258590698,
          -0.36895427107810974
        ],
        [
          0.37551626563072205,
          -0.6374914050102234,
          -0.13942334055900574
        ],
        [
          -0.7263767123222351,
          -0.2313147336244583,
          0.28378912806510925
        ]
      ]
    ]
  ],
  "bn2.running_mean": [
    2.146726131439209,
    1.8073627948760986,
    1.8515547513961792,
    2.514324426651001,
    1.9485094547271729,
    1.722720980644226,
    1.882660984992981,
    2.0916075706481934,
    2.856445550918579,
    1.338001012802124,
    1.0787479877471924,
    1.7866637706756592,
    1.4769736528396606,
    1.9653578996658325,
    2.8287179470062256,
    2.110140800476074,
    0.9887031316757202,
    1.7037510871887207,
    2.5958924293518066
  ],
  "bn2.running_var": [
    2.712529182434082,
    1.7410809993743896,
    1.3317428827285767,
    24.234779357910156,
    1.949051022529602,
    1.089397668838501,
    2.6714906692504883,
    3.854339599609375,
    2.953171968460083,
    4.780276298522949,
    3.635376453399658,
    1.874732494354248,
    1.60463285446167,
    1.6804275512695312,
    58.431461334228516,
    7.668724060058594,
    1.2925695180892944,
    2.6509010791778564,
    20.817964553833008
  ],
  "bn2.num_batches_tracked": 10410,
  "conv2.weight": [
    [
      [
        [
          -0.2150048315525055,
          0.48072993755340576,
          0.4191769063472748
        ],
        [
          0.13851507008075714,
          0.08172976970672607,
          0.38908037543296814
        ],
        [
          0.4136766493320465,
          -0.2710438072681427,
          0.27885374426841736
        ]
      ],
      [
        [
          -0.2833346426486969,
          -0.16666747629642487,
          0.10994933545589447
        ],
        [
          -0.4365968406200409,
          -0.0799904316663742,
          0.07560892403125763
        ],
        [
          -0.06862718611955643,
          -0.2569173574447632,
          -0.03800361976027489
        ]
      ],
      [
        [
          -0.5691013932228088,
          0.457533597946167,
          -0.16759374737739563
        ],
        [
          -0.8619309663772583,
          -0.11502083390951157,
          -0.08676935732364655
        ],
        [
          -0.7603700160980225,
          -0.44377776980400085,
          0.23992595076560974
        ]
      ],
      [
        [
          -0.8334342241287231,
          -0.450908899307251,
          -0.2696860134601593
        ],
        [
          -0.21041862666606903,
          -0.21323324739933014,
          -0.21699605882167816
        ],
        [
          0.2300182580947876,
          -0.3238776922225952,
          -0.27785682678222656
        ]
      ],
      [
        [
          0.04542779549956322,
          -0.07873469591140747,
          -0.16714918613433838
        ],
        [
          -0.5405403971672058,
          -0.281386137008667,
          -0.3026089668273926
        ],
        [
          -0.6790542602539062,
          -0.3662916123867035,
          -0.14327450096607208
        ]
      ],
      [
        [
          0.03188750520348549,
          0.4898832142353058,
          -0.6448241472244263
        ],
        [
          0.04501011595129967,
          0.28182974457740784,
          -0.17220580577850342
        ],
        [
          -0.3550907075405121,
          -0.10147517919540405,
          0.6542601585388184
        ]
      ],
      [
        [
          -0.38995233178138733,
          -1.016247034072876,
          0.7186629176139832
        ],
        [
          0.16782636940479279,
          -0.15533435344696045,
          0.23201680183410645
        ],
        [
          0.2989009618759155,
          0.2402104139328003,
          0.02490159310400486
        ]
      ],
      [
        [
          0.1938398778438568,
          0.4680987596511841,
          0.43678271770477295
        ],
        [
          -0.5920838117599487,
          -0.08778078854084015,
          -0.1904604136943817
        ],
        [
          -0.7172478437423706,
          -0.06713559478521347,
          -0.3146894574165344
        ]
      ],
      [
        [
          -0.4191277027130127,
          -0.08569663763046265,
          0.007442655507475138
        ],
        [
          -0.5226309299468994,
          -0.05077492445707321,
          0.20502588152885437
        ],
        [
          -0.6478554010391235,
          0.2925439178943634,
          0.1840374618768692
        ]
      ],
      [
        [
          -0.0920502170920372,
          -0.6516119837760925,
          -0.19426760077476501
        ],
        [
          1.2252594232559204,
          0.3466859459877014,
          -0.6600595712661743
        ],
        [
          0.46386197209358215,
          0.6737700700759888,
          -0.6127693057060242
        ]
      ],
      [
        [
          -1.2848268747329712,
          0.0875215008854866,
          0.10272692888975143
        ],
        [
          -0.8225333094596863,
          -0.5844569206237793,
          -0.3066997826099396
        ],
        [
          0.8004981279373169,
          -0.7589077353477478,
          -0.05924093350768089
        ]
      ],
      [
        [
          0.3803708553314209,
          -0.26939353346824646,
          0.44348201155662537
        ],
        [
          -0.6139088869094849,
          -0.30327343940734863,
          -0.22435349225997925
        ],
        [
          -0.27195242047309875,
          0.11520525813102722,
          -0.2020600140094757
        ]
      ]
    ],
    [
      [
        [
          -0.2287461906671524,
          -0.24937544763088226,
          0.20432700216770172
        ],
        [
          0.050101760774850845,
          -0.28578630089759827,
          0.3764607012271881
        ],
        [
          0.1019735187292099,
          -0.09278173744678497,
          0.1890309900045395
        ]
      ],
      [
        [
          0.17902904748916626,
          0.1899539977312088,
          0.32736101746559143
        ],
        [
          -0.27007561922073364,
          -0.03268926963210106,
          0.15600070357322693
        ],
        [
          -0.3937588036060333,
          -0.14840340614318848,
          -0.06073237583041191
        ]
      ],
      [
        [
          -0.3799658715724945,
          0.12768955528736115,
          -0.3011046350002289
        ],
        [
          -0.7610500454902649,
          -0.29461875557899475,
          -0.3935805559158325
        ],
        [
          -1.1044398546218872,
          -0.4591449499130249,
          -0.7954676151275635
        ]
      ],
      [
        [
          -0.2921437919139862,
          -0.41086745262145996,
          0.041925229132175446
        ],
        [
          -0.06883155554533005,
          -0.2614668905735016,
          0.19387778639793396
        ],
        [
          -0.6429699659347534,
          -0.7556301951408386,
          -0.320512592792511
        ]
      ],
      [
        [
          0.27421703934669495,
          -0.2197718769311905,
          -0.023223280906677246
        ],
        [
          -0.21799899637699127,
          -0.17070816457271576,
          -0.14135070145130157
        ],
        [
          -0.4987014830112457,
          -0.15096203982830048,
          -0.1365496665239334
        ]
      ],
      [
        [
          -0.17335166037082672,
          -0.09183422476053238,
          -0.16503138840198517
        ],
        [
          -0.08580028265714645,
          0.12078232318162918,
          -0.23923259973526
        ],
        [
          -0.5869339108467102,
          -0.3252275884151459,
          -0.04253792017698288
        ]
      ],
      [
        [
          -0.5329038500785828,
          -0.24140416085720062,
          -0.2419293224811554
        ],
        [
          0.4590652585029602,
          -0.28077372908592224,
          0.37680789828300476
        ],
        [
          0.5728060007095337,
          0.004268425051122904,
          0.11575700342655182
        ]
      ],
      [
        [
          0.17260396480560303,
          0.3853278160095215,
          0.47349128127098083
        ],
        [
          -0.016018392518162727,
          0.012111762538552284,
          -0.3484777808189392
        ],
        [
          -0.7273640632629395,
          0.1488501876592636,
          -0.5624542236328125
        ]
      ],
      [
        [
          -0.3316556513309479,
          -0.03488196060061455,
          -0.06785621494054794
        ],
        [
          -0.39080071449279785,
          0.051298901438713074,
          -0.11422635614871979
        ],
        [
          -0.37947672605514526,
          -0.17686404287815094,
          0.06349693238735199
        ]
      ],
      [
        [
          0.35593459010124207,
          0.30141517519950867,
          0.007237700279802084
        ],
        [
          0.6044768691062927,
          0.18200339376926422,
          0.06642960757017136
        ],
        [
          -0.896386981010437,
          -0.541506826877594,
          -0.09510625898838043
        ]
      ],
      [
        [
          -0.2180655151605606,
          0.2899612784385681,
          -0.12475987523794174
        ],
        [
          -0.6128040552139282,
          -0.04476165398955345,
          -0.47873225808143616
        ],
        [
          -0.4878692626953125,
          -0.47283297777175903,
          -0.7517328262329102
        ]
      ],
      [
        [
          1.2749910354614258,
          -0.0328516885638237,
          0.5603679418563843
        ],
        [
          0.026278015226125717,
          -0.015656013041734695,
          -0.26168376207351685
        ],
        [
          -0.8000603318214417,
          0.010442289523780346,
          0.024506032466888428
        ]
      ]
    ],
    [
      [
        [
          -0.11219704896211624,
          -0.367917001247406,
          -0.14744378626346588
        ],
        [
          -0.12046165764331818,
          -0.17005953192710876,
          -0.1957274079322815
        ],
        [
          -0.2537931501865387,
          -0.1944742500782013,
          -0.45955613255500793
        ]
      ],
      [
        [
          -0.07059120386838913,
          -0.19581778347492218,
          0.2671990394592285
        ],
        [
          -0.3561716377735138,
          -0.5534749031066895,
          0.19483840465545654
        ],
        [
