module.exports = {
  "conv0.weight": [
    [
      [
        [
          0.26510685682296753,
          -0.023189933970570564,
          -0.4121328294277191
        ],
        [
          -0.04724296182394028,
          -0.22490252554416656,
          0.24572277069091797
        ],
        [
          -0.026449846103787422,
          0.4661931097507477,
          0.3589853346347809
        ]
      ]
    ],
    [
      [
        [
          -1.136558175086975,
          -0.4907313585281372,
          -0.44493567943573
        ],
        [
          -1.007494330406189,
          -1.0047636032104492,
          -0.8051685094833374
        ],
        [
          2.0418708324432373,
          1.7717090845108032,
          1.7367852926254272
        ]
      ]
    ],
    [
      [
        [
          -1.1266632080078125,
          -0.08926296979188919,
          0.25872859358787537
        ],
        [
          0.43994757533073425,
          0.3304104506969452,
          0.4421493709087372
        ],
        [
          0.40943071246147156,
          0.5013995170593262,
          0.5805954337120056
        ]
      ]
    ],
    [
      [
        [
          -0.22675193846225739,
          -0.3906174600124359,
          -0.3888929486274719
        ],
        [
          -0.2342243641614914,
          -0.37066149711608887,
          -0.6959773302078247
        ],
        [
          0.00704001123085618,
          -0.34880882501602173,
          -0.43948233127593994
        ]
      ]
    ],
    [
      [
        [
          -1.5983349084854126,
          1.836161494255066,
          0.10996782779693604
        ],
        [
          0.3556230366230011,
          0.5510156750679016,
          -0.4331617057323456
        ],
        [
          1.7215101718902588,
          -1.5130616426467896,
          -0.30906742811203003
        ]
      ]
    ],
    [
      [
        [
          -0.7998292446136475,
          0.05835241451859474,
          -0.13873690366744995
        ],
        [
          -0.14198137819766998,
          -0.2560287117958069,
          -0.2333262711763382
        ],
        [
          1.0528209209442139,
          0.24416767060756683,
          0.27155178785324097
        ]
      ]
    ],
    [
      [
        [
          1.1066808700561523,
          -0.8139160871505737,
          -0.049619533121585846
        ],
        [
          -0.1740635335445404,
          -0.14270810782909393,
          -0.5596505999565125
        ],
        [
          -0.6753432750701904,
          1.3336049318313599,
          -0.3931421637535095
        ]
      ]
    ],
    [
      [
        [
          -0.18698769807815552,
          0.6203166842460632,
          -0.9362562894821167
        ],
        [
          0.029236940667033195,
          0.14105473458766937,
          0.019426001235842705
        ],
        [
          0.7535384297370911,
          -0.5439545512199402,
          0.10114781558513641
        ]
      ]
    ],
    [
      [
        [
          0.047312796115875244,
          1.1228951215744019,
          -0.061776481568813324
        ],
        [
          0.07066964358091354,
          0.16923899948596954,
          -0.23760132491588593
        ],
        [
          -0.0016454715514555573,
          -0.9023241996765137,
          -0.48582616448402405
        ]
      ]
    ],
    [
      [
        [
          0.16021963953971863,
          0.8016047477722168,
          -0.6865124702453613
        ],
        [
          0.13106143474578857,
          0.30258992314338684,
          -0.29447823762893677
        ],
        [
          0.2473665475845337,
          0.3898838758468628,
          -0.5876772999763489
        ]
      ]
    ],
    [
      [
        [
          -0.24314703047275543,
          -0.5337191224098206,
          0.15173672139644623
        ],
        [
          0.1417941153049469,
          0.018111011013388634,
          -0.1450670212507248
        ],
        [
          0.26750215888023376,
          0.8376784920692444,
          -0.1209079772233963
        ]
      ]
    ],
    [
      [
        [
          -0.24395664036273956,
          0.8116528391838074,
          -0.4098781943321228
        ],
        [
          -0.3048066198825836,
          -0.032890938222408295,
          -1.051835298538208
        ],
        [
          -0.11263661831617355,
          -0.3754138648509979,
          -0.8100528120994568
        ]
      ]
    ],
    [
      [
        [
          0.1722647100687027,
          0.42563655972480774,
          0.052071694284677505
        ],
        [
          0.49837756156921387,
          -0.4543066620826721,
          0.5436989665031433
        ],
        [
          0.5232334136962891,
          -0.9570883512496948,
          0.22633682191371918
        ]
      ]
    ],
    [
      [
        [
          -0.9466624855995178,
          0.7825345993041992,
          0.18723762035369873
        ],
        [
          0.139377623796463,
          0.28703969717025757,
          -0.39932000637054443
        ],
        [
          1.057662844657898,
          -0.6631594300270081,
          -0.452962189912796
        ]
      ]
    ],
    [
      [
        [
          0.9033287763595581,
          0.03675767034292221,
          -0.8569938540458679
        ],
        [
          0.11643314361572266,
          0.04271252825856209,
          -0.0360935740172863
        ],
        [
          -0.6937445998191833,
          -0.011650105938315392,
          0.8967412710189819
        ]
      ]
    ],
    [
      [
        [
          -1.2626930475234985,
          -0.061289187520742416,
          0.34111377596855164
        ],
        [
          0.19725386798381805,
          0.2431386411190033,
          0.4567500352859497
        ],
        [
          1.1634819507598877,
          0.2556910216808319,
          -0.17999760806560516
        ]
      ]
    ],
    [
      [
        [
          0.11729132384061813,
          0.32947099208831787,
          0.4186750650405884
        ],
        [
          -0.2932368814945221,
          -0.43322134017944336,
          0.036085352301597595
        ],
        [
          -0.5204625725746155,
          -0.5275114178657532,
          0.08827006816864014
        ]
      ]
    ],
    [
      [
        [
          0.4546894133090973,
          0.02070128172636032,
          -0.40460866689682007
        ],
        [
          0.1087491437792778,
          -0.20261743664741516,
          -0.3095340132713318
        ],
        [
          -0.22761261463165283,
          0.2619483172893524,
          -0.15612727403640747
        ]
      ]
    ],
    [
      [
        [
          0.3223300874233246,
          0.05446523427963257,
          0.637005090713501
        ],
        [
          -0.34315329790115356,
          -0.026869215071201324,
          0.7798023223876953
        ],
        [
          -1.1843171119689941,
          -0.15672022104263306,
          0.5592823624610901
        ]
      ]
    ],
    [
      [
        [
          -0.13584697246551514,
          -0.0511668398976326,
          0.39680930972099304
        ],
        [
          -0.2714815139770508,
          0.19536177814006805,
          0.046491481363773346
        ],
        [
          0.14048942923545837,
          0.2659878730773926,
          -0.49722397327423096
        ]
      ]
    ],
    [
      [
        [
          1.0058704614639282,
          0.15390503406524658,
          0.48640957474708557
        ],
        [
          0.7920365333557129,
          0.8076030015945435,
          0.5190749764442444
        ],
        [
          -1.6330270767211914,
          -0.7976138591766357,
          -1.2724664211273193
        ]
      ]
    ],
    [
      [
        [
          0.99289870262146,
          1.0410982370376587,
          1.1471014022827148
        ],
        [
          -0.33346349000930786,
          -0.41104623675346375,
          -0.5615509748458862
        ],
        [
          -0.515652060508728,
          -0.5352920889854431,
          -0.816997766494751
        ]
      ]
    ],
    [
      [
        [
          0.8394109010696411,
          -1.3586833477020264,
          0.33682602643966675
        ],
        [
          0.3704724907875061,
          -0.17707937955856323,
          -0.3030143678188324
        ],
        [
          -0.7135581970214844,
          1.63815176486969,
          -0.8437061905860901
        ]
      ]
    ],
    [
      [
        [
          0.07695060223340988,
          -0.18138077855110168,
          0.18477563560009003
        ],
        [
          0.11895430088043213,
          -0.10560335963964462,
          -0.01644914038479328
        ],
        [
          -0.16679565608501434,
          0.39270684123039246,
          -0.2456021010875702
        ]
      ]
    ],
    [
      [
        [
          0.1731387823820114,
          0.042462896555662155,
          0.542856752872467
        ],
        [
          -0.45647314190864563,
          0.04202347993850708,
          0.3475874364376068
        ],
        [
          0.04193486273288727,
          -0.005648416932672262,
          -0.6737750172615051
        ]
      ]
    ],
    [
      [
        [
          0.08362175524234772,
          -0.31384482979774475,
          -0.6970821619033813
        ],
        [
          -0.12112385034561157,
          0.06951694190502167,
          -0.17634466290473938
        ],
        [
          0.3794877827167511,
          0.5594919323921204,
          0.4028507471084595
        ]
      ]
    ],
    [
      [
        [
          0.8680820465087891,
          0.32785093784332275,
          0.15748584270477295
        ],
        [
          -1.1079071760177612,
          -0.6977395415306091,
          -0.43572700023651123
        ],
        [
          0.5221835374832153,
          0.7072845101356506,
          -0.022033298388123512
        ]
      ]
    ],
    [
      [
        [
          -0.020239636301994324,
          0.9214391112327576,
          -0.6549100279808044
        ],
        [
          0.2546761929988861,
          -0.11483145505189896,
          -0.21387207508087158
        ],
        [
          0.052113763988018036,
          -0.6404858231544495,
          0.0963490828871727
        ]
      ]
    ],
    [
      [
        [
          0.608143150806427,
          0.2495471090078354,
          -0.027278726920485497
        ],
        [
          0.030182303860783577,
          -0.044554293155670166,
          0.07588356733322144
        ],
        [
          -0.11038514226675034,
          0.030956575646996498,
          -0.44139039516448975
        ]
      ]
    ],
    [
      [
        [
          0.42698630690574646,
          -0.523288905620575,
          -0.41030949354171753
        ],
        [
          -0.07977017015218735,
          -0.3875599801540375,
          -0.42613983154296875
        ],
        [
          -0.08774721622467041,
          1.190447211265564,
          0.18228912353515625
        ]
      ]
    ],
    [
      [
        [
          -0.07398204505443573,
          0.14367032051086426,
          -0.37893372774124146
        ],
        [
          0.3090948462486267,
          -0.12051283568143845,
          -0.3441479504108429
        ],
        [
          0.4766216278076172,
          -0.11289913207292557,
          0.0836748406291008
        ]
      ]
    ],
    [
      [
        [
          -0.15318618714809418,
          -0.3104584813117981,
          -0.48609575629234314
        ],
        [
          -0.38606610894203186,
          0.30427929759025574,
          0.32500195503234863
        ],
        [
          0.7090593576431274,
          0.11725228279829025,
          0.16645224392414093
        ]
      ]
    ],
    [
      [
        [
          -0.47075197100639343,
          -0.5022941827774048,
          -0.6781546473503113
        ],
        [
          0.9333266019821167,
          1.1146034002304077,
          0.45097553730010986
        ],
        [
          -0.2710212767124176,
          -0.08431818336248398,
          -0.22728444635868073
        ]
      ]
    ],
    [
      [
        [
          -1.608276605606079,
          1.2460672855377197,
          -0.4029228687286377
        ],
        [
          0.0937064066529274,
          0.1066129058599472,
          -0.659104585647583
        ],
        [
          1.7823412418365479,
          -1.145629644393921,
          -0.1451580673456192
        ]
      ]
    ],
    [
      [
        [
          0.035505831241607666,
          0.7377099990844727,
          0.12166246771812439
        ],
        [
          -0.3843372166156769,
          -0.5009270906448364,
          -0.2770424485206604
        ],
        [
          0.5353981256484985,
          -0.06351828575134277,
          0.195032000541687
        ]
      ]
    ],
    [
      [
        [
          0.2492508590221405,
          0.28869524598121643,
          -0.29877448081970215
        ],
        [
          -0.07410033047199249,
          0.20446260273456573,
          -0.04465370997786522
        ],
        [
          -0.31965047121047974,
          -0.24961350858211517,
          0.260118305683136
        ]
      ]
    ],
    [
      [
        [
          0.9529757499694824,
          1.0689523220062256,
          1.2397189140319824
        ],
        [
          0.4524843990802765,
          0.26856210827827454,
          -0.15770411491394043
        ],
        [
          -1.0177017450332642,
          -1.1598479747772217,
          -1.015495777130127
        ]
      ]
    ],
    [
      [
        [
          0.04001179710030556,
          -0.1466563642024994,
          -0.06070849299430847
        ],
        [
          0.15817922353744507,
          0.37097781896591187,
          0.2521480321884155
        ],
        [
          0.008166111074388027,
          -0.11063100397586823,
          -0.12299638241529465
        ]
      ]
    ],
    [
      [
        [
          0.8530977964401245,
          -0.30803143978118896,
          -0.5553794503211975
        ],
        [
          0.2568294107913971,
          0.27297526597976685,
          -0.018849926069378853
        ],
        [
          -0.511854887008667,
          0.8105725646018982,
          -0.27704325318336487
        ]
      ]
    ],
    [
      [
        [
          -0.15901106595993042,
          0.5952390432357788,
          -0.7321510314941406
        ],
        [
          0.16821780800819397,
          0.29006707668304443,
          -0.1704726368188858
        ],
        [
          0.38791996240615845,
          -0.8721432089805603,
          1.064244031906128
        ]
      ]
    ],
    [
      [
        [
          -1.9588394165039062,
          -0.6294665932655334,
          -1.2609889507293701
        ],
        [
          0.4304506480693817,
          0.5049901008605957,
          0.26493126153945923
        ],
        [
          1.5322177410125732,
          0.14502763748168945,
          0.8430529832839966
        ]
      ]
    ],
    [
      [
        [
          0.05787570774555206,
          -0.2565075159072876,
          0.08521996438503265
        ],
        [
          -0.06747188419103622,
          -0.44401293992996216,
          -0.5749699473381042
        ],
        [
          0.18215696513652802,
          0.6044479012489319,
          0.5857629179954529
        ]
      ]
    ],
    [
      [
        [
          0.8541655540466309,
          0.32062020897865295,
          -0.1094784289598465
        ],
        [
          -0.0013568808790296316,
          0.10422678291797638,
          0.13013477623462677
        ],
        [
          -0.6644539833068848,
          0.08878794312477112,
          0.24314549565315247
        ]
      ]
    ],
    [
      [
        [
          1.0695230960845947,
          -0.21333011984825134,
          -0.002133376896381378
        ],
        [
          0.11834288388490677,
          0.17525917291641235,
          -0.6390688419342041
        ],
        [
          -1.1917009353637695,
          0.08855517953634262,
          0.21323652565479279
        ]
      ]
    ],
    [
      [
        [
          1.643121361732483,
          -1.1679447889328003,
          -0.9121987223625183
        ],
        [
          0.22267790138721466,
          0.4032481610774994,
          -0.48771417140960693
        ],
        [
          -1.6020790338516235,
          1.6919368505477905,
          0.30091676115989685
        ]
      ]
    ]
  ],
  "bn1.running_mean": [
    2.0007476806640625,
    0.11641920357942581,
    1.0895482301712036,
    2.045165777206421,
    0.475507527589798,
    4.077495574951172,
    1.8245630264282227,
    3.5423855781555176,
    2.964853525161743
  ],
  "bn1.running_var": [
    30.51412010192871,
    3.403546094894409,
    24.336301803588867,
    58.827125549316406,
    23.348772048950195,
    152.77366638183594,
    46.13289260864258,
    57.1167106628418,
    106.18907928466797
  ],
  "bn1.num_batches_tracked": 10410,
  "scale1.scale": [
    0.5234883427619934,
    0.5582408905029297,
    0.657440185546875,
    0.6963950991630554,
    0.7478353381156921,
    0.7945946455001831,
    0.804000973701477,
    0.8057748675346375,
    0.8597036004066467
  ],
  "scale1.drop_indices": [
    33,
    42,
    41,
    8,
    36,
    3,
    7,
    23,
    37,
    39,
    29,
    31,
    20,
    24,
    40,
    21,
    10,
    30,
    4,
    13,
    12,
    35,
    1,
    2,
    27,
    34,
    9,
    0,
    25,
    16,
    32,
    11,
    18,
    6,
    15,
    19
  ],
  "scale1.keep_indices": [
    5,
    14,
    38,
    26,
    17,
    22,
    44,
    28,
    43
  ],
  "conv1.weight": [
    [
      [
        [
          0.028709042817354202,
          -0.05996410548686981,
          -0.0028935701120644808
        ],
        [
          -0.018224360421299934,
          -0.01242697611451149,
          0.07041095942258835
        ],
        [
          -0.12950780987739563,
          -0.05332551896572113,
          -0.04091085121035576
        ]
      ],
      [
        [
          0.35641202330589294,
          -0.06284115463495255,
          0.024948619306087494
        ],
        [
          -0.19215689599514008,
          0.1550014317035675,
          0.4746624231338501
        ],
        [
          -0.07114306837320328,
          0.0959678441286087,
          0.2503686249256134
        ]
      ],
      [
        [
          0.43611374497413635,
          -0.005528580397367477,
          -0.09397279471158981
        ],
        [
          0.40875327587127686,
          -0.07938215881586075,
          -0.12052128463983536
        ],
        [
          -0.1945042610168457,
          -0.07517877966165543,
          -0.027956673875451088
        ]
      ],
      [
        [
          -0.137482687830925,
          -0.009562050923705101,
          0.4167538583278656
        ],
        [
          -0.3305444121360779,
          -0.14718839526176453,
          0.13224874436855316
        ],
        [
          0.3148437738418579,
          -0.13567595183849335,
          -0.46087178587913513
        ]
      ],
      [
        [
          -0.3263174593448639,
          -0.05492738261818886,
          0.08648426085710526
        ],
        [
          -0.02784801833331585,
          0.06663808226585388,
          0.16102002561092377
        ],
        [
          -0.17064069211483002,
          0.17777039110660553,
          0.3373293876647949
        ]
      ],
      [
        [
          -0.10226041078567505,
          -0.012388892471790314,
          -0.11109074205160141
        ],
        [
          -0.17972604930400848,
          0.02551528811454773,
          0.04953715577721596
        ],
        [
          -0.16586899757385254,
          -0.060315776616334915,
          0.10863856971263885
        ]
      ],
      [
        [
          0.031795684248209,
          -0.15348149836063385,
          0.06495451182126999
        ],
        [
          0.06688236445188522,
          -0.09722405672073364,
          0.13882821798324585
        ],
        [
          -0.16792161762714386,
          0.09465634822845459,
          -5.882323603145778e-05
        ]
      ],
      [
        [
          -0.07682855427265167,
          -0.12545639276504517,
          0.018088728189468384
        ],
        [
          0.0764198750257492,
          -0.12749367952346802,
          0.007575114723294973
        ],
        [
          -0.06899873912334442,
          -0.05308324098587036,
          0.06976457685232162
        ]
      ],
      [
        [
          -0.21377041935920715,
          -0.006338522769510746,
          0.16722051799297333
        ],
        [
          0.038946863263845444,
          0.056963566690683365,
          0.1564752161502838
        ],
        [
          -0.11287149041891098,
          0.12593047320842743,
          0.1399867683649063
        ]
      ],
      [
        [
          0.47521570324897766,
          -0.029640045017004013,
          -0.06042563170194626
        ],
        [
          0.6593294143676758,
          -0.3867608308792114,
          -0.12781551480293274
        ],
        [
          -0.27569204568862915,
          -0.0825619250535965,
          -0.06071515008807182
        ]
      ],
      [
        [
          0.11889126896858215,
          -0.051474831998348236,
          -0.056576602160930634
        ],
        [
          0.005912477150559425,
          0.02900564670562744,
          -0.038519371300935745
        ],
        [
          -0.14344537258148193,
          -0.10871759057044983,
          0.005421411246061325
        ]
      ],
      [
        [
          0.23948326706886292,
          0.2645445168018341,
          0.37696874141693115
        ],
        [
          -0.40491804480552673,
          0.23018133640289307,
          0.12868443131446838
        ],
        [
          -0.3309970200061798,
          0.0526338666677475,
          -0.1860172599554062
        ]
      ],
      [
        [
          -0.10757356882095337,
          0.17721842229366302,
          0.05833497643470764
        ],
        [
          -0.6719102263450623,
          0.18903325498104095,
          0.16124467551708221
        ],
        [
          -0.7773330211639404,
          0.013465401716530323,
          0.16464096307754517
        ]
      ],
      [
        [
          -0.16667553782463074,
          -0.04822452366352081,
          0.08087998628616333
        ],
        [
          -0.11274271458387375,
          0.036326710134744644,
          0.06944780051708221
        ],
        [
          -0.03673529997467995,
          0.16724111139774323,
          0.13962163031101227
        ]
      ],
      [
        [
          -0.20592917501926422,
          -0.10205947607755661,
          -0.03793805092573166
        ],
        [
          0.08119110763072968,
          -0.10697903484106064,
          -0.020583005622029305
        ],
        [
          0.074726901948452,
          -0.0007163221016526222,
          0.048235319554805756
        ]
      ],
      [
        [
          0.10058950632810593,
          -0.1288343220949173,
          -0.16732311248779297
        ],
        [
          0.09780175983905792,
          -0.07663555443286896,
          -0.023588506504893303
        ],
        [
          -0.2659200131893158,
          -0.08524475991725922,
          0.1713782399892807
        ]
      ],
      [
        [
          0.4124020040035248,
          -0.1843511164188385,
          0.19064094126224518
        ],
        [
          0.4081875681877136,
          -0.26763877272605896,
          0.04968840256333351
        ],
        [
          -0.35198161005973816,
          0.05749425292015076,
          -0.15503239631652832
        ]
      ],
      [
        [
          0.13459673523902893,
          -0.011230934411287308,
          0.0762968510389328
        ],
        [
          0.23157557845115662,
          -0.04835592955350876,
          -0.024632951244711876
        ],
        [
          -0.1273612529039383,
          0.015900326892733574,
          -0.04427551105618477
        ]
      ],
      [
        [
          0.9606322050094604,
          -0.24802334606647491,
          0.09024865925312042
        ],
        [
          0.8363398313522339,
          -0.5176435708999634,
          0.07923313975334167
        ],
        [
          -0.5722204446792603,
          0.0683639794588089,
          -0.1463860273361206
        ]
      ],
      [
        [
          0.3487209975719452,
          -0.13860982656478882,
          -0.06846161186695099
        ],
        [
          0.033646754920482635,
          -0.25500571727752686,
          -0.013743394054472446
        ],
        [
          -0.580241858959198,
          -0.08224189281463623,
          -0.04440264031291008
        ]
      ],
      [
        [
          -0.28056755661964417,
          -0.08605934679508209,
          0.030297746881842613
        ],
        [
          0.07811016589403152,
          0.1484394371509552,
          -0.059599582105875015
        ],
        [
          -0.13429608941078186,
          0.15088258683681488,
          0.14091438055038452
        ]
      ],
      [
        [
          -0.18167535960674286,
          -0.15367163717746735,
          0.2280244380235672
        ],
        [
          0.09616132825613022,
          0.21358291804790497,
          0.07094329595565796
        ],
        [
          -0.05939817056059837,
          0.2123410552740097,
          0.06050337478518486
        ]
      ],
      [
        [
          0.24437807500362396,
          -0.1762206107378006,
          -0.11895962059497833
        ],
        [
          0.26019570231437683,
          -0.16087613999843597,
          -0.0359366238117218
        ],
        [
          -0.2696245610713959,
          0.09590622037649155,
          0.014058426022529602
        ]
      ],
      [
        [
          0.06071058288216591,
          -0.01062003429979086,
          -0.11166466027498245
        ],
        [
          0.011063715443015099,
          0.05812500789761543,
          -0.0854896605014801
        ],
        [
          -0.16229544579982758,
          0.09236108511686325,
          0.024075519293546677
        ]
      ],
      [
        [
          0.39386487007141113,
          -0.11884177476167679,
          0.1435888558626175
        ],
        [
          0.4028511047363281,
          -0.35437631607055664,
          0.11069665849208832
        ],
        [
          -0.23180054128170013,
          -0.11191228777170181,
          0.01507610734552145
        ]
      ],
      [
        [
          0.349376380443573,
          -0.053287606686353683,
          -0.0666043683886528
        ],
        [
          0.38966214656829834,
          -0.11720632761716843,
          -0.0736599788069725
        ],
        [
          -0.02734261378645897,
          -0.06757715344429016,
          -0.08396677672863007
        ]
      ],
      [
        [
          0.0985272005200386,
          0.007518441416323185,
          -0.06001663953065872
        ],
        [
          0.13801513612270355,
          0.004594677127897739,
          -0.018085692077875137
        ],
        [
          0.023262707516551018,
          0.05840393900871277,
          0.13071198761463165
        ]
      ],
      [
        [
          -0.009249486960470676,
          -0.026477742940187454,
          0.20853666961193085
        ],
        [
          -0.07017283141613007,
          0.0123802050948143,
          0.17562690377235413
        ],
        [
          -0.06261494755744934,
          0.07857298105955124,
          -0.008878774009644985
        ]
      ],
      [
        [
          0.01115411426872015,
          -0.05404021963477135,
          0.09204395860433578
        ],
        [
          0.16351982951164246,
          -0.07212021946907043,
          0.13543525338172913
        ],
        [
          -0.13576576113700867,
          0.08658571541309357,
          0.1837386041879654
        ]
      ],
      [
        [
          0.19852709770202637,
          -0.13823202252388,
          -0.025432998314499855
        ],
        [
          0.22205503284931183,
          -0.11610850691795349,
          0.010893459431827068
        ],
        [
          -0.2149352878332138,
          0.06706060469150543,
          -0.02328968234360218
        ]
      ],
      [
        [
          0.16620375216007233,
          -0.09511196613311768,
          0.28811216354370117
        ],
        [
          -0.10644014179706573,
          -0.22367754578590393,
          0.30843639373779297
        ],
        [
          -0.37293216586112976,
          -0.11413178592920303,
          0.13047972321510315
        ]
      ],
      [
        [
          0.10292239487171173,
          0.0005626089405268431,
          -0.10496129095554352
        ],
        [
          -0.07881571352481842,
          0.07359723001718521,
          0.008146319538354874
        ],
        [
          -0.10248182713985443,
          -0.05341166630387306,
          0.03203986585140228
        ]
      ],
      [
        [
          0.03194061294198036,
          -0.04627416282892227,
          -0.03871540725231171
        ],
        [
          0.10253235697746277,
          -0.029840854927897453,
          0.07169478386640549
        ],
        [
          -0.10158967971801758,
          0.0026555443182587624,
          0.10251443833112717
        ]
      ],
      [
        [
          -0.4111248552799225,
          -0.17064014077186584,
          0.14185583591461182
        ],
        [
          -0.2832643985748291,
          -0.13312071561813354,
          0.23857465386390686
        ],
        [
          -0.08766178786754608,
          0.012506968341767788,
          0.10652056336402893
        ]
      ],
      [
        [
          -0.054724667221307755,
          -0.08507468551397324,
          0.10357334464788437
        ],
        [
          0.04724980518221855,
          0.03618120402097702,
          -0.014312897808849812
        ],
        [
          -0.12351735681295395,
          0.04585663601756096,
          0.11177046597003937
        ]
      ],
      [
        [
          -0.0027523445896804333,
          0.05575665831565857,
          0.0477508082985878
        ],
        [
          -0.10673977434635162,
          0.06537923961877823,
          0.07011660933494568
        ],
        [
          -0.292043536901474,
          0.03500266745686531,
          0.05947533994913101
        ]
      ],
      [
        [
          -0.5051088333129883,
          -0.08930916339159012,
          0.2516000270843506
        ],
        [
          0.08572674542665482,
          0.23469559848308563,
          0.12298563867807388
        ],
        [
          -0.06920695304870605,
          0.18404434621334076,
          0.1729145497083664
        ]
      ],
      [
        [
          0.0031675349455326796,
          0.12020666897296906,
          -0.1188976839184761
        ],
        [
          0.1396847665309906,
          0.17500147223472595,
          -0.11812276393175125
        ],
        [
          -0.07981137186288834,
          0.002653345698490739,
          0.012140422128140926
        ]
      ],
      [
        [
          0.3117019832134247,
          -0.11975225061178207,
          -0.1603800654411316
        ],
        [
          0.6535730957984924,
          -0.1325867772102356,
          -0.16170673072338104
        ],
        [
          -0.05277261883020401,
          0.04216430336236954,
          -0.06985631585121155
        ]
      ],
      [
        [
          -0.28047266602516174,
          0.0324825718998909,
          -0.055726516991853714
        ],
        [
          -0.08923257142305374,
          -0.032755497843027115,
          -0.06541123986244202
        ],
        [
          -0.1515875905752182,
          -0.05758273974061012,
          -0.00538705475628376
        ]
      ],
      [
        [
          -0.04310563579201698,
          -0.03301402926445007,
          -0.0348062701523304
        ],
        [
          -0.23584748804569244,
          0.09427442401647568,
          0.36630722880363464
        ],
        [
          -0.15981431305408478,
          -0.05259073153138161,
          0.11144672334194183
        ]
      ],
      [
        [
          0.11339765042066574,
          -0.04665084555745125,
          -0.011424925178289413
        ],
        [
          -0.13810446858406067,
          -0.032032620161771774,
          0.1477031260728836
        ],
        [
          -0.28108423948287964,
          -0.0018668032716959715,
          0.0854540765285492
        ]
      ],
      [
        [
          -0.0781620517373085,
          -0.12442374229431152,
          -0.24231277406215668
        ],
        [
          0.321661114692688,
          -0.21635906398296356,
          -0.3362064063549042
        ],
        [
          -0.1170758306980133,
          -0.17341913282871246,
          -0.2169046401977539
        ]
      ],
      [
        [
          -0.18611329793930054,
          -0.0479942262172699,
          0.02137019671499729
        ],
        [
          0.007579142227768898,
          0.02485383115708828,
          0.017850566655397415
        ],
        [
          -0.010071536526083946,
          0.16688740253448486,
          0.06313920766115189
        ]
      ],
      [
        [
          0.24521109461784363,
          -0.19700078666210175,
          -0.21346814930438995
        ],
        [
          0.5490342378616333,
          -0.19901148974895477,
          -0.16425156593322754
        ],
        [
          0.022232672199606895,
          0.1488332748413086,
          0.014056021347641945
        ]
      ]
    ],
    [
      [
        [
          0.03560817241668701,
          -0.049180768430233,
          0.02962275594472885
        ],
        [
          -0.005952256731688976,
          0.027172308415174484,
          0.052602630108594894
        ],
        [
          0.011738783679902554,
          0.0028077231254428625,
          -0.036393020302057266
        ]
      ],
      [
        [
          0.1131431832909584,
          -0.10270663350820541,
          -0.0020044343546032906
        ],
        [
          0.038572199642658234,
          -0.07439277321100235,
          -0.02527485601603985
        ],
        [
          -0.0009708079160191119,
          -0.017590047791600227,
          -0.046238839626312256
        ]
      ],
      [
        [
          -0.05751487612724304,
          -0.03556041792035103,
          -0.023124516010284424
        ],
        [
          -0.12310238182544708,
          -0.02770582027733326,
          -0.020007416605949402
        ],
        [
          -0.09949712455272675,
          -0.05229898914694786,
          0.016772590577602386
        ]
      ],
      [
        [
          -0.0040304698050022125,
          0.09730007499456406,
          -0.07471605390310287
        ],
        [
          0.05487392470240593,
          0.07338657975196838,
          -0.11122748255729675
        ],
        [
          -0.4639351963996887,
          -0.22833801805973053,
          -0.13608796894550323
        ]
      ],
      [
        [
          0.018561920151114464,
          0.05002725124359131,
          -0.042983528226614
        ],
        [
          0.08723714202642441,
          0.018546661362051964,
          -0.10845594853162766
        ],
        [
          -0.037844087928533554,
          -0.06843100488185883,
          -0.060106098651885986
        ]
      ],
      [
        [
          0.13106194138526917,
          -0.05533694103360176,
          -0.03293085843324661
        ],
        [
          0.06320160627365112,
          -0.020878465846180916,
          -0.03658637776970863
        ],
        [
          -0.04742110148072243,
          -0.029621485620737076,
          -0.018923623487353325
        ]
      ],
      [
        [
          0.09186157584190369,
          -0.07472433894872665,
          -0.06196751073002815
        ],
        [
          0.15958571434020996,
          -0.04186931252479553,
          -0.055646862834692
        ],
        [
          -0.058884456753730774,
          -0.10811495780944824,
          -0.10207798331975937
        ]
      ],
      [
        [
          0.13926957547664642,
          0.04155709594488144,
          -0.011382211931049824
        ],
        [
          0.044479675590991974,
          0.05000941827893257,
          -0.061747290194034576
        ],
        [
          -0.08511479198932648,
          -0.025866039097309113,
          -0.018809977918863297
        ]
      ],
      [
        [
          0.0576816126704216,
          -0.024595744907855988,
          -0.07800855487585068
        ],
        [
          -0.033766500651836395,
          -0.04678617790341377,
          -0.08401557803153992
        ],
        [
          -0.13107122480869293,
          -0.04406459629535675,
          -0.04924025386571884
        ]
      ],
      [
        [
          0.10642940551042557,
          -0.00891127809882164,
          -0.0836910828948021
        ],
        [
          0.18163980543613434,
          0.10100989043712616,
          0.019227921962738037
        ],
        [
          -0.15850356221199036,
          -0.07055056095123291,
          -0.04653315246105194
        ]
      ],
      [
        [
          0.10608197748661041,
          -0.03232545033097267,
          -0.08534476906061172
        ],
        [
          0.12720593810081482,
          -0.11816497147083282,
          -0.015497500076889992
        ],
        [
          0.009165574796497822,
          -0.08393283933401108,
          -0.06621887534856796
        ]
      ],
      [
        [
          0.16574949026107788,
          0.04832654073834419,
          -0.11752868443727493
        ],
        [
          0.2230406105518341,
          0.037540409713983536,
          -0.07408183068037033
        ],
        [
          -0.463760644197464,
          -0.09742209315299988,
          -0.14880463480949402
        ]
      ],
      [
        [
          0.30484461784362793,
          -0.1139218658208847,
          -0.02479902282357216
        ],
        [
          0.2388683408498764,
          -0.06734538078308105,
          0.0167985912412405
        ],
        [
          -0.2747446596622467,
          -0.06728565692901611,
          -0.08396405726671219
        ]
      ],
      [
        [
          0.08502037078142166,
          0.035738348960876465,
          -0.0742761418223381
        ],
        [
          0.12234755605459213,
          -0.0285390242934227,
          -0.08675693720579147
        ],
        [
          -0.011521827429533005,
          -0.05927586928009987,
          -0.010119674727320671
        ]
      ],
      [
        [
          -0.03255300223827362,
          -0.07519439607858658,
          6.270686571951956e-05
        ],
        [
          -0.040474362671375275,
          -0.0065279435366392136,
          -0.024905188009142876
        ],
        [
          -0.0781526193022728,
          -0.020604539662599564,
          -0.02713567204773426
        ]
      ],
      [
        [
          -0.05394628643989563,
          0.0634857788681984,
          -0.07999616116285324
        ],
        [
          -0.1647733449935913,
          -0.07121644914150238,
          -0.07241939753293991
        ],
        [
          -0.15467852354049683,
          -0.020644336938858032,
          -0.03749850019812584
        ]
      ],
      [
        [
          0.05702705308794975,
          0.018781647086143494,
          -0.009440984576940536
        ],
        [
          0.030330684036016464,
          0.01072292122989893,
          -0.08471178263425827
        ],
        [
          -0.5087104439735413,
          -0.191100612282753,
          -0.1395612210035324
        ]
      ],
      [
        [
          0.03418399766087532,
          -0.056358229368925095,
          -0.07934945821762085
        ],
        [
          0.06910092383623123,
          -0.05889930948615074,
          -0.01875806227326393
        ],
        [
          -0.032956644892692566,
          -0.07575288414955139,
          -0.0694708600640297
        ]
      ],
      [
        [
          0.15837092697620392,
          -0.10641555488109589,
          -0.07064712047576904
        ],
        [
          -0.047611597925424576,
          0.007978680543601513,
          0.06420102715492249
        ],
        [
          -0.5759468078613281,
          -0.13241666555404663,
          -0.07417958229780197
        ]
      ],
      [
        [
          0.23055021464824677,
          0.018177833408117294,
          -0.04591801017522812
        ],
        [
          0.1420455276966095,
          0.09032100439071655,
          0.03287774696946144
        ],
        [
          -0.28416481614112854,
          -0.008262376300990582,
          -0.017158834263682365
        ]
      ],
      [
        [
          -0.16933485865592957,
          -0.0615416057407856,
          -0.11447063833475113
        ],
        [
          -0.0782337337732315,
          -0.00932965986430645,
          0.0240734051913023
        ],
        [
          -0.05658402666449547,
          -0.06735986471176147,
          0.024495363235473633
        ]
      ],
      [
        [
          -0.13001202046871185,
          -0.004887622781097889,
          -0.04294266551733017
        ],
        [
          0.004494247958064079,
          -0.030168529599905014,
          -0.030272336676716805
        ],
        [
          -0.09331842511892319,
          -0.06548123061656952,
          0.007740131579339504
        ]
      ],
      [
        [
          0.07287726551294327,
          -0.12550072371959686,
          -0.028429172933101654
        ],
        [
          0.13042962551116943,
          -0.027747847139835358,
          0.004381450824439526
        ],
        [
          0.043563343584537506,
          -0.095697320997715,
          -0.07317918539047241
        ]
      ],
      [
        [
          0.07523320615291595,
          0.03819936141371727,
          0.010913748294115067
        ],
        [
          0.02861049585044384,
          0.03532324358820915,
          0.018295137211680412
        ],
        [
          0.03599752113223076,
          -0.03841371089220047,
          -0.01755291223526001
        ]
      ],
      [
        [
          0.08609464764595032,
          -0.04624871164560318,
          0.007024466525763273
        ],
        [
          -0.012628983706235886,
          0.030880099162459373,
          0.027363043278455734
        ],
        [
          -0.40185242891311646,
          -0.01030647847801447,
          -0.03146936371922493
        ]
      ],
      [
        [
          0.1296907514333725,
          -0.008439253084361553,
          -0.030667493119835854
        ],
        [
          0.08958054333925247,
          -0.041119787842035294,
          -0.007198197767138481
        ],
        [
          -0.02408893220126629,
          -0.028598416596651077,
          -0.04903405159711838
        ]
      ],
      [
        [
          0.02407865971326828,
          -0.030018959194421768,
          -0.019910041242837906
        ],
        [
          0.030706314370036125,
          0.03423602879047394,
          -0.001001838711090386
        ],
        [
          -0.091935895383358,
          -0.038031045347452164,
          -0.05489513650536537
        ]
      ],
      [
        [
          -0.024897199124097824,
          -0.06356420367956161,
          -0.031232576817274094
        ],
        [
          0.10173603892326355,
          -0.04537981376051903,
          -0.014432213269174099
        ],
        [
          -0.08740264177322388,
          -0.03319082036614418,
          -0.014096218161284924
        ]
      ],
      [
        [
          0.14025960862636566,
          -0.014546381309628487,
          -0.04760868102312088
        ],
        [
          0.08125358819961548,
          -0.080343097448349,
          -0.0031215876806527376
        ],
        [
          -0.007980874739587307,
          -0.04623320326209068,
          -0.020729191601276398
        ]
      ],
      [
        [
          0.13830555975437164,
          -0.04784528166055679,
          0.044779617339372635
        ],
        [
          0.05316098779439926,
          -0.040835484862327576,
          0.027835320681333542
        ],
        [
          0.01787441037595272,
          -0.03868159279227257,
          -0.037742093205451965
        ]
      ],
      [
        [
          0.11553176492452621,
          -0.09597115218639374,
          -0.08700898289680481
        ],
        [
          0.1685827076435089,
          -0.04812410846352577,
          -0.07118997722864151
        ],
        [
          -0.10918059200048447,
          -0.1521141082048416,
          -0.1296290010213852
        ]
      ],
      [
        [
          0.035759344696998596,
          -0.018777715042233467,
          0.0002658751036506146
        ],
        [
          -0.009648100472986698,
          -0.03050524927675724,
          -0.07456628978252411
        ],
        [
          -0.017861071974039078,
          0.011875071562826633,
          -0.025546293705701828
        ]
      ],
      [
        [
          0.04292792081832886,
          -0.04323020204901695,
          -0.030224870890378952
        ],
        [
          0.10298028588294983,
          -0.005155684892088175,
          -0.005093649961054325
        ],
        [
          -0.052649710327386856,
          -0.01112094335258007,
          -0.05111808702349663
        ]
      ],
      [
        [
          0.13542208075523376,
          -0.00494191562756896,
          -0.053532641381025314
        ],
        [
          0.26459819078445435,
          0.02076834812760353,
          -0.07724874466657639
        ],
        [
          0.005965808406472206,
          -0.020334161818027496,
          -0.08955398201942444
        ]
      ],
      [
        [
          0.016880910843610764,
          -0.008567948825657368,
          -0.003219356993213296
        ],
        [
          -0.03045458160340786,
          -0.04939299821853638,
          -0.004076160024851561
        ],
        [
          -0.051160600036382675,
          -0.03855511173605919,
          0.02138688787817955
        ]
      ],
      [
        [
          0.13376130163669586,
          -0.053305674344301224,
          -0.027156779542565346
        ],
        [
          0.12247522920370102,
          -0.025409117341041565,
          -0.03103209100663662
        ],
        [
          -0.030972067266702652,
          0.005605055019259453,
          -0.046606943011283875
        ]
      ],
      [
        [
          -0.0878501832485199,
          -0.013571715913712978,
          -0.09674853086471558
        ],
        [
          -0.1283414363861084,
          -0.06796345114707947,
          -0.03189009055495262
        ],
        [
          -0.021333614364266396,
          0.0009331982582807541,
          -0.007479156833142042
        ]
      ],
      [
        [
          0.06662622094154358,
          -0.017506234347820282,
          -0.0338464230298996
        ],
        [
          -0.04575219750404358,
          0.003225331660360098,
          -0.013991196639835835
        ],
        [
          -0.06932101398706436,
          -0.06730462610721588,
          -0.036085937172174454
        ]
      ],
      [
        [
          0.011708548292517662,
          -0.02092301845550537,
          -0.08233897387981415
        ],
        [
          -0.005970060359686613,
          0.06660174578428268,
          -0.021255560219287872
        ],
        [
          -0.020506886765360832,
          -0.03515354543924332,
          -0.047491200268268585
        ]
      ],
      [
        [
          0.1041046753525734,
          0.007844625040888786,
          -0.0015326072461903095
        ],
        [
          0.06292908638715744,
          0.00514344684779644,
          0.005868906155228615
        ],
        [
          -0.03784492611885071,
          0.01048654317855835,
          -0.047084908932447433
        ]
      ],
      [
        [
          0.11918335407972336,
          -0.07730454206466675,
          -0.07186708599328995
        ],
        [
          -0.0551721416413784,
          0.006667742505669594,
          -0.09596550464630127
        ],
        [
          -0.01371860597282648,
          -0.01824440248310566,
          -0.0751204788684845
        ]
      ],
      [
        [
          0.004489492624998093,
          -0.0027950406074523926,
          -0.0646689161658287
        ],
        [
          -0.07983344793319702,
          -0.09004449099302292,
          0.025799307972192764
        ],
        [
          -0.14793895184993744,
          -0.07020621001720428,
          -0.07066056877374649
        ]
      ],
      [
        [
          -0.08655877411365509,
          0.06732489913702011,
          -0.08016612380743027
        ],
        [
          -0.13211047649383545,
          0.01582643762230873,
          0.021387066692113876
        ],
        [
          -0.15664350986480713,
          0.03457951173186302,
          0.031604208052158356
        ]
      ],
      [
        [
          0.04037894681096077,
          -0.0355265736579895,
          -0.03540211543440819
        ],
        [
          0.06404048204421997,
          -0.06048264354467392,
          -0.05415230244398117
        ],
        [
          -0.05797147378325462,
          -0.022701485082507133,
          -0.03949644789099693
        ]
      ],
      [
        [
          0.09392771124839783,
          -0.06026044860482216,
          -0.07377306371927261
        ],
        [
          0.12360881268978119,
          -0.0014870335580781102,
          -0.04844287782907486
        ],
        [
          0.0009259301004931331,
          -0.09268695116043091,
          -0.09668510407209396
        ]
      ]
    ],
    [
      [
        [
          -0.07952933758497238,
          -0.00869365967810154,
          0.011914685368537903
        ],
        [
          -0.0035419072955846786,
          0.005415657069534063,
          0.00315625942312181
        ],
        [
          -0.02083328366279602,
          -0.030135516077280045,
          0.050979115068912506
        ]
      ],
      [
        [
          0.26285088062286377,
          -0.18674629926681519,
          -0.04156068339943886
        ],
        [
          0.13373222947120667,
          -0.10340536385774612,
          -0.08517736196517944
        ],
        [
          -0.07284463942050934,
          0.02396319806575775,
          0.09283162653446198
        ]
      ],
      [
        [
          0.12661342322826385,
          -0.20370247960090637,
          0.0038694762624800205
        ],
        [
          0.239171102643013,
          -0.10253317654132843,
          -0.032470278441905975
        ],
        [
          0.14960888028144836,
          0.051128555089235306,
          -0.02067364752292633
        ]
      ],
      [
        [
          0.5217028856277466,
          -0.13465584814548492,
          -0.0945274755358696
        ],
        [
          0.00046000719885341823,
          0.0011515278602018952,
          0.057837240397930145
        ],
        [
          -0.5484541654586792,
          0.19715675711631775,
          0.05726028233766556
        ]
      ],
      [
        [
          0.1984652429819107,
          -0.07827362418174744,
          -0.06323238462209702
        ],
        [
          0.13416244089603424,
          -0.17090754210948944,
          -0.11571541428565979
        ],
        [
          0.2933062016963959,
          -0.00769184622913599,
          -0.009285158477723598
        ]
      ],
      [
        [
          0.08917427062988281,
          -0.00791334267705679,
          0.0060584391467273235
        ],
        [
          -0.004340230952948332,
          0.015194005332887173,
          -0.025124043226242065
        ],
        [
          -0.06529305875301361,
          0.0255852323025465,
          0.05520669370889664
        ]
      ],
      [
        [
          0.08738444745540619,
          -0.02149087004363537,
          -0.015872616320848465
        ],
        [
          -0.012341679073870182,
          0.014051608741283417,
          -0.010046969167888165
        ],
        [
          -0.09223676472902298,
          0.1266193389892578,
          0.002420661738142371
        ]
      ],
      [
        [
          -0.11370627582073212,
          -0.12272386997938156,
          -0.04019054025411606
        ],
        [
          0.05154966935515404,
          -0.07474209368228912,
          -0.0929601714015007
        ],
        [
          0.2172565460205078,
          -0.06215336173772812,
          -0.07596755772829056
        ]
      ],
      [
        [
          -0.010316893458366394,
          -0.11847186833620071,
          -0.0850740298628807
        ],
        [
          0.008333520963788033,
          -0.1003405749797821,
          -0.09452815353870392
        ],
        [
          0.21560561656951904,
          0.026925072073936462,
          -0.009166124276816845
        ]
      ],
      [
        [
          -0.0429963655769825,
          -0.15313668549060822,
          -0.07160462439060211
        ],
        [
          0.08927930146455765,
          -0.156991109251976,
          -0.2538002133369446
        ],
        [
          0.3549179434776306,
          0.00878431461751461,
          -0.10967959463596344
        ]
      ],
      [
        [
          -0.01188687328249216,
          0.03503032401204109,
          -0.007497270591557026
        ],
        [
          -0.042409755289554596,
          0.010322488844394684,
          -0.07241608947515488
        ],
        [
          -0.06205809861421585,
          -0.03351572901010513,
          -0.0015173115534707904
        ]
      ],
      [
        [
          -0.011996430344879627,
          0.0027258899062871933,
          -0.09715195000171661
        ],
        [
          -0.31393125653266907,
          0.05077588930726051,
          0.04322429001331329
        ],
        [
          -0.16625747084617615,
          0.219335675239563,
          0.05183250084519386
        ]
      ],
      [
        [
          -0.3959847092628479,
          0.16972261667251587,
          0.028208205476403236
        ],
        [
          -0.4369509518146515,
          0.08915604650974274,
          0.11779191344976425
        ],
        [
          -0.025901401415467262,
          0.19197364151477814,
          0.14498889446258545
        ]
      ],
      [
        [
          0.06242819502949715,
          0.01255989819765091,
          -0.04283466562628746
        ],
        [
          -0.03312751278281212,
          -0.09307543188333511,
          -0.11399887502193451
        ],
        [
          0.14407581090927124,
          0.043006327003240585,
          -0.03701614961028099
        ]
      ],
      [
        [
          -0.017214249819517136,
          0.0945577621459961,
          -0.02024422585964203
        ],
        [
          -0.09005443751811981,
          0.04845306649804115,
          -0.004433338530361652
        ],
        [
          -0.13838261365890503,
          0.05986746400594711,
          -0.008526159450411797
        ]
      ],
      [
        [
          0.05399780347943306,
          -0.132142573595047,
          -0.019078150391578674
        ],
        [
          0.05156916752457619,
          -0.038406383246183395,
          -0.022588452324271202
        ],
        [
          0.09022319316864014,
          0.07641013711690903,
          0.0731184259057045
        ]
      ],
      [
        [
          0.4917815327644348,
          -0.05744065344333649,
          -0.10454051941633224
        ],
        [
          0.36064764857292175,
          -0.09500505030155182,
          -0.0043998281471431255
        ],
        [
          -0.4262217581272125,
          0.13315650820732117,
          0.05753849819302559
        ]
      ],
      [
        [
          -0.018416665494441986,
          -0.06738884747028351,
          -0.09545503556728363
        ],
        [
          0.03681911900639534,
          -0.047571223229169846,
          -0.13760654628276825
        ],
        [
          0.11651530116796494,
          -0.02089223638176918,
          -0.069144107401371
        ]
      ],
      [
        [
          0.2446083426475525,
          -0.24512261152267456,
          -0.25047746300697327
        ],
        [
          0.4710785150527954,
          -0.28314343094825745,
          -0.2531910240650177
        ],
        [
          0.07047343254089355,
          0.04877708479762077,
          -0.1406523585319519
        ]
      ],
      [
        [
          -0.006538454908877611,
          -0.04743162915110588,
          -0.055687662214040756
        ],
        [
          0.014049607329070568,
          -0.06424888968467712,
          -0.10473986715078354
        ],
        [
          0.05459587648510933,
          0.12937726080417633,
          0.020033985376358032
        ]
      ],
      [
        [
          -0.07030541449785233,
          -0.0013612268958240747,
          0.040179166942834854
        ],
        [
          -0.18348143994808197,
          -0.05147320032119751,
          0.08607430011034012
        ],
        [
          -0.23170946538448334,
          0.06145860254764557,
          0.00803523138165474
        ]
      ],
      [
        [
          -0.028267402201890945,
          -0.039269328117370605,
          0.020465681329369545
        ],
        [
          -0.15364067256450653,
          -0.03702245280146599,
          -0.0028632546309381723
        ],
        [
          -0.14937953650951385,
          0.06055409833788872,
          0.02878301404416561
        ]
      ],
      [
        [
          0.1505962461233139,
          -0.04369591549038887,
          -0.0500880628824234
        ],
        [
          -0.09944229573011398,
          0.046427059918642044,
          -0.1276572048664093
        ],
        [
          -0.2031863033771515,
          0.024883879348635674,
          -0.060050368309020996
        ]
      ],
      [
        [
          -0.011826424859464169,
          0.05667003244161606,
          0.03373182192444801
        ],
        [
          -0.022226516157388687,
          -0.002289940370246768,
          -0.04443541169166565
        ],
        [
          -0.13031354546546936,
          0.04277833551168442,
          0.01898995041847229
        ]
      ],
      [
        [
          0.17376434803009033,
          -0.14270398020744324,
          -0.08666117489337921
        ],
        [
          0.3465740382671356,
          -0.11339177936315536,
          -0.07319452613592148
        ],
        [
          0.05385792255401611,
          -0.055560678243637085,
          -0.05103425309062004
        ]
      ],
      [
        [
          0.01043851487338543,
          -0.022404475137591362,
          -0.04039964824914932
        ],
        [
          0.0002968196931760758,
          -0.030062375590205193,
          -0.04161018878221512
        ],
        [
          0.05973207578063011,
          -0.06271433085203171,
          -0.08118224889039993
        ]
      ],
      [
        [
          -0.05640538036823273,
          0.003473730757832527,
          0.07030465453863144
        ],
        [
          -0.0014819034840911627,
          -0.024523844942450523,
          0.013308259658515453
        ],
        [
          -0.06680797785520554,
          0.03149555251002312,
          -0.07156135141849518
        ]
      ],
      [
        [
          -0.038814857602119446,
          -0.13194625079631805,
          -0.07201127707958221
        ],
        [
          -0.05715383216738701,
          -0.060485973954200745,
          -0.06699980795383453
        ],
        [
          0.035754092037677765,
          0.06226678565144539,
          0.017520666122436523
        ]
      ],
      [
        [
          -0.15160726010799408,
          -0.06128567457199097,
          -0.038363538682460785
        ],
        [
          -0.09507258236408234,
          -0.029374269768595695,
          -0.09080275893211365
        ],
        [
          0.04768214747309685,
          -0.004551769234240055,
          -0.03965288773179054
        ]
      ],
      [
        [
          0.06165476515889168,
          -0.046600814908742905,
          -0.006408795714378357
        ],
        [
          0.05363516882061958,
          0.05453718081116676,
          -0.05972684174776077
        ],
        [
          -0.08936279267072678,
          0.018438244238495827,
          -0.10663875937461853
        ]
      ],
      [
        [
          -0.12119213491678238,
          -0.03626078739762306,
          -0.12303227186203003
        ],
        [
          -0.060214895755052567,
          -0.04055174067616463,
          -0.07519952952861786
        ],
        [
          0.01014656014740467,
          -0.007294642273336649,
          0.019124383106827736
        ]
      ],
      [
        [
          -0.027182703837752342,
          -0.00961389672011137,
          0.007691885344684124
        ],
        [
          0.006946080829948187,
          0.017845747992396355,
          -0.028038108721375465
        ],
        [
          0.013149762526154518,
          0.024139098823070526,
          0.008403271436691284
        ]
      ],
      [
        [
          -0.025052763521671295,
          0.019848458468914032,
          0.059549711644649506
        ],
        [
          -0.026406992226839066,
          0.024252962321043015,
          -0.0437803752720356
        ],
        [
          -0.09630471467971802,
          -0.023550735786557198,
          -0.05830121040344238
        ]
      ],
      [
        [
          0.20446521043777466,
          -0.016161471605300903,
          -0.14853619039058685
        ],
        [
          0.09347135573625565,
          -0.09563037008047104,
          -0.1493287831544876
        ],
        [
          0.2974415719509125,
          -0.021160215139389038,
          -0.028744172304868698
        ]
      ],
      [
        [
          0.0055463844910264015,
          -0.05992100387811661,
          0.022507792338728905
        ],
        [
          0.012822293676435947,
          -0.025000369176268578,
          -0.006708272732794285
        ],
        [
          0.06724612414836884,
          -0.031078334897756577,
          0.013912715949118137
        ]
      ],
      [
        [
          -0.029765252023935318,
          0.08897710591554642,
          -0.01980079710483551
        ],
        [
          -0.17494657635688782,
          0.09140922129154205,
          0.046674732118844986
        ],
        [
          -0.16747401654720306,
          0.1390085369348526,
          0.05386750027537346
        ]
      ],
      [
        [
          -0.015639588236808777,
          -0.051796942949295044,
          0.0590309239923954
        ],
        [
          -0.15943187475204468,
          -0.07398530840873718,
          0.030595455318689346
        ],
        [
          -0.14190809428691864,
          0.06158031150698662,
          -0.0075105587020516396
        ]
      ],
      [
        [
          -0.08166859298944473,
          0.0027263539377599955,
          0.04140090569853783
        ],
        [
          -0.05675077810883522,
          0.07665925472974777,
          -0.036768026649951935
        ],
        [
          0.011293269693851471,
          0.02617524191737175,
          0.003604423487558961
        ]
      ],
      [
        [
          0.014221567660570145,
          -0.028616569936275482,
          -0.0654616728425026
        ],
        [
          0.020113497972488403,
          0.02227044478058815,
          -0.09758065640926361
        ],
        [
          -0.052250757813453674,
          0.03556601703166962,
          -0.07524479925632477
        ]
      ],
      [
        [
          -0.184340700507164,
          -0.02985343337059021,
          0.03195015341043472
        ],
        [
          -0.08133629709482193,
          -0.04586831107735634,
          -0.02253767102956772
        ],
        [
          0.058954447507858276,
          -0.04070500656962395,
          0.0469178631901741
        ]
      ],
      [
        [
          0.25021806359291077,
          -0.07427520304918289,
          -0.004848870448768139
        ],
        [
          -0.0011253097327426076,
          -0.04407333955168724,
          -0.00817311741411686
        ],
        [
          -0.015388580039143562,
          -0.08157122880220413,
          0.09736059606075287
        ]
      ],
      [
        [
          -0.002538493601605296,
          -0.008049148134887218,
          -0.0015489186625927687
        ],
        [
          0.056054942309856415,
          -0.025091297924518585,
          0.00229960517026484
        ],
        [
          -0.0013533722376450896,
          0.039457064121961594,
          -0.0269406009465456
        ]
      ],
      [
        [
          -0.18225303292274475,
          0.04101356118917465,
          0.02654198929667473
        ],
        [
          -0.04418915882706642,
          0.016337880864739418,
          0.018013309687376022
        ],
        [
          -0.17644917964935303,
          0.02089758589863777,
          -0.06383289396762848
        ]
      ],
      [
        [
          -0.03282981738448143,
          0.05697428435087204,
          0.03807856887578964
        ],
        [
          -0.040765855461359024,
          0.06765555590391159,
          0.04514334723353386
        ],
        [
          -0.16461612284183502,
          0.12615720927715302,
          0.03157748654484749
        ]
      ],
      [
        [
          0.03345417231321335,
          0.06749588251113892,
          -0.01436776015907526
        ],
        [
          0.01404711976647377,
          0.10533765703439713,
          -0.08437406271696091
        ],
        [
          -0.2106715589761734,
          0.18926958739757538,
          -0.1251891553401947
        ]
      ]
    ],
    [
      [
        [
          -0.08006599545478821,
          0.057032130658626556,
          -0.05526429042220116
        ],
        [
          -0.018444737419486046,
          0.047717876732349396,
          -0.034326888620853424
        ],
        [
          0.019180530682206154,
          -0.011617163196206093,
          0.039646923542022705
        ]
      ],
      [
        [
          0.3217602074146271,
          0.26696693897247314,
          0.3125336766242981
        ],
        [
          -0.6042181849479675,
          0.38328802585601807,
          -0.19590233266353607
        ],
        [
          -0.2821524143218994,
          -0.056345343589782715,
          -0.5523284077644348
        ]
      ],
      [
        [
          0.6371098160743713,
          -0.2141936719417572,
          0.09856963157653809
        ],
        [
          -0.4602589011192322,
          -0.023356733843684196,
          0.24271047115325928
        ],
        [
          -0.44895097613334656,
          -0.09055496752262115,
          0.08092571794986725
        ]
      ],
      [
        [
          -1.3726330995559692,
          0.6410959362983704,
          0.19732634723186493
        ],
        [
          -0.20130611956119537,
          -0.2382216453552246,
          -0.4079553186893463
        ],
        [
          1.1867488622665405,
          -0.49189260601997375,
          -0.30850106477737427
        ]
      ],
      [
        [
          0.12803582847118378,
          -0.20607846975326538,
          0.05277261137962341
        ],
        [
          -0.08699709177017212,
          0.0025656498037278652,
          0.2544766664505005
        ],
        [
          -0.26979494094848633,
          0.36232030391693115,
          -0.013202223926782608
        ]
      ],
      [
        [
          0.2171829789876938,
          -0.07042166590690613,
          0.1361028254032135
        ],
        [
          -0.2097964584827423,
          0.16311118006706238,
          0.018311738967895508
        ],
        [
          -0.21763551235198975,
          0.15417511761188507,
          -0.20700079202651978
        ]
      ],
      [
        [
          -0.33101528882980347,
          0.26345163583755493,
          -0.03878200054168701
        ],
        [
          0.2189163714647293,
          -0.15291111171245575,
          -0.024580126628279686
        ],
        [
          0.2036893367767334,
          -0.2191799134016037,
          0.0001800498430384323
        ]
      ],
      [
        [
          0.3327111601829529,
          0.005449613556265831,
          -0.047722529619932175
        ],
        [
          -0.0625806674361229,
          -0.12513679265975952,
          0.18201223015785217
        ],
        [
          -0.12565109133720398,
          0.17176714539527893,
          0.030850455164909363
        ]
      ],
      [
        [
          0.24524986743927002,
          0.0499965064227581,
          -0.026482664048671722
        ],
        [
          -0.02002743072807789,
          -0.12908640503883362,
          0.2570818364620209
        ],
        [
          -0.12094037234783173,
          0.30587589740753174,
          0.026821965351700783
        ]
      ],
      [
        [
          0.05985855683684349,
          0.19959674775600433,
          -0.10737922787666321
        ],
        [
          0.2458086609840393,
          -0.026896197348833084,
          0.3619230389595032
        ],
        [
          -0.14573334157466888,
          0.2709970474243164,
          0.134815976023674
        ]
      ],
      [
        [
          -0.16803863644599915,
          0.09638553112745285,
          -0.10102785378694534
        ],
        [
          0.04255020618438721,
          -0.08867855370044708,
          0.031875453889369965
        ],
        [
          -0.08991452306509018,
          0.08830825239419937,
          -0.09132957458496094
        ]
      ],
      [
        [
          -1.0564076900482178,
          0.25348153710365295,
          0.09068718552589417
        ],
        [
          0.6984390616416931,
          -0.2916453778743744,
          -0.21663311123847961
        ],
        [
          0.9985380172729492,
          -0.4878670573234558,
          -0.08385481685400009
        ]
      ],
      [
        [
          0.1842901110649109,
          -0.25449246168136597,
          0.08949516713619232
        ],
        [
          0.28039485216140747,
          -0.16825276613235474,
          0.2669540047645569
        ],
        [
          0.16022400557994843,
          -0.06348618119955063,
          0.3267520070075989
        ]
      ],
      [
        [
          0.027487125247716904,
          -0.013435265980660915,
          0.05027179792523384
        ],
        [
          0.11676875501871109,
          -0.030696889385581017,
          0.11286576837301254
        ],
        [
          0.10156703740358353,
          0.18285098671913147,
          0.0033925401512533426
        ]
      ],
      [
        [
          0.11766883730888367,
          -0.15896902978420258,
          -0.09050232172012329
        ],
        [
          -0.053494568914175034,
          0.06584449112415314,
          0.05089981481432915
        ],
        [
          -0.06856878846883774,
          -0.07517740875482559,
          0.06800054013729095
        ]
      ],
      [
        [
          0.3980914056301117,
          -0.07707560807466507,
          0.13399307429790497
        ],
        [
          -0.43054288625717163,
          0.20353691279888153,
          0.22326062619686127
        ],
        [
          -0.513555645942688,
          0.09758996963500977,
          -0.04297492280602455
        ]
      ],
      [
        [
          -0.9049360752105713,
          -0.10738835483789444,
          0.015991415828466415
        ],
        [
          -0.5234030485153198,
          0.2967226207256317,
          -0.35948261618614197
        ],
        [
          1.3156437873840332,
          0.1316414773464203,
          -0.3148370385169983
        ]
      ],
      [
        [
          -0.0074326880276203156,
          0.3105235993862152,
          -0.10385960340499878
        ],
        [
          0.2396247833967209,
          -0.1487562507390976,
          0.11670159548521042
        ],
        [
          0.16404932737350464,
          -0.006804178468883038,
          -0.014749331399798393
        ]
      ],
      [
        [
          0.31217047572135925,
          -0.9547305107116699,
          -0.28330478072166443
        ],
        [
          -0.7239655256271362,
          0.10797984898090363,
          -0.135498046875
        ],
        [
          0.5942012667655945,
          0.23697465658187866,
          -0.13840237259864807
        ]
      ],
      [
        [
          -0.10120450705289841,
          -0.2115248143672943,
          -0.015118986368179321
        ],
        [
          -0.017902277410030365,
          0.07562628388404846,
          0.03049417957663536
        ],
        [
          0.21127161383628845,
          0.07238231599330902,
          0.0831671953201294
        ]
      ],
      [
        [
          0.22932466864585876,
          -0.053687963634729385,
          -0.13318489491939545
        ],
        [
          0.19335535168647766,
          -0.09768364578485489,
          -0.033626802265644073
        ],
        [
          -0.3379141390323639,
          -0.15327930450439453,
          -0.3345523178577423
        ]
      ],
      [
        [
          0.004403885453939438,
          0.22661864757537842,
          -0.034052774310112
        ],
        [
          0.12633708119392395,
          -0.07452306151390076,
          -0.053052280098199844
        ],
        [
          0.013130958192050457,
          -0.17778633534908295,
          -0.2659260630607605
        ]
      ],
      [
        [
          -0.3311510682106018,
          0.2258216291666031,
          -0.06707276403903961
        ],
        [
          0.198244109749794,
          -0.1567193567752838,
          0.10538707673549652
        ],
        [
          -0.0071186586283147335,
          -0.0037787926848977804,
          -0.007572592236101627
        ]
      ],
      [
        [
          -0.03683168813586235,
          -0.06597330421209335,
          -0.05030958727002144
        ],
        [
          0.01150957215577364,
          0.0034276945516467094,
          0.09798889607191086
        ],
        [
          -0.09959090501070023,
          -0.004058019258081913,
          0.03318300098180771
        ]
      ],
      [
        [
          0.10056380182504654,
          -0.6272862553596497,
          -0.1784559190273285
        ],
        [
          -0.4179322421550751,
          -0.009440254420042038,
          -0.12733657658100128
        ],
        [
          0.2226579636335373,
          0.21075022220611572,
          -0.17742185294628143
        ]
      ],
      [
        [
          0.028884299099445343,
          0.24710580706596375,
          -0.026478540152311325
        ],
        [
          0.05701497569680214,
          0.021671440452337265,
          0.08221755176782608
        ],
        [
          0.03866470232605934,
          0.15599465370178223,
          -0.007965308614075184
        ]
      ],
      [
        [
          0.03923208639025688,
          -0.027942657470703125,
          -0.040473006665706635
        ],
        [
          -0.1947377473115921,
          0.012798294425010681,
          -0.02261391654610634
        ],
        [
          -0.16621311008930206,
          0.007451774552464485,
          -0.07764145731925964
        ]
      ],
      [
        [
          -0.1231909841299057,
          0.09703810513019562,
          -0.12869025766849518
        ],
        [
          -0.0728154182434082,
          -0.20266440510749817,
          0.07038486003875732
        ],
        [
          0.21113727986812592,
          -0.12712348997592926,
          -0.03473109379410744
        ]
      ],
      [
        [
          0.010329965502023697,
          0.14410778880119324,
          -0.043240923434495926
        ],
        [
          0.1539529263973236,
          -0.08466461300849915,
          0.20671415328979492
        ],
        [
          0.06629882752895355,
          0.10086216777563095,
          0.01108652725815773
        ]
      ],
      [
        [
          -0.22647078335285187,
          0.1785077601671219,
          -0.08178021013736725
        ],
        [
          0.08837826550006866,
          -0.005321502219885588,
          0.07234683632850647
        ],
        [
          0.042682189494371414,
          0.0028680763207376003,
          0.021408993750810623
        ]
      ],
      [
        [
          -0.04037022963166237,
          0.172482430934906,
          -0.06597407907247543
        ],
        [
          0.0774192288517952,
          -0.28992360830307007,
          0.08865674585103989
        ],
        [
          0.2103879600763321,
          0.10952404886484146,
          -0.07624306529760361
        ]
      ],
      [
        [
          0.20321957767009735,
          0.05794832110404968,
          0.10536355525255203
        ],
        [
          -0.10998449474573135,
          0.036652859300374985,
          -0.007030007895082235
        ],
        [
          -0.11209224164485931,
          0.04559234902262688,
          -0.11596924811601639
        ]
      ],
      [
        [
          0.017169751226902008,
          0.075721375644207,
          -0.021179797127842903
        ],
        [
          -0.18540848791599274,
          -0.059095121920108795,
          0.00601752195507288
        ],
        [
          -0.1353997141122818,
          0.0631759762763977,
          -0.1276095062494278
        ]
      ],
      [
        [
          0.16126534342765808,
          -0.1856461763381958,
          -1.2667899682128336e-05
        ],
        [
          0.241720050573349,
          -0.11531277000904083,
          0.02235248126089573
        ],
        [
          0.020923295989632607,
          0.24673812091350555,
          -0.042110878974199295
        ]
      ],
      [
        [
          -0.02180674485862255,
          -0.07736384123563766,
          -0.04227650165557861
        ],
        [
          -0.14931310713291168,
          -0.015286552719771862,
          -0.004970695357769728
        ],
        [
          -0.136090949177742,
          0.07455160468816757,
          -0.031044716015458107
        ]
      ],
      [
        [
          -0.1114235669374466,
          -0.09624363481998444,
          -0.005697112530469894
        ],
        [
          0.045693185180425644,
          -0.03273998200893402,
          0.03658363223075867
        ],
        [
          0.20388343930244446,
          -0.03090418502688408,
          0.11941687762737274
        ]
      ],
      [
        [
          0.21315400302410126,
          0.08605700731277466,
          -0.16665156185626984
        ],
        [
          0.20086342096328735,
          -0.051805172115564346,
          -0.011282693594694138
        ],
        [
          -0.16196464002132416,
          -0.12272768467664719,
          -0.34724125266075134
        ]
      ],
      [
        [
          0.0831773653626442,
          -0.1239105761051178,
          0.025542015209794044
        ],
        [
          -0.1351427584886551,
          -0.03495051711797714,
          0.07014061510562897
        ],
        [
          -0.18657417595386505,
          0.011936829425394535,
          0.019676705822348595
        ]
      ],
      [
        [
          0.10267416387796402,
          0.08260151743888855,
          -0.1469287872314453
        ],
        [
          0.07581384479999542,
          0.0616406574845314,
          0.10335130244493484
        ],
        [
          -0.07745817303657532,
          0.08589157462120056,
          0.022515151649713516
        ]
      ],
      [
        [
          0.24793808162212372,
          -0.20264172554016113,
          -0.010654060170054436
        ],
        [
          -0.16369567811489105,
          -0.1760776787996292,
          0.12514519691467285
        ],
        [
          -0.3351156711578369,
          -0.029195096343755722,
          0.023707158863544464
        ]
      ],
      [
        [
          0.3506179749965668,
          0.10278961062431335,
          0.09451507776975632
        ],
        [
          -0.3403460681438446,
          0.17514048516750336,
          -0.10705539584159851
        ],
        [
          -0.1000702977180481,
          0.06513046473264694,
          -0.4032098650932312
        ]
      ],
      [
        [
          -0.10115991532802582,
          -0.08245088905096054,
          0.024141374975442886
        ],
        [
          -0.10787308216094971,
          -0.06416258960962296,
          -0.0022937923204153776
        ],
        [
          0.11721200495958328,
          -0.013127850368618965,
          -0.09260563552379608
        ]
      ],
      [
        [
          0.20561031997203827,
          -0.3863637149333954,
          -0.02817618101835251
        ],
        [
          -0.22888994216918945,
          -0.08621121197938919,
          0.20281998813152313
        ],
        [
          -0.5321284532546997,
          0.12609077990055084,
          0.026436517015099525
        ]
      ],
      [
        [
          0.08755064010620117,
          0.06790659576654434,
          0.03332602232694626
        ],
        [
          0.14021413028240204,
          0.053756702691316605,
          0.002919830847531557
        ],
        [
          0.06410443037748337,
          -0.08004805445671082,
          -0.05483153462409973
        ]
      ],
      [
        [
          -0.2490849494934082,
          0.1718469113111496,
          -0.08960967510938644
        ],
        [
          0.09875956922769547,
          0.05429826304316521,
          0.06864959001541138
        ],
        [
          -0.016980990767478943,
          -0.1717318594455719,
          0.013351387344300747
        ]
      ]
    ],
    [
      [
        [
          -0.10034412145614624,
          0.010763941332697868,
          -0.016186276450753212
        ],
        [
          -0.022875409573316574,
          -0.03311774134635925,
          -0.02367350272834301
        ],
        [
          -0.008107750676572323,
          -0.0208380538970232,
          0.04563586786389351
        ]
      ],
      [
        [
          0.016751326620578766,
          0.05535593256354332,
          0.057789452373981476
        ],
        [
          -0.01717188209295273,
          -0.002554012695327401,
          -0.12121017277240753
        ],
        [
          0.009090512990951538,
          -0.02546081319451332,
          -0.005080775823444128
        ]
      ],
      [
        [
          -0.3412591814994812,
          -0.04461190849542618,
          -0.0846305713057518
        ],
        [
          0.0001668387121753767,
          -0.03702172636985779,
          -0.18583519756793976
        ],
        [
          0.06961720436811447,
          -0.075233593583107,
          -0.08742447942495346
        ]
      ],
      [
        [
          -0.3613263666629791,
          -0.24137698113918304,
          -0.10103834420442581
        ],
        [
          -0.403099000453949,
          -0.23060864210128784,
          0.07522714883089066
        ],
        [
          0.3603994846343994,
          -0.05116032063961029,
          0.09403883665800095
        ]
      ],
      [
        [
          -0.0676802471280098,
          -0.09836773574352264,
          -0.027464965358376503
        ],
        [
          0.22764621675014496,
          0.10503705590963364,
          0.060174115002155304
        ],
        [
          0.03102128393948078,
          0.12874417006969452,
          -0.02337305247783661
        ]
      ],
      [
        [
          0.003243694081902504,
          -0.040761422365903854,
          0.030925767496228218
        ],
        [
          0.04646846279501915,
          -0.02831362746655941,
          -0.05783023685216904
        ],
        [
          -0.05617484077811241,
          0.03200557082891464,
          0.03407871350646019
        ]
      ],
      [
        [
          -0.13035258650779724,
          -0.09297086298465729,
          -0.053677454590797424
        ],
        [
          0.0064747449941933155,
          -0.06136934459209442,
          -0.004203117452561855
        ],
        [
          0.0004140720993746072,
          0.005230983253568411,
          0.02962435968220234
        ]
      ],
      [
        [
          -0.12817229330539703,
          -0.1587541103363037,
          -0.04174572229385376
        ],
        [
          0.046636808663606644,
          -0.03166341409087181,
          0.001018027774989605
        ],
        [
          -0.07185202836990356,
          0.04822603985667229,
          0.003403738606721163
        ]
      ],
      [
        [
          -0.1303059607744217,
          -0.0746975839138031,
          -0.0709676444530487
        ],
        [
          0.06144390627741814,
          0.07349295914173126,
          0.014029002748429775
        ],
        [
          0.09777046740055084,
          0.010211419314146042,
          -0.022142529487609863
        ]
      ],
      [
        [
          -0.37456318736076355,
          -0.19655807316303253,
          -0.078951895236969
        ],
        [
          -0.10841676592826843,
          -0.12216106802225113,
          -0.06633839756250381
        ],
        [
          -0.09552338719367981,
          0.06113341823220253,
          -0.07068035006523132
        ]
      ],
      [
        [
          -0.12563373148441315,
          -0.10200417786836624,
          0.023539701476693153
        ],
        [
          0.02891814336180687,
          -0.030209213495254517,
          -0.07691670954227448
        ],
        [
          -0.05246235057711601,
          -0.005336522124707699,
          0.004101002123206854
        ]
      ],
      [
        [
          -0.15829727053642273,
          -0.1808379739522934,
          -0.024037927389144897
        ],
        [
          -0.09889348596334457,
          -0.22824348509311676,
          0.06346666067838669
        ],
        [
          0.2062602937221527,
          -0.012089408934116364,
          0.0310955997556448
        ]
      ],
      [
        [
          -0.12502998113632202,
          -0.07274551689624786,
          -0.02579326555132866
        ],
        [
          0.22627824544906616,
          0.017576873302459717,
          -0.07747945189476013
        ],
        [
          0.022142156958580017,
          0.06579670310020447,
          -0.11623753607273102
        ]
      ],
      [
        [
          0.006643388886004686,
          -0.10315301269292831,
          0.012964721769094467
        ],
        [
          0.12826752662658691,
          0.029863059520721436,
          -0.006337705068290234
        ],
        [
          0.06199505925178528,
          0.07937373220920563,
          0.015103369951248169
        ]
      ],
      [
        [
          -0.120027557015419,
          0.021062105894088745,
          -0.003697712905704975
        ],
        [
          0.16727350652217865,
          -0.056250400841236115,
          -0.06805847585201263
        ],
        [
          0.19404402375221252,
          -0.01359456405043602,
          0.01428006961941719
        ]
      ],
      [
        [
          -0.09832210093736649,
          0.01267780177295208,
          -0.11993679404258728
        ],
        [
          0.15553618967533112,
          0.024044005200266838,
          -0.12499221414327621
        ],
        [
          0.10521506518125534,
          -0.005367990583181381,
          -0.12161264568567276
        ]
      ],
      [
        [
          -0.529407799243927,
          -0.1582416296005249,
          -0.13099859654903412
        ],
        [
          0.11267130821943283,
          -0.08527974784374237,
          -0.078055739402771
        ],
        [
          0.6020005345344543,
          -0.027438925579190254,
          -0.03182629495859146
        ]
      ],
      [
        [
          -0.15597249567508698,
          -0.07938600331544876,
          -0.1014103814959526
        ],
        [
          -0.12949706614017487,
          -0.07701439410448074,
          -0.009283045306801796
        ],
        [
          -0.08706118166446686,
          -0.03925415500998497,
          0.05217515304684639
        ]
      ],
      [
        [
          -0.7065213322639465,
          -0.2103174328804016,
          -0.23985031247138977
        ],
        [
          0.32703280448913574,
          -0.192650705575943,
          -0.2511233687400818
        ],
        [
          0.6078651547431946,
          -0.18405912816524506,
          -0.05923335999250412
        ]
      ],
      [
        [
          -0.3022102415561676,
          -0.04415605589747429,
          -0.10132692009210587
        ],
        [
          0.02604812942445278,
          -0.04710813984274864,
          -0.04907518997788429
        ],
        [
          0.06342609971761703,
          0.00019514535961207002,
          -0.057507190853357315
        ]
      ],
      [
        [
          0.007940116338431835,
          0.04213956370949745,
          -0.04742460325360298
        ],
        [
          0.22891546785831451,
          0.04403525963425636,
          0.021257134154438972
        ],
        [
          0.40002870559692383,
          0.02468341775238514,
          -0.02643211930990219
        ]
      ],
      [
        [
          -0.020051220431923866,
          -0.02403142675757408,
          -0.037667155265808105
        ],
        [
          0.07319008558988571,
          0.09997974336147308,
          0.048175014555454254
        ],
        [
          0.30740830302238464,
          0.08629211783409119,
          0.003972761332988739
        ]
      ],
      [
        [
          -0.1807156801223755,
          -0.07299672067165375,
          -0.01916518621146679
        ],
        [
          -0.007254058960825205,
          -0.046284593641757965,
          -0.027243344113230705
        ],
        [
          -0.06651254743337631,
          0.0202800240367651,
          -0.043024152517318726
        ]
      ],
      [
        [
          -0.011893275193870068,
          -0.0343923419713974,
          0.023492900654673576
        ],
        [
          0.03393985703587532,
          0.005384304095059633,
          -0.036191426217556
        ],
        [
          0.04548116773366928,
          -0.011558325961232185,
          -0.0046981158666312695
        ]
      ],
      [
        [
          -0.38471588492393494,
          -0.05291546881198883,
          -0.15307022631168365
        ],
        [
          0.008439264260232449,
          -0.06995202600955963,
          -0.09837593138217926
        ],
        [
          0.27833616733551025,
          -0.07411152124404907,
          -0.0881509929895401
        ]
      ],
      [
        [
          -0.17316025495529175,
          -0.013298016972839832,
          -0.05835113674402237
        ],
        [
          -0.02865535207092762,
          -0.05876839533448219,
          -0.042460549622774124
        ],
        [
          -0.10792709141969681,
          -0.004464519210159779,
          -0.04534989222884178
        ]
      ],
      [
        [
          -0.05537121370434761,
          0.00414566183462739,
          0.022247986868023872
        ],
        [
          0.00988844409584999,
          -0.015230726450681686,
          -0.01099635474383831
        ],
        [
          0.06124528497457504,
          0.0019489184487611055,
          0.03002346120774746
        ]
      ],
      [
        [
          -0.1426703780889511,
          -0.12981024384498596,
          -0.057502876967191696
        ],
        [
          0.046064332127571106,
          -0.058296527713537216,
          -0.020317815244197845
        ],
        [
          0.1215924471616745,
          0.06690195202827454,
          0.002412817208096385
        ]
      ],
      [
        [
          -0.12202458083629608,
          -0.12836024165153503,
          -0.03781707212328911
        ],
        [
          0.002492394531145692,
          -0.042341023683547974,
          -0.031442154198884964
        ],
        [
          0.08685609698295593,
          0.00966094434261322,
          -0.02574373036623001
        ]
      ],
      [
        [
          -0.2038450390100479,
          -0.06842569261789322,
          0.015146714635193348
        ],
        [
          -0.01714797504246235,
          -0.08399510383605957,
          0.00509162712842226
        ],
        [
          0.015773441642522812,
          -0.040347859263420105,
          0.01355732511729002
        ]
      ],
      [
        [
          -0.2605355679988861,
          -0.17749065160751343,
          -0.0652485117316246
        ],
        [
          -0.06808093935251236,
          -0.07861942797899246,
          -0.0614076629281044
        ],
        [
          -0.011874649673700333,
          0.03862316533923149,
          -0.03798115253448486
        ]
      ],
      [
        [
          -0.004219628870487213,
          -0.005129560362547636,
          0.008313000202178955
        ],
        [
          0.06453374773263931,
          0.013087487779557705,
          -0.005350671708583832
        ],
        [
          0.007226852234452963,
          0.019795553758740425,
          0.008502241224050522
        ]
      ],
      [
        [
          -0.11286364495754242,
          -0.03845502436161041,
          -0.011224472895264626
        ],
        [
          -0.012747461907565594,
          0.03039865382015705,
          -0.043266911059617996
        ],
        [
          -0.033441610634326935,
          0.06659087538719177,
          -0.017964741215109825
        ]
      ],
      [
        [
          -0.04649538919329643,
          -0.16125857830047607,
          -0.046404480934143066
        ],
        [
          0.09062722325325012,
          0.06155140697956085,
          -0.00871580932289362
        ],
        [
          -0.04132285714149475,
          0.08156239986419678,
          0.0255706999450922
        ]
      ],
      [
        [
          -0.08546003699302673,
          -0.08764872699975967,
          0.016710450872778893
        ],
        [
          0.03930691257119179,
          0.042632561177015305,
          -0.04326707869768143
        ],
        [
          0.04480239003896713,
          0.011189003475010395,
          -0.004830502439290285
        ]
      ],
      [
        [
          -0.11658315360546112,
          -0.06391169875860214,
          -0.0565507672727108
        ],
        [
          0.03519031032919884,
          -0.0006067077629268169,
          -0.016975635662674904
        ],
        [
          0.04421969875693321,
          -0.025878380984067917,
          0.012138689868152142
        ]
      ],
      [
        [
          0.034020714461803436,
          0.05869618430733681,
          -0.09098044782876968
        ],
        [
          0.1961502879858017,
          0.19781817495822906,
          0.07331840693950653
        ],
        [
          0.49868208169937134,
          0.05164889991283417,
          -0.044828932732343674
        ]
      ],
      [
        [
          -0.06889575719833374,
          -0.059815190732479095,
          -0.024159908294677734
        ],
        [
          0.052045609802007675,
          -0.02793889492750168,
          -0.0616840124130249
        ],
        [
          0.03406282886862755,
          -0.02411869540810585,
          -0.011484205722808838
        ]
      ],
      [
        [
          -0.25044581294059753,
          -0.05887874215841293,
          -0.08563120663166046
        ],
        [
          0.016005920246243477,
          -0.052282627671957016,
          -0.06446511298418045
        ],
        [
          0.005381985567510128,
          0.040279000997543335,
          -0.056284137070178986
        ]
      ],
      [
        [
          -0.015403411351144314,
          -0.055472251027822495,
          0.012960320338606834
        ],
        [
          0.03098750114440918,
          -0.03877700865268707,
          -0.08618568629026413
        ],
        [
          -0.04642273858189583,
          -0.0190507210791111,
          0.0005750092095695436
        ]
      ],
      [
        [
          -0.04427582025527954,
          -0.05402592569589615,
          0.004680112469941378
        ],
        [
          0.09047728031873703,
          -0.007722700014710426,
          -0.026753799989819527
        ],
        [
          -0.1417262852191925,
          -0.037649381905794144,
          0.02988642454147339
        ]
      ],
      [
        [
          -0.12836667895317078,
          0.0203706081956625,
          0.0014620181173086166
        ],
        [
          -0.043409619480371475,
          0.024424545466899872,
          -0.008418030105531216
        ],
        [
          -0.0587046816945076,
          -0.012993991374969482,
          -0.02863870933651924
        ]
      ],
      [
        [
          -0.20858964323997498,
          -0.005095497239381075,
          -0.08550263941287994
        ],
        [
          0.07642868161201477,
          -0.09864810109138489,
          -0.09978777170181274
        ],
        [
          0.15444204211235046,
          -0.040390562266111374,
          -0.07739341259002686
        ]
      ],
      [
        [
          -0.07767217606306076,
          0.04115237295627594,
          -0.010144813917577267
        ],
        [
          0.1552084982395172,
          -0.002722078002989292,
          0.02238963358104229
        ],
        [
          0.11193323135375977,
          0.02927492745220661,
          -0.025581149384379387
        ]
      ],
      [
        [
          -0.12236406654119492,
          -0.11013457924127579,
          -0.08507119119167328
        ],
        [
          0.2845996022224426,
          -0.10466553270816803,
          -0.10308317095041275
        ],
        [
          0.14929482340812683,
          -0.02151566743850708,
          -0.059890393167734146
        ]
      ]
    ],
    [
      [
        [
          0.06614574790000916,
          0.10379485785961151,
          0.053499121218919754
        ],
        [
          0.040521908551454544,
          0.12867973744869232,
          0.0702829509973526
        ],
        [
          0.13836276531219482,
          0.050200872123241425,
          0.05411650612950325
        ]
      ],
      [
        [
          -0.05360138788819313,
          -0.28514838218688965,
          -0.28204259276390076
        ],
        [
          -0.10414883494377136,
          -0.020732326433062553,
          -0.23154157400131226
        ],
        [
          -0.13467854261398315,
          0.14020399749279022,
          0.0973246619105339
        ]
      ],
      [
        [
          -0.5374961495399475,
          -0.2770082354545593,
          0.14657948911190033
        ],
        [
          0.025266001001000404,
