module.exports = {
  "conv0.weight": [
    [
      [
        [
          1.9764622449874878,
          -3.2299509048461914,
          -2.103849411010742
        ],
        [
          0.4630705714225769,
          0.2129828780889511,
          -0.8256909251213074
        ],
        [
          -0.7808277010917664,
          4.091149806976318,
          0.534905195236206
        ]
      ]
    ],
    [
      [
        [
          0.9039840698242188,
          1.1080939769744873,
          0.43551647663116455
        ],
        [
          -2.6981401443481445,
          -2.581146240234375,
          -2.2144832611083984
        ],
        [
          1.8576692342758179,
          1.9270989894866943,
          1.7856155633926392
        ]
      ]
    ],
    [
      [
        [
          -0.6581810116767883,
          0.9436048865318298,
          -1.1655200719833374
        ],
        [
          1.1440294981002808,
          1.248610496520996,
          0.0464942641556263
        ],
        [
          -0.7253367900848389,
          0.6105546355247498,
          0.7484617829322815
        ]
      ]
    ],
    [
      [
        [
          0.8852270245552063,
          -0.2422909140586853,
          0.6102889180183411
        ],
        [
          -0.014624723233282566,
          -0.6961573362350464,
          -0.037719808518886566
        ],
        [
          0.09064853191375732,
          -0.6358551383018494,
          -0.05985145643353462
        ]
      ]
    ],
    [
      [
        [
          0.611682116985321,
          1.3971540927886963,
          1.7785146236419678
        ],
        [
          1.1231627464294434,
          0.597071647644043,
          0.48419949412345886
        ],
        [
          -1.7305350303649902,
          -1.8270211219787598,
          -1.6709166765213013
        ]
      ]
    ],
    [
      [
        [
          -0.881287157535553,
          1.0568801164627075,
          -0.5554099678993225
        ],
        [
          0.2694016993045807,
          0.5399286150932312,
          0.20778632164001465
        ],
        [
          2.1288270950317383,
          -0.37890729308128357,
          -0.11836433410644531
        ]
      ]
    ],
    [
      [
        [
          2.627345561981201,
          -1.8497616052627563,
          0.514672040939331
        ],
        [
          0.40283381938934326,
          0.4263339936733246,
          -0.9502094984054565
        ],
        [
          -2.381673812866211,
          2.8680596351623535,
          -1.2809358835220337
        ]
      ]
    ],
    [
      [
        [
          -3.346618890762329,
          3.3769795894622803,
          -0.2147030532360077
        ],
        [
          0.5185644030570984,
          0.7122847437858582,
          -0.831213116645813
        ],
        [
          3.251638174057007,
          -2.215498924255371,
          -0.665423572063446
        ]
      ]
    ],
    [
      [
        [
          3.018004894256592,
          1.4150526523590088,
          2.052607774734497
        ],
        [
          0.7453352808952332,
          0.014816033653914928,
          -0.5418386459350586
        ],
        [
          -2.955249309539795,
          -1.2710020542144775,
          -2.828228712081909
        ]
      ]
    ],
    [
      [
        [
          0.8353551030158997,
          -0.5598562955856323,
          -0.2042027860879898
        ],
        [
          0.2986069619655609,
          -0.29166290163993835,
          -0.5865434408187866
        ],
        [
          0.5405074954032898,
          1.1112033128738403,
          -1.2904390096664429
        ]
      ]
    ],
    [
      [
        [
          0.9859476089477539,
          0.7616519927978516,
          0.38438543677330017
        ],
        [
          -1.4113966226577759,
          -1.4149436950683594,
          -1.0377460718154907
        ],
        [
          0.6671095490455627,
          0.8052985072135925,
          0.24194513261318207
        ]
      ]
    ],
    [
      [
        [
          -0.10236330330371857,
          1.5771870613098145,
          -0.25517910718917847
        ],
        [
          -0.1757577657699585,
          -0.36918047070503235,
          -0.3408671021461487
        ],
        [
          0.5492585301399231,
          -1.0823308229446411,
          -0.48158031702041626
        ]
      ]
    ],
    [
      [
        [
          -0.07552164047956467,
          0.47138339281082153,
          -1.5111945867538452
        ],
        [
          0.2707235813140869,
          0.038400691002607346,
          0.40978461503982544
        ],
        [
          1.062709927558899,
          0.16467736661434174,
          -0.19854509830474854
        ]
      ]
    ],
    [
      [
        [
          -1.7143994569778442,
          2.060669183731079,
          -0.7028923034667969
        ],
        [
          0.5896697640419006,
          0.130534827709198,
          -1.0731408596038818
        ],
        [
          2.4259860515594482,
          -1.9629371166229248,
          -0.6307740807533264
        ]
      ]
    ],
    [
      [
        [
          -0.017684301361441612,
          1.313247561454773,
          0.3194231688976288
        ],
        [
          -0.9247989654541016,
          -0.24099771678447723,
          0.6710442304611206
        ],
        [
          -0.4254893362522125,
          -1.628914475440979,
          -0.09295487403869629
        ]
      ]
    ],
    [
      [
        [
          -3.320544481277466,
          -2.831083059310913,
          -1.79019296169281
        ],
        [
          0.32115495204925537,
          0.7265492081642151,
          0.8459739089012146
        ],
        [
          3.052855968475342,
          2.1133458614349365,
          1.6699988842010498
        ]
      ]
    ],
    [
      [
        [
          0.7230713963508606,
          0.44143709540367126,
          0.13949131965637207
        ],
        [
          0.31511229276657104,
          0.30603402853012085,
          0.06858871877193451
        ],
        [
          -0.7747960090637207,
          -0.09462568163871765,
          0.5717893242835999
        ]
      ]
    ],
    [
      [
        [
          0.6088805198669434,
          0.7605803608894348,
          -0.008509458042681217
        ],
        [
          0.2967933714389801,
          -0.19161981344223022,
          -0.9991019368171692
        ],
        [
          -0.1303558647632599,
          -0.21032938361167908,
          -1.1276593208312988
        ]
      ]
    ],
    [
      [
        [
          0.21798834204673767,
          -0.5690227150917053,
          1.0910273790359497
        ],
        [
          -0.3330358564853668,
          0.6136736273765564,
          1.2358969449996948
        ],
        [
          -1.6769216060638428,
          0.7906128764152527,
          0.7200413346290588
        ]
      ]
    ]
  ],
  "bn1.running_mean": [
    4.120145320892334,
    6.091549396514893,
    5.222929000854492,
    6.537513256072998
  ],
  "bn1.running_var": [
    164.03274536132812,
    410.97210693359375,
    391.27484130859375,
    521.172607421875
  ],
  "bn1.num_batches_tracked": 12145,
  "scale1.scale": [
    1.949404239654541,
    1.957988977432251,
    2.1037819385528564,
    2.306368827819824
  ],
  "scale1.drop_indices": [
    12,
    16,
    5,
    6,
    17,
    13,
    18,
    11,
    1,
    14,
    4,
    7,
    15,
    0,
    9
  ],
  "scale1.keep_indices": [
    10,
    8,
    3,
    2
  ],
  "conv1.weight": [
    [
      [
        [
          -0.4703807234764099,
          0.4033094644546509,
          0.7448863983154297
        ],
        [
          0.11434266716241837,
          -0.693135678768158,
          0.09303539246320724
        ],
        [
          0.676030158996582,
          -1.2485098838806152,
          -0.20399124920368195
        ]
      ],
      [
        [
          -0.10702197998762131,
          -0.019371272996068,
          -0.012830201536417007
        ],
        [
          -0.38961443305015564,
          -0.5934056043624878,
          -0.0726843997836113
        ],
        [
          -0.09858182072639465,
          -0.12485449016094208,
          0.19373415410518646
        ]
      ],
      [
        [
          -0.31413716077804565,
          0.6826879382133484,
          0.10889233648777008
        ],
        [
          -0.5971458554267883,
          0.23303082585334778,
          0.38816848397254944
        ],
        [
          -0.59776371717453,
          -1.1554219722747803,
          0.48703861236572266
        ]
      ],
      [
        [
          -0.40740612149238586,
          -0.9908629059791565,
          0.12017270177602768
        ],
        [
          -0.2646186053752899,
          -0.024097153916954994,
          -0.3163982331752777
        ],
        [
          -0.5284811854362488,
          0.8701655864715576,
          -0.5021889805793762
        ]
      ],
      [
        [
          0.34543025493621826,
          0.3607163727283478,
          -0.48118919134140015
        ],
        [
          -0.23638169467449188,
          0.5372002124786377,
          -0.100346639752388
        ],
        [
          -0.2416638880968094,
          0.09044698625802994,
          0.2909507155418396
        ]
      ],
      [
        [
          -0.4158463180065155,
          0.4634822905063629,
          0.28241410851478577
        ],
        [
          -0.42041951417922974,
          -0.599419891834259,
          0.5280306935310364
        ],
        [
          -0.20179802179336548,
          -0.7458983063697815,
          0.4896467328071594
        ]
      ],
      [
        [
          -0.3742758333683014,
          0.8393890261650085,
          0.24971595406532288
        ],
        [
          -0.2038508951663971,
          0.334591805934906,
          -0.003208185313269496
        ],
        [
          -0.10293573141098022,
          -0.12067452073097229,
          0.42877453565597534
        ]
      ],
      [
        [
          -0.13086333870887756,
          -0.591835618019104,
          -0.36378782987594604
        ],
        [
          0.007925831712782383,
          -0.03874235227704048,
          0.014021503739058971
        ],
        [
          -0.07303992658853531,
          0.26226282119750977,
          0.517626166343689
        ]
      ],
      [
        [
          0.10979070514440536,
          0.1343202292919159,
          -0.2662685215473175
        ],
        [
          -0.2202875167131424,
          0.42861679196357727,
          -0.08747296035289764
        ],
        [
          -0.6013111472129822,
          0.05184217169880867,
          0.2969370186328888
        ]
      ],
      [
        [
          -0.37679123878479004,
          0.7658135890960693,
          0.30552929639816284
        ],
        [
          0.09181877225637436,
          -0.3716135621070862,
          0.07805368304252625
        ],
        [
          -0.08561574667692184,
          -1.42529296875,
          -0.3367610275745392
        ]
      ],
      [
        [
          -0.059798527508974075,
          -0.04323543980717659,
          -0.1656942516565323
        ],
        [
          -0.15838785469532013,
          -0.04743528366088867,
          0.010327083058655262
        ],
        [
          -0.08147141337394714,
          -0.10508744418621063,
          0.05768245831131935
        ]
      ],
      [
        [
          -0.12781360745429993,
          -0.19022929668426514,
          -0.2084159404039383
        ],
        [
          -0.023036766797304153,
          0.02919578365981579,
          -0.2525986433029175
        ],
        [
          -0.03448488563299179,
          -0.20382674038410187,
          -0.024220751598477364
        ]
      ],
      [
        [
          -0.1522141546010971,
          0.552954912185669,
          0.19354590773582458
        ],
        [
          0.16252100467681885,
          0.032397545874118805,
          -0.010573008097708225
        ],
        [
          0.2715904414653778,
          -0.534221351146698,
          -0.23878422379493713
        ]
      ],
      [
        [
          0.22213201224803925,
          0.1691804826259613,
          -0.24742428958415985
        ],
        [
          0.5228240489959717,
          0.24768701195716858,
          -0.38007426261901855
        ],
        [
          0.34716153144836426,
          0.354769766330719,
          -0.2272847443819046
        ]
      ],
      [
        [
          0.7779055237770081,
          -0.3110485374927521,
          0.4291161000728607
        ],
        [
          0.2863527238368988,
          0.5487422347068787,
          0.433836430311203
        ],
        [
          -0.3732258677482605,
          0.1014193519949913,
          0.36217430233955383
        ]
      ],
      [
        [
          -0.4335293173789978,
          0.7642688751220703,
          0.44488325715065
        ],
        [
          -0.45153823494911194,
          -1.555837631225586,
          0.559697151184082
        ],
        [
          0.39978277683258057,
          0.25950348377227783,
          0.16010428965091705
        ]
      ],
      [
        [
          -0.3337518572807312,
          0.49622467160224915,
          -0.20178557932376862
        ],
        [
          -0.2600368559360504,
          0.15882977843284607,
          0.1754823923110962
        ],
        [
          0.07140403240919113,
          -0.468018501996994,
          0.15517891943454742
        ]
      ],
      [
        [
          0.0039422339759767056,
          0.2891744375228882,
          0.34133803844451904
        ],
        [
          0.4391348659992218,
          0.2845990061759949,
          -0.33283382654190063
        ],
        [
          0.13065744936466217,
          -0.3241477906703949,
          -0.2981896698474884
        ]
      ],
      [
        [
          -0.3460380434989929,
          1.1806328296661377,
          -0.33234503865242004
        ],
        [
          -0.8108287453651428,
          0.31972014904022217,
          0.6160163283348083
        ],
        [
          -0.8675915598869324,
          -0.9300207495689392,
          1.0353329181671143
        ]
      ]
    ],
    [
      [
        [
          -0.442156046628952,
          0.9904152154922485,
          -0.7293128371238708
        ],
        [
          0.6333430409431458,
          0.3486439883708954,
          -0.016847830265760422
        ],
        [
          0.31047701835632324,
          0.2315703183412552,
          -0.023105096071958542
        ]
      ],
      [
        [
          -0.23428130149841309,
          -0.40098848938941956,
          -0.44239330291748047
        ],
        [
          -0.9947396516799927,
          -0.25836271047592163,
          -0.2539277672767639
        ],
        [
          -0.7202809453010559,
          0.0085736820474267,
          -0.24222414195537567
        ]
      ],
      [
        [
          1.1556758880615234,
          -1.5036178827285767,
          -0.20448938012123108
        ],
        [
          0.0006739826058037579,
          -0.34426403045654297,
          0.1148470863699913
        ],
        [
          -1.2722804546356201,
          0.14091475307941437,
          0.233664870262146
        ]
      ],
      [
        [
          0.25860795378685,
          0.6779751181602478,
          0.323668897151947
        ],
        [
          0.8466949462890625,
          -0.2735305428504944,
          0.1981256604194641
        ],
        [
          0.7925747036933899,
          -0.5082722306251526,
          0.013917505741119385
        ]
      ],
      [
        [
          0.40452098846435547,
          -0.10727179795503616,
          -0.3158724009990692
        ],
        [
          0.4897420406341553,
          -0.37472882866859436,
          0.00019030920520890504
        ],
        [
          -0.3619917035102844,
          -0.23650187253952026,
          -0.4216983914375305
        ]
      ],
      [
        [
          1.3488293886184692,
          -0.21708348393440247,
          0.17936743795871735
        ],
        [
          0.022710537537932396,
          0.5775845646858215,
          0.5605266690254211
        ],
        [
          -1.5088175535202026,
          0.5484731793403625,
          0.32480090856552124
        ]
      ],
      [
        [
          0.11422669142484665,
          0.27884724736213684,
          -0.20011983811855316
        ],
        [
          1.2016913890838623,
          -0.011218818835914135,
          0.2480156570672989
        ],
        [
          0.3444976806640625,
          -0.3260369896888733,
          0.05870182439684868
        ]
      ],
      [
        [
          0.4570524990558624,
          -0.529464602470398,
          -0.0750051885843277
        ],
        [
          -0.01770283840596676,
          0.4633292555809021,
          0.3939206004142761
        ],
        [
          0.09893844276666641,
          0.16484440863132477,
          0.12803062796592712
        ]
      ],
      [
        [
          0.34464776515960693,
          0.227183535695076,
          -0.051343776285648346
        ],
        [
          1.4783657789230347,
          -0.21685916185379028,
          0.867682933807373
        ],
        [
          -1.1656360626220703,
          -0.07069180905818939,
          0.1823418140411377
        ]
      ],
      [
        [
          1.914026141166687,
          0.8044301867485046,
          -0.32099422812461853
        ],
        [
          1.2460622787475586,
          -0.2610684931278229,
          -0.12618617713451385
        ],
        [
          -2.334660530090332,
          0.26195937395095825,
          -0.20188120007514954
        ]
      ],
      [
        [
          -0.07500600814819336,
          -0.4079684615135193,
          -0.23073036968708038
        ],
        [
          -0.2543715536594391,
          -0.45491233468055725,
          -0.059908416122198105
        ],
        [
          -0.6169902086257935,
          0.22640950977802277,
          0.1101083904504776
        ]
      ],
      [
        [
          0.8573887348175049,
          0.739473283290863,
          -0.10534031689167023
        ],
        [
          -0.09847511351108551,
          -0.09610603004693985,
          0.3294855058193207
        ],
        [
          -0.9677906036376953,
          0.1929563283920288,
          0.1959162950515747
        ]
      ],
      [
        [
          0.5478883981704712,
          0.11000628024339676,
          -0.5657745599746704
        ],
        [
          -0.40223291516304016,
          -0.11636648327112198,
          -0.36751851439476013
        ],
        [
          -1.0614839792251587,
          0.21009670197963715,
          -0.04910438135266304
        ]
      ],
      [
        [
          -0.01795477792620659,
          0.24144940078258514,
          -0.4458951950073242
        ],
        [
          -0.6138148307800293,
          -0.025587810203433037,
          0.0729011669754982
        ],
        [
          -0.6083468794822693,
          -0.03899442404508591,
          0.02971852570772171
        ]
      ],
      [
        [
          -1.6618504524230957,
          -0.027731310576200485,
          -0.9935024380683899
        ],
        [
          -1.0139976739883423,
          0.2730567455291748,
          -1.2390332221984863
        ],
        [
          3.3617522716522217,
          -0.028143633157014847,
          -0.869589626789093
        ]
      ],
      [
        [
          -0.5514516830444336,
          0.24149562418460846,
          0.5379221439361572
        ],
        [
          -1.0309503078460693,
          1.03713858127594,
          0.29175567626953125
        ],
        [
          -0.09952373802661896,
          -0.16876564919948578,
          -0.5057432055473328
        ]
      ],
      [
        [
          0.16057510673999786,
          -0.2534200847148895,
          0.05857383832335472
        ],
        [
          0.11151598393917084,
          0.1766905039548874,
          0.034443020820617676
        ],
        [
          -0.42812225222587585,
          0.22097063064575195,
          0.16557486355304718
        ]
      ],
      [
        [
          0.18524086475372314,
          0.6772112846374512,
          -0.6545911431312561
        ],
        [
          0.7653310894966125,
          -0.6208637952804565,
          -0.23921418190002441
        ],
        [
          -0.8120135068893433,
          -0.7120351195335388,
          -0.33063820004463196
        ]
      ],
      [
        [
          -0.6850633025169373,
          -0.8238276839256287,
          -0.7982151508331299
        ],
        [
          -2.0048673152923584,
          -0.2731599509716034,
          -0.4593234360218048
        ],
        [
          1.8424779176712036,
          -0.15785685181617737,
          0.3094278872013092
        ]
      ]
    ],
    [
      [
        [
          -1.3168940544128418,
          1.5434367656707764,
          1.5231328010559082
        ],
        [
          0.007410056889057159,
          1.0440617799758911,
          1.0979622602462769
        ],
        [
          0.6323662996292114,
          0.1821267008781433,
          0.2842133045196533
        ]
      ],
      [
        [
          -0.389873206615448,
          0.327158123254776,
          0.17834264039993286
        ],
        [
          -0.10671237111091614,
          -0.008868458680808544,
          0.15494775772094727
        ],
        [
          -0.3337469696998596,
          -0.16208136081695557,
          -0.5617855191230774
        ]
      ],
      [
        [
          0.4165365993976593,
          0.0640481486916542,
          1.0670174360275269
        ],
        [
          -0.3524858057498932,
          0.234527125954628,
          0.47632741928100586
        ],
        [
          0.0009201036882586777,
          0.0826062336564064,
          -0.2530883848667145
        ]
      ],
      [
        [
          -1.3911852836608887,
          0.1510699987411499,
          -0.09235525876283646
        ],
        [
          1.1062496900558472,
          -0.5693195462226868,
          -0.07980304211378098
        ],
        [
          1.4877363443374634,
          -0.6697544455528259,
          0.05190455541014671
        ]
      ],
      [
        [
          0.9223832488059998,
          -0.41349971294403076,
          0.32634007930755615
        ],
        [
          0.26045146584510803,
          -0.4294759929180145,
          0.11309705674648285
        ],
        [
          -0.34381410479545593,
          -0.34042418003082275,
          0.12485480308532715
        ]
      ],
      [
        [
          0.5310128331184387,
          0.21274511516094208,
          -0.10628221184015274
        ],
        [
          -0.6709078550338745,
          -0.11552388966083527,
          -0.384409636259079
        ],
        [
          -0.27796611189842224,
          -0.7559695243835449,
          -0.34412050247192383
        ]
      ],
      [
        [
          0.03245280310511589,
          1.3904235363006592,
          1.3444238901138306
        ],
        [
          0.4448920786380768,
          0.4215080738067627,
          0.26694512367248535
        ],
        [
          0.7069095373153687,
          0.2797061502933502,
          -0.03865726292133331
        ]
      ],
      [
        [
          0.12919051945209503,
          0.05747033655643463,
          -0.6498838663101196
        ],
        [
          -0.5793425440788269,
          -0.6236691474914551,
          -1.0550689697265625
        ],
        [
          0.6323015093803406,
          -0.764019250869751,
          -0.8959982395172119
        ]
      ],
      [
        [
          0.9675562381744385,
          -0.1189565509557724,
          0.6476334929466248
        ],
        [
          0.09256208688020706,
          -0.7566524147987366,
          -0.3192576467990875
        ],
        [
          -1.3228557109832764,
          -0.4787701666355133,
          -0.32172587513923645
        ]
      ],
      [
        [
          -0.9048160314559937,
          0.5613507628440857,
          0.6106131076812744
        ],
        [
          -0.3658144772052765,
          -0.07084516435861588,
          0.03901473432779312
        ],
        [
          1.2844263315200806,
          -0.4563676416873932,
          -0.15066127479076385
        ]
      ],
      [
        [
          -0.03720327466726303,
          -0.01442463044077158,
          0.1420716643333435
        ],
        [
          -0.07791683822870255,
          -0.020061947405338287,
          -0.022783707827329636
        ],
        [
          -0.4446648359298706,
          0.03415261581540108,
          -0.19240111112594604
        ]
      ],
      [
        [
          -0.3932752013206482,
          -0.37376880645751953,
          -0.3803817331790924
        ],
        [
          -0.28603607416152954,
          -0.7972576022148132,
          -0.5149065852165222
        ],
        [
          0.34566906094551086,
          -0.47810402512550354,
          -0.3184443414211273
        ]
      ],
      [
        [
          -0.17436406016349792,
          0.3702903985977173,
          -0.11585219949483871
        ],
        [
          -0.28527963161468506,
          0.06543375551700592,
          -0.16760843992233276
        ],
        [
          0.4636915326118469,
          -0.4249379336833954,
          -0.01851288042962551
        ]
      ],
      [
        [
          -0.3282187581062317,
          0.2550537884235382,
          -0.7867220640182495
        ],
        [
          -0.07795335352420807,
          -0.5242777466773987,
          -0.7581686973571777
        ],
        [
          1.0291035175323486,
          -0.630454421043396,
          -0.559234619140625
        ]
      ],
      [
        [
          -1.5575230121612549,
          -1.181293249130249,
          1.2295081615447998
        ],
        [
          1.8479835987091064,
          -0.31495213508605957,
          0.9193894863128662
        ],
        [
          0.39468488097190857,
          0.4272659122943878,
          0.3859294056892395
        ]
      ],
      [
        [
          -0.709226131439209,
          0.3238524794578552,
          -0.6711674928665161
        ],
        [
          -1.2066562175750732,
          -0.19520725309848785,
          -0.39126867055892944
        ],
        [
          0.3322272002696991,
          -0.7238991260528564,
          -0.8424966335296631
        ]
      ],
      [
        [
          0.8100210428237915,
          -0.23416461050510406,
          0.3010048568248749
        ],
        [
          0.3598784804344177,
          -0.0050857579335570335,
          0.1224391758441925
        ],
        [
          -0.027520859614014626,
          -0.05691899359226227,
          0.13125857710838318
        ]
      ],
      [
        [
          -0.28054574131965637,
          0.6004326343536377,
          -0.05375652015209198
        ],
        [
          0.30792906880378723,
          -0.46755149960517883,
          -0.21707889437675476
        ],
        [
          1.144824743270874,
          -0.4528065025806427,
          -0.06193891540169716
        ]
      ],
      [
        [
          -0.7172737121582031,
          -2.084536552429199,
          0.16738484799861908
        ],
        [
          0.5678383111953735,
          -0.356753408908844,
          0.1631045937538147
        ],
        [
          -0.06240076571702957,
          1.1101106405258179,
          -0.5045366883277893
        ]
      ]
    ],
    [
      [
        [
          -0.20871417224407196,
          -0.7674553394317627,
          0.06773107498884201
        ],
        [
          -0.3748210668563843,
          -0.34894895553588867,
          0.21940664947032928
        ],
        [
          -0.442385733127594,
          -0.3520375192165375,
          0.1273421347141266
        ]
      ],
      [
        [
          -0.2857009470462799,
          0.5064656734466553,
          0.12298741191625595
        ],
        [
          -0.4374747574329376,
          0.01470942236483097,
          -0.04979588836431503
        ],
        [
          -0.3869609534740448,
          -0.3508736491203308,
          -0.04692512005567551
        ]
      ],
      [
        [
          0.8605052828788757,
          0.2673870027065277,
          -0.4906323552131653
        ],
        [
          0.23963242769241333,
          0.33889681100845337,
          -0.2304225116968155
        ],
        [
          -0.29308831691741943,
          -0.47165384888648987,
          0.22610265016555786
        ]
      ],
      [
        [
          -0.9592512249946594,
          -0.2552873194217682,
          0.16822214424610138
        ],
        [
          1.7663236856460571,
          -0.3313421308994293,
          -0.20840774476528168
        ],
        [
          0.17596755921840668,
          0.37244144082069397,
          -0.3150422275066376
        ]
      ],
      [
        [
          0.0400271937251091,
          -0.40121957659721375,
          -0.060369525104761124
        ],
        [
          -0.29244285821914673,
          0.39881929755210876,
          0.07832619547843933
        ],
        [
          -0.5010005235671997,
          0.16281767189502716,
          -0.08791759610176086
        ]
      ],
      [
        [
          0.9149936437606812,
          1.1207481622695923,
          -0.4718431830406189
        ],
        [
          -0.27462640404701233,
          0.867466926574707,
          -0.003809429006651044
        ],
        [
          0.14845336973667145,
          -0.2870468199253082,
          0.09028037637472153
        ]
      ],
      [
        [
          -0.8604556322097778,
          -0.6959724426269531,
          -0.1901470422744751
        ],
        [
          -0.1382526159286499,
          -0.05625562369823456,
          -0.2670382261276245
        ],
        [
          -0.7685067653656006,
          -0.23569093644618988,
          0.14432600140571594
        ]
      ],
      [
        [
          0.4239948093891144,
          0.8033970594406128,
          0.17353521287441254
        ],
        [
          1.9569010734558105,
          0.8021879196166992,
          1.014721393585205
        ],
        [
          -0.5606475472450256,
          0.3060552179813385,
          0.8507238626480103
        ]
      ],
      [
        [
          -0.5069266557693481,
          -0.425080806016922,
          0.29113060235977173
        ],
        [
          -0.29141494631767273,
          0.5994893312454224,
          -0.28951600193977356
        ],
        [
          -0.9615700840950012,
          0.11171049624681473,
          -0.15810149908065796
        ]
      ],
      [
        [
          -0.02399604581296444,
          -0.3784758448600769,
          -0.7359602451324463
        ],
        [
          -0.2617916464805603,
          -0.5060662627220154,
          -0.4693422317504883
        ],
        [
          0.8689029216766357,
          -0.1691717803478241,
          -0.06977251917123795
        ]
      ],
      [
        [
          -0.31687963008880615,
          0.12532982230186462,
          0.06491690129041672
        ],
        [
          -0.06927205622196198,
          0.13699759542942047,
          -0.1315188705921173
        ],
        [
          -0.38976380228996277,
          -0.022954605519771576,
          -0.12873481214046478
        ]
      ],
      [
        [
          -0.004325497895479202,
          0.06137065216898918,
          0.370954304933548
        ],
        [
          0.25572872161865234,
          0.14411211013793945,
          0.26132261753082275
        ],
        [
          0.048660438507795334,
          0.43443650007247925,
          -0.010794129222631454
        ]
      ],
      [
        [
          0.33135879039764404,
          -0.04505007714033127,
          -0.3617607355117798
        ],
        [
          -0.15538576245307922,
          -0.11567804962396622,
          0.0007625625585205853
        ],
        [
          0.4196479022502899,
          -0.313088595867157,
          0.05669476091861725
        ]
      ],
      [
        [
          0.6874608397483826,
          0.5600950717926025,
          0.24990150332450867
        ],
        [
          0.4596930742263794,
          0.4533293545246124,
          0.7059491276741028
        ],
        [
          -0.3836619257926941,
          0.6020225286483765,
          0.38008418679237366
        ]
      ],
      [
        [
          0.1164947971701622,
          -1.597281813621521,
          0.5048890709877014
        ],
        [
          1.530225396156311,
          -0.8269984722137451,
          -0.76351398229599
        ],
        [
          -0.840070366859436,
          -0.1681399643421173,
          -0.09927003085613251
        ]
      ],
      [
        [
          0.1476956158876419,
          0.031121622771024704,
          0.31806838512420654
        ],
        [
          -0.28172510862350464,
          -0.09310442209243774,
          0.6507675051689148
        ],
        [
          0.5888994336128235,
          -1.085370659828186,
          0.5659323334693909
        ]
      ],
      [
        [
          0.04232420399785042,
          0.22765646874904633,
          -0.13781248033046722
        ],
        [
          -0.10823351889848709,
          0.6697410345077515,
          -0.14083541929721832
        ],
        [
          -0.22140634059906006,
          -0.07372777909040451,
          -0.21120725572109222
        ]
      ],
      [
        [
          -0.869999349117279,
          0.19601671397686005,
          0.1831710934638977
        ],
        [
          -0.623529851436615,
          -0.9579020142555237,
          -0.11998184025287628
        ],
        [
          0.01013698149472475,
          0.007914119400084019,
          -0.12379482388496399
        ]
      ],
      [
        [
          0.17417128384113312,
          -2.3094351291656494,
          -0.6974654793739319
        ],
        [
          0.33747291564941406,
          -1.2005692720413208,
          -0.5961344242095947
        ],
        [
          -0.3127012848854065,
          -0.5376765727996826,
          0.1742299348115921
        ]
      ]
    ]
  ],
  "bn2.running_mean": [
    4.704673767089844,
    2.995857000350952,
    4.589818954467773,
    5.388609409332275,
    2.8417630195617676,
    3.8820502758026123,
    3.1901776790618896,
    3.6942238807678223,
    5.347663402557373,
    3.587387800216675,
    1.9335659742355347,
    3.879105567932129,
    2.849942922592163,
    3.647928476333618,
    4.410404205322266,
    3.421603202819824,
    1.5929163694381714,
    4.3559956550598145,
    5.298368453979492
  ],
  "bn2.running_var": [
    7.599859237670898,
    4.724587917327881,
    10.725625038146973,
    82.7198715209961,
    4.8369221687316895,
    3.2661523818969727,
    12.955365180969238,
    14.37968921661377,
    7.319704055786133,
    4.232983112335205,
    20.24065399169922,
    7.172261714935303,
    8.271082878112793,
    8.413339614868164,
    130.6676025390625,
    13.726006507873535,
    6.3056254386901855,
    7.371682167053223,
    110.81055450439453
  ],
  "bn2.num_batches_tracked": 12145,
  "conv2.weight": [
    [
      [
        [
          -1.0520857572555542,
          -0.702752411365509,
          -0.32432982325553894
        ],
        [
          -0.8257296085357666,
          0.021817322820425034,
          0.24543780088424683
        ],
        [
          -0.7529729604721069,
          0.34514889121055603,
          0.5099543929100037
        ]
      ],
      [
        [
          -1.5369840860366821,
          -0.10738195478916168,
          -0.14003302156925201
        ],
        [
          -1.3224661350250244,
          -1.5799524784088135,
          -0.006758744828402996
        ],
        [
          1.2827397584915161,
          -1.0803004503250122,
          -0.06863714754581451
        ]
      ],
      [
        [
          0.16484954953193665,
          -0.8239048719406128,
          0.7748382091522217
        ],
        [
          1.2257354259490967,
          -0.27805837988853455,
          -0.2847651541233063
        ],
        [
          0.16656701266765594,
          -0.0168126430362463,
          -0.5747078061103821
        ]
      ],
      [
        [
          0.9198082685470581,
          0.05433042347431183,
          0.3725590705871582
        ],
        [
          -1.7831084728240967,
          0.16252252459526062,
          -0.6046738624572754
        ],
        [
          0.29438114166259766,
          0.4501326382160187,
          -0.023761773481965065
        ]
      ]
    ],
    [
      [
        [
          -0.36734598875045776,
          0.13400788605213165,
          -0.37734439969062805
        ],
        [
          0.013559931889176369,
          -0.027910705655813217,
          -0.4360114634037018
        ],
        [
          -0.15847596526145935,
          -0.29550686478614807,
          -0.2474105954170227
        ]
      ],
      [
        [
          -0.4507720172405243,
          0.37430548667907715,
          0.2857469320297241
        ],
        [
          -0.3245185315608978,
          -0.18464769423007965,
          -0.39749428629875183
        ],
        [
          -0.7274025678634644,
          -0.5938183665275574,
          -0.8306498527526855
        ]
      ],
      [
        [
          -0.392898827791214,
          0.0743972435593605,
          -0.4265215992927551
        ],
        [
          0.5374186038970947,
          0.4721536934375763,
          -0.17320318520069122
        ],
        [
          -0.6485076546669006,
          -1.0307027101516724,
          -0.13878212869167328
        ]
      ],
      [
        [
          1.8298243284225464,
          -0.056289080530405045,
          0.2797554135322571
        ],
        [
          -0.1906341016292572,
          0.057128701359033585,
          -0.5489491820335388
        ],
        [
          -0.5393967032432556,
          0.33861851692199707,
          0.16668526828289032
        ]
      ]
    ],
    [
      [
        [
          0.3399396240711212,
          0.5614507794380188,
          -0.12327484786510468
        ],
        [
          0.2944457530975342,
          0.486672580242157,
          -0.7112234234809875
        ],
        [
          -0.12800872325897217,
          -0.04926083981990814,
          -0.37177592515945435
        ]
      ],
      [
        [
          -0.6801586151123047,
          -0.6314802169799805,
          -0.2739391624927521
        ],
        [
          -0.4975956976413727,
          -0.5536958575248718,
          -0.031285710632801056
        ],
        [
          -0.8723881244659424,
          -0.0007064571836963296,
          -0.3972735106945038
        ]
      ],
      [
        [
          -0.4147679805755615,
          -0.08507601171731949,
          -0.8380880355834961
        ],
        [
          -0.4264782965183258,
          0.6032659411430359,
          0.1372498869895935
        ],
        [
          -0.462890625,
          0.8503934741020203,
          0.03871279954910278
        ]
      ],
      [
        [
          -0.583781361579895,
          -0.08821557462215424,
          -0.23008297383785248
        ],
        [
          -0.26544323563575745,
          -0.22468461096286774,
          -0.3734162449836731
        ],
        [
          -0.21468569338321686,
          -0.8998073935508728,
          -0.2927827835083008
        ]
      ]
    ],
    [
      [
        [
          -0.436414897441864,
          -0.03401229903101921,
          -0.26907819509506226
        ],
        [
          -0.3729477524757385,
          -0.11592522263526917,
          -0.33031508326530457
        ],
        [
          -0.3303842842578888,
          0.06554146856069565,
          -0.34113213419914246
        ]
      ],
      [
        [
          0.07210191339254379,
          -0.5899314880371094,
          0.3706446588039398
        ],
        [
          0.3432735204696655,
          -0.35467326641082764,
          0.565814197063446
        ],
        [
          -0.11861225217580795,
          -0.45331570506095886,
          0.36731165647506714
        ]
      ],
      [
        [
          0.022816289216279984,
          -0.0023594372905790806,
          -0.09549624472856522
        ],
        [
          0.16381250321865082,
          -0.22839084267616272,
          0.03973239287734032
        ],
        [
          -0.03366389498114586,
          -0.4785034656524658,
          -0.3759429454803467
        ]
      ],
      [
        [
          0.8333216905593872,
          -0.3268233835697174,
          -0.30020707845687866
        ],
        [
          -0.13660068809986115,
          -0.2683967649936676,
          -0.48657673597335815
        ],
        [
          -0.5117003321647644,
          -0.1863504946231842,
          -0.6051346659660339
        ]
      ]
    ],
    [
      [
        [
          0.19160817563533783,
          -0.4692288339138031,
          0.476789265871048
        ],
        [
          -1.4308016300201416,
          0.009734412655234337,
          -0.13579991459846497
        ],
        [
          1.012775182723999,
          -0.4459730088710785,
          0.028834261000156403
        ]
      ],
      [
        [
          -1.171365737915039,
          -0.854831874370575,
          -0.49307671189308167
        ],
        [
          -0.5013394951820374,
          -0.6674013733863831,
          -0.5544977784156799
        ],
        [
          -0.4538809657096863,
          0.7283082604408264,
          0.028062816709280014
        ]
      ],
      [
        [
          0.18137329816818237,
          -0.3166605234146118,
          0.08828999847173691
        ],
        [
          -0.11848302185535431,
          -0.7394136190414429,
          -0.1900220811367035
        ],
        [
          0.4839329719543457,
          0.47111356258392334,
          0.9509820342063904
        ]
      ],
      [
        [
          0.6407776474952698,
          0.8020467758178711,
          -0.4181446135044098
        ],
        [
          -0.9357814192771912,
          -1.0293700695037842,
          0.17678557336330414
        ],
        [
          -0.061113547533750534,
          0.26912781596183777,
          0.7099643349647522
        ]
      ]
    ],
    [
      [
        [
          -0.42482706904411316,
          0.44616734981536865,
          0.5283951759338379
        ],
        [
          0.04260332137346268,
          0.2664758861064911,
          0.4994965195655823
        ],
        [
          0.1827620267868042,
          -0.1692279726266861,
          -0.14273701608181
        ]
      ],
      [
        [
          -0.3707050681114197,
          0.0664229542016983,
          -0.46530982851982117
        ],
        [
          -0.6641175746917725,
          0.3106454312801361,
          -0.4563385546207428
        ],
        [
          -0.005733574740588665,
          -0.3800543546676636,
          -0.8407272696495056
        ]
      ],
      [
        [
          0.06504777818918228,
          -0.2866687476634979,
          -0.2185533493757248
        ],
        [
          0.22678300738334656,
          -0.3956179916858673,
          -0.15428374707698822
        ],
        [
          0.9176464676856995,
          -0.43748554587364197,
          -0.35329580307006836
        ]
      ],
      [
        [
          -0.3828781247138977,
          -0.3553907573223114,
          -0.41795283555984497
        ],
        [
          -0.34850868582725525,
          -0.5582927465438843,
          -0.3950667679309845
        ],
        [
          -0.6754316687583923,
          -0.8183420896530151,
          -0.6500197052955627
        ]
      ]
    ],
    [
      [
        [
          0.29603636264801025,
          -0.9064593315124512,
          -0.08773060888051987
        ],
        [
          0.42083969712257385,
          -0.29829081892967224,
          -0.27204394340515137
        ],
        [
          -0.2132052332162857,
          0.28349754214286804,
          -0.17674314975738525
        ]
      ],
      [
        [
          -0.9500711560249329,
          1.2300419807434082,
          0.5807893872261047
        ],
        [
          -0.4257514476776123,
          1.3129355907440186,
          -0.3016582429409027
        ],
        [
          1.032470464706421,
          -1.2198805809020996,
          -0.08988013118505478
        ]
      ],
      [
        [
          -0.814100980758667,
          -0.14793294668197632,
          0.04428119584918022
        ],
        [
          0.08599355816841125,
          0.46020185947418213,
          -0.6943681836128235
        ],
        [
          1.4626669883728027,
          -0.4616185426712036,
          -0.6095568537712097
        ]
      ],
      [
        [
          0.9871938824653625,
          -0.14266295731067657,
          0.17846117913722992
        ],
        [
          -0.6612727046012878,
          0.052311237901449203,
          0.2720670700073242
        ],
        [
          -0.9522631168365479,
          -1.5901578664779663,
          0.03419526666402817
        ]
      ]
    ],
    [
      [
        [
          0.5365591049194336,
          0.3661479353904724,
          -0.6605306267738342
        ],
        [
          -0.7958382964134216,
          0.005248900502920151,
          0.2025236189365387
        ],
        [
          -0.7921233773231506,
          -0.7895429730415344,
          0.39113274216651917
        ]
      ],
      [
        [
          -0.6687514781951904,
          -0.612958550453186,
          -0.4056231379508972
        ],
        [
          -0.006424643099308014,
          0.3275994062423706,
          -0.2823331952095032
        ],
        [
          0.08227768540382385,
          0.8192510008811951,
          0.17472590506076813
        ]
      ],
      [
        [
          -1.1142802238464355,
          0.49488598108291626,
          -0.1504177302122116
        ],
        [
          0.4143944978713989,
          -1.058814287185669,
          -0.051536690443754196
        ],
        [
          1.5550354719161987,
          -0.21272578835487366,
          -0.8876159191131592
        ]
      ],
      [
        [
          -1.7219696044921875,
          1.738628625869751,
          -0.057910069823265076
        ],
        [
          -0.907608151435852,
          -0.25301623344421387,
          0.9384501576423645
        ],
        [
          1.337689757347107,
          -1.1195409297943115,
          -0.08465997129678726
        ]
      ]
    ],
    [
      [
        [
          -0.27454665303230286,
          0.4449310898780823,
          0.10993291437625885
        ],
        [
          -0.6800410151481628,
          -0.05862535536289215,
          -0.18546678125858307
        ],
        [
          -0.5537555813789368,
          -0.3424570560455322,
          0.34798890352249146
        ]
      ],
      [
        [
          -0.9584997892379761,
          -0.5979090332984924,
          0.0041544935666024685
        ],
        [
          -0.39078205823898315,
          -0.3266124129295349,
          -0.2659458518028259
        ],
        [
          -0.7459983825683594,
          0.6265546679496765,
          -0.545137345790863
        ]
      ],
      [
        [
          0.5029873847961426,
          -0.23171062767505646,
          0.05804402381181717
        ],
        [
          -0.4586777091026306,
          -0.6345045566558838,
          -0.33201658725738525
        ],
        [
          -0.24745166301727295,
          0.1426919549703598,
          -0.7046682834625244
        ]
      ],
      [
        [
          0.7629382014274597,
          -0.19319839775562286,
          -0.576042890548706
        ],
        [
          -1.000893235206604,
          -0.6911817193031311,
          -0.38422608375549316
        ],
        [
          -0.5675699710845947,
          -0.5878362655639648,
          -0.3325275778770447
        ]
      ]
    ],
    [
      [
        [
          0.2783653736114502,
          -0.21724094450473785,
          0.148995041847229
        ],
        [
          -0.4591566026210785,
          -0.5271849036216736,
          0.7664240002632141
        ],
        [
          -1.0363452434539795,
          -0.5868163108825684,
          0.24408948421478271
        ]
      ],
      [
        [
          0.2865297794342041,
          -0.5563601851463318,
          0.5670841336250305
        ],
        [
          0.13587959110736847,
          -0.6102157235145569,
          -0.12791882455348969
        ],
        [
          -0.4347945749759674,
          0.3592253625392914,
          -0.7010678648948669
        ]
      ],
      [
        [
          -0.07828450202941895,
          -0.17320294678211212,
          0.5130857825279236
        ],
        [
          -0.27531179785728455,
          0.09751850366592407,
          0.4057285785675049
        ],
        [
          -0.43455439805984497,
          0.7063278555870056,
          0.13861320912837982
        ]
      ],
      [
        [
          -0.6770618557929993,
          0.06979487091302872,
          -0.5494210720062256
        ],
        [
          -0.7355430126190186,
          -0.5650047063827515,
          -0.35701215267181396
        ],
        [
          -0.791140079498291,
          -0.403462678194046,
          -0.37604308128356934
        ]
      ]
    ],
    [
      [
        [
          0.2956872880458832,
          0.3071451783180237,
          0.6174410581588745
        ],
        [
          -0.32949215173721313,
          -0.37002959847450256,
          0.3012792468070984
        ],
        [
          -0.6694055795669556,
          -0.4866621792316437,
          0.46630385518074036
        ]
      ],
      [
        [
          0.5083454847335815,
          -0.18809406459331512,
          -0.019379055127501488
        ],
        [
          -0.0711650475859642,
          -0.10887165367603302,
          -0.012995945289731026
        ],
        [
          -1.4011354446411133,
          -0.2803531587123871,
          0.12976622581481934
        ]
      ],
      [
        [
          0.9463245868682861,
          0.13149861991405487,
          0.23424601554870605
        ],
        [
          1.2062296867370605,
          0.3285074830055237,
          0.3880055546760559
        ],
        [
          0.629465639591217,
          1.0385545492172241,
          0.2326788306236267
        ]
      ],
      [
        [
          0.5032752156257629,
          -0.07666859030723572,
          -0.4045026898384094
        ],
        [
          -0.1213054209947586,
          -0.619256854057312,
          -0.7077401876449585
        ],
        [
          -0.1720348298549652,
          -0.23638223111629486,
          -0.3689153492450714
        ]
      ]
    ],
    [
      [
        [
          -0.2914808392524719,
          0.8251066207885742,
          -0.6955844759941101
        ],
        [
          -0.43490070104599,
          0.4645117521286011,
          0.07542502880096436
        ],
        [
          -0.7018469572067261,
          1.127614140510559,
          0.4668387472629547
        ]
      ],
      [
        [
          -0.4307904541492462,
          0.7090093493461609,
          0.924145519733429
        ],
        [
          -1.5249297618865967,
          0.32855600118637085,
          0.1738748699426651
        ],
        [
          -1.2075120210647583,
          -1.5822854042053223,
          0.4299109876155853
        ]
      ],
      [
        [
          0.6230995059013367,
          -0.6394173502922058,
          -1.659313678741455
        ],
        [
          -0.2774057984352112,
          0.41017237305641174,
          -1.512474536895752
        ],
        [
          -1.638255000114441,
          1.134866714477539,
          -1.3861819505691528
        ]
      ],
      [
        [
          0.760919451713562,
          -0.025977609679102898,
          -0.9432135820388794
        ],
        [
          -0.14803636074066162,
          -0.33318015933036804,
          -0.5077280402183533
        ],
        [
          -1.2033370733261108,
          0.052100181579589844,
          -0.05883749574422836
        ]
      ]
    ],
    [
      [
        [
          -0.9096587896347046,
          -1.1644614934921265,
          -0.08409908413887024
        ],
        [
          -0.25174617767333984,
          -0.24976204335689545,
          0.35085660219192505
        ],
        [
          0.3019213080406189,
          0.48575398325920105,
          0.2613706588745117
        ]
      ],
      [
        [
          0.9118103384971619,
          -1.2341415882110596,
          -1.83949613571167
        ],
        [
          -0.01425202377140522,
          -1.1439168453216553,
          -0.8306208848953247
        ],
        [
          0.6073961853981018,
          -0.6697894930839539,
          0.19716881215572357
        ]
      ],
      [
        [
          0.18115493655204773,
          0.4693286418914795,
          1.022709846496582
        ],
        [
          -0.5333505868911743,
          -0.27171948552131653,
          -0.9128906726837158
        ],
        [
          -0.0047214035876095295,
          -0.618332028388977,
          0.031685907393693924
        ]
      ],
      [
        [
          -0.05708601325750351,
          0.08646338433027267,
          1.6897270679473877
        ],
        [
          -1.2830904722213745,
          0.7870090007781982,
          -0.08303477615118027
        ],
        [
          -0.20803260803222656,
          0.4254673719406128,
          -0.11770247668027878
        ]
      ]
    ],
    [
      [
        [
          -0.427085816860199,
          0.10497664660215378,
          0.0659310445189476
        ],
        [
          -0.5424057841300964,
          0.09940039366483688,
          -0.13969875872135162
        ],
        [
          -0.10419003665447235,
          -0.5768422484397888,
          -0.42565667629241943
        ]
      ],
      [
        [
          1.8339757919311523,
          -0.2295701652765274,
          0.24908864498138428
        ],
        [
          0.3945891559123993,
          -0.2764563262462616,
          0.15540920197963715
        ],
        [
          -1.0818676948547363,
          -0.8079214096069336,
          -0.36640793085098267
        ]
      ],
      [
        [
          -1.0359981060028076,
          0.27350175380706787,
          -0.05195663869380951
        ],
        [
          -0.060870278626680374,
          -0.09079693257808685,
          0.2490318864583969
        ],
        [
          0.5736095905303955,
          -0.814873218536377,
          -0.3420649468898773
        ]
      ],
      [
        [
          -1.2741460800170898,
          -0.13666103780269623,
          -0.08643531799316406
        ],
        [
          -0.41442978382110596,
          -0.07210570573806763,
          0.42811891436576843
        ],
        [
          0.9111338257789612,
          -0.25178608298301697,
          -0.5237784385681152
        ]
      ]
    ],
    [
      [
        [
          -0.18944327533245087,
          0.4034634232521057,
          0.21721526980400085
        ],
        [
          -0.12893782556056976,
          0.045651037245988846,
          0.19815757870674133
        ],
        [
          -0.178626149892807,
          -0.33476048707962036,
          0.13416966795921326
        ]
      ],
      [
        [
          0.14026659727096558,
          -0.44803690910339355,
          -0.14752447605133057
        ],
        [
          0.2580769658088684,
          -0.29652097821235657,
          -0.09256242215633392
        ],
        [
          0.484235018491745,
          -0.09783656895160675,
          -0.2515749931335449
        ]
      ],
      [
        [
          -0.2640511691570282,
          -0.01677600108087063,
          0.01269887387752533
        ],
        [
          0.054223980754613876,
          -0.12087142467498779,
          0.1316680908203125
        ],
        [
          -0.2195391058921814,
          -0.14238378405570984,
          0.3831345736980438
        ]
      ],
      [
        [
          -0.4711119532585144,
          0.05710151791572571,
          -0.07082173228263855
        ],
        [
          -0.04880464822053909,
          0.043717171996831894,
          0.013525387272238731
        ],
        [
          -0.015493740327656269,
          -0.06592776626348495,
          0.18744131922721863
        ]
      ]
    ],
    [
      [
        [
          0.3638067841529846,
          0.33837294578552246,
          0.20116035640239716
        ],
        [
          -0.7234145998954773,
          0.26152512431144714,
          -0.0404791459441185
        ],
        [
          0.08173766732215881,
          -0.27024874091148376,
          -0.49454429745674133
        ]
      ],
      [
        [
          -0.03157540038228035,
          -0.4020584523677826,
          -1.0387486219406128
        ],
        [
          0.1613256186246872,
          -0.9893686175346375,
          0.17146562039852142
        ],
        [
          -1.5203603506088257,
          -0.14343416690826416,
          0.09904894977807999
        ]
      ],
      [
        [
          -0.07460199296474457,
          -0.07477937638759613,
          -0.6389904022216797
        ],
        [
          -0.5889281034469604,
          -0.33577069640159607,
          -0.6371999979019165
        ],
        [
          0.008763696067035198,
          0.4726477563381195,
          0.27223849296569824
        ]
      ],
      [
        [
          -0.5450025200843811,
          0.4009470045566559,
          0.4889119267463684
        ],
        [
          0.6098714470863342,
          0.05344590172171593,
          0.1608571857213974
        ],
        [
          -0.040706876665353775,
          0.7545056939125061,
          0.29378050565719604
        ]
      ]
    ],
    [
      [
        [
          -0.3992749750614166,
          0.16050784289836884,
          0.12340983748435974
        ],
        [
          -0.6114558577537537,
          -0.00011362968507455662,
          0.6620705127716064
        ],
        [
          0.013026595115661621,
          -0.09125589579343796,
          0.3801836371421814
        ]
      ],
      [
        [
          -1.1030895709991455,
          0.2581314742565155,
          -0.18284957110881805
        ],
        [
          -0.905392050743103,
          -0.6210415363311768,
          0.07224071770906448
        ],
        [
          -1.341623306274414,
          -0.053438588976860046,
          0.8648812174797058
        ]
      ],
      [
        [
          0.022295618429780006,
          0.3146681487560272,
          -0.25356870889663696
        ],
        [
          -0.2474730759859085,
          0.6993656754493713,
          -0.2935851514339447
        ],
        [
          -0.6804575324058533,
          -0.6133122444152832,
          0.24201257526874542
        ]
      ],
      [
        [
          0.8431167006492615,
          -0.1114918440580368,
          -0.3240293860435486
        ],
        [
          1.0473926067352295,
          0.29522398114204407,
          -0.04831742122769356
        ],
        [
          0.4936084747314453,
          -0.40287062525749207,
          0.0602257065474987
        ]
      ]
    ],
    [
      [
        [
          0.5040311217308044,
          -0.41336795687675476,
          0.009880553930997849
        ],
        [
          -0.5563139915466309,
          -0.555121660232544,
          0.16819524765014648
        ],
        [
          -1.5473212003707886,
          -0.46437495946884155,
          0.31654492020606995
        ]
      ],
      [
        [
          -2.2472689151763916,
          0.4816910922527313,
          0.12083358317613602
        ],
        [
          -0.5519412159919739,
          0.7051587104797363,
          -0.7763473391532898
        ],
        [
          1.3000715970993042,
          0.18272031843662262,
          -1.1480735540390015
        ]
      ],
      [
        [
          -1.1487706899642944,
          -0.4807727038860321,
          0.23068276047706604
        ],
        [
          -0.08760788291692734,
          -0.8036776781082153,
          -0.12670426070690155
        ],
        [
          -0.5236555933952332,
          -0.5292533040046692,
          0.3005121946334839
        ]
      ],
      [
        [
          1.279616355895996,
          -0.337480366230011,
          0.2616268992424011
        ],
        [
          0.24043221771717072,
          -0.7994458675384521,
          0.13750319182872772
        ],
        [
          -0.8200573325157166,
          -1.6596643924713135,
          0.10843904316425323
        ]
      ]
    ],
    [
      [
        [
          -0.35703256726264954,
          -0.15284228324890137,
          -0.02848978154361248
        ],
        [
          -0.1853516548871994,
          -0.03264198452234268,
          0.05572096258401871
        ],
        [
          -0.15913748741149902,
          0.06112998351454735,
          0.2576286792755127
        ]
      ],
      [
        [
          -0.3976694941520691,
          -0.007794254459440708,
          -0.05552908778190613
        ],
        [
          0.2618490159511566,
          -0.630273699760437,
          0.1435343623161316
        ],
        [
          0.05966963246464729,
          -0.7782008647918701,
          -0.28324130177497864
        ]
      ],
      [
        [
          -0.47522807121276855,
          -0.06551966816186905,
          0.33148646354675293
        ],
        [
          -0.05134965479373932,
          -0.1307622492313385,
          0.23656436800956726
        ],
        [
          0.10522282123565674,
          -0.33175915479660034,
          -0.15047624707221985
        ]
      ],
      [
        [
          0.4866659641265869,
          0.1642613559961319,
          -0.46521255373954773
        ],
        [
          -0.6416679620742798,
          0.2044050246477127,
          -0.19888022541999817
        ],
        [
          0.23358982801437378,
          -0.26370590925216675,
          -0.17454586923122406
        ]
      ]
    ]
  ],
  "bn3.running_mean": [
    0.9500506520271301,
    1.3131129741668701,
    2.3345296382904053,
    2.4482736587524414
  ],
  "bn3.running_var": [
    17.18017578125,
    18.68447494506836,
    33.896995544433594,
    34.66804504394531
  ],
  "bn3.num_batches_tracked": 12145,
  "scale3.scale": [
    2.8681223392486572,
    2.924790382385254,
    3.1788671016693115,
    3.2964298725128174
  ],
  "scale3.drop_indices": [
    14,
    18,
    5,
    7,
    8,
    9,
    1,
    17,
    11,
    6,
    10,
    4,
    2,
    13,
    3
  ],
  "scale3.keep_indices": [
    15,
    12,
    16,
    0
  ],
  "conv3.weight": [
    [
      [
        [
          -0.45585310459136963,
          -1.0145888328552246,
          -0.27481314539909363
        ],
        [
          -0.5492038130760193,
          -0.313882052898407,
          0.2712715268135071
        ],
        [
          -0.06684248894453049,
          -0.1946386694908142,
          -0.018316736444830894
        ]
      ],
      [
        [
          -0.2525102496147156,
          -0.44684338569641113,
          0.035499900579452515
        ],
        [
          0.16754259169101715,
          0.47217443585395813,
          0.493758887052536
        ],
        [
          -0.028127184137701988,
          0.1911969929933548,
          -0.13613031804561615
        ]
      ],
      [
        [
          -0.07208177447319031,
          -0.9563512802124023,
          -0.5517134070396423
        ],
        [
          -0.36237460374832153,
          0.053235091269016266,
          -0.2020033597946167
        ],
        [
          0.04936448112130165,
          0.7758727669715881,
          0.22068646550178528
        ]
      ],
      [
        [
          0.3110484182834625,
          -0.15017031133174896,
          0.9871255159378052
        ],
        [
          0.5501836538314819,
          0.08030062168836594,
          0.9641392230987549
        ],
        [
          1.100145697593689,
          -0.059773169457912445,
          0.92803955078125
        ]
      ],
      [
        [
          -0.6108170747756958,
          0.5517256259918213,
          0.6893941164016724
        ],
        [
          0.0024557155556976795,
          0.6665441393852234,
          0.45009902119636536
        ],
        [
          0.35137641429901123,
          0.41982683539390564,
          0.5197816491127014
        ]
      ],
      [
        [
          -0.6343124508857727,
          -0.03009434975683689,
          0.22625616192817688
        ],
        [
          -0.2117382436990738,
          -0.11457634717226028,
          0.1587134599685669
        ],
        [
          0.30269068479537964,
          -0.12235862016677856,
          -0.2258107215166092
        ]
      ],
      [
        [
          -0.8318511843681335,
          -0.23109214007854462,
          0.4403780400753021
        ],
        [
          -0.708087146282196,
          -0.11825098097324371,
          0.15616372227668762
        ],
        [
          -0.8265509605407715,
          -0.07634186744689941,
          -0.4403306543827057
        ]
      ],
      [
        [
          1.202110767364502,
          1.317915916442871,
          0.7829729914665222
        ],
        [
          1.1467742919921875,
          0.6800925135612488,
          0.9910909533500671
        ],
        [
          0.5963905453681946,
          0.6027822494506836,
          0.4258359670639038
        ]
      ],
      [
        [
          -1.1546015739440918,
          -0.7783203125,
          -0.12930928170681
        ],
        [
          -1.1289204359054565,
          -0.041653431951999664,
          0.023893769830465317
        ],
        [
          -0.36529454588890076,
          0.33794698119163513,
          -0.6908799409866333
        ]
      ],
      [
        [
          -0.1524268537759781,
          -1.1520246267318726,
          -0.20797792077064514
        ],
        [
          0.32528141140937805,
          -0.3835463523864746,
          -0.18248334527015686
        ],
        [
          0.40225595235824585,
          -0.2634400725364685,
          -0.6382169723510742
        ]
      ],
      [
        [
          -0.5461983680725098,
          -0.9583192467689514,
          -1.2218234539031982
        ],
        [
          -0.6416255235671997,
          -0.5099596977233887,
          -0.9015260338783264
        ],
        [
          -0.9460996389389038,
          0.23927591741085052,
          -0.8511783480644226
        ]
      ],
      [
        [
          -0.3594703674316406,
          -0.5922485589981079,
          -0.012498094700276852
        ],
        [
          0.06189403310418129,
          -0.15542013943195343,
          0.14159142971038818
        ],
        [
          0.028639020398259163,
          -0.38074401021003723,
          0.28815826773643494
        ]
      ],
      [
        [
          0.18597380816936493,
          -0.270420104265213,
          0.5117273926734924
        ],
        [
          0.3416997790336609,
          -0.1230778619647026,
          0.09977266937494278
        ],
        [
          0.6039864420890808,
          0.18773791193962097,
          0.029848840087652206
        ]
      ],
      [
        [
          0.6358085870742798,
          0.9401800036430359,
          -0.14990074932575226
        ],
        [
          0.6028360724449158,
          0.8649215698242188,
          0.49726542830467224
        ],
        [
          -0.3959067165851593,
          0.062382835894823074,
          0.5991553068161011
        ]
      ],
      [
        [
          -0.4171070456504822,
          -0.24168378114700317,
          1.3322199583053589
        ],
        [
          -0.23455947637557983,
          -0.14782452583312988,
          1.6083725690841675
        ],
        [
          0.12767678499221802,
          -0.31409314274787903,
          1.3651833534240723
        ]
      ],
      [
        [
          0.041709788143634796,
          0.1045989841222763,
          -0.32205069065093994
        ],
        [
          -0.09692958742380142,
          0.1880025565624237,
          0.022867320105433464
        ],
        [
          -0.8394460082054138,
          -0.024756763130426407,
          0.4485308527946472
        ]
      ],
      [
        [
          0.25516536831855774,
          0.5071020722389221,
          0.6245334148406982
        ],
        [
          -0.37549421191215515,
          -0.636225700378418,
          0.00872164685279131
        ],
        [
          0.20814263820648193,
          -1.2615548372268677,
          -0.9584981799125671
        ]
      ],
      [
        [
          1.0370081663131714,
          0.5619263052940369,
          -0.5671853423118591
        ],
        [
          0.6080416440963745,
          0.2832182049751282,
          0.19613969326019287
        ],
        [
          -0.2690578103065491,
          -0.683436930179596,
          0.4998028874397278
        ]
      ],
      [
        [
          -0.1600361168384552,
          0.30666589736938477,
          2.010521173477173
        ],
        [
          -0.20412513613700867,
          0.21155832707881927,
          2.0568594932556152
        ],
        [
          -0.043820347636938095,
          -0.2611870765686035,
          1.6591888666152954
        ]
      ]
    ],
    [
      [
        [
          0.19858115911483765,
          -0.26533934473991394,
          0.007203125860542059
        ],
        [
          0.12415658682584763,
          -0.5119584202766418,
          0.45055118203163147
        ],
        [
          -0.052061356604099274,
          -0.8724833130836487,
          0.2837366759777069
        ]
      ],
      [
        [
          -0.28504157066345215,
          0.3392288088798523,
          0.5113108158111572
        ],
        [
          0.7414639592170715,
          0.48940524458885193,
          -0.4563215970993042
        ],
        [
          -0.8031337261199951,
          -0.7790830731391907,
          -0.060164812952280045
        ]
      ],
      [
        [
          -0.33159610629081726,
          -0.013570998795330524,
          -0.43597009778022766
        ],
        [
          -0.8015642762184143,
          -0.5811728835105896,
          -0.28093674778938293
        ],
        [
          0.5966467261314392,
          -0.29191601276397705,
          0.15957140922546387
        ]
      ],
      [
        [
          -0.02945873513817787,
          0.10869405418634415,
          1.4826669692993164
        ],
        [
          -0.12766878306865692,
          -0.17683999240398407,
          1.1322708129882812
        ],
        [
          -0.5551337599754333,
          -0.1956748366355896,
          1.1670345067977905
        ]
      ],
      [
        [
          -0.1377241164445877,
          -0.008566147647798061,
          -0.024876555427908897
        ],
        [
          0.2940976917743683,
          0.324955016374588,
          0.3716259002685547
        ],
        [
          -0.04964267835021019,
          -0.14637447893619537,
          -0.24439838528633118
        ]
      ],
      [
        [
          0.028165332973003387,
          0.37768447399139404,
          -0.6325281262397766
        ],
        [
          0.04335654154419899,
          0.2469502091407776,
          -0.43025216460227966
        ],
        [
          -0.5909316539764404,
          -0.6503450870513916,
          -0.32064196467399597
        ]
      ],
      [
        [
          0.12700429558753967,
          0.10089989006519318,
          1.2767837047576904
        ],
        [
          0.4901987612247467,
          0.5670709013938904,
          1.3797212839126587
        ],
        [
          0.7681272625923157,
          0.7850936651229858,
          1.7343060970306396
        ]
      ],
      [
        [
          -0.057729583233594894,
          0.5399251580238342,
          0.32529863715171814
        ],
        [
          -0.8566545844078064,
          -0.6733283400535583,
          -0.07787244766950607
        ],
        [
          -0.5910133719444275,
          -0.5385549664497375,
          -0.35060998797416687
        ]
      ],
      [
        [
          0.9014569520950317,
          0.23322363197803497,
          -0.2503313422203064
        ],
        [
          0.623710572719574,
          0.5787246227264404,
          -0.13670971989631653
        ],
        [
          -0.3035367429256439,
          0.2945740818977356,
          -0.8298554420471191
        ]
      ],
      [
        [
          -0.9026270508766174,
          0.4416007399559021,
          -0.39375582337379456
        ],
        [
          0.0708853229880333,
          0.3269968628883362,
          -0.0994086042046547
        ],
        [
          0.42345505952835083,
          0.3281065821647644,
          -0.015601662918925285
        ]
      ],
      [
        [
          0.3633105456829071,
          -0.4684527516365051,
          -0.15594246983528137
        ],
        [
          0.49078404903411865,
          -0.057214509695768356,
          0.5541049838066101
        ],
        [
          -0.7267937064170837,
          -1.0337032079696655,
          0.08857491612434387
        ]
      ],
      [
        [
          -0.27971088886260986,
          -0.6109048128128052,
          0.14378872513771057
        ],
        [
          -0.2555224299430847,
          -1.1436468362808228,
          -0.671214759349823
        ],
        [
          -0.6185667514801025,
          -0.101886086165905,
          -0.371988445520401
        ]
      ],
      [
        [
          -0.07540789246559143,
          0.3945978283882141,
          0.442974328994751
        ],
        [
          0.5606412887573242,
          0.33068326115608215,
          0.2629128694534302
        ],
        [
          0.44897758960723877,
          -0.23658236861228943,
          -1.0934975147247314
        ]
      ],
      [
        [
          -0.37038174271583557,
          -1.0532363653182983,
          -0.2804381549358368
        ],
        [
          -0.4693211317062378,
          -1.2627437114715576,
          -0.06477012485265732
        ],
        [
          0.6315256357192993,
          -0.23434506356716156,
          0.365507572889328
        ]
      ],
      [
        [
          0.1422434151172638,
          0.01843075267970562,
          0.6061288714408875
        ],
        [
          -0.09011230617761612,
          -0.2618716061115265,
          0.6809710264205933
        ],
        [
          -0.28565898537635803,
          -0.37494271993637085,
          0.7375137805938721
        ]
      ],
      [
        [
          -0.4537097215652466,
          0.03343493491411209,
          0.6288536190986633
        ],
        [
          0.9871252179145813,
          0.8505783677101135,
          1.1893619298934937
        ],
        [
          0.7418349981307983,
          0.07457078248262405,
          0.9327042698860168
        ]
      ],
      [
        [
          0.051013410091400146,
          0.25696486234664917,
          0.135555237531662
        ],
        [
          -0.4432779848575592,
          0.0843161791563034,
          0.23804302513599396
        ],
        [
          -0.741167426109314,
          -0.13337084650993347,
          0.7082674503326416
        ]
      ],
      [
        [
          -0.7805410027503967,
          0.06021934002637863,
          0.37936925888061523
        ],
        [
          0.5029995441436768,
          0.2587375044822693,
          0.33258959650993347
        ],
        [
          0.35352811217308044,
          0.7919298410415649,
          0.46041345596313477
        ]
      ],
      [
        [
          0.10397018492221832,
          -0.05137263983488083,
          0.3750608563423157
        ],
        [
          0.06373375654220581,
          -0.5078461170196533,
          0.21075575053691864
        ],
        [
          -0.1744682639837265,
          -0.6432386040687561,
          0.9206314086914062
        ]
      ]
    ],
    [
      [
        [
          0.1353946477174759,
          -0.2478998601436615,
          0.07304081320762634
        ],
        [
          -0.5891149044036865,
          -0.5506296753883362,
          0.22525964677333832
        ],
        [
          -1.438086986541748,
          -0.7057337164878845,
          -0.29737722873687744
        ]
      ],
      [
        [
          -0.19228868186473846,
          -0.4612657427787781,
          -0.1163543164730072
        ],
        [
          -0.013092602603137493,
          0.1285693496465683,
          0.6600294709205627
        ],
        [
          1.0593241453170776,
          0.8010702133178711,
          1.4922173023223877
        ]
      ],
      [
        [
          0.6114258170127869,
          -0.265595406293869,
          -0.022978590801358223
        ],
        [
          0.04270793870091438,
          -0.4945594072341919,
          0.015911094844341278
        ],
        [
          -0.7477881908416748,
          -0.6695689558982849,
          0.5790059566497803
        ]
      ],
      [
        [
          0.13022033870220184,
          0.023506762459874153,
          0.24656128883361816
        ],
        [
          0.4412804841995239,
          0.040548261255025864,
          0.27195408940315247
        ],
        [
          0.7186330556869507,
          -0.13007250428199768,
          0.31803521513938904
        ]
      ],
      [
        [
          0.7185262441635132,
          0.037688568234443665,
          -0.12944932281970978
        ],
        [
          0.6211711168289185,
          0.4387495517730713,
          -0.006805171258747578
        ],
        [
          0.2444377839565277,
          0.49764105677604675,
          0.06902182847261429
        ]
      ],
      [
        [
          0.4049111008644104,
          0.4900835156440735,
          0.2065664529800415
        ],
        [
          -0.24661189317703247,
          0.0897318497300148,
          0.22489520907402039
        ],
        [
          -1.176451563835144,
          -0.45706620812416077,
          0.09994670748710632
        ]
      ],
      [
        [
          0.6024255752563477,
          -0.2346803843975067,
          -0.26390570402145386
        ],
        [
          0.7163684964179993,
          0.5495626330375671,
          -0.21999435126781464
        ],
        [
          0.0830860361456871,
          -0.34009861946105957,
          -0.10826261341571808
        ]
      ],
      [
        [
          0.9805335998535156,
          0.25532951951026917,
          -0.020676719024777412
        ],
        [
          0.5626601576805115,
          0.4172291159629822,
          0.052579447627067566
        ],
        [
          -0.39998725056648254,
          0.2045082002878189,
          0.3901210129261017
        ]
      ],
      [
        [
          -0.2077096551656723,
          -0.1575438678264618,
          -0.2066851258277893
        ],
        [
          0.5433242321014404,
          0.4778813421726227,
          0.3058733344078064
        ],
        [
          1.3855754137039185,
          0.6812799572944641,
          0.41212326288223267
        ]
      ],
      [
        [
          0.28516069054603577,
          0.8595496416091919,
          0.6087304949760437
        ],
        [
          -0.23078936338424683,
          0.05329422652721405,
          -0.10849284380674362
        ],
        [
          -0.8224535584449768,
          0.0732896700501442,
          -0.12272441387176514
        ]
      ],
      [
        [
          0.1738562136888504,
          -0.054600827395915985,
          0.24602194130420685
        ],
        [
          0.4090379476547241,
          0.31565800309181213,
          0.044505491852760315
        ],
        [
          0.7617185711860657,
          0.7614569067955017,
          0.20346307754516602
        ]
      ],
      [
        [
          -0.6978552937507629,
          -0.38318419456481934,
          -0.48239707946777344
        ],
        [
          -0.5952213406562805,
          -0.3289739787578583,
          -0.38862156867980957
        ],
        [
          0.24306145310401917,
          -0.12247416377067566,
          0.3004167377948761
        ]
      ],
      [
        [
          0.40955716371536255,
          0.5684012770652771,
          0.33898964524269104
        ],
        [
          -0.001564418082125485,
          -0.3284064829349518,
          0.1767660677433014
        ],
        [
          -0.6982069611549377,
          -0.840640664100647,
          0.2660866677761078
        ]
      ],
      [
        [
          -0.10470965504646301,
          0.21456588804721832,
          0.2990814745426178
        ],
        [
          -0.24871084094047546,
          0.2779247462749481,
          0.03644320368766785
        ],
        [
          0.23120112717151642,
          0.7845864295959473,
          -0.17500241100788116
        ]
      ],
      [
        [
          0.1524115800857544,
          0.06010962277650833,
          0.5578467845916748
        ],
        [
          0.5435260534286499,
          -0.0712212547659874,
          0.4348793625831604
        ],
        [
          0.4718109667301178,
          -0.27521124482154846,
          0.31629660725593567
        ]
      ],
      [
        [
          -0.48287278413772583,
          -0.4192359745502472,
          0.494779497385025
        ],
        [
          0.5685787200927734,
          0.6100533604621887,
          1.4349758625030518
        ],
        [
          0.8275790810585022,
          1.211447834968567,
          1.6865788698196411
        ]
      ],
      [
        [
          0.09109523892402649,
          -0.6997076869010925,
          0.07899943739175797
        ],
        [
          0.07655887305736542,
          -0.22035656869411469,
          -0.12794364988803864
        ],
        [
          0.38129743933677673,
          -0.23259222507476807,
          0.2502037584781647
        ]
      ],
      [
        [
          -0.3488355875015259,
          0.03229355439543724,
          -0.0995057225227356
        ],
        [
          -0.7212495803833008,
          -0.5114994645118713,
          -0.31747713685035706
        ],
        [
          0.10768996179103851,
          -0.06777353584766388,
          -0.5485774874687195
        ]
      ],
      [
        [
          0.08426612615585327,
          -0.2654018700122833,
          0.5062404274940491
        ],
        [
          0.2752070128917694,
          -0.28436848521232605,
          0.534658670425415
        ],
        [
          0.3068528175354004,
          -0.37762948870658875,
          0.6323233842849731
        ]
      ]
    ],
    [
      [
        [
          -0.24343205988407135,
          0.7962307333946228,
          0.17590683698654175
        ],
        [
          -0.13630376756191254,
          1.1558616161346436,
          0.36340367794036865
        ],
        [
          -0.208177387714386,
          1.3527339696884155,
          0.2556614875793457
        ]
      ],
      [
        [
          0.29102110862731934,
          1.177212119102478,
          -0.5282471179962158
        ],
        [
          0.14821408689022064,
          1.003663182258606,
          0.05499019846320152
        ],
        [
          0.6579316258430481,
          -0.10236002504825592,
          0.5834335088729858
        ]
      ],
      [
        [
          0.30362725257873535,
          -0.5957286357879639,
          0.6990895867347717
        ],
        [
          0.5890385508537292,
          -0.4014151394367218,
          0.26065972447395325
        ],
        [
          -0.21293175220489502,
          0.10360803455114365,
          0.16887113451957703
        ]
      ],
      [
        [
          -0.11678760498762131,
          0.6689701080322266,
          0.29943880438804626
        ],
        [
          0.09024171531200409,
          0.7165500521659851,
          0.28808826208114624
        ],
        [
          0.13688257336616516,
          0.5819528698921204,
          0.4381207525730133
        ]
      ],
      [
        [
          -0.35436832904815674,
          -0.1703687310218811,
          0.22794608771800995
        ],
        [
          0.12673640251159668,
          -0.1298225224018097,
          0.2703613042831421
        ],
        [
          0.7171511054039001,
          0.20496900379657745,
          0.3038497567176819
        ]
      ],
      [
        [
          -0.05516408756375313,
          -0.8170872926712036,
          -0.12584106624126434
        ],
        [
          -0.6170980930328369,
          -0.9694567322731018,
          -0.15660637617111206
        ],
        [
          -1.079738974571228,
          -0.4882374703884125,
          0.22656357288360596
        ]
      ],
      [
        [
          -0.15083734691143036,
          0.41705265641212463,
          0.13780446350574493
        ],
        [
          0.32795122265815735,
          0.5265856981277466,
          -0.4440852403640747
        ],
        [
          0.04580330848693848,
          0.05991144850850105,
          -0.7895146012306213
        ]
      ],
      [
        [
          0.7710747718811035,
          -0.34966954588890076,
          0.07688415050506592
        ],
        [
          0.35818666219711304,
          -0.1413043588399887,
          0.11774104833602905
        ],
        [
          -0.5939845442771912,
          -0.4337591528892517,
          0.004246322438120842
        ]
      ],
      [
        [
          -0.8100969791412354,
          -0.8906591534614563,
          0.26709312200546265
        ],
        [
          -0.4528709053993225,
          -0.6616734862327576,
          0.06235671415925026
        ],
        [
          0.26474276185035706,
          -0.366003155708313,
          0.3271416127681732
        ]
      ],
      [
        [
          0.48968562483787537,
          0.07985348254442215,
          -0.1549290120601654
        ],
        [
          0.7603700757026672,
          0.12786154448986053,
          -0.25030237436294556
        ],
        [
          0.828953206539154,
          -0.4564262628555298,
          -0.7340947389602661
        ]
      ],
      [
        [
          0.027711059898138046,
          0.5528638958930969,
          -0.22470121085643768
        ],
        [
          -0.3426518440246582,
          0.17940181493759155,
          -0.4236532151699066
        ],
        [
          -0.37883079051971436,
          0.2543381452560425,
          -0.38139232993125916
        ]
      ],
      [
        [
          0.4913870394229889,
          -0.15297521650791168,
          -0.015809079632163048
        ],
        [
          0.2612555921077728,
          -0.13028718531131744,
          -0.13813476264476776
        ],
        [
          -0.13022464513778687,
          -0.6738327145576477,
          0.1869465857744217
        ]
      ],
      [
        [
          -0.7653952240943909,
          -0.4861120879650116,
          -0.3591316044330597
        ],
        [
          -0.7137224078178406,
          0.27279046177864075,
          -0.4124789834022522
        ],
        [
          -1.0605700016021729,
          0.49979367852211,
          0.24812988936901093
        ]
      ],
      [
        [
          -0.4833018481731415,
          -1.0490821599960327,
          -0.788749098777771
        ],
        [
          -0.3502922058105469,
          -0.15863914787769318,
          -0.6151934266090393
        ],
        [
          -0.7343038320541382,
          0.4686250686645508,
          -0.42856869101524353
        ]
      ],
      [
        [
          0.018223198130726814,
          0.6282826066017151,
          0.6179336309432983
        ],
        [
          0.30339354276657104,
          0.4687924087047577,
          0.6408081650733948
        ],
        [
          -0.07145443558692932,
          0.47117263078689575,
          0.5764937996864319
        ]
      ],
      [
        [
          1.0345228910446167,
          -0.039943210780620575,
          0.2240985780954361
        ],
        [
          -0.06579601019620895,
          0.42421719431877136,
          0.552358865737915
        ],
        [
          -0.7041984796524048,
          0.3953048586845398,
          0.44708722829818726
        ]
      ],
      [
        [
          -0.2213951051235199,
          0.11652625352144241,
          0.20902176201343536
        ],
        [
          0.23222768306732178,
          0.565298318862915,
          0.30027133226394653
        ],
        [
          0.3571387231349945,
          -0.5461829304695129,
          0.5352185368537903
        ]
      ],
      [
        [
          -0.05992969498038292,
          -0.09726264327764511,
          -0.869036078453064
        ],
        [
          -0.33931663632392883,
          -0.25044095516204834,
          -0.19919955730438232
        ],
        [
          -0.583795428276062,
          -0.41576069593429565,
          0.1316165030002594
        ]
      ],
      [
        [
          0.17003431916236877,
          0.1189117506146431,
          0.6000816822052002
        ],
        [
          0.6274189949035645,
          0.1801612228155136,
          0.4673779010772705
        ],
        [
          0.10697480291128159,
          0.42474785447120667,
          0.5021862387657166
        ]
      ]
    ]
  ],
  "bn4.running_mean": [
    9.6279935836792,
    8.469602584838867,
    7.760103702545166,
    7.62881326675415,
    4.921115875244141,
    9.223933219909668,
    9.595816612243652,
    11.655234336853027,
    8.114991188049316,
    10.072397232055664,
    3.94498348236084,
    6.77892541885376,
    6.777781963348389,
    8.043207168579102,
    6.215548515319824,
    8.600066184997559,
    5.920481204986572,
    6.692330360412598,
    9.708107948303223
  ],
  "bn4.running_var": [
    40.50515365600586,
    20.189876556396484,
    27.823196411132812,
    99.5271987915039,
    9.055211067199707,
    42.277523040771484,
    60.3878059387207,
    116.61420440673828,
    20.96637535095215,
    36.683448791503906,
    48.82453536987305,
    22.669034957885742,
    15.749518394470215,
    22.25252914428711,
    163.64434814453125,
    23.027029037475586,
    16.591733932495117,
    20.845056533813477,
    98.51950073242188
  ],
  "bn4.num_batches_tracked": 12145,
  "conv4.weight": [
    [
      [
        [
          1.5399683713912964,
          -0.12310546636581421,
          -1.343044400215149
        ],
        [
          0.5276085734367371,
          0.36512964963912964,
          -1.1564675569534302
        ],
        [
          -0.5732275247573853,
          0.1230677142739296,
          -1.4919638633728027
        ]
      ],
      [
        [
          -0.14197959005832672,
          0.02682521939277649,
          0.27315905690193176
        ],
        [
          0.09633143246173859,
          -0.0503770150244236,
          -0.028073949739336967
        ],
        [
          -0.37133553624153137,
          0.022750476375222206,
          -0.40591248869895935
        ]
      ],
      [
        [
          -0.6483414173126221,
          -0.8211613297462463,
          -0.5379840135574341
        ],
        [
          -0.9028273820877075,
          -0.7484539747238159,
          -0.10499095916748047
        ],
        [
          -0.8839835524559021,
          -0.3674561381340027,
          0.9519548416137695
        ]
      ],
      [
        [
          -0.23897963762283325,
          0.06319528818130493,
          0.25411006808280945
        ],
        [
          -0.787902295589447,
          0.6459001302719116,
          0.6020445227622986
        ],
        [
          -0.8287846446037292,
          0.5047109723091125,
          0.19784744083881378
        ]
      ]
    ],
    [
      [
        [
          -0.32020851969718933,
          -0.37024733424186707,
          -0.26821014285087585
        ],
        [
          -0.10528276115655899,
          -0.3464665710926056,
          -0.15931586921215057
        ],
        [
          -0.29992198944091797,
          0.051802858710289,
          -0.27178364992141724
        ]
      ],
      [
        [
          0.46287378668785095,
          0.5607104301452637,
          -0.09925701469182968
        ],
        [
          -0.24902331829071045,
          -0.06397674977779388,
          -0.1419597864151001
        ],
        [
          -0.2864472270011902,
          -0.26416894793510437,
          -0.13373909890651703
        ]
      ],
      [
        [
          -0.1820565164089203,
          0.24825894832611084,
          -0.22289514541625977
        ],
        [
          -0.2008253037929535,
          -0.06608055531978607,
          -0.2834600806236267
        ],
        [
          0.02002314291894436,
          -0.05609184503555298,
          -0.45577654242515564
        ]
      ],
      [
        [
          -0.7134935259819031,
          -0.5143322348594666,
          -0.5567336678504944
        ],
        [
          -0.4356697201728821,
          -0.31646114587783813,
          -0.5876185297966003
        ],
        [
          -0.3862457275390625,
          -0.3343454599380493,
          -0.5729008316993713
        ]
      ]
    ],
    [
      [
        [
          0.5186207294464111,
          0.21722213923931122,
          0.5352429151535034
        ],
        [
          0.15880654752254486,
          -0.2558242976665497,
          -0.08930744975805283
        ],
        [
          -0.2836799621582031,
          -0.8189388513565063,
          -0.6773605942726135
        ]
      ],
      [
        [
          0.6084054112434387,
          0.6051978468894958,
          0.6761935353279114
        ],
        [
          0.11272171139717102,
          -0.11027594655752182,
          -0.013999281451106071
        ],
        [
          -0.5567005276679993,
          -0.8379812836647034,
          -0.25666919350624084
        ]
      ],
      [
        [
          -0.5737221240997314,
          -0.14771318435668945,
          0.21195194125175476
        ],
        [
          -0.33956050872802734,
          -0.33273759484291077,
          0.1423139125108719
        ],
        [
          0.6039494872093201,
          0.26599690318107605,
          0.657855749130249
        ]
      ],
      [
        [
          -0.10298611223697662,
          0.02657652273774147,
          -0.3209820091724396
        ],
        [
          -0.32294100522994995,
          -0.529998779296875,
          -0.7448275685310364
        ],
        [
          -0.17050084471702576,
          -0.3938268721103668,
          -0.4151783883571625
        ]
      ]
    ],
    [
      [
        [
          0.07534107565879822,
          0.12014599144458771,
          0.8482134938240051
        ],
        [
          0.4751717448234558,
          0.43525445461273193,
          0.4506322145462036
        ],
        [
          0.24053823947906494,
          0.3942144215106964,
          0.047150492668151855
        ]
      ],
      [
        [
          0.5072472095489502,
          0.11649694293737411,
          -0.02137945033609867
        ],
        [
          0.10742446035146713,
          -0.19706390798091888,
          -0.0985974371433258
        ],
        [
          -0.011976318433880806,
          -0.4495421051979065,
          -0.07501792907714844
        ]
      ],
      [
        [
          -0.06222989410161972,
          0.1353956162929535,
          -0.05596429854631424
        ],
        [
          -0.06167725846171379,
          -0.3427758812904358,
          -0.11515769362449646
        ],
        [
          -0.17976315319538116,
          -0.6825313568115234,
          -0.13910900056362152
        ]
      ],
      [
        [
          -0.6050450205802917,
          -0.7495636940002441,
          -0.057976942509412766
        ],
        [
          -0.1657761186361313,
          -0.4116494953632355,
          0.06285656243562698
        ],
        [
          -0.018140709027647972,
          0.04071354493498802,
          0.16133388876914978
        ]
      ]
    ],
    [
      [
        [
          -0.4701394736766815,
          -0.06937141716480255,
          0.1419232338666916
        ],
        [
          -0.3461708128452301,
          -0.101016566157341,
          0.11355965584516525
        ],
        [
          -0.20418982207775116,
          -0.2057899534702301,
          -0.07556945085525513
        ]
      ],
      [
        [
          0.07821954041719437,
          -0.6276689171791077,
          -0.35739514231681824
        ],
        [
          -0.06171403080224991,
          -1.050612449645996,
          -0.003551771864295006
        ],
        [
          0.06614158302545547,
          -0.6916512250900269,
          -0.06822310388088226
        ]
      ],
      [
        [
          0.15660719573497772,
          0.17934995889663696,
          -0.27193957567214966
        ],
        [
          -0.21806252002716064,
          0.2209160029888153,
          0.040304429829120636
        ],
        [
          -0.10988012701272964,
          0.6134663820266724,
          0.5050129294395447
        ]
      ],
      [
        [
          -0.8485687971115112,
          -0.40978172421455383,
          1.0000207424163818
        ],
        [
          -0.7498670816421509,
          -0.6057919263839722,
          0.6799406409263611
        ],
        [
          -0.6829525232315063,
          -0.29773348569869995,
          0.8660102486610413
        ]
      ]
    ],
    [
      [
        [
          -0.07939393073320389,
          0.1293226033449173,
          -0.8695229887962341
        ],
        [
          -0.5982294082641602,
          -0.3256743550300598,
          -1.3089250326156616
        ],
        [
          -0.27361786365509033,
          0.31806808710098267,
          -0.3197179436683655
        ]
      ],
      [
        [
          1.546730399131775,
          0.5398104786872864,
          1.5585039854049683
        ],
        [
          0.5710558295249939,
          -0.3006307780742645,
          0.7640783786773682
        ],
        [
          -0.8679646253585815,
          -0.8260810971260071,
          0.20642772316932678
        ]
      ],
      [
        [
          -0.17860066890716553,
          -0.5431841015815735,
          -0.737029492855072
        ],
        [
          -0.5450543165206909,
          -0.7325039505958557,
          -0.6080096364021301
        ],
        [
          -1.107304573059082,
          -1.0011072158813477,
          -0.9163562059402466
        ]
      ],
      [
        [
          -0.9485848546028137,
          -0.658388078212738,
          -0.12375352531671524
        ],
        [
          -0.43705490231513977,
          -0.20298855006694794,
          0.17721660435199738
        ],
        [
          0.6100428700447083,
          0.7775483131408691,
          0.9638500809669495
        ]
      ]
    ],
    [
      [
        [
