weights['2048'] = {
    "bn1.num_batches_tracked": 6900,
    "bn1.running_mean": [
        4.0928746446898583e-25,
        5.605193857299268e-45,
        5.605193857299268e-45,
        5.605193857299268e-45,
        5.605193857299268e-45,
        5.605193857299268e-45,
        5.605193857299268e-45,
        13.434635162353516,
        6.873618693687525e-29,
        1.7513514757156372,
        3.602448062078878e-10,
        4.074505805969238,
        1.7540987730026245,
        5.605193857299268e-45,
        3.8581008911132812,
        0.6126773357391357,
        8.64266300201416,
        0.014143194071948528,
        1.295535922050476
    ],
    "bn1.running_var": [
        3.2468525893870403e-28,
        5.605193857299268e-45,
        5.605193857299268e-45,
        5.605193857299268e-45,
        5.605193857299268e-45,
        5.605193857299268e-45,
        5.605193857299268e-45,
        710.8112182617188,
        8.899586856064202e-31,
        47.885440826416016,
        2.9190141415114113e-09,
        114.66526794433594,
        61.369930267333984,
        5.605193857299268e-45,
        143.1107177734375,
        19.143869400024414,
        941.086181640625,
        0.9465802311897278,
        35.762290954589844
    ],
    "bn2.num_batches_tracked": 6900,
    "bn2.running_mean": [
        3.080296754837036,
        1.8426628112792969,
        1.8946261405944824,
        2.9284720420837402,
        2.208483934402466,
        2.066190719604492,
        2.4962666034698486,
        2.0776596069335938,
        4.113398551940918,
        3.2459514141082764,
        1.8645020723342896,
        1.992763876914978,
        2.3321685791015625,
        2.3157474994659424,
        2.8989977836608887,
        1.229486346244812,
        2.217371940612793,
        2.447756290435791,
        3.390744924545288
    ],
    "bn2.running_var": [
        3.221280574798584,
        1.8586087226867676,
        1.2244075536727905,
        3.138502597808838,
        3.943742513656616,
        1.6874961853027344,
        2.7665462493896484,
        3.007460117340088,
        5.140357494354248,
        3.289108991622925,
        2.4114482402801514,
        1.5163267850875854,
        24.251277923583984,
        2.161139965057373,
        42.28929138183594,
        5.606081962585449,
        7.647228717803955,
        3.323493480682373,
        53.64847183227539
    ],
    "bn3.num_batches_tracked": 6900,
    "bn3.running_mean": [
        0.7401095628738403,
        0.9712587594985962,
        1.1966291666030884,
        0.8285371661186218,
        1.4397538900375366,
        0.6547285914421082,
        0.7243651151657104,
        1.264508843421936,
        1.4624547958374023,
        0.9004132151603699,
        1.025303602218628,
        0.9031120538711548,
        1.2135841846466064,
        0.6234623193740845,
        1.9955534934997559,
        2.390212297439575,
        0.6968812942504883,
        1.464040756225586,
        0.915339469909668
    ],
    "bn3.running_var": [
        4.262186050415039,
        4.427167892456055,
        2.3698456287384033,
        4.967687129974365,
        3.6050915718078613,
        3.2393078804016113,
        3.1961135864257812,
        4.238808631896973,
        6.045666694641113,
        6.350870609283447,
        7.680091381072998,
        3.125324249267578,
        1.8755518198013306,
        2.017889976501465,
        3.450974464416504,
        4.111889839172363,
        3.1846015453338623,
        4.916243076324463,
        2.6444411277770996
    ],
    "bn4.num_batches_tracked": 6900,
    "bn4.running_mean": [
        4.800968170166016,
        2.691143035888672,
        3.8104565143585205,
        4.250659942626953,
        3.3581018447875977,
        3.4345362186431885,
        3.8409175872802734,
        2.636901617050171,
        5.909374713897705,
        4.555917739868164,
        3.5041403770446777,
        3.135808229446411,
        3.3978192806243896,
        3.316969633102417,
        3.8615078926086426,
        2.756514549255371,
        3.107149600982666,
        3.9911539554595947,
        4.165401935577393
    ],
    "bn4.running_var": [
        16.13130760192871,
        4.310311794281006,
        3.9984629154205322,
        7.261799335479736,
        10.038713455200195,
        5.40933084487915,
        9.41050910949707,
        3.4599525928497314,
        12.759163856506348,
        11.07835865020752,
        7.630494594573975,
        3.364738941192627,
        30.35639762878418,
        4.15029239654541,
        40.344905853271484,
        14.789074897766113,
        9.152149200439453,
        5.72941780090332,
        54.319156646728516
    ],
    "bn5.num_batches_tracked": 6900,
    "bn5.running_mean": [
        0.9317722916603088,
        1.8672634363174438,
        0.7436227798461914,
        1.1165146827697754,
        1.9731848239898682,
        0.7385592460632324,
        0.7681562304496765,
        0.625516951084137,
        1.3995234966278076,
        2.009584665298462,
        0.5417611002922058,
        0.6935370564460754,
        0.5619112849235535,
        0.5201788544654846,
        0.9916130900382996,
        0.6256307363510132,
        1.41347336769104,
        0.9892444014549255,
        0.6593421697616577
    ],
    "bn5.running_var": [
        6.281355857849121,
        3.696280002593994,
        2.909497022628784,
        2.3711345195770264,
        2.832876443862915,
        1.1435967683792114,
        3.200692653656006,
        2.2004759311676025,
        4.491668224334717,
        2.4249424934387207,
        1.701449990272522,
        2.7020909786224365,
        1.9884203672409058,
        1.5345499515533447,
        3.999094247817993,
        1.7790266275405884,
        2.0529356002807617,
        3.1054162979125977,
        2.70037841796875
    ],
    "bn6.num_batches_tracked": 6900,
    "bn6.running_mean": [
        8.274161338806152,
        4.37918758392334,
        5.957096576690674,
        5.926882266998291,
        5.109289169311523,
        5.191382884979248,
        5.95244836807251,
        4.283266067504883,
        9.010223388671875,
        6.171382427215576,
        5.841521263122559,
        4.964097499847412,
        4.040449619293213,
        4.762156963348389,
        4.839125156402588,
        5.888576507568359,
        4.783304691314697,
        6.252638816833496,
        6.316617012023926
    ],
    "bn6.running_var": [
        21.825672149658203,
        21.250944137573242,
        18.310556411743164,
        38.71761703491211,
        17.259809494018555,
        34.65654373168945,
        50.92581558227539,
        18.19538688659668,
        15.972060203552246,
        54.79668045043945,
        7.304314613342285,
        17.745319366455078,
        29.411510467529297,
        19.75885581970215,
        41.57962417602539,
        19.01987648010254,
        30.553970336914062,
        17.632347106933594,
        88.18736267089844
    ],
    "conv0.weight": [
        [
            [
                [
                    1.3240467309951782,
                    -1.6475434303283691,
                    -0.47436782717704773
                ],
                [
                    0.7435685992240906,
                    -0.08078912645578384,
                    -0.9269252419471741
                ],
                [
                    -0.5929973721504211,
                    2.546598196029663,
                    -0.5566105246543884
                ]
            ]
        ],
        [
            [
                [
                    -0.1712002158164978,
                    0.18831349909305573,
                    -0.05319027602672577
                ],
                [
                    -1.827520489692688,
                    -2.0833959579467773,
                    -1.3569262027740479
                ],
                [
                    2.1301686763763428,
                    2.05035400390625,
                    1.8645068407058716
                ]
            ]
        ],
        [
            [
                [
                    -0.5202954411506653,
                    0.6833104491233826,
                    -0.07043633610010147
                ],
                [
                    0.47544020414352417,
                    0.31708142161369324,
                    0.32012882828712463
                ],
                [
                    0.43832921981811523,
                    -0.06446399539709091,
                    0.6075380444526672
                ]
            ]
        ],
        [
            [
                [
                    -2.1727468967437744,
                    1.410860538482666,
                    -0.34466058015823364
                ],
                [
                    0.24376657605171204,
                    0.6072447896003723,
                    -0.971666157245636
                ],
                [
                    2.313128709793091,
                    -0.9911776781082153,
                    -0.3771843910217285
                ]
            ]
        ],
        [
            [
                [
                    0.5766861438751221,
                    1.9582239389419556,
                    1.4744253158569336
                ],
                [
                    0.41203463077545166,
                    0.4203321635723114,
                    0.06667941808700562
                ],
                [
                    -0.9256247282028198,
                    -2.2921369075775146,
                    -1.3349214792251587
                ]
            ]
        ],
        [
            [
                [
                    -0.4495432376861572,
                    0.15268053114414215,
                    0.14572671055793762
                ],
                [
                    0.2277982085943222,
                    0.16059333086013794,
                    0.06764861941337585
                ],
                [
                    0.6072206497192383,
                    0.008209839463233948,
                    -0.13525710999965668
                ]
            ]
        ],
        [
            [
                [
                    0.4637874960899353,
                    0.1490878313779831,
                    -0.46476680040359497
                ],
                [
                    0.3122316598892212,
                    -0.08238188177347183,
                    -0.887093186378479
                ],
                [
                    0.4132976531982422,
                    0.2846619188785553,
                    -0.8188185691833496
                ]
            ]
        ],
        [
            [
                [
                    0.06416437774896622,
                    0.5583206415176392,
                    0.3908235728740692
                ],
                [
                    -0.14319618046283722,
                    -0.1777714639902115,
                    0.19202493131160736
                ],
                [
                    0.16204583644866943,
                    -0.6942281723022461,
                    -0.3555069863796234
                ]
            ]
        ],
        [
            [
                [
                    2.5795514583587646,
                    1.184240460395813,
                    1.0767980813980103
                ],
                [
                    0.6456567645072937,
                    0.1860884428024292,
                    -0.8660106658935547
                ],
                [
                    -2.883878707885742,
                    -0.4810626208782196,
                    -1.7781704664230347
                ]
            ]
        ],
        [
            [
                [
                    0.6830016374588013,
                    0.2494993358850479,
                    -1.47849702835083
                ],
                [
                    0.37348026037216187,
                    0.5867542624473572,
                    -0.6926290988922119
                ],
                [
                    -0.8778287768363953,
                    1.3640724420547485,
                    0.3697967529296875
                ]
            ]
        ],
        [
            [
                [
                    1.0172158479690552,
                    1.178765892982483,
                    0.7566985487937927
                ],
                [
                    -1.1839545965194702,
                    -1.629554271697998,
                    -1.1417995691299438
                ],
                [
                    0.3145875334739685,
                    0.5914197564125061,
                    -0.013369978405535221
                ]
            ]
        ],
        [
            [
                [
                    -1.2760326862335205,
                    1.6093113422393799,
                    -0.4829169809818268
                ],
                [
                    0.26992687582969666,
                    0.053996600210666656,
                    -0.3188510537147522
                ],
                [
                    1.212100863456726,
                    -1.6505666971206665,
                    0.5897895693778992
                ]
            ]
        ],
        [
            [
                [
                    0.6835974454879761,
                    0.5186539888381958,
                    0.39281368255615234
                ],
                [
                    0.6817556023597717,
                    -0.47096744179725647,
                    0.3543078601360321
                ],
                [
                    0.40642479062080383,
                    -0.6452345848083496,
                    -0.10569768399000168
                ]
            ]
        ],
        [
            [
                [
                    -1.0820180177688599,
                    2.0448460578918457,
                    -0.6580803990364075
                ],
                [
                    0.5498936772346497,
                    0.39202961325645447,
                    -0.7564401030540466
                ],
                [
                    1.5258980989456177,
                    -1.4895473718643188,
                    0.06318621337413788
                ]
            ]
        ],
        [
            [
                [
                    0.1780000478029251,
                    -0.03873191773891449,
                    -0.5480789542198181
                ],
                [
                    -0.397169291973114,
                    -0.506801426410675,
                    -0.36830034852027893
                ],
                [
                    -0.16842706501483917,
                    -0.43039894104003906,
                    -0.003181686159223318
                ]
            ]
        ],
        [
            [
                [
                    -0.8155542612075806,
                    -0.14778468012809753,
                    -0.5624064803123474
                ],
                [
                    0.1035505011677742,
                    0.3189278841018677,
                    0.358672171831131
                ],
                [
                    0.6472550630569458,
                    0.08057113736867905,
                    0.20688332617282867
                ]
            ]
        ],
        [
            [
                [
                    0.2852201461791992,
                    0.6583792567253113,
                    0.7347628474235535
                ],
                [
                    -0.14254747331142426,
                    -0.01805039495229721,
                    0.2083945870399475
                ],
                [
                    -0.5741280913352966,
                    -0.4793972074985504,
                    0.06971152126789093
                ]
            ]
        ],
        [
            [
                [
                    -0.33016669750213623,
                    0.7405536770820618,
                    -1.6342500448226929
                ],
                [
                    0.5562511682510376,
                    -0.17784549295902252,
                    -0.3086806535720825
                ],
                [
                    1.032978892326355,
                    -0.3559896945953369,
                    0.689801812171936
                ]
            ]
        ],
        [
            [
                [
                    -1.5361829996109009,
                    -0.31663691997528076,
                    0.12062365561723709
                ],
                [
                    -0.11408182233572006,
                    0.2583983242511749,
                    0.5052912831306458
                ],
                [
                    0.37297889590263367,
                    0.3779733180999756,
                    1.0473158359527588
                ]
            ]
        ]
    ],
    "conv1.weight": [
        [
            [
                [
                    -0.12973323464393616,
                    0.05621610954403877,
                    0.024747133255004883
                ],
                [
                    -0.16892948746681213,
                    0.025191016495227814,
                    -0.01191522367298603
                ],
                [
                    -0.13596130907535553,
                    0.052022047340869904,
                    -0.06382900476455688
                ]
            ],
            [
                [
                    -0.1789781153202057,
                    -0.019974132999777794,
                    0.04899473860859871
                ],
                [
                    -0.17291636765003204,
                    0.012465477921068668,
                    0.022711317986249924
                ],
                [
                    -0.21450290083885193,
                    -0.019832666963338852,
                    -0.06632629781961441
                ]
            ],
            [
                [
                    -0.04182931408286095,
                    0.05009150132536888,
                    0.055590275675058365
                ],
                [
                    -0.13472934067249298,
                    -0.010472224093973637,
                    -0.056815579533576965
                ],
                [
                    -0.12366974353790283,
                    -0.04477912187576294,
                    0.024219578132033348
                ]
            ],
            [
                [
                    -0.3789103627204895,
                    -0.014131461270153522,
                    -0.00674748420715332
                ],
                [
                    -0.3021450340747833,
                    -0.09764522314071655,
                    -0.06171206757426262
                ],
                [
                    -0.39941391348838806,
                    0.041389353573322296,
                    -0.04185446351766586
                ]
            ],
            [
                [
                    0.04034682363271713,
                    0.02595236711204052,
                    0.00820695050060749
                ],
                [
                    -0.02849045768380165,
                    -0.02399524673819542,
                    0.007950332015752792
                ],
                [
                    -0.044898778200149536,
                    -0.006089117377996445,
                    0.006494730245321989
                ]
            ],
            [
                [
                    -0.08239568769931793,
                    -0.050031013786792755,
                    0.06641089916229248
                ],
                [
                    -0.08453041315078735,
                    -0.020524151623249054,
                    0.07374636083841324
                ],
                [
                    -0.0011396502377465367,
                    -0.00595315033569932,
                    -0.06027573347091675
                ]
            ],
            [
                [
                    -0.0979565754532814,
                    -0.055390287190675735,
                    -0.02490980178117752
                ],
                [
                    -0.16770115494728088,
                    -0.02745426818728447,
                    -0.003995800390839577
                ],
                [
                    -0.08767847716808319,
                    0.0027239827904850245,
                    0.05802528187632561
                ]
            ],
            [
                [
                    0.024307578802108765,
                    -0.0660833939909935,
                    0.03531501442193985
                ],
                [
                    -0.08226856589317322,
                    -0.05185990408062935,
                    0.020986588671803474
                ],
                [
                    -0.00520440936088562,
                    0.042164355516433716,
                    -0.0210020300000906
                ]
            ],
            [
                [
                    -0.00982462614774704,
                    0.016617003828287125,
                    -0.07323596626520157
                ],
                [
                    0.03284195065498352,
                    -0.08127220720052719,
                    0.0034974953159689903
                ],
                [
                    -0.03265200927853584,
                    -0.060173023492097855,
                    0.011246560141444206
                ]
            ],
            [
                [
                    0.0747348964214325,
                    -0.03673636168241501,
                    -0.04670833423733711
                ],
                [
                    -0.02869569882750511,
                    -0.09033168107271194,
                    0.03201683983206749
                ],
                [
                    -0.039875324815511703,
                    -0.06729790568351746,
                    -0.045072466135025024
                ]
            ],
            [
                [
                    0.03242148458957672,
                    0.022678831592202187,
                    0.05322163552045822
                ],
                [
                    0.00930384173989296,
                    -0.040316395461559296,
                    -0.019352730363607407
                ],
                [
                    0.005505035165697336,
                    0.04578523710370064,
                    0.020798232406377792
                ]
            ],
            [
                [
                    -0.21064108610153198,
                    -0.03650426119565964,
                    -0.07410752773284912
                ],
                [
                    -0.168780118227005,
                    -0.06753847002983093,
                    -0.07232494652271271
                ],
                [
                    -0.1227816790342331,
                    -0.0563325434923172,
                    -0.018201610073447227
                ]
            ],
            [
                [
                    -0.19589456915855408,
                    -0.01687089540064335,
                    -0.05407853424549103
                ],
                [
                    -0.28453442454338074,
                    0.023017127066850662,
                    0.006749510765075684
                ],
                [
                    -0.16411741077899933,
                    -0.03402206674218178,
                    0.016306286677718163
                ]
            ],
            [
                [
                    -0.1265535056591034,
                    -0.013198806904256344,
                    -0.04917594790458679
                ],
                [
                    -0.0945112407207489,
                    0.0037594118621200323,
                    -0.004359279293566942
                ],
                [
                    -0.1375935673713684,
                    -0.054176684468984604,
                    0.04551700875163078
                ]
            ],
            [
                [
                    -0.4195878207683563,
                    0.012266552075743675,
                    -0.029406050220131874
                ],
                [
                    -0.4091964066028595,
                    -0.03627021238207817,
                    -0.04275132343173027
                ],
                [
                    -0.36095020174980164,
                    0.005240265745669603,
                    -0.06349951028823853
                ]
            ],
            [
                [
                    -0.004960128106176853,
                    0.006109040230512619,
                    0.036146361380815506
                ],
                [
                    -0.02750539779663086,
                    -0.08375249803066254,
                    -0.01145854964852333
                ],
                [
                    0.007731239777058363,
                    -0.04413135349750519,
                    0.035030752420425415
                ]
            ],
            [
                [
                    -0.4542567729949951,
                    -0.054596249014139175,
                    -0.006287304684519768
                ],
                [
                    -0.4888239800930023,
                    -0.051319532096385956,
                    -0.0030041513964533806
                ],
                [
                    -0.5198609232902527,
                    -0.0724797323346138,
                    -0.009108206257224083
                ]
            ],
            [
                [
                    0.04811159521341324,
                    0.06085154414176941,
                    0.04121590033173561
                ],
                [
                    -0.005715029314160347,
                    0.02042090892791748,
                    -0.03803545609116554
                ],
                [
                    -0.0801299661397934,
                    -0.07275515794754028,
                    0.0698457583785057
                ]
            ],
            [
                [
                    -0.44130662083625793,
                    -0.06876793503761292,
                    0.0235246904194355
                ],
                [
                    -0.4451184868812561,
                    0.022285914048552513,
                    0.05933428555727005
                ],
                [
                    -0.4523622691631317,
                    -0.02881593443453312,
                    -0.03642910346388817
                ]
            ]
        ],
        [
            [
                [
                    0.033776119351387024,
                    0.020945779979228973,
                    -0.05057969689369202
                ],
                [
                    0.04706551879644394,
                    0.014087279327213764,
                    0.035085827112197876
                ],
                [
                    -0.06042260304093361,
                    -0.004918231163173914,
                    -0.037017934024333954
                ]
            ],
            [
                [
                    -0.0036037203390151262,
                    -0.020278604701161385,
                    0.02226461097598076
                ],
                [
                    -0.016640322282910347,
                    0.022497594356536865,
                    -0.031229203566908836
                ],
                [
                    0.008011049591004848,
                    -0.06095528230071068,
                    0.010795594193041325
                ]
            ],
            [
                [
                    -0.2632960379123688,
                    -0.08047788590192795,
                    -0.06508330255746841
                ],
                [
                    -0.1040625274181366,
                    0.03662167116999626,
                    0.06400030106306076
                ],
                [
                    -0.07899275422096252,
                    -0.07048562914133072,
                    -0.05301922187209129
                ]
            ],
            [
                [
                    -0.14091552793979645,
                    -0.08007881790399551,
                    0.028000863268971443
                ],
                [
                    -0.13062898814678192,
                    -0.07935941964387894,
                    -0.09277264028787613
                ],
                [
                    -0.10474370419979095,
                    0.019010523334145546,
                    0.03422212973237038
                ]
            ],
            [
                [
                    0.04874901846051216,
                    0.04524817317724228,
                    0.05653376877307892
                ],
                [
                    -0.025814956054091454,
                    0.006927351467311382,
                    0.013591988943517208
                ],
                [
                    0.015361947938799858,
                    0.05550636723637581,
                    0.025659939274191856
                ]
            ],
            [
                [
                    0.00816124863922596,
                    -0.04759665206074715,
                    0.032036926597356796
                ],
                [
                    -0.02601887471973896,
                    -0.030073057860136032,
                    -0.04262293875217438
                ],
                [
                    -0.07256487756967545,
                    -0.06751621514558792,
                    0.04882652685046196
                ]
            ],
            [
                [
                    0.05423830822110176,
                    -0.023221701383590698,
                    -0.05246465280652046
                ],
                [
                    0.04775792360305786,
                    0.014547898434102535,
                    -0.01380488183349371
                ],
                [
                    -0.03763984143733978,
                    0.03038771077990532,
                    -0.014260969124734402
                ]
            ],
            [
                [
                    -0.18245506286621094,
                    0.052852049469947815,
                    0.053651101887226105
                ],
                [
                    -0.11807531118392944,
                    0.024695992469787598,
                    -0.05130540207028389
                ],
                [
                    -0.09944012761116028,
                    0.04776138439774513,
                    0.0009521397878415883
                ]
            ],
            [
                [
                    -0.07852853834629059,
                    -0.04854731261730194,
                    -0.02780616283416748
                ],
                [
                    -0.042291879653930664,
                    -0.03060794249176979,
                    0.014932014048099518
                ],
                [
                    -0.024773333221673965,
                    -0.07359784096479416,
                    -0.004914253484457731
                ]
            ],
            [
                [
                    0.013450410217046738,
                    0.006105896085500717,
                    -0.08117427676916122
                ],
                [
                    -0.03244119882583618,
                    -0.08921299129724503,
                    -0.04344961419701576
                ],
                [
                    0.007667886558920145,
                    -0.09427518397569656,
                    0.012874873355031013
                ]
            ],
            [
                [
                    0.05494017153978348,
                    -0.0062384228222072124,
                    -0.053065892308950424
                ],
                [
                    -0.033304568380117416,
                    -0.003481661668047309,
                    -0.07667035609483719
                ],
                [
                    0.02656758762896061,
                    -0.07911684364080429,
                    -0.07896263897418976
                ]
            ],
            [
                [
                    -0.09881698340177536,
                    -0.03608231619000435,
                    0.036629967391490936
                ],
                [
                    -0.06308484077453613,
                    0.036090653389692307,
                    -0.042093176394701004
                ],
                [
                    0.019598711282014847,
                    -0.02146376669406891,
                    -0.079361192882061
                ]
            ],
            [
                [
                    -0.2952897548675537,
                    0.013656802475452423,
                    0.06919999420642853
                ],
                [
                    -0.20603351294994354,
                    -0.07530888170003891,
                    0.05827754735946655
                ],
                [
                    -0.2241862267255783,
                    0.008481496945023537,
                    -0.06271863728761673
                ]
            ],
            [
                [
                    -0.05999123677611351,
                    -0.09052613377571106,
                    -0.039105869829654694
                ],
                [
                    -0.005772646516561508,
                    -0.08198937028646469,
                    0.01432527881115675
                ],
                [
                    0.018257373943924904,
                    -0.013085739687085152,
                    -0.06013871729373932
                ]
            ],
            [
                [
                    -0.31474316120147705,
                    -0.04399712011218071,
                    0.016176167875528336
                ],
                [
                    -0.09378387778997421,
                    0.006572915706783533,
                    -0.04042094573378563
                ],
                [
                    -0.1162286326289177,
                    -0.11090988665819168,
                    -0.09644907712936401
                ]
            ],
            [
                [
                    0.015876229852437973,
                    -0.056223176419734955,
                    0.034952253103256226
                ],
                [
                    -0.07144121080636978,
                    -0.04491805657744408,
                    -0.06219518184661865
                ],
                [
                    0.021379556506872177,
                    -0.015342727303504944,
                    0.05751980096101761
                ]
            ],
            [
                [
                    -0.30656036734580994,
                    0.01728891022503376,
                    -0.022374307736754417
                ],
                [
                    -0.2479323297739029,
                    -0.04464614391326904,
                    -0.022302202880382538
                ],
                [
                    -0.14941495656967163,
                    -0.07815109193325043,
                    0.03960391506552696
                ]
            ],
            [
                [
                    -0.02642231062054634,
                    -0.07473902404308319,
                    -0.0471159853041172
                ],
                [
                    0.04501267150044441,
                    0.04824328050017357,
                    -0.07453186064958572
                ],
                [
                    0.03037196956574917,
                    0.01316941436380148,
                    0.02874763496220112
                ]
            ],
            [
                [
                    -0.49506181478500366,
                    -0.0645410493016243,
                    0.004147081635892391
                ],
                [
                    -0.3480229079723358,
                    -0.04845483973622322,
                    0.001002382137812674
                ],
                [
                    -0.3402847945690155,
                    0.019968455657362938,
                    -0.039007168263196945
                ]
            ]
        ],
        [
            [
                [
                    -0.08160510659217834,
                    0.018653646111488342,
                    0.01203193236142397
                ],
                [
                    -0.06258737295866013,
                    0.00312608340755105,
                    0.025483839213848114
                ],
                [
                    -0.011408922262489796,
                    0.018679924309253693,
                    -0.03474951907992363
                ]
            ],
            [
                [
                    -0.13534507155418396,
                    -0.06857749074697495,
                    -0.06538399308919907
                ],
                [
                    -0.12339507043361664,
                    0.05043140798807144,
                    -0.045878395438194275
                ],
                [
                    -0.0525977797806263,
                    -0.050550926476716995,
                    0.05269389972090721
                ]
            ],
            [
                [
                    -0.10707087814807892,
                    -0.06196972727775574,
                    -0.051611676812171936
                ],
                [
                    -0.19606651365756989,
                    0.0005658520385622978,
                    -0.009624493308365345
                ],
                [
                    -0.17733579874038696,
                    -0.02727111242711544,
                    0.023606764152646065
                ]
            ],
            [
                [
                    -0.1659441441297531,
                    0.028267208486795425,
                    -0.05701975151896477
                ],
                [
                    -0.0982208326458931,
                    0.008244666270911694,
                    0.005794186610728502
                ],
                [
                    -0.05586818978190422,
                    0.01564711518585682,
                    -0.06497514247894287
                ]
            ],
            [
                [
                    0.027556218206882477,
                    -0.10657970607280731,
                    -0.09055869281291962
                ],
                [
                    0.0345989465713501,
                    -0.08551474660634995,
                    -0.005491795018315315
                ],
                [
                    -0.0396265909075737,
                    -0.05443401634693146,
                    -0.03368469327688217
                ]
            ],
            [
                [
                    -0.010176441632211208,
                    -0.022753369063138962,
                    -0.07015452533960342
                ],
                [
                    -0.10061100125312805,
                    -0.04380708560347557,
                    0.04060798138380051
                ],
                [
                    -0.10051219165325165,
                    0.05189311504364014,
                    -0.01693424955010414
                ]
            ],
            [
                [
                    -0.11494120955467224,
                    0.04487191513180733,
                    0.004246693104505539
                ],
                [
                    0.013932453468441963,
                    0.021085448563098907,
                    -0.05746715888381004
                ],
                [
                    -0.07259343564510345,
                    -0.01637011207640171,
                    0.03217528015375137
                ]
            ],
            [
                [
                    -0.08784352242946625,
                    -0.1002582311630249,
                    0.02033570222556591
                ],
                [
                    0.015316439792513847,
                    -0.05094365030527115,
                    -0.06741397827863693
                ],
                [
                    -0.10825257003307343,
                    -0.00739922234788537,
                    -0.01275477185845375
                ]
            ],
            [
                [
                    -0.08672031760215759,
                    -0.03276340290904045,
                    0.009420907124876976
                ],
                [
                    0.004899931140244007,
                    0.005858377553522587,
                    -0.031441397964954376
                ],
                [
                    -0.11695928126573563,
                    -0.1136133000254631,
                    0.05390477180480957
                ]
            ],
            [
                [
                    -0.007805250585079193,
                    0.009547807276248932,
                    -0.092580646276474
                ],
                [
                    0.029942944645881653,
                    0.042452648282051086,
                    0.037336643785238266
                ],
                [
                    -0.08807921409606934,
                    -0.04999207705259323,
                    -0.07837045937776566
                ]
            ],
            [
                [
                    0.02147035114467144,
                    -0.07199154049158096,
                    -0.05096627026796341
                ],
                [
                    5.344671444618143e-05,
                    -0.0746450275182724,
                    -0.05239204689860344
                ],
                [
                    -0.03959580883383751,
                    -0.04212794825434685,
                    -0.07060256600379944
                ]
            ],
            [
                [
                    -0.031986262649297714,
                    -0.03966161981225014,
                    -0.013777429237961769
                ],
                [
                    0.00487855589017272,
                    0.023125888779759407,
                    -0.03616040199995041
                ],
                [
                    0.05387469008564949,
                    0.01297606062144041,
                    -0.0672868937253952
                ]
            ],
            [
                [
                    -0.09455755352973938,
                    0.006156234070658684,
                    -0.09519173204898834
                ],
                [
                    -0.1335856169462204,
                    -0.0661042183637619,
                    0.04421710595488548
                ],
                [
                    -0.07488629966974258,
                    -0.07579825073480606,
                    -0.02349916659295559
                ]
            ],
            [
                [
                    0.02834349125623703,
                    -0.0057912552729249,
                    -0.002449394902214408
                ],
                [
                    -0.008472656831145287,
                    -0.004118438810110092,
                    -0.04426438361406326
                ],
                [
                    -0.027105195447802544,
                    -0.09631174057722092,
                    -0.07781880348920822
                ]
            ],
            [
                [
                    -0.1657535880804062,
                    -0.04758839309215546,
                    -0.001539554912596941
                ],
                [
                    -0.1223582848906517,
                    -0.0007261679857037961,
                    -0.06918853521347046
                ],
                [
                    -0.014071454294025898,
                    -0.048058364540338516,
                    0.04836437106132507
                ]
            ],
            [
                [
                    -0.1234017163515091,
                    -0.04598415270447731,
                    0.045086342841386795
                ],
                [
                    -0.07238521426916122,
                    0.04118458554148674,
                    -0.04404494911432266
                ],
                [
                    -0.10332389920949936,
                    -0.05105193704366684,
                    0.01549553219228983
                ]
            ],
            [
                [
                    -0.0766470730304718,
                    -0.04162631183862686,
                    -0.004781127441674471
                ],
                [
                    -0.13076215982437134,
                    -0.02780972048640251,
                    0.015328648500144482
                ],
                [
                    -0.10906849056482315,
                    0.0034215429332107306,
                    0.04495441913604736
                ]
            ],
            [
                [
                    -0.028906865045428276,
                    0.0332152284681797,
                    -0.0467970035970211
                ],
                [
                    0.04414340853691101,
                    -0.09871198982000351,
                    -0.036942459642887115
                ],
                [
                    -0.012966880574822426,
                    0.0070352740585803986,
                    0.009005974978208542
                ]
            ],
            [
                [
                    -0.34760725498199463,
                    -0.01939328759908676,
                    -0.015896005555987358
                ],
                [
                    -0.21937739849090576,
                    -0.027281388640403748,
                    0.045758169144392014
                ],
                [
                    -0.24117320775985718,
                    0.00013574415061157197,
                    -0.007247039582580328
                ]
            ]
        ],
        [
            [
                [
                    -0.06455884873867035,
                    -0.02875717356801033,
                    -0.04132792353630066
                ],
                [
                    -0.14704126119613647,
                    -0.0363711342215538,
                    -0.01793063059449196
                ],
                [
                    -0.05555836483836174,
                    -0.11041770875453949,
                    0.016407905146479607
                ]
            ],
            [
                [
                    0.009769207797944546,
                    -0.03661968931555748,
                    -0.07297408580780029
                ],
                [
                    0.005278416443616152,
                    -0.09241771697998047,
                    0.015163659118115902
                ],
                [
                    -0.014585125260055065,
                    -0.07796231657266617,
                    0.03411277383565903
                ]
            ],
            [
                [
                    -0.07910466939210892,
                    -0.07040627300739288,
                    -0.1418609321117401
                ],
                [
                    -0.026039080694317818,
                    -0.10146722197532654,
                    -0.039717987179756165
                ],
                [
                    -0.04384912550449371,
                    -0.03273164853453636,
                    -0.11855141073465347
                ]
            ],
            [
                [
                    -0.25199976563453674,
                    -0.22330214083194733,
                    -0.05505095049738884
                ],
                [
                    -0.1180422380566597,
                    -0.12989963591098785,
                    0.06340254843235016
                ],
                [
                    -0.1630602777004242,
                    -0.05898908153176308,
                    0.1521107256412506
                ]
            ],
            [
                [
                    0.011191735975444317,
                    -0.05172961577773094,
                    -0.06192530319094658
                ],
                [
                    -0.0741662010550499,
                    -0.06520625948905945,
                    -0.04029723256826401
                ],
                [
                    0.0013158773072063923,
                    -0.10616280138492584,
                    0.002966451458632946
                ]
            ],
            [
                [
                    -0.15191423892974854,
                    -0.058414921164512634,
                    -0.02924536168575287
                ],
                [
                    -0.12944599986076355,
                    -0.06510666757822037,
                    -0.15906798839569092
                ],
                [
                    -0.08529343456029892,
                    -0.07967391610145569,
                    -0.13290080428123474
                ]
            ],
            [
                [
                    -0.10013923048973083,
                    -0.09572120755910873,
                    -0.09529111534357071
                ],
                [
                    -0.08929459005594254,
                    0.03914256393909454,
                    -0.0409858413040638
                ],
                [
                    -0.06565717607736588,
                    0.05683835968375206,
                    0.04446307569742203
                ]
            ],
            [
                [
                    -0.11594445258378983,
                    -0.04443900287151337,
                    -0.07964877039194107
                ],
                [
                    -0.14236639440059662,
                    -0.04734912887215614,
                    -0.01615610159933567
                ],
                [
                    -0.03693339601159096,
                    -0.0529969297349453,
                    -0.04418429359793663
                ]
            ],
            [
                [
                    -0.08908223360776901,
                    0.0500129871070385,
                    -0.05976099520921707
                ],
                [
                    -0.07621797174215317,
                    -0.012720989994704723,
                    0.0005742328939959407
                ],
                [
                    -0.1459982842206955,
                    0.0037537883035838604,
                    0.009714072570204735
                ]
            ],
            [
                [
                    -0.19503740966320038,
                    -0.051962967962026596,
                    -0.024294711649417877
                ],
                [
                    -0.1699419468641281,
                    -0.04800493270158768,
                    -0.06961378455162048
                ],
                [
                    -0.1921987533569336,
                    0.041016194969415665,
                    -0.07057791948318481
                ]
            ],
            [
                [
                    0.03416886180639267,
                    -0.036105453968048096,
                    0.05541437119245529
                ],
                [
                    -0.04942350834608078,
                    0.07399744540452957,
                    -0.09457402676343918
                ],
                [
                    -0.09135270118713379,
                    0.03104318678379059,
                    -0.0008730730623938143
                ]
            ],
            [
                [
                    -0.15734760463237762,
                    -0.12596720457077026,
                    -0.037702467292547226
                ],
                [
                    -0.13355569541454315,
                    -0.1198517307639122,
                    0.041538726538419724
                ],
                [
                    -0.118804931640625,
                    -0.062429796904325485,
                    0.10993622243404388
                ]
            ],
            [
                [
                    -0.09337829798460007,
                    -0.112236887216568,
                    -0.09767822176218033
                ],
                [
                    -0.2005256712436676,
                    -0.19392013549804688,
                    -0.14092037081718445
                ],
                [
                    -0.19885852932929993,
                    -0.15696099400520325,
                    -0.05696791410446167
                ]
            ],
            [
                [
                    -0.1115475445985794,
                    0.041899584233760834,
                    -0.08744250982999802
                ],
                [
                    -0.05745987966656685,
                    0.05250295624136925,
                    0.047811999917030334
                ],
                [
                    -0.1272619515657425,
                    -0.015805667266249657,
                    0.0015009846538305283
                ]
            ],
            [
                [
                    -0.15346388518810272,
                    -0.1705901026725769,
                    0.02077808976173401
                ],
                [
                    -0.1574510782957077,
                    -0.11380041390657425,
                    0.05433562770485878
                ],
                [
                    -0.1043463721871376,
                    -0.06637801229953766,
                    0.03589747101068497
                ]
            ],
            [
                [
                    -0.05052211135625839,
                    0.030067648738622665,
                    -0.06850089132785797
                ],
                [
                    -0.03733295947313309,
                    -0.08302383124828339,
                    -0.06773705035448074
                ],
                [
                    -0.1082884892821312,
                    -0.04886043816804886,
                    -0.06538030505180359
                ]
            ],
            [
                [
                    -0.12320725619792938,
                    -0.1068289577960968,
                    0.03286780044436455
                ],
                [
                    -0.13516934216022491,
                    -0.0807545855641365,
                    0.002017783001065254
                ],
                [
                    -0.16746413707733154,
                    -0.06017608195543289,
                    0.07949834316968918
                ]
            ],
            [
                [
                    -0.11714977025985718,
                    -0.07625386118888855,
                    0.004874910227954388
                ],
                [
                    -0.09126901626586914,
                    0.009084741584956646,
                    -0.00952087715268135
                ],
                [
                    -0.05601424723863602,
                    0.0029840520583093166,
                    -0.024473557248711586
                ]
            ],
            [
                [
                    -0.17075267434120178,
                    -0.16763421893119812,
                    -0.05728951469063759
                ],
                [
                    -0.1791374385356903,
                    -0.18964070081710815,
                    0.024034913629293442
                ],
                [
                    -0.16566404700279236,
                    -0.22504529356956482,
                    0.03614651411771774
                ]
            ]
        ],
        [
            [
                [
                    -0.08859167993068695,
                    -0.07015182077884674,
                    -0.04665620997548103
                ],
                [
                    0.02164558134973049,
                    -0.09650538116693497,
                    0.033879414200782776
                ],
                [
                    0.050808873027563095,
                    -0.009194569662213326,
                    -0.013783633708953857
                ]
            ],
            [
                [
                    -0.01673085242509842,
                    -0.045428160578012466,
                    -0.01761031337082386
                ],
                [
                    -0.11615730077028275,
                    -0.024192428216338158,
                    0.004683342762291431
                ],
                [
                    -0.06792235374450684,
                    -0.02783678099513054,
                    -0.08453739434480667
                ]
            ],
            [
                [
                    -0.2578902542591095,
                    -0.021306460723280907,
                    0.0012975704157724977
                ],
                [
                    -0.20013266801834106,
                    0.06679137796163559,
                    -0.05109884962439537
                ],
                [
                    -0.24551397562026978,
                    -0.0290765892714262,
                    -0.07174109667539597
                ]
            ],
            [
                [
                    -0.15751299262046814,
                    -0.014348690398037434,
                    0.02065216191112995
                ],
                [
                    -0.05122764781117439,
                    0.019227484241127968,
                    -0.08032099902629852
                ],
                [
                    -0.06657838821411133,
                    0.041687361896038055,
                    -0.06335519254207611
                ]
            ],
            [
                [
                    0.047548867762088776,
                    -0.005509797018021345,
                    0.03385459631681442
                ],
                [
                    -0.0499572828412056,
                    0.01166815310716629,
                    -0.08015568554401398
                ],
                [
                    -0.025617340579628944,
                    -0.01760786585509777,
                    0.010446995496749878
                ]
            ],
            [
                [
                    -0.034392304718494415,
                    0.00837517250329256,
                    0.03767750784754753
                ],
                [
                    -0.041437432169914246,
                    -0.005986147094517946,
                    -0.03187565132975578
                ],
                [
                    -0.14265044033527374,
                    -0.07241951674222946,
                    -0.022105993703007698
                ]
            ],
            [
                [
                    -0.025006866082549095,
                    0.007543465122580528,
                    0.015257676132023335
                ],
                [
                    0.022705640643835068,
                    -0.0001704152673482895,
                    0.05391811579465866
                ],
                [
                    0.03670669347047806,
                    -0.0817880928516388,
                    -0.06376837193965912
                ]
            ],
            [
                [
                    -0.12442739307880402,
                    -0.024437684565782547,
                    0.025450322777032852
                ],
                [
                    -0.21707887947559357,
                    -0.09770260006189346,
                    0.03654487431049347
                ],
                [
                    -0.09293734282255173,
                    -0.0962115079164505,
                    0.021320151165127754
                ]
            ],
            [
                [
                    -0.11108780652284622,
                    0.012857506051659584,
                    -0.0020824482198804617
                ],
                [
                    0.021134521812200546,
                    -0.1127687394618988,
                    -0.0905168429017067
                ],
                [
                    -0.0061904736794531345,
                    0.0027155999559909105,
                    0.02738669514656067
                ]
            ],
            [
                [
                    0.052615486085414886,
                    -0.09826374799013138,
                    0.03791501373052597
                ],
                [
                    -0.08009486645460129,
                    -0.021129339933395386,
                    -0.06420552730560303
                ],
                [
                    -0.04813532903790474,
                    -0.025935322046279907,
                    -0.04151197150349617
                ]
            ],
            [
                [
                    -0.029438653960824013,
                    -0.08893747627735138,
                    -0.08212284743785858
                ],
                [
                    0.011617962270975113,
                    -0.04824228212237358,
                    -0.05476215481758118
                ],
                [
                    -0.04887336120009422,
                    -0.07947374880313873,
                    -0.06819470226764679
                ]
            ],
            [
                [
                    0.05248163267970085,
                    -0.0027823802083730698,
                    -0.0042999861761927605
                ],
                [
                    -0.026667483150959015,
                    0.009617666713893414,
                    -0.011485842987895012
                ],
                [
                    -0.040930431336164474,
                    -0.00657640490680933,
                    0.053093526512384415
                ]
            ],
            [
                [
                    -0.4730602502822876,
                    -0.10427138954401016,
                    -0.0009017575648613274
                ],
                [
                    -0.31062081456184387,
                    -0.07698686420917511,
                    0.004444478545337915
                ],
                [
                    -0.301291286945343,
                    -0.007527390494942665,
                    0.004495576489716768
                ]
            ],
            [
                [
                    0.043343592435121536,
                    -0.0023896910715848207,
                    -0.05566582828760147
                ],
                [
                    -0.024273889139294624,
                    0.017761878669261932,
                    0.052238453179597855
                ],
                [
                    -0.10394812375307083,
                    0.011985920369625092,
                    -0.0327862873673439
                ]
            ],
            [
                [
                    -0.3238160014152527,
                    -0.00460531422868371,
                    -0.05099991336464882
                ],
                [
                    -0.22027082741260529,
                    -0.05797271057963371,
                    -0.06675533205270767
                ],
                [
                    -0.2211267501115799,
                    -0.039054740220308304,
                    0.032375987619161606
                ]
            ],
            [
                [
                    -0.05320164933800697,
                    -0.0025925638619810343,
                    -0.0056730411015450954
                ],
                [
                    -0.08040403574705124,
                    0.011704054661095142,
                    -0.008793097920715809
                ],
                [
                    -0.03585486486554146,
                    -0.054833248257637024,
                    -0.007549567148089409
                ]
            ],
            [
                [
                    -0.34689292311668396,
                    -0.022917311638593674,
                    -0.07517378777265549
                ],
                [
                    -0.3128668963909149,
                    -0.07565507292747498,
                    -0.033597756177186966
                ],
                [
                    -0.25946471095085144,
                    -0.0736117959022522,
                    -0.06735354661941528
                ]
            ],
            [
                [
                    -0.03257202357053757,
                    -0.031454287469387054,
                    0.004682374652475119
                ],
                [
                    9.405832679476589e-05,
                    0.026338348165154457,
                    -0.058961402624845505
                ],
                [
                    -0.015174205414950848,
                    0.027015838772058487,
                    0.05612090229988098
                ]
            ],
            [
                [
                    -0.6008800864219666,
                    -0.10351256281137466,
                    0.011260920204222202
                ],
                [
                    -0.5151377320289612,
                    -0.04870852828025818,
                    -0.05243887007236481
                ],
                [
                    -0.4998701810836792,
                    -0.013524203561246395,
                    -0.07990103960037231
                ]
            ]
        ],
        [
            [
                [
                    -0.09056887030601501,
                    0.00421436270698905,
                    -0.04679298773407936
                ],
                [
                    -0.0035567220766097307,
                    0.03639321029186249,
                    -0.004144497215747833
                ],
                [
                    -0.04483085125684738,
                    -0.04560205712914467,
                    -0.01125970110297203
                ]
            ],
            [
                [
                    0.01818951405584812,
                    -0.0828603208065033,
                    -0.0472932793200016
                ],
                [
                    -0.07407978922128677,
                    0.025778954848647118,
                    -0.07723014056682587
                ],
                [
                    0.07445301860570908,
                    -0.03882934898138046,
                    -0.06721168011426926
                ]
            ],
            [
                [
                    -0.23448817431926727,
                    -0.031228387728333473,
                    0.060617268085479736
                ],
                [
                    -0.23774977028369904,
                    -0.09397204965353012,
                    0.05407914146780968
                ],
                [
                    -0.2739400565624237,
                    -0.030317865312099457,
                    0.052758146077394485
                ]
            ],
            [
                [
                    -0.023773500695824623,
                    -0.0887584462761879,
                    -0.0307309553027153
                ],
                [
                    -0.013654747046530247,
                    -0.0008388474816456437,
                    0.037576183676719666
                ],
                [
                    -0.05460457503795624,
                    -0.07838508486747742,
                    0.03513196110725403
                ]
            ],
            [
                [
                    0.02300804853439331,
                    0.0439087375998497,
                    -0.049885962158441544
                ],
                [
                    -0.05518340319395065,
                    -0.040348321199417114,
                    -0.08539688587188721
                ],
                [
                    0.024509813636541367,
                    0.027844451367855072,
                    -0.0010507951956242323
                ]
            ],
            [
                [
                    -0.07540934532880783,
                    -0.0314888060092926,
                    -0.07249072939157486
                ],
                [
                    -0.0107407346367836,
                    -0.13393136858940125,
                    -0.08903948217630386
                ],
                [
                    -0.10057419538497925,
                    0.007528085261583328,
                    -0.0002856747305486351
                ]
            ],
            [
                [
                    -0.04562373086810112,
                    -0.07552521675825119,
                    0.026722250506281853
                ],
                [
                    -0.07563669234514236,
                    -0.0004404619976412505,
                    0.05442599207162857
                ],
                [
                    0.003545599989593029,
                    -0.043592922389507294,
                    -0.0027516905684024096
                ]
            ],
            [
                [
                    -0.2530646026134491,
                    -0.07270698994398117,
                    0.04559549316763878
                ],
                [
                    -0.2317904680967331,
                    -0.0025568166747689247,
                    -0.02784487046301365
                ],
                [
                    -0.19240683317184448,
                    -0.049577053636312485,
                    -0.060341715812683105
                ]
            ],
            [
                [
                    -0.16121119260787964,
                    -0.04588726535439491,
                    -0.0051937410607934
                ],
                [
                    -0.1505359411239624,
                    0.01391996443271637,
                    0.05963265523314476
                ],
                [
                    -0.1564132124185562,
                    0.007081957068294287,
                    -0.0569884367287159
                ]
            ],
            [
                [
                    -0.2092479020357132,
                    -0.0074643660336732864,
                    -0.04217452183365822
                ],
                [
                    -0.16107380390167236,
                    -0.1094653457403183,
                    -0.06505483388900757
                ],
                [
                    -0.08973376452922821,
                    -0.11273302137851715,
                    -0.10403985530138016
                ]
            ],
            [
                [
                    -0.003937105182558298,
                    -0.1127835363149643,
                    -0.10449313372373581
                ],
                [
                    -0.04634258523583412,
                    -0.07022950798273087,
                    -0.10257788002490997
                ],
                [
                    -0.06021424010396004,
                    -0.04961404576897621,
                    -0.10495336353778839
                ]
            ],
            [
                [
                    -0.14634671807289124,
                    -0.07436946779489517,
                    -0.058121245354413986
                ],
                [
                    -0.09348277002573013,
                    -0.08767636865377426,
                    -0.0604872889816761
                ],
                [
                    -0.02734295465052128,
                    -0.02027101442217827,
                    0.0599028579890728
                ]
            ],
            [
                [
                    -0.4178639352321625,
                    -0.12981948256492615,
                    -0.025073252618312836
                ],
                [
                    -0.39320680499076843,
                    -0.03220193088054657,
                    -0.08672099560499191
                ],
                [
                    -0.34145668148994446,
                    -0.06340104341506958,
                    -0.03714082017540932
                ]
            ],
            [
                [
                    -0.1295250952243805,
                    0.014061965979635715,
                    -0.07326258718967438
                ],
                [
                    -0.06258878856897354,
                    -0.0853152647614479,
                    0.038385260850191116
                ],
                [
                    -0.10800060629844666,
                    0.014384261332452297,
                    -0.0698317214846611
                ]
            ],
            [
                [
                    -0.27815380692481995,
                    -0.0356220044195652,
                    0.0616113655269146
                ],
                [
                    -0.2952730357646942,
                    -0.060156695544719696,
                    0.06269049644470215
                ],
                [
                    -0.1811012178659439,
                    0.003974963910877705,
                    -0.08054530620574951
                ]
            ],
            [
                [
                    -0.07051981985569,
                    -0.09731803834438324,
                    0.03127368539571762
                ],
                [
                    -0.014089067466557026,
                    -0.10709445178508759,
                    -0.016996797174215317
                ],
                [
                    -0.0438414067029953,
                    -0.07316523790359497,
                    -0.062175169587135315
                ]
            ],
            [
                [
                    -0.06941265612840652,
                    0.029888592660427094,
                    -0.05701066181063652
                ],
                [
                    -0.11220966279506683,
                    -0.05078287422657013,
                    -0.0072537558153271675
                ],
                [
                    0.03330241143703461,
                    -0.03126519173383713,
                    -0.03347853571176529
                ]
            ],
            [
                [
                    -0.07274828106164932,
                    -0.0308810006827116,
                    -0.049985624849796295
                ],
                [
                    0.031437069177627563,
                    -0.09367519617080688,
                    -0.06639839708805084
                ],
                [
                    -0.07816249877214432,
                    -0.03701348602771759,
                    0.040908731520175934
                ]
            ],
            [
                [
                    -0.22890830039978027,
                    -0.11294960975646973,
                    -0.002344980137422681
                ],
                [
                    -0.26750290393829346,
                    -0.0031648166477680206,
                    0.05454656109213829
                ],
                [
                    -0.2466580718755722,
                    -0.08558983355760574,
                    0.03621072694659233
                ]
            ]
        ],
        [
            [
                [
                    -0.03428257629275322,
                    -0.019826551899313927,
                    -0.047061577439308167
                ],
                [
                    0.00509557593613863,
                    0.009951106272637844,
                    0.032462410628795624
                ],
                [
                    -0.0801430270075798,
                    -0.09848194569349289,
                    -0.09889818727970123
                ]
            ],
            [
                [
                    -0.06459943950176239,
                    0.016392648220062256,
                    -0.029623134061694145
                ],
                [
                    -0.05916105955839157,
                    -0.10581561177968979,
                    -0.06552544236183167
                ],
                [
                    0.00028191361343488097,
                    -0.10152269154787064,
                    -0.11997886747121811
                ]
            ],
            [
                [
                    -0.07349753379821777,
                    -0.05939484387636185,
                    0.017466526478528976
                ],
                [
                    -0.05014408007264137,
                    -0.07785897701978683,
                    0.044196706265211105
                ],
                [
                    0.008323711343109608,
                    -0.1163797378540039,
                    -0.0025288015604019165
                ]
            ],
            [
                [
                    -0.07469338178634644,
                    -0.0843372792005539,
                    -0.10629063844680786
                ],
                [
                    -0.01843339204788208,
                    -0.053142249584198,
                    -0.13089241087436676
                ],
                [
                    -0.005672914441674948,
                    0.0007748211501166224,
                    -0.10567707568407059
                ]
            ],
            [
                [
                    -0.09460661560297012,
                    0.01162680797278881,
                    -0.07505272328853607
                ],
                [
                    0.011620072647929192,
                    0.0012873164378106594,
                    -0.007647934835404158
                ],
                [
                    -0.09650792181491852,
                    -0.10527997463941574,
                    -0.004988810978829861
                ]
            ],
            [
                [
                    0.003475709818303585,
                    -0.09967619180679321,
                    -0.0590331070125103
                ],
                [
                    -0.07176806777715683,
                    -0.08519762009382248,
                    -0.05267158895730972
                ],
                [
                    0.0518309660255909,
                    -0.049679309129714966,
                    0.029582664370536804
                ]
            ],
            [
                [
                    0.033356375992298126,
                    -0.13453567028045654,
                    -0.09619593620300293
                ],
                [
                    -0.018561359494924545,
                    -0.05437585711479187,
                    -0.03874014690518379
                ],
                [
                    -0.14488469064235687,
                    -0.04390563443303108,
                    -0.06896651536226273
                ]
            ],
            [
                [
                    -0.07457610964775085,
                    -0.050000716000795364,
                    0.047187864780426025
                ],
                [
                    -0.0577709823846817,
                    -0.03157520294189453,
                    0.005005061160773039
                ],
                [
                    0.012530861422419548,
                    0.018120435997843742,
                    0.03414127230644226
                ]
            ],
            [
                [
                    -0.019581442698836327,
                    -0.053977254778146744,
                    0.02516986057162285
                ],
                [
                    -0.08814500272274017,
                    -0.06893511861562729,
                    -0.061251867562532425
                ],
                [
                    -0.04930276796221733,
                    -0.012406030669808388,
                    0.0017937893280759454
                ]
            ],
            [
                [
                    0.01661219820380211,
                    -5.805716500617564e-05,
                    -0.11286327987909317
                ],
                [
                    -0.04041707143187523,
                    -0.02545572817325592,
                    -0.024606510996818542
                ],
                [
                    -0.0026152885984629393,
                    -0.1030990332365036,
                    -0.08151687681674957
                ]
            ],
            [
                [
                    -0.0015297154895961285,
                    -0.04574396833777428,
                    -0.06698637455701828
                ],
                [
                    0.039466533809900284,
                    0.03563607484102249,
                    -0.03731609135866165
                ],
                [
                    -0.03197863698005676,
                    -0.0769328698515892,
                    -0.07882693409919739
                ]
            ],
            [
                [
                    -0.008044620975852013,
                    -0.04749102517962456,
                    0.02083681896328926
                ],
                [
                    -0.08030862361192703,
                    -0.020427096635103226,
                    -0.0337621346116066
                ],
                [
                    0.013729063794016838,
                    0.05512148141860962,
                    0.017248954623937607
                ]
            ],
            [
                [
                    0.03227982670068741,
                    -0.18131819367408752,
                    -0.07510896027088165
                ],
                [
                    -0.06922971457242966,
                    -0.13974648714065552,
                    0.060416046530008316
                ],
                [
                    -0.03234521299600601,
                    -0.14005650579929352,
                    -0.08048433810472488
                ]
            ],
            [
                [
                    -0.004420462064445019,
                    0.014398464933037758,
                    -0.10221178829669952
                ],
                [
                    -0.06994848698377609,
                    0.03073248639702797,
                    -0.017310282215476036
                ],
                [
                    -0.030230814591050148,
                    -0.017143988981842995,
                    -0.039703842252492905
                ]
            ],
            [
                [
                    -0.08602404594421387,
                    -0.20517373085021973,
                    -0.024072248488664627
                ],
                [
                    -0.04285715892910957,
                    -0.13845005631446838,
                    -0.08314985036849976
                ],
                [
                    -0.1036943718791008,
                    -0.123072050511837,
                    -0.14743228256702423
                ]
            ],
            [
                [
                    0.04840392991900444,
                    0.009003540500998497,
                    -0.04593658447265625
                ],
                [
                    -0.030099451541900635,
                    0.009850655682384968,
                    -0.030696621164679527
                ],
                [
                    0.011757293716073036,
                    -0.0022365401964634657,
                    -0.057048238813877106
                ]
            ],
            [
                [
                    -0.00713818846270442,
                    -0.07806725800037384,
                    -0.015965057536959648
                ],
                [
                    -0.05266140401363373,
                    -0.09641590714454651,
                    -0.002447109902277589
                ],
                [
                    -0.08579900115728378,
                    -0.06575312465429306,
                    0.020960550755262375
                ]
            ],
            [
                [
                    -0.06116972491145134,
                    -0.012643820606172085,
                    0.04680844768881798
                ],
                [
                    0.0387716069817543,
                    -0.06373134255409241,
                    0.026862723752856255
                ],
                [
                    -0.060645975172519684,
                    -0.08221308887004852,
                    -0.026913976296782494
                ]
            ],
            [
                [
                    0.01098727062344551,
                    -0.1367056965827942,
                    -0.06137112155556679
                ],
                [
                    -0.057740356773138046,
                    -0.14632032811641693,
                    -0.05822451040148735
                ],
                [
                    0.023061703890562057,
                    -0.14203208684921265,
                    -0.09614796936511993
                ]
            ]
        ],
        [
            [
                [
                    -0.3229268491268158,
                    -0.1291416436433792,
                    -0.3029334247112274
                ],
                [
                    -0.23302486538887024,
                    -0.23516036570072174,
                    -0.2362498641014099
                ],
                [
                    -0.19134940207004547,
                    -0.16333822906017303,
                    -0.21893003582954407
                ]
            ],
            [
                [
                    -0.2576366662979126,
                    0.07255642861127853,
                    0.2481534481048584
                ],
                [
                    0.25901326537132263,
                    0.4421505033969879,
                    0.5203045010566711
                ],
                [
                    0.2295619547367096,
                    0.46631941199302673,
                    0.5265324115753174
                ]
            ],
            [
                [
                    0.06245522201061249,
                    -0.25157734751701355,
                    -0.10271792113780975
                ],
                [
                    0.03396357595920563,
                    0.04744886979460716,
                    0.15476086735725403
                ],
                [
                    -0.11966656893491745,
                    0.23375427722930908,
                    0.13751181960105896
                ]
            ],
            [
                [
                    0.32340288162231445,
                    0.3800240159034729,
                    0.04046107828617096
                ],
                [
                    0.39418795704841614,
                    0.4099700450897217,
                    0.11980650573968887
                ],
                [
                    0.10783659666776657,
                    0.1433793604373932,
                    -0.0989750325679779
                ]
            ],
            [
                [
                    -0.2986140847206116,
                    -0.46930715441703796,
                    -0.3639902174472809
                ],
                [
                    0.08184120059013367,
                    0.010112135671079159,
                    -0.002546048955991864
                ],
                [
                    -0.09798653423786163,
                    0.00029145859298296273,
                    0.06705137342214584
                ]
            ],
            [
                [
                    0.22215962409973145,
                    0.032288894057273865,
                    0.1343076527118683
                ],
                [
                    0.24440021812915802,
                    0.15099948644638062,
                    0.20357872545719147
                ],
                [
                    0.17328178882598877,
                    0.33409059047698975,
                    0.1692422777414322
                ]
            ],
            [
                [
                    0.4907211661338806,
                    0.2658165991306305,
                    -0.0010646292939782143
                ],
                [
                    0.5122369527816772,
                    0.10749561339616776,
                    -0.04534868150949478
                ],
                [
                    0.4369812309741974,
                    -0.18365567922592163,
                    -0.2697894275188446
                ]
            ],
            [
                [
                    -0.03384111449122429,
                    0.08666548877954483,
                    -0.05352003499865532
                ],
                [
                    -0.09172189980745316,
                    -0.015610955655574799,
                    -0.010152537375688553
                ],
                [
                    -0.2888026833534241,
                    -0.16841953992843628,
                    0.02658272720873356
                ]
            ],
            [
                [
                    -0.6350064277648926,
                    -0.7190847992897034,
                    -0.4084519147872925
                ],
                [
                    -0.06074773147702217,
                    -0.20371273159980774,
                    0.15712738037109375
                ],
                [
                    -0.13586951792240143,
                    -0.057296253740787506,
                    0.22655846178531647
                ]
            ],
            [
                [
                    0.2926109731197357,
                    0.15186846256256104,
                    0.07429705560207367
                ],
                [
                    0.12647871673107147,
                    0.24074432253837585,
                    0.10511936247348785
                ],
                [
                    -0.20399025082588196,
                    0.2650829255580902,
                    -0.039942897856235504
                ]
            ],
            [
                [
                    -0.023423796519637108,
                    -0.004034324083477259,
                    0.024196607992053032
                ],
                [
                    0.2241082787513733,
                    0.18942344188690186,
                    0.22156521677970886
                ],
                [
                    0.19579777121543884,
                    0.15604735910892487,
                    0.32385072112083435
                ]
            ],
            [
                [
                    0.13868433237075806,
                    0.17304886877536774,
                    -0.05572386831045151
                ],
                [
                    0.1255747228860855,
                    0.2972481846809387,
                    0.15018849074840546
                ],
                [
                    0.025129912421107292,
                    0.1678972840309143,
                    -0.06451012194156647
                ]
            ],
            [
                [
                    -0.22861596941947937,
                    0.09014661610126495,
                    0.22281545400619507
                ],
                [
                    -0.13830117881298065,
                    0.36540403962135315,
                    0.26548266410827637
                ],
                [
                    -0.4856337308883667,
                    0.07167232781648636,
                    0.13082024455070496
                ]
            ],
            [
                [
                    0.4131963551044464,
                    0.1763501763343811,
                    0.002884526504203677
                ],
                [
                    0.4270477294921875,
                    0.32004231214523315,
                    0.20576916635036469
                ],
                [
                    0.284008264541626,
                    0.2816258370876312,
                    -0.048442695289850235
                ]
            ],
            [
                [
                    0.1277126669883728,
                    0.4762144088745117,
                    0.3750571012496948
                ],
                [
                    0.15684662759304047,
                    0.014877400361001492,
                    0.09128070622682571
                ],
                [
                    -0.003155101090669632,
                    -0.7279910445213318,
                    -0.25102123618125916
                ]
            ],
            [
                [
                    -0.2367183417081833,
                    -0.18152010440826416,
                    -0.053581733256578445
                ],
                [
                    -0.12147670239210129,
                    0.1440572291612625,
                    0.07788148522377014
                ],
                [
                    0.01599852740764618,
                    0.21866267919540405,
                    0.1080256849527359
                ]
            ],
            [
                [
                    -0.13791057467460632,
                    0.334820032119751,
                    0.021425016224384308
                ],
                [
                    -0.2298363596200943,
                    0.38283342123031616,
                    0.052691392600536346
                ],
                [
                    -0.4261064827442169,
                    0.19270993769168854,
                    0.046875450760126114
                ]
            ],
            [
                [
                    0.23941290378570557,
                    0.17684237658977509,
                    0.09954577684402466
                ],
                [
                    0.25790372490882874,
                    0.3055277168750763,
                    0.0326833501458168
                ],
                [
                    0.17189477384090424,
                    0.12322143465280533,
                    -0.07872606813907623
                ]
            ],
            [
                [
                    -0.5741626024246216,
                    0.8387733697891235,
                    0.24554100632667542
                ],
                [
                    -0.41874977946281433,
                    1.0534027814865112,
                    0.30177780985832214
                ],
                [
                    -0.4234556555747986,
                    0.9206043481826782,
                    0.44221031665802
                ]
            ]
        ],
        [
            [
                [
                    -0.044658638536930084,
                    0.051348473876714706,
                    -0.0550968311727047
                ],
                [
                    -0.01931729167699814,
                    0.0539865717291832,
                    -0.015587429516017437
                ],
                [
                    0.029609309509396553,
                    -0.0061131552793085575,
                    -0.06096833571791649
                ]
            ],
            [
                [
                    -0.06171698495745659,
                    0.016781024634838104,
                    -0.03407808020710945
                ],
                [
                    -0.015110560692846775,
                    0.06853402405977249,
                    0.02330050617456436
                ],
                [
                    -0.014730469323694706,
                    0.011376679874956608,
                    -0.05005379021167755
                ]
            ],
            [
                [
                    -0.12431202828884125,
                    -0.0764564797282219,
                    -0.06443251669406891
                ],
                [
                    -0.05548953264951706,
                    -0.0018921471200883389,
                    -0.03184284642338753
                ],
                [
                    -0.1546458601951599,
                    0.04086028039455414,
                    -0.03168410062789917
                ]
            ],
            [
                [
                    -0.06105252727866173,
                    -0.09421450644731522,
                    -0.05821314454078674
                ],
                [
                    -0.03358762711286545,
                    -0.10036929696798325,
                    -0.060069553554058075
                ],
                [
                    0.05917201191186905,
                    -0.07691583782434464,
                    -0.06356660276651382
                ]
            ],
            [
                [
                    -0.033513449132442474,
                    0.03248809278011322,
                    -0.05321744084358215
                ],
                [
                    -0.0062238299287855625,
                    0.03007025085389614,
                    -0.012584777548909187
                ],
                [
                    0.002978747710585594,
                    -0.06208059936761856,
                    0.02869715541601181
                ]
            ],
            [
                [
                    0.0006851958460174501,
                    -0.03297829627990723,
                    -0.064377561211586
                ],
                [
                    -0.0074098119512200356,
                    0.02673691138625145,
                    -0.012260058894753456
                ],
                [
                    -0.010537225753068924,
                    0.0178390983492136,
                    -0.01676413044333458
                ]
            ],
            [
                [
                    -0.01933075115084648,
                    0.06798186153173447,
                    -0.012003128416836262
                ],
                [
                    -0.08691597729921341,
                    -0.010288957506418228,
                    0.022897297516465187
                ],
                [
                    -0.030301669612526894,
                    -0.057110439985990524,
                    0.04656883701682091
                ]
            ],
            [
                [
                    0.00041073840111494064,
                    -0.035646773874759674,
                    -0.004193855449557304
                ],
                [
                    -0.04100948944687843,
                    -0.009818348102271557,
                    -0.003155300859361887
                ],
                [
                    -0.07858055084943771,
                    -0.015720978379249573,
                    0.00818654801696539
                ]
            ],
            [
                [
                    -0.039875585585832596,
                    -0.04660502076148987,
                    0.012180330231785774
                ],
                [
                    -0.10075459629297256,
                    -0.0005069100297987461,
                    0.032502274960279465
                ],
                [
                    -0.032862987369298935,
                    -0.07996147125959396,
                    -0.0009351788903586566
                ]
            ],
            [
                [
                    -0.0480523556470871,
                    -0.0806850716471672,
                    -0.0697377473115921
                ],
                [
                    0.01739555038511753,
                    0.042012449353933334,
                    0.021990129724144936
