weights['2048'] = {
    "bn1.num_batches_tracked": 8600,
    "bn1.running_mean": [
        6.46560525894165,
        5.605193857299268e-45,
        5.605193857299268e-45,
        5.605193857299268e-45,
        5.605193857299268e-45,
        5.605193857299268e-45,
        5.605193857299268e-45,
        3.560149669647217,
        16.647058486938477,
        10.168038368225098,
        1.7081656455993652,
        9.675551414489746,
        3.4044880867004395,
        2.946433652617486e-10,
        5.094880104064941,
        6.595803260803223,
        6.180004119873047,
        5.605193857299268e-45,
        7.646295547485352
    ],
    "bn1.running_var": [
        566.0061645507812,
        5.605193857299268e-45,
        5.605193857299268e-45,
        5.605193857299268e-45,
        5.605193857299268e-45,
        5.605193857299268e-45,
        5.605193857299268e-45,
        307.68218994140625,
        1126.6978759765625,
        731.1599731445312,
        238.9891815185547,
        305.7880554199219,
        258.74798583984375,
        2.6049054580035147e-10,
        591.6177978515625,
        302.2862548828125,
        431.4609069824219,
        5.605193857299268e-45,
        509.91278076171875
    ],
    "bn2.num_batches_tracked": 8600,
    "bn2.running_mean": [
        4.791810035705566,
        5.590728282928467,
        3.264146089553833,
        4.626195430755615,
        4.021991729736328,
        5.173058032989502,
        3.5742416381835938,
        2.8722167015075684,
        3.2281417846679688,
        3.5131592750549316,
        1.7153644561767578,
        4.709896087646484,
        4.109176158905029,
        1.9667083024978638,
        4.590361595153809,
        3.367847442626953,
        5.0723652839660645,
        4.372960567474365,
        4.7329301834106445
    ],
    "bn2.running_var": [
        7.792900562286377,
        56.327327728271484,
        6.952920436859131,
        18.169811248779297,
        6.856667518615723,
        8.1398286819458,
        10.5000581741333,
        13.603132247924805,
        9.429594993591309,
        23.739013671875,
        8.855803489685059,
        52.650856018066406,
        12.420543670654297,
        12.991090774536133,
        54.098663330078125,
        25.07494354248047,
        67.17017364501953,
        11.2875394821167,
        149.7503204345703
    ],
    "bn3.num_batches_tracked": 8600,
    "bn3.running_mean": [
        1.7007436752319336,
        3.7443766593933105,
        1.5877100229263306,
        1.7731349468231201,
        1.5489577054977417,
        3.792142391204834,
        1.0104048252105713,
        1.4170628786087036,
        3.6781909465789795,
        1.441104769706726,
        1.7926479578018188,
        0.8215169310569763,
        1.4693375825881958,
        2.2335526943206787,
        3.2338993549346924,
        1.8489367961883545,
        0.9783848524093628,
        1.601444959640503,
        1.0544086694717407
    ],
    "bn3.running_var": [
        27.996395111083984,
        10.142162322998047,
        9.70900821685791,
        9.160310745239258,
        15.7500581741333,
        12.784701347351074,
        9.932135581970215,
        13.953215599060059,
        8.189413070678711,
        13.355013847351074,
        16.868375778198242,
        10.6449613571167,
        7.438628196716309,
        12.849806785583496,
        15.797361373901367,
        16.94612693786621,
        13.855803489685059,
        18.244062423706055,
        6.674172401428223
    ],
    "bn4.num_batches_tracked": 8600,
    "bn4.running_mean": [
        7.697301387786865,
        6.766738414764404,
        5.449672222137451,
        6.515315055847168,
        6.1628594398498535,
        7.953925609588623,
        5.152187347412109,
        5.416440486907959,
        5.426478385925293,
        6.041639804840088,
        3.9626588821411133,
        6.839629650115967,
        6.378475189208984,
        4.045833110809326,
        5.702291488647461,
        5.150186538696289,
        6.7766828536987305,
        6.47450065612793,
        5.868283271789551
    ],
    "bn4.running_var": [
        43.524810791015625,
        62.10215377807617,
        10.203431129455566,
        26.117822647094727,
        23.11125373840332,
        28.86655044555664,
        21.491731643676758,
        22.289772033691406,
        30.076107025146484,
        27.364408493041992,
        12.883871078491211,
        48.44923400878906,
        19.23177146911621,
        33.396881103515625,
        56.718135833740234,
        35.718563079833984,
        65.20728302001953,
        16.994997024536133,
        143.79367065429688
    ],
    "bn5.num_batches_tracked": 8600,
    "bn5.running_mean": [
        1.0507160425186157,
        1.3109842538833618,
        0.6710522770881653,
        0.8561275601387024,
        0.6468034982681274,
        0.7223740220069885,
        1.4392907619476318,
        0.5462087392807007,
        2.062260389328003,
        2.075533151626587,
        1.388173222541809,
        0.9590224027633667,
        0.7952826023101807,
        1.0643064975738525,
        0.4328767955303192,
        0.6875601410865784,
        1.0479774475097656,
        1.5128052234649658,
        1.4306508302688599
    ],
    "bn5.running_var": [
        3.5533926486968994,
        2.7828094959259033,
        3.1370723247528076,
        4.913843631744385,
        2.4837965965270996,
        3.912024974822998,
        2.007672071456909,
        2.594515562057495,
        11.894400596618652,
        5.717654228210449,
        8.813203811645508,
        6.211986064910889,
        3.0163211822509766,
        7.566512107849121,
        2.269911527633667,
        3.200796604156494,
        7.083426475524902,
        5.355249881744385,
        11.538379669189453
    ],
    "bn6.num_batches_tracked": 8600,
    "bn6.running_mean": [
        10.71018123626709,
        8.730915069580078,
        9.081682205200195,
        9.392471313476562,
        10.480210304260254,
        12.078031539916992,
        7.682076930999756,
        7.903505325317383,
        8.219616889953613,
        10.693029403686523,
        6.885965347290039,
        8.98604679107666,
        8.696043014526367,
        6.40553617477417,
        7.759512424468994,
        8.070221900939941,
        9.000651359558105,
        9.859500885009766,
        7.568779468536377
    ],
    "bn6.running_var": [
        157.87623596191406,
        100.21260070800781,
        86.85531616210938,
        87.97032165527344,
        49.55705261230469,
        105.27413177490234,
        64.09056854248047,
        95.18643188476562,
        111.8245849609375,
        181.52182006835938,
        64.01529693603516,
        95.27361297607422,
        92.61261749267578,
        125.60596466064453,
        95.4096450805664,
        118.47881317138672,
        127.29740905761719,
        37.5343132019043,
        138.10443115234375
    ],
    "conv0.weight": [
        [
            [
                [
                    1.4077427387237549,
                    1.5228067636489868,
                    -0.7386032342910767
                ],
                [
                    -2.277688503265381,
                    -1.6844171285629272,
                    -1.1006580591201782
                ],
                [
                    2.2688369750976562,
                    1.707685947418213,
                    0.7110997438430786
                ]
            ]
        ],
        [
            [
                [
                    -0.33449313044548035,
                    0.6922097206115723,
                    0.23062920570373535
                ],
                [
                    -2.2005081176757812,
                    -1.9305678606033325,
                    -0.8713520169258118
                ],
                [
                    1.154516339302063,
                    1.7760025262832642,
                    1.4513847827911377
                ]
            ]
        ],
        [
            [
                [
                    0.32430291175842285,
                    1.1100744009017944,
                    -0.3283213973045349
                ],
                [
                    0.5617830157279968,
                    0.6538769602775574,
                    0.4055921137332916
                ],
                [
                    -0.3394825756549835,
                    -0.368589848279953,
                    0.8674286007881165
                ]
            ]
        ],
        [
            [
                [
                    -3.025482654571533,
                    1.5670979022979736,
                    0.19259309768676758
                ],
                [
                    -0.12071247398853302,
                    0.9408895969390869,
                    -1.4973448514938354
                ],
                [
                    2.6690704822540283,
                    0.1113595962524414,
                    -2.056865692138672
                ]
            ]
        ],
        [
            [
                [
                    -1.7735105752944946,
                    3.9594736099243164,
                    0.19014237821102142
                ],
                [
                    1.0297073125839233,
                    0.1924109011888504,
                    -0.7646546363830566
                ],
                [
                    1.3171178102493286,
                    -3.541144609451294,
                    -0.6926612257957458
                ]
            ]
        ],
        [
            [
                [
                    -2.8276126384735107,
                    0.12005086243152618,
                    1.5966647863388062
                ],
                [
                    0.3352648615837097,
                    1.0645527839660645,
                    0.6995134949684143
                ],
                [
                    2.8865761756896973,
                    0.847461998462677,
                    -0.8370115160942078
                ]
            ]
        ],
        [
            [
                [
                    -0.8669657111167908,
                    0.01581617072224617,
                    -1.0621531009674072
                ],
                [
                    0.1307535320520401,
                    -0.05350785702466965,
                    -1.579658031463623
                ],
                [
                    1.5782283544540405,
                    0.6174319386482239,
                    -1.2382967472076416
                ]
            ]
        ],
        [
            [
                [
                    -1.038734793663025,
                    1.436397671699524,
                    -2.0079433917999268
                ],
                [
                    0.4266323447227478,
                    0.11900755017995834,
                    -0.8461765050888062
                ],
                [
                    2.2135887145996094,
                    -0.8927202224731445,
                    0.8314982652664185
                ]
            ]
        ],
        [
            [
                [
                    1.0917226076126099,
                    1.4054343700408936,
                    0.03894055262207985
                ],
                [
                    0.4497618079185486,
                    0.0075904387049376965,
                    -0.8478378057479858
                ],
                [
                    -0.8827665448188782,
                    -1.3658168315887451,
                    -1.6589347124099731
                ]
            ]
        ],
        [
            [
                [
                    2.3857455253601074,
                    -1.160239338874817,
                    -0.6433955430984497
                ],
                [
                    1.5929951667785645,
                    -0.01184418797492981,
                    -0.8512961864471436
                ],
                [
                    -0.18317565321922302,
                    1.7624669075012207,
                    -1.6166527271270752
                ]
            ]
        ],
        [
            [
                [
                    1.0306321382522583,
                    1.1897186040878296,
                    0.8909500241279602
                ],
                [
                    -0.672389805316925,
                    -0.8401632308959961,
                    -0.5534229874610901
                ],
                [
                    0.10997593402862549,
                    0.07140161097049713,
                    -0.8885600566864014
                ]
            ]
        ],
        [
            [
                [
                    -0.4373072683811188,
                    1.08842134475708,
                    1.9952088594436646
                ],
                [
                    0.5556154251098633,
                    -0.6432142853736877,
                    0.5323704481124878
                ],
                [
                    1.3984637260437012,
                    -1.5699613094329834,
                    -1.501229166984558
                ]
            ]
        ],
        [
            [
                [
                    -0.8267530798912048,
                    2.5903573036193848,
                    -1.6035622358322144
                ],
                [
                    0.5557655692100525,
                    -0.047344520688056946,
                    -0.2183324098587036
                ],
                [
                    1.583695411682129,
                    -2.2790629863739014,
                    0.10880360007286072
                ]
            ]
        ],
        [
            [
                [
                    -0.09506767988204956,
                    1.3562276363372803,
                    -1.1563736200332642
                ],
                [
                    0.34642478823661804,
                    -0.13068844377994537,
                    0.23338593542575836
                ],
                [
                    0.8729080557823181,
                    -0.9221362471580505,
                    0.8088806867599487
                ]
            ]
        ],
        [
            [
                [
                    0.3269726634025574,
                    1.7152900695800781,
                    0.6085208058357239
                ],
                [
                    -0.22777928411960602,
                    0.44391441345214844,
                    0.9906457662582397
                ],
                [
                    -1.2781972885131836,
                    -1.5165826082229614,
                    1.1890751123428345
                ]
            ]
        ],
        [
            [
                [
                    -3.683485507965088,
                    -3.8873283863067627,
                    -3.3499937057495117
                ],
                [
                    0.7312822341918945,
                    1.3993115425109863,
                    1.3879821300506592
                ],
                [
                    3.160336494445801,
                    2.524932622909546,
                    1.7455360889434814
                ]
            ]
        ],
        [
            [
                [
                    0.2539215087890625,
                    1.3782511949539185,
                    0.8009913563728333
                ],
                [
                    -0.3770826756954193,
                    -0.6224104762077332,
                    -0.8006830811500549
                ],
                [
                    -0.7563448548316956,
                    -1.6315619945526123,
                    -2.0787222385406494
                ]
            ]
        ],
        [
            [
                [
                    1.7025834321975708,
                    -2.4571785926818848,
                    -1.075815200805664
                ],
                [
                    0.6753802299499512,
                    0.4465666115283966,
                    -1.327510118484497
                ],
                [
                    -1.4146608114242554,
                    3.386779308319092,
                    -1.0037200450897217
                ]
            ]
        ],
        [
            [
                [
                    -0.2184993326663971,
                    0.09299623221158981,
                    0.15534862875938416
                ],
                [
                    -0.2917441129684448,
                    -0.07268232107162476,
                    0.47405388951301575
                ],
                [
                    -0.9369342923164368,
                    -0.7615131139755249,
                    0.41180533170700073
                ]
            ]
        ]
    ],
    "conv1.weight": [
        [
            [
                [
                    -0.3832792043685913,
                    0.3531859219074249,
                    -0.08991671353578568
                ],
                [
                    -0.7130506634712219,
                    0.42812255024909973,
                    -0.1486092209815979
                ],
                [
                    -0.5417340993881226,
                    0.23583658039569855,
                    -0.33567607402801514
                ]
            ],
            [
                [
                    -0.7095769047737122,
                    -0.2690789997577667,
                    0.1527041643857956
                ],
                [
                    0.19848792254924774,
                    -0.135890394449234,
                    0.3947362005710602
                ],
                [
                    -0.10596058517694473,
                    -0.15409982204437256,
                    0.2637239992618561
                ]
            ],
            [
                [
                    0.01849069632589817,
                    0.19649355113506317,
                    0.040756579488515854
                ],
                [
                    -0.3118339776992798,
                    0.42266684770584106,
                    -0.07158958166837692
                ],
                [
                    -0.6250609755516052,
                    0.35887017846107483,
                    -0.04723195359110832
                ]
            ],
            [
                [
                    -0.8079661726951599,
                    0.2666715085506439,
                    -0.6539822220802307
                ],
                [
                    0.524448037147522,
                    0.33482950925827026,
                    -0.26194828748703003
                ],
                [
                    1.0893151760101318,
                    0.3957977294921875,
                    0.34377163648605347
                ]
            ],
            [
                [
                    0.519314169883728,
                    0.01767563633620739,
                    -0.33955371379852295
                ],
                [
                    0.26447203755378723,
                    0.028831847012043,
                    -0.20986154675483704
                ],
                [
                    -0.11485475301742554,
                    0.1756218671798706,
                    0.10669364035129547
                ]
            ],
            [
                [
                    0.06566411256790161,
                    0.3601706624031067,
                    -0.32611456513404846
                ],
                [
                    0.044364869594573975,
                    0.5088097453117371,
                    -0.05811112001538277
                ],
                [
                    0.16120517253875732,
                    0.40004128217697144,
                    0.014148645102977753
                ]
            ],
            [
                [
                    -0.30487897992134094,
                    0.18988053500652313,
                    -0.1589086651802063
                ],
                [
                    -0.25682154297828674,
                    0.26958802342414856,
                    -0.1641840785741806
                ],
                [
                    -0.09056368470191956,
                    0.14629074931144714,
                    0.11100655049085617
                ]
            ],
            [
                [
                    -0.03743850067257881,
                    -0.23327648639678955,
                    -0.3853946030139923
                ],
                [
                    -0.20577372610569,
                    0.02730952389538288,
                    -0.3147884011268616
                ],
                [
                    0.05996235832571983,
                    0.11850899457931519,
                    -0.1020609438419342
                ]
            ],
            [
                [
                    0.08302657306194305,
                    0.15600919723510742,
                    -0.1082572191953659
                ],
                [
                    -0.07772912085056305,
                    0.00010516324255149812,
                    -0.14607596397399902
                ],
                [
                    -0.24565766751766205,
                    0.07466201484203339,
                    0.12647493183612823
                ]
            ],
            [
                [
                    -0.7789455056190491,
                    0.5687565803527832,
                    0.0937545970082283
                ],
                [
                    -0.5369635224342346,
                    0.39425456523895264,
                    -0.10027752816677094
                ],
                [
                    0.17480440437793732,
                    -0.13698028028011322,
                    -0.3022558391094208
                ]
            ],
            [
                [
                    -0.19413241744041443,
                    -0.00021932869276497513,
                    -0.07444187253713608
                ],
                [
                    -0.25106048583984375,
                    -0.10891859978437424,
                    -0.1776626855134964
                ],
                [
                    -0.3103964328765869,
                    0.01111094281077385,
                    -0.10971489548683167
                ]
            ],
            [
                [
                    -0.1647152453660965,
                    -0.11569546908140182,
                    0.08401285856962204
                ],
                [
                    1.3722870349884033,
                    -0.5676057934761047,
                    0.05051211640238762
                ],
                [
                    0.9307888746261597,
                    -0.5961059331893921,
                    0.14229877293109894
                ]
            ],
            [
                [
                    0.3132118284702301,
                    -0.24048885703086853,
                    -0.37264230847358704
                ],
                [
                    0.16870947182178497,
                    -0.050922226160764694,
                    -0.23616912961006165
                ],
                [
                    0.2142435908317566,
                    -0.04015451669692993,
                    0.10579630732536316
                ]
            ],
            [
                [
                    0.19996924698352814,
                    -0.1017969474196434,
                    -0.28700000047683716
                ],
                [
                    0.21931380033493042,
                    -0.04565238952636719,
                    -0.20010651648044586
                ],
                [
                    0.10038799047470093,
                    -0.1537187397480011,
                    -0.009346598759293556
                ]
            ],
            [
                [
                    0.17013652622699738,
                    -0.4174942076206207,
                    0.15005993843078613
                ],
                [
                    0.08149414509534836,
                    -0.11495845764875412,
                    0.27689269185066223
                ],
                [
                    -0.9409908652305603,
                    0.30773216485977173,
                    0.1841723620891571
                ]
            ],
            [
                [
                    -0.6649072766304016,
                    -0.2622622549533844,
                    0.03888093680143356
                ],
                [
                    -0.002936952980235219,
                    -0.19578009843826294,
                    -0.23697373270988464
                ],
                [
                    0.42043912410736084,
                    -0.4668944776058197,
                    -0.297031044960022
                ]
            ],
            [
                [
                    0.2986091375350952,
                    0.07713702321052551,
                    0.15630178153514862
                ],
                [
                    0.9500648975372314,
                    -0.37926802039146423,
                    -0.08347265422344208
                ],
                [
                    0.02758682146668434,
                    -0.47817081212997437,
                    -0.05385622754693031
                ]
            ],
            [
                [
                    -0.6905021071434021,
                    0.5982340574264526,
                    0.3126925826072693
                ],
                [
                    -0.929493248462677,
                    0.44445616006851196,
                    0.04044773802161217
                ],
                [
                    -0.7719143629074097,
                    -0.10865815728902817,
                    -0.02295093424618244
                ]
            ],
            [
                [
                    -0.22797244787216187,
                    -0.46450597047805786,
                    0.3430640697479248
                ],
                [
                    0.7135064601898193,
                    -0.4198409914970398,
                    0.5497719049453735
                ],
                [
                    -0.12521357834339142,
                    -0.2469596117734909,
                    0.4093232750892639
                ]
            ]
        ],
        [
            [
                [
                    0.010349266231060028,
                    0.0361102893948555,
                    -0.04251161962747574
                ],
                [
                    0.03367171809077263,
                    0.02312527410686016,
                    0.026916280388832092
                ],
                [
                    -0.07601835578680038,
                    -0.0021182524506002665,
                    -0.04037637263536453
                ]
            ],
            [
                [
                    0.001708465744741261,
                    -0.018613701686263084,
                    0.022120827808976173
                ],
                [
                    -0.021884223446249962,
                    0.012794853188097477,
                    -0.036893151700496674
                ],
                [
                    0.0019105751998722553,
                    -0.0729752629995346,
                    -0.005065474659204483
                ]
            ],
            [
                [
                    -0.06933411955833435,
                    -0.06709904968738556,
                    -0.07522081583738327
                ],
                [
                    -0.0018541368190199137,
                    0.030507756397128105,
                    0.032332081347703934
                ],
                [
                    -0.10588216036558151,
                    -0.0866682305932045,
                    -0.08361939340829849
                ]
            ],
            [
                [
                    -0.07844645529985428,
                    -0.0598297044634819,
                    0.008213847875595093
                ],
                [
                    -0.1236080527305603,
                    -0.05279763415455818,
                    -0.08367262780666351
                ],
                [
                    -0.1367989331483841,
                    0.023503344506025314,
                    0.03252526745200157
                ]
            ],
            [
                [
                    -0.08081307262182236,
                    0.0378711074590683,
                    0.059625644236803055
                ],
                [
                    -0.074370838701725,
                    0.00786294974386692,
                    0.0407119020819664
                ],
                [
                    -0.05413023754954338,
                    -0.01719757914543152,
                    -0.01920296996831894
                ]
            ],
            [
                [
                    -0.10104624927043915,
                    -0.012472636997699738,
                    0.033787067979574203
                ],
                [
                    -0.09539229422807693,
                    -0.030443964526057243,
                    -0.07027088105678558
                ],
                [
                    -0.21828065812587738,
                    -0.12872596085071564,
                    -0.02073783427476883
                ]
            ],
            [
                [
                    0.02426387555897236,
                    -0.030227111652493477,
                    -0.057381801307201385
                ],
                [
                    0.040265440940856934,
                    0.023798076435923576,
                    -0.010528710670769215
                ],
                [
                    -0.04971608519554138,
                    0.02927801012992859,
                    0.0032990335021167994
                ]
            ],
            [
                [
                    -0.0902169793844223,
                    0.03877836838364601,
                    0.03742237389087677
                ],
                [
                    -0.050978921353816986,
                    0.02065109834074974,
                    -0.04743610695004463
                ],
                [
                    -0.041638173162937164,
                    0.030000055208802223,
                    -0.013427872210741043
                ]
            ],
            [
                [
                    -0.1094307154417038,
                    -0.054675862193107605,
                    -0.036934301257133484
                ],
                [
                    -0.06433224678039551,
                    -0.012824089266359806,
                    0.0472981296479702
                ],
                [
                    -0.046707168221473694,
                    -0.08512162417173386,
                    -0.02366628311574459
                ]
            ],
            [
                [
                    -0.009680225513875484,
                    0.0049353428184986115,
                    -0.10092555731534958
                ],
                [
                    -0.03703432157635689,
                    -0.0695616602897644,
                    -0.0479329377412796
                ],
                [
                    -0.005335901398211718,
                    -0.08317011594772339,
                    -0.011047659441828728
                ]
            ],
            [
                [
                    -0.01445169746875763,
                    -0.017756210640072823,
                    -0.05336632579565048
                ],
                [
                    -0.1013081893324852,
                    -0.00203258590772748,
                    -0.06097189337015152
                ],
                [
                    -0.057717446237802505,
                    -0.09655610471963882,
                    -0.08355428278446198
                ]
            ],
            [
                [
                    -0.06862582266330719,
                    -0.03802605718374252,
                    0.005723109003156424
                ],
                [
                    -0.09886964410543442,
                    0.04278526082634926,
                    -0.04125741496682167
                ],
                [
                    -0.1805780678987503,
                    -0.02642856352031231,
                    -0.07891190052032471
                ]
            ],
            [
                [
                    -0.0470573864877224,
                    0.018961137160658836,
                    0.051584526896476746
                ],
                [
                    -0.06660163402557373,
                    -0.06089845299720764,
                    0.04744546487927437
                ],
                [
                    -0.14894326031208038,
                    0.005274554714560509,
                    -0.0664476528763771
                ]
            ],
            [
                [
                    -0.07832660526037216,
                    -0.08955436199903488,
                    -0.03697560355067253
                ],
                [
                    -0.030582714825868607,
                    -0.06989417225122452,
                    0.011328448541462421
                ],
                [
                    -0.01068894937634468,
                    -0.02460242062807083,
                    -0.06345897167921066
                ]
            ],
            [
                [
                    -0.16781340539455414,
                    -0.035389795899391174,
                    -0.004022266715764999
                ],
                [
                    -0.06376971304416656,
                    0.020079972222447395,
                    -0.028781764209270477
                ],
                [
                    -0.15478284657001495,
                    -0.0979858785867691,
                    -0.08167647570371628
                ]
            ],
            [
                [
                    0.01788710616528988,
                    -0.052562516182661057,
                    0.01004184689372778
                ],
                [
                    -0.06706303358078003,
                    -0.04592040553689003,
                    -0.07161349058151245
                ],
                [
                    -0.019516076892614365,
                    -0.01801525242626667,
                    0.04355112835764885
                ]
            ],
            [
                [
                    -0.09339012950658798,
                    0.01648890972137451,
                    -0.045926764607429504
                ],
                [
                    -0.179597407579422,
                    -0.043147552758455276,
                    -0.011502068489789963
                ],
                [
                    -0.20737946033477783,
                    -0.09091013669967651,
                    0.029132317751646042
                ]
            ],
            [
                [
                    -0.015074190683662891,
                    -0.07928841561079025,
                    -0.057820502668619156
                ],
                [
                    0.058535464107990265,
                    0.042581334710121155,
                    -0.07688549160957336
                ],
                [
                    0.04837780445814133,
                    0.006638641003519297,
                    0.017285572364926338
                ]
            ],
            [
                [
                    -0.002707884181290865,
                    -0.04306591674685478,
                    0.0025844313204288483
                ],
                [
                    -0.03375522047281265,
                    -0.03229313716292381,
                    0.0030784595292061567
                ],
                [
                    -0.08442746102809906,
                    0.024035431444644928,
                    -0.03914160653948784
                ]
            ]
        ],
        [
            [
                [
                    -0.048010487109422684,
                    0.00723499758169055,
                    0.019634611904621124
                ],
                [
                    -0.04287704825401306,
                    -0.018244870007038116,
                    0.03019537776708603
                ],
                [
                    -0.012372585013508797,
                    0.014877681620419025,
                    -0.019603094086050987
                ]
            ],
            [
                [
                    0.006154319271445274,
                    -0.05791206285357475,
                    -0.047673750668764114
                ],
                [
                    -0.07342400401830673,
                    -0.4868564009666443,
                    -0.028070222586393356
                ],
                [
                    -0.004490426741540432,
                    -0.0871628001332283,
                    0.059737563133239746
                ]
            ],
            [
                [
                    -0.03135478124022484,
                    -0.08203928172588348,
                    -0.05903198570013046
                ],
                [
                    -0.10085412114858627,
                    -0.031702496111392975,
                    -0.026660792529582977
                ],
                [
                    -0.08769533038139343,
                    -0.04000074416399002,
                    0.010623293928802013
                ]
            ],
            [
                [
                    -0.06618782132863998,
                    -0.006930973380804062,
                    -0.04466736316680908
                ],
                [
                    -0.07395633310079575,
                    -0.09539052844047546,
                    0.02683541737496853
                ],
                [
                    -0.0269868653267622,
                    -0.03587857261300087,
                    -0.05207224190235138
                ]
            ],
            [
                [
                    0.03984493389725685,
                    -0.08605741709470749,
                    -0.08004101365804672
                ],
                [
                    0.06309729069471359,
                    -0.11904970556497574,
                    -0.013158696703612804
                ],
                [
                    0.02416311576962471,
                    -0.029892489314079285,
                    -0.028238117694854736
                ]
            ],
            [
                [
                    -0.06120231747627258,
                    -0.03275550901889801,
                    -0.07415515184402466
                ],
                [
                    -0.09744365513324738,
                    -0.15261197090148926,
                    0.025496695190668106
                ],
                [
                    -0.0947415754199028,
                    0.020823203027248383,
                    -0.018589410930871964
                ]
            ],
            [
                [
                    -0.01992771588265896,
                    0.03480322286486626,
                    0.023465124890208244
                ],
                [
                    0.06319393217563629,
                    -0.11880268156528473,
                    -0.03358221426606178
                ],
                [
                    -0.03114248253405094,
                    -0.0357309989631176,
                    0.04771219193935394
                ]
            ],
            [
                [
                    -0.066318579018116,
                    -0.09581103175878525,
                    0.018418438732624054
                ],
                [
                    0.029481032863259315,
                    -0.07605350762605667,
                    -0.06771178543567657
                ],
                [
                    -0.08902017772197723,
                    -0.020242100581526756,
                    -0.010911195538938046
                ]
            ],
            [
                [
                    -0.08629143983125687,
                    -0.02819741889834404,
                    0.015183587558567524
                ],
                [
                    0.01151362806558609,
                    -0.013002853840589523,
                    -0.029305385425686836
                ],
                [
                    -0.0894579291343689,
                    -0.09705225378274918,
                    0.053906381130218506
                ]
            ],
            [
                [
                    -0.009935013018548489,
                    -0.007644853554666042,
                    -0.0691617876291275
                ],
                [
                    0.04332473501563072,
                    -0.010030915029346943,
                    0.030126841738820076
                ],
                [
                    -0.06318434327840805,
                    -0.0631919652223587,
                    -0.05507794767618179
                ]
            ],
            [
                [
                    0.021471349522471428,
                    -0.05461813136935234,
                    -0.04242151975631714
                ],
                [
                    -0.01806921511888504,
                    -0.06409841030836105,
                    -0.046177107840776443
                ],
                [
                    -0.020659487694501877,
                    -0.029696976765990257,
                    -0.06084328144788742
                ]
            ],
            [
                [
                    0.025128746405243874,
                    -0.04441867023706436,
                    0.008186107501387596
                ],
                [
                    0.06271937489509583,
                    -0.19251854717731476,
                    -0.008505010046064854
                ],
                [
                    0.07751858234405518,
                    -0.005493523087352514,
                    -0.04359013959765434
                ]
            ],
            [
                [
                    -0.015186281874775887,
                    -0.014742563478648663,
                    -0.07651305943727493
                ],
                [
                    -0.11198683828115463,
                    -0.13929396867752075,
                    0.04546858370304108
                ],
                [
                    -0.050098516047000885,
                    -0.08425827324390411,
                    -0.010551875457167625
                ]
            ],
            [
                [
                    0.014292987063527107,
                    -0.005467746406793594,
                    0.00992786418646574
                ],
                [
                    -0.039989128708839417,
                    -0.052610162645578384,
                    -0.03164301812648773
                ],
                [
                    -0.030224591493606567,
                    -0.08568455278873444,
                    -0.060322683304548264
                ]
            ],
            [
                [
                    -0.06704497337341309,
                    -0.061115749180316925,
                    -0.012030910700559616
                ],
                [
                    -0.11963997781276703,
                    -0.08961229026317596,
                    -0.06218384951353073
                ],
                [
                    0.027286836877465248,
                    -0.06117958948016167,
                    0.03535591810941696
                ]
            ],
            [
                [
                    -0.12105711549520493,
                    -0.03801339119672775,
                    0.03173292800784111
                ],
                [
                    -0.05527821555733681,
                    0.01386191975325346,
                    -0.0581841878592968
                ],
                [
                    -0.08752252161502838,
                    -0.0878877341747284,
                    0.008110509254038334
                ]
            ],
            [
                [
                    -0.040964581072330475,
                    -0.06407053023576736,
                    -0.012956053018569946
                ],
                [
                    -0.17358548939228058,
                    -0.2224995195865631,
                    0.021125754341483116
                ],
                [
                    -0.06572835892438889,
                    -0.04402383789420128,
                    0.031174311414361
                ]
            ],
            [
                [
                    -0.008899424225091934,
                    0.026362456381320953,
                    -0.03512563928961754
                ],
                [
                    0.04020937159657478,
                    -0.1730896681547165,
                    -0.03115050122141838
                ],
                [
                    0.006575749721378088,
                    -0.002970384666696191,
                    0.01370149478316307
                ]
            ],
            [
                [
                    -0.017130019143223763,
                    -0.027016839012503624,
                    -0.013819733634591103
                ],
                [
                    -0.04068430885672569,
                    -0.16080796718597412,
                    0.049490708857774734
                ],
                [
                    -0.07326202094554901,
                    -0.05226096138358116,
                    -0.014875400811433792
                ]
            ]
        ],
        [
            [
                [
                    -0.027413317933678627,
                    -0.02565028890967369,
                    -0.06345763057470322
                ],
                [
                    -0.10903540998697281,
                    -0.03751456364989281,
                    -0.0388907715678215
                ],
                [
                    -0.03231395408511162,
                    -0.10611878335475922,
                    -0.011062589474022388
                ]
            ],
            [
                [
                    -0.026333164423704147,
                    -0.09971127659082413,
                    -0.1436590999364853
                ],
                [
                    -0.06344982236623764,
                    -0.15756356716156006,
                    -0.06500469148159027
                ],
                [
                    -0.11736501753330231,
                    -0.10708743333816528,
                    -0.0756920799612999
                ]
            ],
            [
                [
                    -0.23055458068847656,
                    -0.08612373471260071,
                    -0.08147478848695755
                ],
                [
                    -0.14756925404071808,
                    -0.111544668674469,
                    -0.012285847216844559
                ],
                [
                    -0.1207648441195488,
                    -0.07236298173666,
                    -0.07246654480695724
                ]
            ],
            [
                [
                    -0.10793673992156982,
                    -0.15767362713813782,
                    -0.15078607201576233
                ],
                [
                    -0.04902238771319389,
                    -0.1362699568271637,
                    -0.09716936945915222
                ],
                [
                    -0.10877574235200882,
                    -0.006616645492613316,
                    -0.11710835248231888
                ]
            ],
            [
                [
                    -0.02933746576309204,
                    -0.17298461496829987,
                    -0.1508518010377884
                ],
                [
                    -0.12124620378017426,
                    -0.1726158708333969,
                    -0.11894360929727554
                ],
                [
                    -0.03762964904308319,
                    -0.16519026458263397,
                    -0.1400589793920517
                ]
            ],
            [
                [
                    -0.24038490653038025,
                    -0.1650068461894989,
                    -0.05634792149066925
                ],
                [
                    -0.16171322762966156,
                    -0.15508295595645905,
                    -0.16801859438419342
                ],
                [
                    -0.026536371558904648,
                    -0.14258509874343872,
                    -0.15917983651161194
                ]
            ],
            [
                [
                    0.009866244159638882,
                    -0.10934431105852127,
                    -0.116738460958004
                ],
                [
                    -0.035486817359924316,
                    -0.00019500449707265943,
                    -0.08522437512874603
                ],
                [
                    -0.03268667310476303,
                    0.015368341468274593,
                    -0.05158020555973053
                ]
            ],
            [
                [
                    -0.0918189212679863,
                    -0.056156519800424576,
                    -0.06764629483222961
                ],
                [
                    -0.060066137462854385,
                    -0.031162109225988388,
                    -0.01654614321887493
                ],
                [
                    0.040563009679317474,
                    -0.028173640370368958,
                    -0.03608362004160881
                ]
            ],
            [
                [
                    -0.11465716361999512,
                    -0.01700707897543907,
                    -0.09284361451864243
                ],
                [
                    -0.08542745560407639,
                    -0.03305555135011673,
                    -0.057350706309080124
                ],
                [
                    -0.11888211965560913,
                    0.012976941652595997,
                    -0.06612906605005264
                ]
            ],
            [
                [
                    -0.18794047832489014,
                    -0.13843774795532227,
                    -0.10395016521215439
                ],
                [
                    -0.14511068165302277,
                    -0.17311939597129822,
                    -0.1646270751953125
                ],
                [
                    -0.1898627132177353,
                    -0.1149107813835144,
                    -0.16126318275928497
                ]
            ],
            [
                [
                    -0.028283188119530678,
                    -0.1250632107257843,
                    -0.01655590534210205
                ],
                [
                    -0.1113223060965538,
                    -0.01764904335141182,
                    -0.14123806357383728
                ],
                [
                    -0.1574365645647049,
                    -0.022681981325149536,
                    -0.0998924970626831
                ]
            ],
            [
                [
                    -0.11318575590848923,
                    -0.1638217270374298,
                    -0.15536947548389435
                ],
                [
                    -0.11724266409873962,
                    -0.18558530509471893,
                    -0.12880563735961914
                ],
                [
                    -0.10630399733781815,
                    -0.10302343219518661,
                    -0.17615726590156555
                ]
            ],
            [
                [
                    0.009192457422614098,
                    -0.02779814973473549,
                    -0.04529738798737526
                ],
                [
                    -0.06159962713718414,
                    -0.0963706374168396,
                    -0.08711981773376465
                ],
                [
                    -0.061988715082407,
                    -0.02254246547818184,
                    -0.008702434599399567
                ]
            ],
            [
                [
                    -0.09422168135643005,
                    -0.007220012601464987,
                    -0.10882104188203812
                ],
                [
                    -0.053719863295555115,
                    -0.00226049916818738,
                    0.0002302914799656719
                ],
                [
                    -0.11602133512496948,
                    -0.02292235754430294,
                    -0.07753225415945053
                ]
            ],
            [
                [
                    -0.17540644109249115,
                    -0.14550675451755524,
                    -0.04359801486134529
                ],
                [
                    -0.24960699677467346,
                    -0.11441481858491898,
                    -0.06115374341607094
                ],
                [
                    -0.23708096146583557,
                    0.02874411828815937,
                    -0.12713180482387543
                ]
            ],
            [
                [
                    -0.02921627089381218,
                    0.03860285505652428,
                    -0.04126132279634476
                ],
                [
                    0.03007761761546135,
                    -0.04090285301208496,
                    -0.04310452193021774
                ],
                [
                    -0.01959715224802494,
                    -0.021173126995563507,
                    -0.051470719277858734
                ]
            ],
            [
                [
                    -0.18079662322998047,
                    -0.16884122788906097,
                    -0.06419963389635086
                ],
                [
                    -0.2489045262336731,
                    -0.1796990931034088,
                    -0.15073853731155396
                ],
                [
                    -0.31138819456100464,
                    -0.019436776638031006,
                    -0.19658847153186798
                ]
            ],
            [
                [
                    -0.07751394808292389,
                    -0.09377630054950714,
                    -0.046328105032444
                ],
                [
                    -0.07516354322433472,
                    -0.031207267194986343,
                    -0.07785665988922119
                ],
                [
                    -0.05858762934803963,
                    -0.022623371332883835,
                    -0.13758467137813568
                ]
            ],
            [
                [
                    -0.06581932306289673,
                    -0.03818463534116745,
                    -0.039160389453172684
                ],
                [
                    -0.12084458023309708,
                    -0.08504600822925568,
                    -0.008275885134935379
                ],
                [
                    -0.17029204964637756,
                    -0.06407995522022247,
                    -0.0445338636636734
                ]
            ]
        ],
        [
            [
                [
                    -0.046791668981313705,
                    -0.006455086171627045,
                    -0.02134629711508751
                ],
                [
                    0.0581870898604393,
                    -0.04332444816827774,
                    0.05421449989080429
                ],
                [
                    0.06082834675908089,
                    0.009367763064801693,
                    0.0014942982234060764
                ]
            ],
            [
                [
                    0.08218955248594284,
                    -0.042644843459129333,
                    0.008069009520113468
                ],
                [
                    -0.018956070765852928,
                    0.004276570864021778,
                    0.027739718556404114
                ],
                [
                    0.01563725620508194,
                    -0.013996817171573639,
                    -0.06254145503044128
                ]
            ],
            [
                [
                    -0.09514586627483368,
                    -0.07949965447187424,
                    -0.006510795559734106
                ],
                [
                    -0.03461165353655815,
                    0.07382485270500183,
                    -0.022223716601729393
                ],
                [
                    -0.1324039101600647,
                    -0.036183152347803116,
                    -0.04778964817523956
                ]
            ],
            [
                [
                    -0.20878086984157562,
                    -0.032690275460481644,
                    0.03764103725552559
                ],
                [
                    -0.07474930584430695,
                    0.02789333462715149,
                    -0.07404310256242752
                ],
                [
                    -0.083808034658432,
                    0.04563404619693756,
                    -0.0655808076262474
                ]
            ],
            [
                [
                    0.0016126608243212104,
                    -0.02609342895448208,
                    0.04132630303502083
                ],
                [
                    -0.042813390493392944,
                    0.002296322025358677,
                    -0.03156447410583496
                ],
                [
                    -0.040350671857595444,
                    -0.015977321192622185,
                    0.030795570462942123
                ]
            ],
            [
                [
                    -0.033053550869226456,
                    0.004384275525808334,
                    -0.002476970199495554
                ],
                [
                    -0.03908946365118027,
                    0.062450844794511795,
                    0.029073484241962433
                ],
                [
                    -0.17965732514858246,
                    -0.07812593877315521,
                    0.02152431197464466
                ]
            ],
            [
                [
                    -0.1193610280752182,
                    -0.030742978677153587,
                    0.035740263760089874
                ],
                [
                    -0.03265850245952606,
                    -0.010081200860440731,
                    0.061705127358436584
                ],
                [
                    0.015649395063519478,
                    -0.09094062447547913,
                    -0.055630236864089966
                ]
            ],
            [
                [
                    -0.02606089413166046,
                    -0.04020064324140549,
                    0.015570455230772495
                ],
                [
                    -0.0952623039484024,
                    -0.10396865010261536,
                    0.053472042083740234
                ],
                [
                    0.01663854904472828,
                    -0.10763941705226898,
                    0.029189804568886757
                ]
            ],
            [
                [
                    -0.12018728256225586,
                    -0.017373181879520416,
                    -0.025588154792785645
                ],
                [
                    0.047413066029548645,
                    -0.11923027038574219,
                    -0.043747805058956146
                ],
                [
                    0.012596814893186092,
                    0.005591110792011023,
                    0.0503813698887825
                ]
            ],
            [
                [
                    -0.04380927234888077,
                    -0.11715526878833771,
                    0.021444382146000862
                ],
                [
                    -0.10478370636701584,
                    -0.05050714313983917,
                    -0.016470178961753845
                ],
                [
                    -0.07751993834972382,
                    -0.06927666813135147,
                    -0.02422189526259899
                ]
            ],
            [
                [
                    -0.03603619709610939,
                    -0.11759938299655914,
                    -0.07434287667274475
                ],
                [
                    0.02510598860681057,
                    -0.05502329394221306,
                    -0.02908429130911827
                ],
                [
                    -0.0318223237991333,
                    -0.09323917329311371,
                    -0.05264398083090782
                ]
            ],
            [
                [
                    -0.3209238052368164,
                    -0.10136354714632034,
                    -0.030944829806685448
                ],
                [
                    -0.33290544152259827,
                    0.018054872751235962,
                    -0.0088752256706357
                ],
                [
                    -0.2811547815799713,
                    0.000586500100325793,
                    0.03436186537146568
                ]
            ],
            [
                [
                    -0.19285383820533752,
                    -0.13260427117347717,
                    0.0017539971740916371
                ],
                [
                    -0.061192888766527176,
                    -0.06566348671913147,
                    0.013193860650062561
                ],
                [
                    -0.042727235704660416,
                    -0.010870817117393017,
                    0.005276158917695284
                ]
            ],
            [
                [
                    -0.03561383858323097,
                    -0.019846606999635696,
                    -0.04834255948662758
                ],
                [
                    -0.06290287524461746,
                    0.002685447223484516,
                    0.0645575001835823
                ],
                [
                    -0.1128765121102333,
                    -0.0003814362862613052,
                    -0.02108072303235531
                ]
            ],
            [
                [
                    -0.19697922468185425,
                    -0.1019800454378128,
                    -0.04507046192884445
                ],
                [
                    -0.11709264665842056,
                    -0.05966208502650261,
                    -0.06091263145208359
                ],
                [
                    -0.13754037022590637,
                    -0.020680423825979233,
                    0.029645737260580063
                ]
            ],
            [
                [
                    -0.0254096370190382,
                    0.0009410415077582002,
                    0.02147882804274559
                ],
                [
                    -0.050863053649663925,
                    0.03706921264529228,
                    0.00849958136677742
                ],
                [
                    -0.023572811856865883,
                    -0.03626168519258499,
                    -0.0006298203370533884
                ]
            ],
            [
                [
                    -0.33018580079078674,
                    -0.21890094876289368,
                    -0.09479574859142303
                ],
                [
                    -0.2532198131084442,
                    -0.08229507505893707,
                    -0.04220836982131004
                ],
                [
                    -0.1722061038017273,
                    -0.05999717488884926,
                    -0.08017079532146454
                ]
            ],
            [
                [
                    -0.07711872458457947,
                    -0.05583742633461952,
                    0.013656825758516788
                ],
                [
                    0.0017218060093000531,
                    -0.0020551541820168495,
                    -0.03903942555189133
                ],
                [
                    -0.009478462859988213,
                    -0.0005708643584512174,
                    0.053478892892599106
                ]
            ],
            [
                [
                    -0.10796046257019043,
                    -0.11940997838973999,
                    0.016780080273747444
                ],
                [
                    -0.05643629655241966,
                    -0.043514493852853775,
                    -0.03968070074915886
                ],
                [
                    -0.04885031282901764,
                    0.002586052753031254,
                    -0.06602244824171066
                ]
            ]
        ],
        [
            [
                [
                    -0.1567905694246292,
                    0.027995942160487175,
                    -0.024889245629310608
                ],
                [
                    -0.09501439332962036,
                    0.04886912927031517,
                    0.007415442727506161
                ],
                [
                    -0.13962872326374054,
                    -0.03001239523291588,
                    -0.013056783005595207
                ]
            ],
            [
                [
                    -0.16513867676258087,
                    -0.05124965310096741,
                    -0.015408880077302456
                ],
                [
                    -0.26155591011047363,
                    0.036847542971372604,
                    -0.04372318834066391
                ],
                [
                    -0.14041933417320251,
                    -0.01805201917886734,
                    -0.04784097149968147
                ]
            ],
            [
                [
                    -0.07774186879396439,
                    0.005846619606018066,
                    0.044029317796230316
                ],
                [
                    -0.09428202360868454,
                    -0.06829085946083069,
                    0.041376855224370956
                ],
                [
                    -0.13530494272708893,
                    -0.04036090150475502,
                    0.04184090346097946
                ]
            ],
            [
                [
                    -0.27572667598724365,
                    -0.06213495135307312,
                    -0.0040944721549749374
                ],
                [
                    -0.3212977349758148,
                    0.015192115679383278,
                    0.046966467052698135
                ],
                [
                    -0.3786909878253937,
                    -0.057634804397821426,
                    0.035717085003852844
                ]
            ],
            [
                [
                    0.010362821631133556,
                    0.05889647826552391,
                    -0.030522100627422333
                ],
                [
                    -0.07012688368558884,
                    -0.008790571242570877,
                    -0.07140101492404938
                ],
                [
                    -0.0038907898124307394,
                    -0.04398254305124283,
                    0.006631172727793455
                ]
            ],
            [
                [
                    -0.024568870663642883,
                    0.0267636775970459,
                    -0.04570448771119118
                ],
                [
                    0.047236163169145584,
                    -0.07193891704082489,
                    -0.06888595223426819
                ],
                [
                    -0.04472728446125984,
                    0.045972198247909546,
                    0.002262919442728162
                ]
            ],
            [
                [
                    -0.10117186605930328,
                    -0.05055103451013565,
                    0.022805944085121155
                ],
                [
                    -0.15894848108291626,
                    0.02148796059191227,
                    0.04347443953156471
                ],
                [
                    -0.1212693601846695,
                    -0.006673773285001516,
                    -0.01683078333735466
                ]
            ],
            [
                [
                    -0.06158581003546715,
                    -0.0332677848637104,
                    0.04002230241894722
                ],
                [
                    -0.050908301025629044,
                    0.03601386398077011,
                    -0.03102162666618824
                ],
                [
                    -0.04020489752292633,
                    -0.048395782709121704,
                    -0.0696854367852211
                ]
            ],
            [
                [
                    -0.012043541297316551,
                    -0.01581750623881817,
                    -0.010554003529250622
                ],
                [
                    -0.02953512780368328,
                    0.04830595478415489,
                    0.044150933623313904
                ],
                [
                    -0.061102163046598434,
                    -0.039167147129774094,
                    -0.06212441995739937
                ]
            ],
            [
                [
                    -0.06556650251150131,
                    0.01904657669365406,
                    -0.0033485149033367634
                ],
                [
                    -0.0443938784301281,
                    -0.06933128088712692,
                    -0.030072366818785667
                ],
                [
                    0.011743905954062939,
                    -0.07967643439769745,
                    -0.07705532759428024
                ]
            ],
            [
                [
                    -0.03708801418542862,
                    -0.05416638031601906,
                    -0.06274644285440445
                ],
                [
                    -0.08392489701509476,
                    -0.01573239453136921,
                    -0.06619124114513397
                ],
                [
                    -0.1032969132065773,
                    -0.0017055197386071086,
                    -0.07318766415119171
                ]
            ],
            [
                [
                    -0.16983067989349365,
                    -0.0510500967502594,
                    -0.04655515030026436
                ],
                [
                    -0.17383533716201782,
                    -0.055958040058612823,
                    -0.061626795679330826
                ],
                [
                    -0.15587374567985535,
                    -0.0646301880478859,
                    0.048170559108257294
                ]
            ],
            [
                [
                    -0.21893787384033203,
                    -0.03697311878204346,
                    -0.009325208142399788
                ],
                [
                    -0.23765869438648224,
                    0.04528069123625755,
                    -0.07112910598516464
                ],
                [
                    -0.23104380071163177,
                    -0.029157446697354317,
                    -0.044025812298059464
                ]
            ],
            [
                [
                    -0.14675164222717285,
                    0.028734277933835983,
                    -0.0675327256321907
                ],
                [
                    -0.11637138575315475,
                    -0.05594908073544502,
                    0.027883870527148247
                ],
                [
                    -0.1801465004682541,
                    -0.02376723848283291,
                    -0.07404317706823349
                ]
            ],
            [
                [
                    -0.42038196325302124,
                    0.0004123006365261972,
                    0.05564643442630768
                ],
                [
                    -0.4763434827327728,
                    -0.03639952838420868,
                    0.05826114863157272
                ],
                [
                    -0.4112275540828705,
                    -0.025180308148264885,
                    -0.0723884105682373
                ]
            ],
            [
                [
                    -0.03250936046242714,
                    -0.04688359797000885,
                    0.04603050649166107
                ],
                [
                    0.026597721502184868,
                    -0.05745033919811249,
                    0.006530925165861845
                ],
                [
                    -0.005847299005836248,
                    -0.04287848249077797,
                    -0.04409456625580788
                ]
            ],
            [
                [
                    -0.5502270460128784,
                    0.047018006443977356,
                    -0.04561903327703476
                ],
                [
                    -0.6551289558410645,
                    -0.02917187102138996,
                    -0.008292155340313911
                ],
                [
                    -0.5534842610359192,
                    -0.0689178854227066,
                    -0.029264241456985474
                ]
            ],
            [
                [
                    -0.102056585252285,
                    -0.012173050083220005,
                    -0.030653921887278557
                ],
                [
                    -0.019265227019786835,
                    -0.06996482610702515,
                    -0.04677997902035713
                ],
                [
                    -0.12717679142951965,
                    -0.03042663261294365,
                    0.04096226766705513
                ]
            ],
            [
                [
                    -0.41059133410453796,
                    -0.05872582644224167,
                    -0.0006931287352927029
                ],
                [
                    -0.49546384811401367,
                    0.02344908006489277,
                    0.05411722883582115
                ],
                [
                    -0.512684166431427,
                    -0.10403627157211304,
                    0.03868534788489342
                ]
            ]
        ],
        [
            [
                [
                    -0.04073547571897507,
                    0.08113544434309006,
                    -0.04761623963713646
                ],
                [
                    0.010436915792524815,
                    0.13493868708610535,
                    0.03417365625500679
                ],
                [
                    -0.07876759022474289,
                    0.0232845526188612,
                    -0.05757809802889824
                ]
            ],
            [
                [
                    -0.05766201391816139,
                    -0.10704289376735687,
                    -0.1424669623374939
                ],
                [
                    -0.061079103499650955,
                    -0.2257002741098404,
                    -0.14498324692249298
                ],
                [
                    0.010982432402670383,
                    -0.4028068482875824,
                    -0.1393977701663971
                ]
            ],
            [
                [
                    -0.09735501557588577,
                    -0.12766799330711365,
                    0.019763873890042305
                ],
                [
                    -0.07322810590267181,
                    -0.13896968960762024,
                    0.055066853761672974
                ],
                [
                    -0.018970303237438202,
                    -0.1795496642589569,
                    0.0015898821875452995
                ]
            ],
            [
                [
                    -0.03755945339798927,
                    -0.034273311495780945,
                    -0.12316256761550903
                ],
                [
                    0.0009557748562656343,
                    0.011677775532007217,
                    -0.09227721393108368
                ],
                [
                    0.01884644851088524,
                    0.038218945264816284,
                    -0.06343285739421844
                ]
            ],
            [
                [
                    -0.046795591711997986,
                    -0.06501762568950653,
                    -0.12828107178211212
                ],
                [
                    -0.0038933209143579006,
                    -0.08342263847589493,
                    0.00129369564820081
                ],
                [
                    -0.08889521658420563,
                    -0.13351032137870789,
                    -0.0053342124447226524
                ]
            ],
            [
                [
                    -0.013350632041692734,
                    -0.23061363399028778,
                    -0.05484682321548462
                ],
                [
                    -0.09630560129880905,
                    -0.19198931753635406,
                    -0.024174952879548073
                ],
                [
                    0.026366373524069786,
                    -0.1462048888206482,
                    0.042889777570962906
                ]
            ],
            [
                [
                    0.03314848989248276,
                    -0.09257920831441879,
                    -0.1389615833759308
                ],
                [
                    0.0014341275673359632,
                    -0.08744797110557556,
                    -0.004670598078519106
                ],
                [
                    -0.0988273099064827,
                    -0.08990813791751862,
                    0.01184568740427494
                ]
            ],
            [
                [
                    -0.09956537187099457,
                    -0.06847718358039856,
                    -0.004649418871849775
                ],
                [
                    -0.08140099048614502,
                    -0.04417185112833977,
                    -0.014971449039876461
                ],
                [
                    -0.012183213606476784,
                    0.004260777495801449,
                    0.019414737820625305
                ]
            ],
            [
                [
                    0.011881496757268906,
                    -0.1170223131775856,
                    -0.034868188202381134
                ],
                [
                    -0.10582013428211212,
                    -0.13855555653572083,
                    -0.06560200452804565
                ],
                [
                    -0.059331219643354416,
                    -0.024990802630782127,
                    0.001682256581261754
                ]
            ],
            [
                [
                    -0.010454020462930202,
                    -0.14862097799777985,
                    -0.21198026835918427
                ],
                [
                    -0.06349432468414307,
                    -0.17520743608474731,
                    -0.08185514807701111
                ],
                [
                    -0.018012240529060364,
                    -0.19939041137695312,
                    -0.09110617637634277
                ]
            ],
            [
                [
                    0.028422899544239044,
                    -0.03188132494688034,
                    -0.10309288650751114
                ],
                [
                    0.020241977646946907,
                    0.026053262874484062,
                    -0.062178123742341995
                ],
                [
                    -0.03540637716650963,
                    -0.0774836465716362,
                    -0.09293749183416367
                ]
            ],
            [
                [
                    -0.025827646255493164,
                    -0.10044524818658829,
                    -0.05859595909714699
                ],
                [
                    -0.1087634265422821,
                    -0.04327189549803734,
                    -0.09138910472393036
                ],
                [
                    -0.021858278661966324,
                    -0.05397660657763481,
                    -0.03664835914969444
                ]
            ],
            [
                [
                    -0.01127829309552908,
                    -0.007169015239924192,
                    -0.13192866742610931
                ],
                [
                    -0.09859061986207962,
                    0.03428675979375839,
                    -0.004174431785941124
                ],
                [
                    -0.04633517190814018,
                    0.000744045595638454,
                    -0.11437585204839706
                ]
            ],
            [
                [
                    -0.008981817401945591,
                    0.045934002846479416,
                    -0.14498941600322723
                ],
                [
                    -0.0759734958410263,
                    0.05223879590630531,
                    -0.04498869925737381
                ],
                [
                    -0.029241733253002167,
                    -0.0011720798211172223,
                    -0.06249043345451355
                ]
            ],
            [
                [
                    -0.06467902660369873,
                    -0.1436711698770523,
                    -0.03117004968225956
                ],
                [
                    -0.028269007802009583,
                    -0.08981257677078247,
                    -0.0795823335647583
                ],
                [
                    -0.056659504771232605,
                    -0.10980050265789032,
                    -0.10986948013305664
                ]
            ],
            [
                [
                    0.024242987856268883,
                    -0.032987043261528015,
                    -0.08896759152412415
                ],
                [
                    -0.04621778056025505,
                    -0.003806095337495208,
                    -0.07204581797122955
                ],
                [
                    -0.004296521656215191,
                    -0.031831517815589905,
                    -0.09165573120117188
                ]
            ],
            [
                [
                    -0.028813624754548073,
                    0.06215836480259895,
                    -0.04674777761101723
                ],
                [
                    -0.07399295270442963,
                    0.08357951790094376,
                    -0.021913593634963036
                ],
                [
                    -0.10933796316385269,
                    0.038021501153707504,
                    0.0035983833950012922
                ]
            ],
            [
                [
                    -0.060924045741558075,
                    0.025182124227285385,
                    -0.02483241818845272
                ],
                [
                    0.030707377940416336,
                    -0.05878371000289917,
                    -0.006539163179695606
                ],
                [
                    -0.05884020775556564,
                    -0.09068373590707779,
                    -0.03269638121128082
                ]
            ],
            [
                [
                    0.0015644533559679985,
                    -0.09668870270252228,
                    -0.015899449586868286
                ],
                [
                    -0.058654170483350754,
                    -0.08548533171415329,
                    -0.04397307708859444
                ],
                [
                    0.021098418161273003,
                    -0.13097798824310303,
                    -0.07997491955757141
                ]
            ]
        ],
        [
            [
                [
                    -0.016548462212085724,
                    0.625027596950531,
                    0.15789689123630524
                ],
                [
                    0.1438688039779663,
                    0.24806378781795502,
                    0.05747556313872337
                ],
                [
                    0.11983665078878403,
                    0.017545189708471298,
                    0.26293709874153137
                ]
            ],
            [
                [
                    0.16466347873210907,
                    1.885290503501892,
                    -0.1590455174446106
                ],
                [
                    0.19928035140037537,
                    -0.7456238865852356,
                    0.5247494578361511
                ],
                [
                    -0.3105614483356476,
                    -1.420758605003357,
                    0.9190139174461365
                ]
            ],
            [
                [
                    -0.5768477320671082,
                    0.7722756266593933,
                    0.2103622555732727
                ],
                [
                    0.016386844217777252,
                    -0.48428529500961304,
                    0.3069382309913635
                ],
                [
                    0.1715318262577057,
                    -0.5056971311569214,
                    0.10683026909828186
                ]
            ],
            [
                [
                    -0.25568079948425293,
                    0.27363190054893494,
                    -0.07345996052026749
                ],
                [
                    -0.27509641647338867,
                    -0.030180208384990692,
                    -0.06149325147271156
                ],
                [
                    -0.6445613503456116,
                    -0.22739247977733612,
                    0.06421887129545212
                ]
            ],
            [
                [
                    -0.8244342803955078,
                    0.23832876980304718,
                    0.4821920096874237
                ],
                [
                    -0.4124288558959961,
                    0.2028067708015442,
                    0.028388457372784615
                ],
                [
                    -0.23663842678070068,
                    -0.9273977875709534,
                    -0.14167925715446472
                ]
            ],
            [
                [
                    -0.6185903549194336,
                    1.0131348371505737,
                    0.24886758625507355
                ],
                [
                    -0.3747290074825287,
                    -0.20820702612400055,
                    0.21805132925510406
                ],
                [
                    0.1512177437543869,
                    0.03007008507847786,
                    -0.3321242332458496
                ]
            ],
            [
                [
                    1.0555062294006348,
                    0.4823949933052063,
                    0.4610447883605957
                ],
                [
                    0.2847564220428467,
                    0.2616812586784363,
                    0.15006119012832642
                ],
                [
                    -0.39102187752723694,
                    -0.5368143320083618,
                    0.399636834859848
                ]
            ],
            [
                [
                    -0.0432136207818985,
                    0.526559591293335,
                    0.5967936515808105
                ],
                [
                    -0.05357100069522858,
                    0.13404253125190735,
                    0.38294684886932373
                ],
                [
                    -0.09729741513729095,
                    -0.5255649089813232,
                    0.7963634729385376
                ]
            ],
            [
                [
                    0.16706018149852753,
                    0.7190293073654175,
                    0.8018512725830078
                ],
                [
                    -0.18263989686965942,
                    0.33662593364715576,
                    0.3232553005218506
                ],
                [
                    -0.4376738369464874,
                    -0.9115981459617615,
                    0.34232375025749207
                ]
            ],
            [
                [
                    -0.2964876890182495,
                    2.3074092864990234,
                    1.1393893957138062
                ],
                [
                    -0.4670334756374359,
                    0.726121187210083,
                    0.25489509105682373
                ],
                [
                    -0.8359115123748779,
                    -0.22068236768245697,
                    0.17618265748023987
                ]
            ],
            [
                [
                    -0.3069835305213928,
                    0.13520567119121552,
                    0.26229020953178406
                ],
                [
                    -0.17222778499126434,
                    0.15259389579296112,
                    -0.015377696603536606
                ],
                [
                    -0.16225770115852356,
                    -0.30786675214767456,
                    0.027236271649599075
                ]
            ],
            [
                [
                    -0.5321521759033203,
                    0.3045239746570587,
                    -0.09694473445415497
                ],
                [
                    -0.3475930988788605,
                    0.10282400250434875,
                    -0.47864261269569397
                ],
                [
                    -0.32553040981292725,
                    -0.4825337827205658,
                    -0.31206411123275757
                ]
            ],
            [
                [
                    -0.5567787289619446,
                    0.14689743518829346,
                    0.29756200313568115
                ],
                [
                    -0.33116596937179565,
                    0.15212224423885345,
                    0.057862844318151474
                ],
                [
                    -0.4430874288082123,
                    -0.7755447626113892,
                    0.13239671289920807
                ]
            ],
            [
                [
                    -0.3416323959827423,
                    0.24265128374099731,
                    0.16638536751270294
                ],
                [
                    -0.22411447763442993,
                    0.09410251677036285,
                    -0.0025123776867985725
                ],
                [
                    -0.30527833104133606,
                    -0.2303585410118103,
                    -0.02578228898346424
                ]
            ],
            [
                [
                    -0.9142395853996277,
                    1.1310343742370605,
                    -0.2441795915365219
                ],
                [
                    -0.36240461468696594,
                    -0.7129523158073425,
                    0.24502766132354736
                ],
                [
                    -0.03907985985279083,
                    -1.5215296745300293,
                    0.6560752391815186
                ]
            ],
            [
                [
                    0.2807638645172119,
                    -0.9186609983444214,
                    -0.8346481919288635
                ],
                [
                    0.6351261138916016,
                    -1.1430732011795044,
                    -0.44228607416152954
                ],
                [
                    0.6488597989082336,
                    -0.06467568129301071,
                    -0.4447847604751587
                ]
            ],
            [
                [
                    0.5628517866134644,
                    -0.6312020421028137,
                    0.04530549421906471
                ],
                [
                    -0.41506901383399963,
                    0.6259282827377319,
                    -0.42258208990097046
                ],
                [
                    -1.0149836540222168,
                    0.021101420745253563,
                    -0.219081312417984
                ]
            ],
            [
                [
                    0.44553858041763306,
                    0.7809160947799683,
                    0.2445654571056366
                ],
                [
                    0.08481869101524353,
                    0.3393110930919647,
                    -0.25233665108680725
                ],
                [
                    -0.21846385300159454,
                    -0.18412776291370392,
                    0.2875875234603882
                ]
            ],
            [
                [
                    0.2645905315876007,
                    2.085214853286743,
                    -0.30533453822135925
                ],
                [
                    -0.1277599036693573,
                    -0.34336966276168823,
                    0.2276773303747177
                ],
                [
                    -0.5023422241210938,
                    -1.8700225353240967,
                    0.8531967997550964
                ]
            ]
        ],
        [
            [
                [
                    0.5376319885253906,
                    0.4060975909233093,
                    0.23900912702083588
                ],
                [
                    0.4242836534976959,
                    0.30913248658180237,
                    0.1379963755607605
                ],
                [
                    0.10762524604797363,
                    -0.09555433690547943,
                    0.021401213482022285
                ]
            ],
            [
                [
                    0.5570710897445679,
                    0.08352954685688019,
                    0.30788251757621765
                ],
                [
                    0.290386825799942,
                    0.48399680852890015,
                    0.30345532298088074
                ],
                [
                    -0.5803554654121399,
                    0.5353999733924866,
                    0.2511581778526306
                ]
            ],
            [
                [
                    0.029641978442668915,
                    0.3179003894329071,
                    -0.17356961965560913
                ],
                [
                    0.20980645716190338,
                    0.23223677277565002,
                    -0.21503576636314392
                ],
                [
                    -0.15193688869476318,
                    0.06467443704605103,
                    -0.36407333612442017
                ]
            ],
            [
                [
                    0.1844886839389801,
                    -0.3599231541156769,
                    -0.6204244494438171
                ],
                [
                    -0.1256372481584549,
                    -0.06649114191532135,
                    -0.6670216917991638
                ],
                [
                    -0.3630560636520386,
                    0.21467961370944977,
                    -0.5426861047744751
                ]
            ],
            [
                [
                    -0.31660720705986023,
                    -0.3038859963417053,
                    -0.04223667457699776
                ],
                [
                    -0.17483513057231903,
                    -0.5238670706748962,
                    0.008115606382489204
                ],
                [
                    -0.29044654965400696,
                    -0.43010786175727844,
                    -0.15026165544986725
                ]
            ],
            [
                [
                    0.4035499095916748,
                    -0.22580833733081818,
                    -0.23253454267978668
                ],
                [
                    0.39295175671577454,
                    -0.45000210404396057,
                    -0.1677447110414505
                ],
                [
                    0.02330329641699791,
                    -0.29130658507347107,
                    -0.39094483852386475
                ]
            ],
            [
                [
                    -0.06161743775010109,
                    -0.15271762013435364,
                    -0.24788516759872437
                ],
                [
                    -0.3753686249256134,
                    0.23919539153575897,
                    -0.03803035244345665
                ],
                [
                    -0.3735656142234802,
                    0.17106617987155914,
                    0.23536574840545654
                ]
            ],
            [
                [
                    0.18884578347206116,
                    -0.23902322351932526,
                    0.08502770960330963
                ],
                [
                    0.012859889306128025,
                    -0.09873215109109879,
                    0.10891763865947723
                ],
                [
                    -0.2955414950847626,
                    -0.05687163770198822,
                    0.10791295766830444
                ]
            ],
            [
                [
                    0.2577369511127472,
                    0.28880366683006287,
                    0.3018592596054077
                ],
                [
                    0.13197030127048492,
                    0.37416160106658936,
                    0.4382697343826294
                ],
                [
                    0.014227290637791157,
                    0.13186830282211304,
                    0.319690078496933
                ]
            ],
            [
                [
                    0.6311697363853455,
                    0.3204618990421295,
                    0.9043793082237244
                ],
                [
                    0.4901800751686096,
                    0.4444807469844818,
                    1.2671945095062256
                ],
                [
                    -0.15684083104133606,
                    0.10214841365814209,
                    1.2832186222076416
                ]
            ],
            [
                [
