weights['2048'] = {
    "bn1.num_batches_tracked": 7590,
    "bn1.running_mean": [
        0.0038772395346313715,
        5.605193857299268e-45,
        1.3640211820602417,
        2.820899724960327,
        5.605193857299268e-45,
        3.3631980419158936,
        5.605193857299268e-45,
        9.073297500610352,
        5.605193857299268e-45,
        2.257187843322754,
        5.605193857299268e-45,
        5.605193857299268e-45,
        5.490321636199951,
        5.605193857299268e-45,
        1.8863229751586914,
        0.8429403305053711,
        1.3808258771896362,
        4.093150615692139,
        5.605193857299268e-45
    ],
    "bn1.running_var": [
        0.11443888396024704,
        5.605193857299268e-45,
        51.03878402709961,
        75.87581634521484,
        5.605193857299268e-45,
        160.2433319091797,
        5.605193857299268e-45,
        438.3830871582031,
        5.605193857299268e-45,
        71.13754272460938,
        5.605193857299268e-45,
        5.605193857299268e-45,
        199.96002197265625,
        5.605193857299268e-45,
        71.4494400024414,
        18.248825073242188,
        47.360076904296875,
        155.41119384765625,
        5.605193857299268e-45
    ],
    "bn2.num_batches_tracked": 7590,
    "bn2.running_mean": [
        2.5879127979278564,
        3.216792345046997,
        1.492058277130127,
        1.91294527053833,
        3.055145740509033,
        2.240447998046875,
        1.5320767164230347,
        0.49411189556121826,
        3.693387985229492,
        3.0426697731018066,
        3.486333131790161,
        2.916508197784424,
        1.7041281461715698,
        1.605589747428894,
        1.5894062519073486,
        2.121239185333252,
        2.6311323642730713,
        2.1201255321502686,
        2.675546884536743
    ],
    "bn2.running_var": [
        1.4854514598846436,
        1.7313778400421143,
        0.8814003467559814,
        1.2952232360839844,
        3.241398572921753,
        1.5971989631652832,
        1.7786829471588135,
        1.707036018371582,
        3.9015872478485107,
        5.652387619018555,
        56.70702362060547,
        3.5982654094696045,
        0.8838687539100647,
        1.453418254852295,
        1.6455965042114258,
        4.524428367614746,
        19.847929000854492,
        2.573869466781616,
        55.69188690185547
    ],
    "bn3.num_batches_tracked": 7590,
    "bn3.running_mean": [
        0.7846152186393738,
        1.5304478406906128,
        1.3944367170333862,
        1.1548075675964355,
        0.8278710842132568,
        0.6263421773910522,
        1.2903355360031128,
        0.7418554425239563,
        1.274639368057251,
        0.8325843214988708,
        0.7539479732513428,
        0.9370251893997192,
        0.8683682680130005,
        1.1000049114227295,
        2.6425576210021973,
        0.936416506767273,
        1.0192642211914062,
        1.022638201713562,
        1.4175728559494019
    ],
    "bn3.running_var": [
        5.791803359985352,
        5.411011695861816,
        5.63322639465332,
        8.2694730758667,
        6.502791881561279,
        2.370983839035034,
        8.68726634979248,
        4.219200134277344,
        6.471811294555664,
        5.999547004699707,
        1.6673685312271118,
        3.6866965293884277,
        4.925420761108398,
        6.679778575897217,
        6.187821865081787,
        5.936313629150391,
        2.3315341472625732,
        4.397526264190674,
        8.03642749786377
    ],
    "bn4.num_batches_tracked": 7590,
    "bn4.running_mean": [
        3.8083736896514893,
        4.802058696746826,
        4.623398780822754,
        3.833977222442627,
        4.444051742553711,
        3.91446590423584,
        3.416325330734253,
        2.2399826049804688,
        5.128288745880127,
        4.530873775482178,
        4.614360809326172,
        4.97323751449585,
        2.883483409881592,
        3.5213749408721924,
        2.850264549255371,
        4.199209213256836,
        3.724217653274536,
        4.362235069274902,
        3.06290602684021
    ],
    "bn4.running_var": [
        7.254356861114502,
        5.1023335456848145,
        5.5934858322143555,
        3.9162378311157227,
        7.52550745010376,
        6.501296520233154,
        4.58904504776001,
        4.54831075668335,
        5.563549995422363,
        8.389410972595215,
        52.907188415527344,
        4.809909343719482,
        3.2914822101593018,
        4.634250640869141,
        3.6172072887420654,
        6.022157192230225,
        18.982263565063477,
        6.548741817474365,
        56.60686111450195
    ],
    "bn5.num_batches_tracked": 7590,
    "bn5.running_mean": [
        0.5586659908294678,
        0.8268666863441467,
        0.5008522868156433,
        0.8596866726875305,
        1.368120789527893,
        0.7387368083000183,
        0.9834411144256592,
        0.7999321818351746,
        1.2521727085113525,
        0.8964501023292542,
        0.6664878129959106,
        1.814354658126831,
        0.6022253632545471,
        0.8244388699531555,
        1.1266974210739136,
        0.5041401982307434,
        0.6451917886734009,
        0.7246683835983276,
        1.16946542263031
    ],
    "bn5.running_var": [
        1.6357425451278687,
        1.7551734447479248,
        1.4133204221725464,
        4.4556427001953125,
        6.025671482086182,
        2.906306266784668,
        3.093576669692993,
        1.189908504486084,
        4.505866050720215,
        1.4393573999404907,
        2.6408884525299072,
        4.266200542449951,
        1.274886965751648,
        3.293916702270508,
        2.5410752296447754,
        1.5747090578079224,
        2.795497179031372,
        2.655151605606079,
        8.561150550842285
    ],
    "bn6.num_batches_tracked": 7590,
    "bn6.running_mean": [
        6.521039009094238,
        6.142256736755371,
        6.745549201965332,
        5.180624485015869,
        5.842153549194336,
        5.333010196685791,
        5.133453845977783,
        3.7067227363586426,
        6.826883316040039,
        6.261657238006592,
        6.397738456726074,
        6.7320075035095215,
        4.070140838623047,
        5.141696929931641,
        4.635485649108887,
        6.380331516265869,
        5.431942462921143,
        7.002450466156006,
        3.8254380226135254
    ],
    "bn6.running_var": [
        12.06692123413086,
        17.86198616027832,
        9.85986328125,
        16.958206176757812,
        9.081899642944336,
        26.67268180847168,
        22.608060836791992,
        17.751483917236328,
        12.659671783447266,
        52.801265716552734,
        53.580020904541016,
        20.189151763916016,
        22.545581817626953,
        13.08204460144043,
        6.99814510345459,
        9.691349029541016,
        51.591758728027344,
        11.682083129882812,
        56.219181060791016
    ],
    "conv0.weight": [
        [
            [
                [
                    0.8199789524078369,
                    -0.8620861768722534,
                    -0.5935361981391907
                ],
                [
                    -0.023663468658924103,
                    -0.4234526753425598,
                    -0.4788680672645569
                ],
                [
                    -0.14804157614707947,
                    1.500687599182129,
                    -0.9356623888015747
                ]
            ]
        ],
        [
            [
                [
                    1.435173511505127,
                    1.0769377946853638,
                    0.3890080749988556
                ],
                [
                    -1.6291450262069702,
                    -1.840301513671875,
                    -1.3986351490020752
                ],
                [
                    1.1693874597549438,
                    2.1752946376800537,
                    0.18571598827838898
                ]
            ]
        ],
        [
            [
                [
                    0.4238300621509552,
                    0.5698862671852112,
                    -0.4325520396232605
                ],
                [
                    0.3960806131362915,
                    0.3562462627887726,
                    0.4401758015155792
                ],
                [
                    -0.5032086968421936,
                    -0.18799236416816711,
                    1.160485029220581
                ]
            ]
        ],
        [
            [
                [
                    1.393438458442688,
                    -0.5405920147895813,
                    -0.22122587263584137
                ],
                [
                    0.15758399665355682,
                    0.5714318156242371,
                    -0.5768142342567444
                ],
                [
                    -1.1280303001403809,
                    0.8983156681060791,
                    0.05732101947069168
                ]
            ]
        ],
        [
            [
                [
                    -0.03458366170525551,
                    1.9896808862686157,
                    0.7150298357009888
                ],
                [
                    0.9545102715492249,
                    0.7114840149879456,
                    -0.09246253967285156
                ],
                [
                    -0.07092657685279846,
                    -1.7249811887741089,
                    -1.1687946319580078
                ]
            ]
        ],
        [
            [
                [
                    -0.24382081627845764,
                    0.05097264423966408,
                    0.8892436027526855
                ],
                [
                    0.2816205620765686,
                    -0.08022826910018921,
                    -0.12320754677057266
                ],
                [
                    0.7043956518173218,
                    0.20697292685508728,
                    -0.6259539127349854
                ]
            ]
        ],
        [
            [
                [
                    1.056976079940796,
                    -1.0891269445419312,
                    0.30870726704597473
                ],
                [
                    0.3008933663368225,
                    0.1923377960920334,
                    -0.44193264842033386
                ],
                [
                    -1.0585615634918213,
                    1.2450692653656006,
                    -0.3387485444545746
                ]
            ]
        ],
        [
            [
                [
                    0.4667646586894989,
                    -0.17922163009643555,
                    -0.09860511869192123
                ],
                [
                    -0.07302501052618027,
                    0.19910061359405518,
                    0.06300922483205795
                ],
                [
                    -0.16549786925315857,
                    0.2614516317844391,
                    -0.2490096390247345
                ]
            ]
        ],
        [
            [
                [
                    1.7046672105789185,
                    1.4634767770767212,
                    1.7575414180755615
                ],
                [
                    0.5548461675643921,
                    0.24852131307125092,
                    -0.3825247585773468
                ],
                [
                    -2.1717870235443115,
                    -1.6496902704238892,
                    -1.6964012384414673
                ]
            ]
        ],
        [
            [
                [
                    1.0330942869186401,
                    0.1710134595632553,
                    -0.721314549446106
                ],
                [
                    0.7647086977958679,
                    -0.11884572356939316,
                    -0.5498937964439392
                ],
                [
                    0.5013760924339294,
                    0.2775605022907257,
                    -0.6996555328369141
                ]
            ]
        ],
        [
            [
                [
                    -0.09019356966018677,
                    1.4083466529846191,
                    1.277639389038086
                ],
                [
                    -0.8669357299804688,
                    -0.7296192646026611,
                    0.04445461928844452
                ],
                [
                    -0.3153635561466217,
                    -0.2093212604522705,
                    0.8745954632759094
                ]
            ]
        ],
        [
            [
                [
                    -2.0939786434173584,
                    1.7283127307891846,
                    0.6147258877754211
                ],
                [
                    -0.06612727046012878,
                    0.49515652656555176,
                    -0.9770184755325317
                ],
                [
                    1.9895713329315186,
                    -1.1888960599899292,
                    -0.9729536175727844
                ]
            ]
        ],
        [
            [
                [
                    -0.1092413142323494,
                    1.328050136566162,
                    -1.1232422590255737
                ],
                [
                    0.4881194233894348,
                    -0.29349204897880554,
                    0.0717945396900177
                ],
                [
                    0.46177732944488525,
                    -0.8480182886123657,
                    0.9098817110061646
                ]
            ]
        ],
        [
            [
                [
                    -0.6567909717559814,
                    1.3605841398239136,
                    -0.19379004836082458
                ],
                [
                    0.24625959992408752,
                    0.10718581825494766,
                    -0.40861448645591736
                ],
                [
                    0.8667418956756592,
                    -0.8900400996208191,
                    -0.004838983062654734
                ]
            ]
        ],
        [
            [
                [
                    1.9182169437408447,
                    -0.3976782262325287,
                    -0.9778333306312561
                ],
                [
                    -0.10224273055791855,
                    -0.008460991084575653,
                    0.1258053034543991
                ],
                [
                    -1.8582656383514404,
                    0.7033679485321045,
                    0.9353869557380676
                ]
            ]
        ],
        [
            [
                [
                    -1.6836868524551392,
                    -1.3698139190673828,
                    -1.4130921363830566
                ],
                [
                    0.18652337789535522,
                    0.5136614441871643,
                    0.7839365601539612
                ],
                [
                    1.431309700012207,
                    1.026012659072876,
                    1.078287959098816
                ]
            ]
        ],
        [
            [
                [
                    0.3247886300086975,
                    0.2521181106567383,
                    0.20988492667675018
                ],
                [
                    0.13443976640701294,
                    -0.347354918718338,
                    -0.7864481806755066
                ],
                [
                    -0.5032557845115662,
                    -0.8281888961791992,
                    -0.912310779094696
                ]
            ]
        ],
        [
            [
                [
                    -0.1945466250181198,
                    0.8625699877738953,
                    -0.5340765118598938
                ],
                [
                    0.26813170313835144,
                    -0.2514009475708008,
                    -0.5120457410812378
                ],
                [
                    0.4828462302684784,
                    -0.4338977038860321,
                    -0.30765390396118164
                ]
            ]
        ],
        [
            [
                [
                    -0.26391103863716125,
                    0.06531613320112228,
                    0.3129105269908905
                ],
                [
                    -0.16791215538978577,
                    -0.3783622086048126,
                    0.27559763193130493
                ],
                [
                    -0.4496367573738098,
                    -0.09854165464639664,
                    0.35793089866638184
                ]
            ]
        ]
    ],
    "conv1.weight": [
        [
            [
                [
                    -0.09815554320812225,
                    0.15225036442279816,
                    -0.007717861793935299
                ],
                [
                    -0.10457279533147812,
                    -0.0712471455335617,
                    -0.04951642453670502
                ],
                [
                    -0.06109357997775078,
                    -0.03328585624694824,
                    -0.065534807741642
                ]
            ],
            [
                [
                    -0.08745574951171875,
                    -0.04527517408132553,
                    0.0032487318385392427
                ],
                [
                    -0.031107399612665176,
                    -0.04233454912900925,
                    -0.001557833980768919
                ],
                [
                    -0.061630506068468094,
                    -0.10068818181753159,
                    -0.07184267789125443
                ]
            ],
            [
                [
                    -0.027090001851320267,
                    0.010328305885195732,
                    -0.006355315912514925
                ],
                [
                    -0.11638986319303513,
                    -0.02133064530789852,
                    -0.09345731884241104
                ],
                [
                    -0.08448892086744308,
                    -0.052325982600450516,
                    -0.004838024266064167
                ]
            ],
            [
                [
                    -0.12512744963169098,
                    0.08578358590602875,
                    -0.022633885964751244
                ],
                [
                    -0.009197269566357136,
                    -0.13448098301887512,
                    -0.08760236203670502
                ],
                [
                    -0.10463974624872208,
                    -0.11161285638809204,
                    -0.03678080439567566
                ]
            ],
            [
                [
                    0.018648626282811165,
                    -0.0708913579583168,
                    -0.03441300243139267
                ],
                [
                    -0.04588964581489563,
                    -0.10970158874988556,
                    -0.08203884959220886
                ],
                [
                    -0.03564426302909851,
                    -0.01164912711828947,
                    -0.018705716356635094
                ]
            ],
            [
                [
                    -0.09639259427785873,
                    -0.05122152343392372,
                    0.011335828341543674
                ],
                [
                    -0.08731415122747421,
                    -0.06649864464998245,
                    0.040442317724227905
                ],
                [
                    0.005549171008169651,
                    -0.04430415853857994,
                    -0.07825566828250885
                ]
            ],
            [
                [
                    -0.020580338314175606,
                    0.08266866207122803,
                    -0.04364284127950668
                ],
                [
                    -0.05481775104999542,
                    -0.04354287311434746,
                    -0.03626927360892296
                ],
                [
                    0.024260858073830605,
                    -0.01698954962193966,
                    0.050680723041296005
                ]
            ],
            [
                [
                    0.00933209527283907,
                    -0.02587752416729927,
                    0.018373891711235046
                ],
                [
                    -0.07792308926582336,
                    -0.07370195537805557,
                    0.0008458828087896109
                ],
                [
                    0.005849603097885847,
                    0.02233227528631687,
                    -0.03489317744970322
                ]
            ],
            [
                [
                    -0.07191022485494614,
                    -0.041980814188718796,
                    -0.10761415213346481
                ],
                [
                    -0.012573442421853542,
                    -0.23874107003211975,
                    -0.12222593277692795
                ],
                [
                    -0.04090505465865135,
                    -0.1460161656141281,
                    -0.04057203233242035
                ]
            ],
            [
                [
                    -0.022908490151166916,
                    -0.24982106685638428,
                    -0.11755967885255814
                ],
                [
                    -0.06002851948142052,
                    -0.22045063972473145,
                    -0.03672804310917854
                ],
                [
                    -0.05572568252682686,
                    -0.09066354483366013,
                    -0.06440218538045883
                ]
            ],
            [
                [
                    -0.06992360949516296,
                    -0.26893365383148193,
                    -0.16446208953857422
                ],
                [
                    -0.03887001797556877,
                    -0.40164291858673096,
                    -0.1504630595445633
                ],
                [
                    -0.011975941248238087,
                    -0.30489057302474976,
                    -0.050009388476610184
                ]
            ],
            [
                [
                    -0.1198880523443222,
                    0.2997257709503174,
                    -0.1731594204902649
                ],
                [
                    -0.049236055463552475,
                    -0.3145540654659271,
                    -0.16093038022518158
                ],
                [
                    0.018204497173428535,
                    -0.22150272130966187,
                    -0.0613887794315815
                ]
            ],
            [
                [
                    -0.05916823819279671,
                    -0.11955444514751434,
                    -0.09322822839021683
                ],
                [
                    -0.12605193257331848,
                    -0.05504997447133064,
                    -0.0413973368704319
                ],
                [
                    0.0033792518079280853,
                    -0.16755114495754242,
                    -0.005121132824569941
                ]
            ],
            [
                [
                    -0.06114934757351875,
                    0.06132008507847786,
                    -0.08363914489746094
                ],
                [
                    -0.012335305102169514,
                    -0.05182056874036789,
                    -0.03885325416922569
                ],
                [
                    -0.04769875109195709,
                    -0.1055874302983284,
                    0.026193730533123016
                ]
            ],
            [
                [
                    -0.1471467912197113,
                    0.0886773094534874,
                    -0.04370618611574173
                ],
                [
                    -0.11664249002933502,
                    -0.03685782849788666,
                    -0.09540141373872757
                ],
                [
                    -0.06051233038306236,
                    -0.10474039614200592,
                    -0.07097223401069641
                ]
            ],
            [
                [
                    -0.043748918920755386,
                    0.5204660892486572,
                    -0.02876889891922474
                ],
                [
                    -0.060404758900403976,
                    -0.10778603702783585,
                    -0.06775368005037308
                ],
                [
                    0.003940755035728216,
                    -0.06089102849364281,
                    -0.02893279865384102
                ]
            ],
            [
                [
                    -0.07020456343889236,
                    -0.044178567826747894,
                    -0.04605863615870476
                ],
                [
                    -0.05682586506009102,
                    -0.14207276701927185,
                    -0.039953842759132385
                ],
                [
                    -0.08406540751457214,
                    -0.3126378357410431,
                    0.0018322841497138143
                ]
            ],
            [
                [
                    0.01646486669778824,
                    -0.011751449666917324,
                    0.01497493777424097
                ],
                [
                    -0.007895607501268387,
                    -0.05257467180490494,
                    -0.056314680725336075
                ],
                [
                    -0.07326790690422058,
                    -0.10560554265975952,
                    0.0694732517004013
                ]
            ],
            [
                [
                    -0.08982925117015839,
                    -0.06648265570402145,
                    -0.06509701907634735
                ],
                [
                    -0.047497473657131195,
                    -0.11768127977848053,
                    0.0065113394521176815
                ],
                [
                    -0.04787289723753929,
                    -0.3320934772491455,
                    -0.07083753496408463
                ]
            ]
        ],
        [
            [
                [
                    0.004521613474935293,
                    -0.016888996586203575,
                    -0.1262127161026001
                ],
                [
                    0.0089572137221694,
                    -0.00696883350610733,
                    -0.034716736525297165
                ],
                [
                    -0.07620885968208313,
                    -0.0014844253892078996,
                    -0.09892440587282181
                ]
            ],
            [
                [
                    -0.0469595231115818,
                    -0.04625653848052025,
                    0.027395306155085564
                ],
                [
                    -0.09183729439973831,
                    0.006895106285810471,
                    -0.02381708100438118
                ],
                [
                    -0.07410317659378052,
                    -0.09369735419750214,
                    0.014338151551783085
                ]
            ],
            [
                [
                    -0.20865419507026672,
                    -0.20060835778713226,
                    -0.19766701757907867
                ],
                [
                    -0.07909783720970154,
                    -0.08305677026510239,
                    -0.06496701389551163
                ],
                [
                    0.03634851053357124,
                    -0.14588600397109985,
                    -0.18949177861213684
                ]
            ],
            [
                [
                    -0.0659659206867218,
                    -0.09004682302474976,
                    0.0536663755774498
                ],
                [
                    -0.1053205356001854,
                    -0.08604251593351364,
                    -0.08513031899929047
                ],
                [
                    -0.09455332905054092,
                    0.010776457376778126,
                    0.06201324239373207
                ]
            ],
            [
                [
                    -0.012791848741471767,
                    -0.03244166076183319,
                    -0.01901155337691307
                ],
                [
                    -0.08527360111474991,
                    -0.06805654615163803,
                    -0.03582431375980377
                ],
                [
                    -0.035721804946660995,
                    0.011086874641478062,
                    -0.040686413645744324
                ]
            ],
            [
                [
                    -0.10037483274936676,
                    -0.1668451428413391,
                    -0.12596340477466583
                ],
                [
                    -0.1464442014694214,
                    -0.1448177993297577,
                    -0.19965767860412598
                ],
                [
                    -0.09604540467262268,
                    -0.11975918710231781,
                    -0.10354042798280716
                ]
            ],
            [
                [
                    0.046734534204006195,
                    -0.02340647205710411,
                    -0.09535463154315948
                ],
                [
                    0.047864608466625214,
                    0.018538979813456535,
                    -0.045962076634168625
                ],
                [
                    -0.0462997704744339,
                    0.057343851774930954,
                    -0.009276957251131535
                ]
            ],
            [
                [
                    -0.12494254857301712,
                    0.01484946720302105,
                    -0.006061335559934378
                ],
                [
                    -0.11211881041526794,
                    -0.018843598663806915,
                    -0.10429935902357101
                ],
                [
                    -0.0629090666770935,
                    0.024902114644646645,
                    -0.05725793167948723
                ]
            ],
            [
                [
                    -0.2109421044588089,
                    -0.12193328887224197,
                    -0.07153912633657455
                ],
                [
                    -0.17782709002494812,
                    -0.11241947114467621,
                    -0.008972850628197193
                ],
                [
                    -0.14688512682914734,
                    -0.14292190968990326,
                    -0.0647786483168602
                ]
            ],
            [
                [
                    0.010836884379386902,
                    0.0667693242430687,
                    -0.0859747976064682
                ],
                [
                    -0.05686400830745697,
                    -0.04394106566905975,
                    -0.05909140035510063
                ],
                [
                    -0.04609011113643646,
                    -0.02823214791715145,
                    0.020857755094766617
                ]
            ],
            [
                [
                    -0.06764168292284012,
                    -0.08482666313648224,
                    -0.15750789642333984
                ],
                [
                    -0.15001943707466125,
                    -0.09379711002111435,
                    -0.1661325991153717
                ],
                [
                    -0.08891473710536957,
                    -0.14594043791294098,
                    -0.15694265067577362
                ]
            ],
            [
                [
                    -0.1213495209813118,
                    -0.021827703341841698,
                    0.07053674757480621
                ],
                [
                    -0.12812241911888123,
                    0.03597158193588257,
                    -0.0183772724121809
                ],
                [
                    -0.04672984778881073,
                    -0.02200419455766678,
                    -0.061479147523641586
                ]
            ],
            [
                [
                    -0.039374835789203644,
                    0.004193637985736132,
                    0.03156452998518944
                ],
                [
                    -0.11040721833705902,
                    -0.0911971852183342,
                    0.019729914143681526
                ],
                [
                    -0.12545441091060638,
                    0.005978000350296497,
                    -0.10541369765996933
                ]
            ],
            [
                [
                    -0.05102808028459549,
                    -0.06797213107347488,
                    -0.04396086931228638
                ],
                [
                    -0.04078468307852745,
                    -0.06609279662370682,
                    0.006949566770344973
                ],
                [
                    -0.02485669031739235,
                    0.019293762743473053,
                    -0.06399872899055481
                ]
            ],
            [
                [
                    -0.11907781660556793,
                    -0.05841587483882904,
                    0.0403401143848896
                ],
                [
                    0.003696372965350747,
                    0.013285938650369644,
                    -0.005065460689365864
                ],
                [
                    -0.026330716907978058,
                    -0.11478416621685028,
                    -0.06254850327968597
                ]
            ],
            [
                [
                    -0.04052160307765007,
                    -0.14683768153190613,
                    -0.07775256782770157
                ],
                [
                    -0.10952741652727127,
                    -0.12481290102005005,
                    -0.1650116741657257
                ],
                [
                    0.037850525230169296,
                    -0.05923711508512497,
                    -0.0440775528550148
                ]
            ],
            [
                [
                    -0.020840460434556007,
                    0.019417522475123405,
                    0.028258223086595535
                ],
                [
                    -0.0955619290471077,
                    -0.04713008925318718,
                    0.03101574070751667
                ],
                [
                    -0.03205901011824608,
                    -0.09468883275985718,
                    0.07521114498376846
                ]
            ],
            [
                [
                    -0.021959900856018066,
                    -0.09276067465543747,
                    -0.09413157403469086
                ],
                [
                    0.05627452954649925,
                    0.037415433675050735,
                    -0.12747463583946228
                ],
                [
                    0.05389602482318878,
                    0.018861599266529083,
                    -0.0031887853983789682
                ]
            ],
            [
                [
                    -0.10549194365739822,
                    -0.087751604616642,
                    0.12633076310157776
                ],
                [
                    -0.16982294619083405,
                    -0.05733046680688858,
                    0.11802363395690918
                ],
                [
                    -0.21194587647914886,
                    -0.026999156922101974,
                    0.0415848083794117
                ]
            ]
        ],
        [
            [
                [
                    -0.7828027009963989,
                    -0.0489216074347496,
                    -0.24044214189052582
                ],
                [
                    0.5542098879814148,
                    -0.3478643000125885,
                    0.23448167741298676
                ],
                [
                    0.44860178232192993,
                    0.3894560933113098,
                    -0.15013909339904785
                ]
            ],
            [
                [
                    -0.36024367809295654,
                    0.2598949670791626,
                    -0.0554855614900589
                ],
                [
                    -0.28746986389160156,
                    -0.0651092678308487,
                    0.2183762937784195
                ],
                [
                    0.05169650539755821,
                    -0.04280174523591995,
                    0.03626628965139389
                ]
            ],
            [
                [
                    0.025727657601237297,
                    0.7105750441551208,
                    0.15056394040584564
                ],
                [
                    -0.8664350509643555,
                    0.15468192100524902,
                    0.763613760471344
                ],
                [
                    -0.44280052185058594,
                    -0.2278735637664795,
                    0.17948734760284424
                ]
            ],
            [
                [
                    -0.3025604486465454,
                    0.23401358723640442,
                    -0.46136409044265747
                ],
                [
                    -0.31963807344436646,
                    0.16731783747673035,
                    0.2385319620370865
                ],
                [
                    0.06107969582080841,
                    0.21308882534503937,
                    0.0830070897936821
                ]
            ],
            [
                [
                    0.2851484417915344,
                    0.12771162390708923,
                    -0.41966187953948975
                ],
                [
                    -0.35415565967559814,
                    0.09955625236034393,
                    -0.015435578301548958
                ],
                [
                    0.22904419898986816,
                    -0.1002594605088234,
                    -0.16313610970973969
                ]
            ],
            [
                [
                    -0.06391357630491257,
                    0.24284958839416504,
                    0.07738050073385239
                ],
                [
                    -0.18951329588890076,
                    -0.23596666753292084,
                    0.31785255670547485
                ],
                [
                    0.2691153287887573,
                    -0.08981265872716904,
                    -0.32648178935050964
                ]
            ],
            [
                [
                    -0.28763625025749207,
                    0.35060009360313416,
                    -0.08536677062511444
                ],
                [
                    -0.18802723288536072,
                    0.14651691913604736,
                    0.26061221957206726
                ],
                [
                    0.10429655015468597,
                    0.17878767848014832,
                    0.17890475690364838
                ]
            ],
            [
                [
                    -0.19854731857776642,
                    0.1254245787858963,
                    -0.055447306483983994
                ],
                [
                    -0.08002599328756332,
                    -0.037218205630779266,
                    0.105593241751194
                ],
                [
                    0.12853944301605225,
                    0.052954528480768204,
                    0.041865065693855286
                ]
            ],
            [
                [
                    0.39916348457336426,
                    -0.18704770505428314,
                    -0.6748208999633789
                ],
                [
                    -0.5537400841712952,
                    0.4937201738357544,
                    -0.18381741642951965
                ],
                [
                    -0.2368873804807663,
                    0.17559830844402313,
                    0.5475980639457703
                ]
            ],
            [
                [
                    -1.187153697013855,
                    -0.14907856285572052,
                    -0.7841688394546509
                ],
                [
                    0.7959166765213013,
                    -0.781362771987915,
                    0.2195098102092743
                ],
                [
                    0.9425325989723206,
                    0.02394431084394455,
                    -0.3675544559955597
                ]
            ],
            [
                [
                    1.5872411727905273,
                    -0.5043607354164124,
                    -1.2566124200820923
                ],
                [
                    -1.09477961063385,
                    0.5902897119522095,
                    -0.1446959674358368
                ],
                [
                    -0.5250391364097595,
                    -0.25827378034591675,
                    0.677433431148529
                ]
            ],
            [
                [
                    0.9355058073997498,
                    0.2669081687927246,
                    0.09352397918701172
                ],
                [
                    0.4885239601135254,
                    0.37535059452056885,
                    -0.11833036690950394
                ],
                [
                    -0.4150433838367462,
                    -0.1369708627462387,
                    -0.5796361565589905
                ]
            ],
            [
                [
                    0.5397561192512512,
                    0.1551489681005478,
                    -0.09821169823408127
                ],
                [
                    -0.1331258863210678,
                    0.04796811565756798,
                    0.1789424866437912
                ],
                [
                    0.13155852258205414,
                    -0.15203246474266052,
                    -0.1425912231206894
                ]
            ],
            [
                [
                    0.23407526314258575,
                    0.15271738171577454,
                    -0.0862836167216301
                ],
                [
                    0.09193654358386993,
                    0.07445868849754333,
                    -0.18563944101333618
                ],
                [
                    -0.04332650080323219,
                    -0.22625933587551117,
                    -0.3945389688014984
                ]
            ],
            [
                [
                    0.15455536544322968,
                    0.40684062242507935,
                    -0.22937612235546112
                ],
                [
                    -0.2442774772644043,
                    0.37756067514419556,
                    0.004653355572372675
                ],
                [
                    -0.3143622875213623,
                    -0.04973568394780159,
                    0.01624247059226036
                ]
            ],
            [
                [
                    -0.9177160263061523,
                    -0.031354449689388275,
                    0.15305650234222412
                ],
                [
                    0.1240823045372963,
                    -0.2105342596769333,
                    -0.07294490933418274
                ],
                [
                    0.34808334708213806,
                    -0.0853675976395607,
                    -0.12036668509244919
                ]
            ],
            [
                [
                    0.8664193153381348,
                    -1.4684852361679077,
                    -0.0805085226893425
                ],
                [
                    0.6050719618797302,
                    -0.6585856676101685,
                    -0.590743899345398
                ],
                [
                    -1.4268622398376465,
                    0.09266632795333862,
                    -0.08388300240039825
                ]
            ],
            [
                [
                    -0.11337614804506302,
                    -0.0910031720995903,
                    -0.10242662578821182
                ],
                [
                    0.8260750770568848,
                    -0.34872952103614807,
                    0.01126806065440178
                ],
                [
                    0.37657004594802856,
                    -0.010080743581056595,
                    -0.13307605683803558
                ]
            ],
            [
                [
                    1.1669294834136963,
                    -0.5786423683166504,
                    -0.8032715916633606
                ],
                [
                    -0.07987406104803085,
                    -0.09667089581489563,
                    -0.7024267911911011
                ],
                [
                    -1.0232199430465698,
                    -0.26509419083595276,
                    -0.24090245366096497
                ]
            ]
        ],
        [
            [
                [
                    -0.1779032200574875,
                    -0.24065807461738586,
                    0.0543399415910244
                ],
                [
                    -0.21802391111850739,
                    -0.13497185707092285,
                    0.17096957564353943
                ],
                [
                    -0.02430569753050804,
                    -0.14187327027320862,
                    0.2286739945411682
                ]
            ],
            [
                [
                    -0.18544547259807587,
                    0.007835745811462402,
                    -0.13059739768505096
                ],
                [
                    -0.1721658855676651,
                    -0.11853920668363571,
                    0.07596098631620407
                ],
                [
                    -0.04639408364892006,
                    -0.1445576697587967,
                    0.09457123279571533
                ]
            ],
            [
                [
                    -0.28348901867866516,
                    0.43359115719795227,
                    -0.10920102149248123
                ],
                [
                    -0.22633711993694305,
                    0.20718437433242798,
                    0.06496990472078323
                ],
                [
                    -0.04395782947540283,
                    -0.20477108657360077,
                    -0.01988758146762848
                ]
            ],
            [
                [
                    -0.13332021236419678,
                    -0.0032462605740875006,
                    -0.02634388580918312
                ],
                [
                    -0.05547894537448883,
                    0.03136830031871796,
                    0.1541927605867386
                ],
                [
                    0.087086521089077,
                    0.01388835534453392,
                    0.19777531921863556
                ]
            ],
            [
                [
                    -0.1667725145816803,
                    -0.09373624622821808,
                    -0.3083154261112213
                ],
                [
                    -0.11549843847751617,
                    0.23281510174274445,
                    0.14597800374031067
                ],
                [
                    0.1594490259885788,
                    0.27596327662467957,
                    0.2780604064464569
                ]
            ],
            [
                [
                    -0.19371280074119568,
                    0.14071126282215118,
                    0.23506328463554382
                ],
                [
                    -0.18686671555042267,
                    0.2078302800655365,
                    0.18049471080303192
                ],
                [
                    -0.09469704329967499,
                    0.08644651621580124,
                    0.0986715778708458
                ]
            ],
            [
                [
                    -0.08566772192716599,
                    -0.12234500050544739,
                    -0.052809447050094604
                ],
                [
                    -0.0859791487455368,
                    0.02786559797823429,
                    0.06957775354385376
                ],
                [
                    0.10672053694725037,
                    0.031461041420698166,
                    0.17144185304641724
                ]
            ],
            [
                [
                    -0.10389088839292526,
                    -0.00507744075730443,
                    -0.010675939731299877
                ],
                [
                    -0.13691934943199158,
                    0.01598593406379223,
                    0.13688264787197113
                ],
                [
                    0.011500103399157524,
                    -0.011936767026782036,
                    0.06580594182014465
                ]
            ],
            [
                [
                    -0.3154113292694092,
                    -0.062451474368572235,
                    -0.486178457736969
                ],
                [
                    -0.2787201702594757,
                    0.413003146648407,
                    0.24856461584568024
                ],
                [
                    0.1410025954246521,
                    0.5089108943939209,
                    0.233206644654274
                ]
            ],
            [
                [
                    -0.3544829487800598,
                    -0.2114480882883072,
                    0.3531264662742615
                ],
                [
                    -0.21835778653621674,
                    0.02227725088596344,
                    0.6271480321884155
                ],
                [
                    -0.2742162346839905,
                    0.17917971312999725,
                    0.5157807469367981
                ]
            ],
            [
                [
                    0.11430486291646957,
                    -0.049359146505594254,
                    -0.06005682796239853
                ],
                [
                    -0.21800465881824493,
                    0.4764319360256195,
                    -0.41157156229019165
                ],
                [
                    -0.08286475390195847,
                    -0.005272949114441872,
                    -0.40874019265174866
                ]
            ],
            [
                [
                    0.1246456727385521,
                    -0.10050933808088303,
                    0.0009471253724768758
                ],
                [
                    0.02823360450565815,
                    -0.08101432770490646,
                    0.07736831158399582
                ],
                [
                    0.17676424980163574,
                    0.1799447238445282,
                    0.10790679603815079
                ]
            ],
            [
                [
                    -0.061152905225753784,
                    0.2702242434024811,
                    0.07892221212387085
                ],
                [
                    -0.10622396320104599,
                    0.1745051145553589,
                    0.11385086923837662
                ],
                [
                    0.033897195011377335,
                    0.11624990403652191,
                    0.13734427094459534
                ]
            ],
            [
                [
                    -0.09560338407754898,
                    0.037438735365867615,
                    -0.06588472425937653
                ],
                [
                    -0.016179965808987617,
                    0.026181280612945557,
                    0.12658430635929108
                ],
                [
                    -0.045150209218263626,
                    0.005620964802801609,
                    0.10113772749900818
                ]
            ],
            [
                [
                    -0.13422657549381256,
                    0.07389497011899948,
                    -0.05593705549836159
                ],
                [
                    -0.11716751009225845,
                    0.12370876222848892,
                    -0.024791201576590538
                ],
                [
                    0.15021878480911255,
                    0.1823020726442337,
                    0.11791129410266876
                ]
            ],
            [
                [
                    -0.11264308542013168,
                    -0.2571966052055359,
                    -0.02907324768602848
                ],
                [
                    -0.03585973381996155,
                    -0.3800298869609833,
                    -0.13562147319316864
                ],
                [
                    0.2368285059928894,
                    -0.1499045044183731,
                    -0.1454838663339615
                ]
            ],
            [
                [
                    -0.14267897605895996,
                    -0.42203259468078613,
                    -0.25738525390625
                ],
                [
                    -0.12509101629257202,
                    0.18278154730796814,
                    -0.02724110707640648
                ],
                [
                    -0.046874623745679855,
                    0.5718033313751221,
                    0.3619979918003082
                ]
            ],
            [
                [
                    -0.17393037676811218,
                    -0.2520250082015991,
                    -0.03245837241411209
                ],
                [
                    -0.00683797150850296,
                    -0.10634499043226242,
                    0.0938069075345993
                ],
                [
                    0.058809585869312286,
                    0.015828924253582954,
                    0.2074510008096695
                ]
            ],
            [
                [
                    -0.05359020084142685,
                    -0.314702570438385,
                    -0.026970529928803444
                ],
                [
                    -0.16975340247154236,
                    0.16975626349449158,
                    -0.04527907818555832
                ],
                [
                    -0.12332120537757874,
                    0.25668853521347046,
                    -0.04472005367279053
                ]
            ]
        ],
        [
            [
                [
                    -0.19560758769512177,
                    -0.11465807259082794,
                    -0.08265198767185211
                ],
                [
                    -0.17057684063911438,
                    -0.17547324299812317,
                    -0.027219010517001152
                ],
                [
                    -0.1219220981001854,
                    -0.07557227462530136,
                    -0.07682369649410248
                ]
            ],
            [
                [
                    -0.11212359368801117,
                    -0.17488357424736023,
                    -0.1103278174996376
                ],
                [
                    -0.2152029275894165,
                    -0.16597768664360046,
                    -0.12160859256982803
                ],
                [
                    -0.040620166808366776,
                    -0.1756560057401657,
                    -0.20736612379550934
                ]
            ],
            [
                [
                    -0.23653705418109894,
                    -0.07703009247779846,
                    -0.03136950731277466
                ],
                [
                    -0.2228698432445526,
                    0.017277799546718597,
                    -0.10537682473659515
                ],
                [
                    -0.24448589980602264,
                    -0.0504877008497715,
                    -0.09047307819128036
                ]
            ],
            [
                [
                    -0.08494393527507782,
                    -0.03157860040664673,
                    0.02167418599128723
                ],
                [
                    0.016049927100539207,
                    -0.0405234731733799,
                    -0.10888808220624924
                ],
                [
                    0.005166455637663603,
                    0.014838251285254955,
                    -0.1019693985581398
                ]
            ],
            [
                [
                    -0.03819478303194046,
                    -0.06813474744558334,
                    0.04629390686750412
                ],
                [
                    -0.1103057712316513,
                    -0.05570455640554428,
                    -0.09642937779426575
                ],
                [
                    -0.10194277763366699,
                    -0.0003390694037079811,
                    -0.0337350070476532
                ]
            ],
            [
                [
                    -0.17438077926635742,
                    -0.010770157910883427,
                    0.017905043438076973
                ],
                [
                    -0.24734987318515778,
                    -0.00789659470319748,
                    -0.09098461270332336
                ],
                [
                    -0.3087080717086792,
                    -0.07479730248451233,
                    -0.05466725304722786
                ]
            ],
            [
                [
                    0.0017044766573235393,
                    0.005174034740775824,
                    0.014855761080980301
                ],
                [
                    -0.0315997451543808,
                    -0.030556296929717064,
                    0.02407252974808216
                ],
                [
                    -0.007206487935036421,
                    -0.1251235455274582,
                    -0.10532832145690918
                ]
            ],
            [
                [
                    -0.07571285963058472,
                    -0.028126433491706848,
                    0.03244675695896149
                ],
                [
                    -0.18649904429912567,
                    -0.11356676369905472,
                    0.026344306766986847
                ],
                [
                    -0.05631895363330841,
                    -0.11437437683343887,
                    0.017973415553569794
                ]
            ],
            [
                [
                    -0.3214723467826843,
                    -0.0632009357213974,
                    -0.03409372642636299
                ],
                [
                    -0.06789662688970566,
                    -0.20724555850028992,
                    -0.14109595119953156
                ],
                [
                    -0.1927081048488617,
                    -0.0030698671471327543,
                    -0.0538531094789505
                ]
            ],
            [
                [
                    0.048853956162929535,
                    -0.26715579628944397,
                    0.023493899032473564
                ],
                [
                    -0.2859698235988617,
                    -0.16870427131652832,
                    -0.1481045037508011
                ],
                [
                    -0.3299074172973633,
                    -0.09530747681856155,
                    -0.16889053583145142
                ]
            ],
            [
                [
                    -0.6537488102912903,
                    -0.4670855700969696,
                    -0.2865297496318817
                ],
                [
                    -0.4552915394306183,
                    -0.4600953459739685,
                    -0.29265502095222473
                ],
                [
                    -0.5651459693908691,
                    -0.4395013451576233,
                    -0.27495020627975464
                ]
            ],
            [
                [
                    0.18423238396644592,
                    -0.015819644555449486,
                    -0.0003351627092342824
                ],
                [
                    0.07723118364810944,
                    -0.024013062939047813,
                    -0.02973904088139534
                ],
                [
                    0.0542750358581543,
                    -0.018262676894664764,
                    0.02598496712744236
                ]
            ],
            [
                [
                    -0.24932368099689484,
                    -0.1518358737230301,
                    0.04553147405385971
                ],
                [
                    -0.028462858870625496,
                    -0.12683461606502533,
                    0.01811027154326439
                ],
                [
                    -0.070388063788414,
                    -0.03753497451543808,
                    0.016315605491399765
                ]
            ],
            [
                [
                    0.032978735864162445,
                    -0.03090234473347664,
                    -0.040482115000486374
                ],
                [
                    -0.04745248332619667,
                    -0.02739945985376835,
                    0.04499005898833275
                ],
                [
                    -0.1690530776977539,
                    0.004468669183552265,
                    -0.04795589670538902
                ]
            ],
            [
                [
                    -0.2584441006183624,
                    -0.007250634022057056,
                    -0.07852351665496826
                ],
                [
                    -0.07122711092233658,
                    -0.08892877399921417,
                    -0.09786877781152725
                ],
                [
                    -0.06577698886394501,
                    -0.061623942106962204,
                    0.01262520719319582
                ]
            ],
            [
                [
                    -0.123380146920681,
                    0.02176879532635212,
                    -0.04195566475391388
                ],
                [
                    -0.22175712883472443,
                    0.015796635299921036,
                    -0.05930909886956215
                ],
                [
                    -0.02807752415537834,
                    -0.07689929008483887,
                    -0.019681312143802643
                ]
            ],
            [
                [
                    -0.4918179214000702,
                    -0.16387848556041718,
                    -0.12857967615127563
                ],
                [
                    -0.35422396659851074,
                    -0.19261756539344788,
                    -0.047681841999292374
                ],
                [
                    -0.20077429711818695,
                    -0.1023545116186142,
                    -0.03928864747285843
                ]
            ],
            [
                [
                    -0.06384871900081635,
                    -0.07040256261825562,
                    -0.03921293094754219
                ],
                [
                    -0.07027085870504379,
                    -0.008974216878414154,
                    -0.1033816859126091
                ],
                [
                    -0.12657064199447632,
                    0.026976438239216805,
                    0.015988701954483986
                ]
            ],
            [
                [
                    -0.42126691341400146,
                    -0.1825813502073288,
                    -0.02463536523282528
                ],
                [
                    -0.15632294118404388,
                    -0.1987324208021164,
                    -0.06646782904863358
                ],
                [
                    -0.04472450911998749,
                    -0.08792667090892792,
                    -0.049089785665273666
                ]
            ]
        ],
        [
            [
                [
                    0.3722030818462372,
                    -0.025909654796123505,
                    -0.05188548564910889
                ],
                [
                    -0.10894857347011566,
                    0.07049842923879623,
                    -0.14031831920146942
                ],
                [
                    -0.5004998445510864,
                    0.095685213804245,
                    -0.16923166811466217
                ]
            ],
            [
                [
                    0.1930750161409378,
                    -0.2912064492702484,
                    -0.14207059144973755
                ],
                [
                    -0.0021600029431283474,
                    -0.11376050859689713,
                    -0.2645750343799591
                ],
                [
                    -0.0841897502541542,
                    -0.00802041869610548,
                    -0.20282047986984253
                ]
            ],
            [
                [
                    0.4032209515571594,
                    -0.25228220224380493,
                    -0.21616627275943756
                ],
                [
                    0.12954682111740112,
                    -0.33824244141578674,
                    -0.26452019810676575
                ],
                [
                    -0.22767925262451172,
                    -0.11297039687633514,
                    -0.22400657832622528
                ]
            ],
            [
                [
                    0.4781216084957123,
                    -0.15795552730560303,
                    -0.15929362177848816
                ],
                [
                    0.28815630078315735,
                    -0.09588798880577087,
                    -0.11821689456701279
                ],
                [
                    -0.07598590105772018,
                    -0.021924015134572983,
                    -0.055885862559080124
                ]
            ],
            [
                [
                    -0.3319103419780731,
                    0.04374193772673607,
                    0.029514692723751068
                ],
                [
                    -0.18517319858074188,
                    -0.0508856400847435,
                    -0.12667888402938843
                ],
                [
                    0.024915536865592003,
                    0.15409398078918457,
                    0.06061437726020813
                ]
            ],
            [
                [
                    0.028594570234417915,
                    -0.016447527334094048,
                    -0.1208590567111969
                ],
                [
                    -0.23754820227622986,
                    -0.01802198402583599,
                    -0.16832245886325836
                ],
                [
                    -0.3050384223461151,
                    0.15944918990135193,
                    -0.053411804139614105
                ]
            ],
            [
                [
                    0.21589916944503784,
                    -0.11241637170314789,
                    -0.08337566256523132
                ],
                [
                    -0.03258843719959259,
                    -0.04782716929912567,
                    -0.028811121359467506
                ],
                [
                    -0.25802189111709595,
                    0.03654488921165466,
                    -0.046655964106321335
                ]
            ],
            [
                [
                    0.05478936433792114,
                    -0.06816123425960541,
                    0.01695341058075428
                ],
                [
                    -0.024617906659841537,
                    -0.013045079074800014,
                    -0.08914776146411896
                ],
                [
                    -0.14128534495830536,
                    0.007015164475888014,
                    -0.1118096336722374
                ]
            ],
            [
                [
                    0.2024412304162979,
                    0.20115625858306885,
                    0.18021199107170105
                ],
                [
                    0.21181124448776245,
                    -0.07947350293397903,
                    0.028639912605285645
                ],
                [
                    0.045862797647714615,
                    0.03302092105150223,
                    0.09828749299049377
                ]
            ],
            [
                [
                    0.5766927599906921,
                    -0.28487536311149597,
                    -0.01212884858250618
                ],
                [
                    -0.2400975227355957,
                    -0.1786852329969406,
                    -0.26971521973609924
                ],
                [
                    -0.5405851602554321,
                    0.14760160446166992,
                    -0.37843260169029236
                ]
            ],
            [
                [
                    0.5819909572601318,
                    -0.41565006971359253,
                    -0.474353551864624
                ],
                [
                    0.8481241464614868,
                    -0.6103165149688721,
                    -0.5913544297218323
                ],
                [
                    -0.3102473020553589,
                    -0.48095861077308655,
                    -0.4179247319698334
                ]
            ],
            [
                [
                    -0.047832317650318146,
                    -0.02319723553955555,
                    -0.11909979581832886
                ],
                [
                    0.08725378662347794,
                    0.10012643039226532,
                    -0.23765842616558075
                ],
                [
                    0.507688581943512,
                    0.08509211242198944,
                    -0.10223715007305145
                ]
            ],
            [
                [
                    -0.022525032982230186,
                    -0.22465279698371887,
                    -0.047219499945640564
                ],
                [
                    0.05089316889643669,
                    -0.05860612168908119,
                    -0.12489359825849533
                ],
                [
                    0.03267030790448189,
                    -0.02245664782822132,
                    -0.12780272960662842
                ]
            ],
            [
                [
                    -0.07815055549144745,
                    -0.023703452199697495,
                    -0.020496143028140068
                ],
                [
                    0.04726152867078781,
                    -0.02377915196120739,
                    0.04407529532909393
                ],
                [
                    0.06562353670597076,
                    0.08801247924566269,
                    -0.08462820202112198
                ]
            ],
            [
                [
                    0.37034764885902405,
                    -0.005940339993685484,
                    -0.06124236062169075
                ],
                [
                    0.16395516693592072,
                    -0.05408138036727905,
                    0.03482706472277641
                ],
                [
                    -0.1656380593776703,
                    0.12448497116565704,
                    -0.07971607148647308
                ]
            ],
            [
                [
                    -0.002601756015792489,
                    0.1251455396413803,
                    0.011452087201178074
                ],
                [
                    -0.03337016701698303,
                    0.08606023341417313,
                    0.10924399644136429
                ],
                [
                    0.02655048854649067,
                    0.04725862294435501,
                    0.028516218066215515
                ]
            ],
            [
                [
                    -0.23674899339675903,
                    0.2827219069004059,
                    -0.13543197512626648
                ],
                [
                    0.21687696874141693,
                    0.05330745130777359,
                    -0.25338342785835266
                ],
                [
                    0.18061289191246033,
                    0.11133461445569992,
                    -0.26459529995918274
                ]
            ],
            [
                [
                    -0.12275808304548264,
                    -0.006208878941833973,
                    -0.003833365859463811
                ],
                [
                    -0.07641609013080597,
                    0.026924628764390945,
                    -0.1426582634449005
                ],
                [
                    -0.1681840717792511,
                    0.12753042578697205,
                    -0.07129472494125366
                ]
            ],
            [
                [
                    0.16005626320838928,
                    0.005605191923677921,
                    -0.18910101056098938
                ],
                [
                    0.4932323694229126,
                    -0.05185907334089279,
                    -0.08268242329359055
                ],
                [
                    0.04584021121263504,
                    -0.1240139827132225,
                    0.001773349940776825
                ]
            ]
        ],
        [
            [
                [
                    -0.174306720495224,
                    -0.06358782947063446,
                    -0.09142348170280457
                ],
                [
                    -0.01591121219098568,
                    -0.03179781138896942,
                    0.044801801443099976
                ],
                [
                    -0.10397709906101227,
                    -0.10505147278308868,
                    -0.08742845058441162
                ]
            ],
            [
                [
                    -0.21440674364566803,
                    -0.017290348187088966,
                    -0.006707801017910242
                ],
                [
                    -0.23214736580848694,
                    -0.09491294622421265,
                    -0.006547896191477776
                ],
                [
                    -0.07381675392389297,
                    -0.084477998316288,
                    -0.1268632560968399
                ]
            ],
            [
                [
                    -0.18455973267555237,
                    0.001589563093148172,
                    0.048686683177948
                ],
                [
                    -0.21960844099521637,
                    -0.0464521124958992,
                    0.045877568423748016
                ],
                [
                    -0.18188561499118805,
                    -0.053182657808065414,
                    -0.0700877457857132
                ]
            ],
            [
                [
                    -0.019383057951927185,
                    -0.06459401547908783,
                    -0.11218138039112091
                ],
                [
                    0.05043025314807892,
                    0.006257903296500444,
                    -0.04884576424956322
                ],
                [
                    0.07978837192058563,
                    0.07116366922855377,
                    -0.04654429107904434
                ]
            ],
            [
                [
                    -0.08544037491083145,
                    -0.014262216165661812,
                    -0.1490606814622879
                ],
                [
                    -0.06617531180381775,
                    -0.13817435503005981,
                    -0.030618932098150253
                ],
                [
                    -0.24631761014461517,
                    -0.1923334300518036,
                    -0.09210290014743805
                ]
            ],
            [
                [
                    -0.1402023732662201,
                    -0.13271546363830566,
                    -0.05278300866484642
                ],
                [
                    -0.24497604370117188,
                    -0.15479902923107147,
                    -0.05489174276590347
                ],
                [
                    -0.14299948513507843,
                    -0.037306901067495346,
                    -0.09371878951787949
                ]
            ],
            [
                [
                    -0.06537310779094696,
                    -0.04884341359138489,
                    -0.12509258091449738
                ],
                [
                    -0.035077739506959915,
                    -0.054014503955841064,
                    0.041076596826314926
                ],
                [
                    -0.1514952927827835,
                    0.03551974520087242,
                    -0.020544664934277534
                ]
            ],
            [
                [
                    -0.11939998716115952,
                    -0.03361260145902634,
                    0.06891205161809921
                ],
                [
                    -0.1408570557832718,
                    -0.011065409518778324,
                    0.03566983714699745
                ],
                [
                    -0.040961071848869324,
                    0.06515556573867798,
                    0.02619447000324726
                ]
            ],
            [
                [
                    -0.08636432141065598,
                    -0.12763914465904236,
                    -0.10714802145957947
                ],
                [
                    -0.3033461570739746,
                    -0.25929853320121765,
                    -0.13538908958435059
                ],
                [
                    -0.2515280842781067,
                    -0.2009415328502655,
                    -0.06707644462585449
                ]
            ],
            [
                [
                    -0.42772236466407776,
                    -0.2830173373222351,
                    -0.28886878490448
                ],
                [
                    -0.10737939924001694,
                    -0.3204197287559509,
                    -0.00912298820912838
                ],
                [
                    -0.022587435320019722,
                    -0.22210627794265747,
                    -0.10052049905061722
                ]
            ],
            [
                [
                    -0.6370816826820374,
                    -0.4536590576171875,
                    -0.26499366760253906
                ],
                [
                    -1.595878005027771,
                    -0.12961401045322418,
                    -0.004507474135607481
                ],
                [
                    -1.2859408855438232,
                    -0.3784448504447937,
                    0.06352194398641586
                ]
            ],
            [
                [
                    -0.12368568032979965,
                    -0.1571134328842163,
                    0.018916815519332886
                ],
                [
                    -0.29873427748680115,
                    -0.14878559112548828,
                    0.037616997957229614
                ],
                [
                    -0.17042206227779388,
                    -0.024641456082463264,
                    0.06943684071302414
                ]
            ],
            [
                [
                    -0.31828826665878296,
                    -0.2584706246852875,
                    -0.12718768417835236
                ],
                [
                    -0.5401831865310669,
                    -0.22777213156223297,
                    0.11989419907331467
                ],
                [
                    -0.4806378483772278,
                    -0.1751725673675537,
                    -0.02025483548641205
                ]
            ],
            [
                [
                    -0.11371971666812897,
                    -0.035686373710632324,
                    -0.12216231971979141
                ],
                [
                    -0.17933103442192078,
                    -0.018991438671946526,
                    -0.0041676475666463375
                ],
                [
                    -0.12762659788131714,
                    -0.03949557617306709,
                    -0.06341317296028137
                ]
            ],
            [
                [
                    -0.03543529659509659,
                    -0.1449902504682541,
                    0.014212129637598991
                ],
                [
                    -0.04042649641633034,
                    -0.09700974822044373,
                    -0.04097399488091469
                ],
                [
                    -0.08693090081214905,
                    -0.08827556669712067,
                    -0.08337630331516266
                ]
            ],
            [
                [
                    -0.12426301836967468,
                    -0.07142578065395355,
                    -0.07621091604232788
                ],
                [
                    -0.3198694586753845,
                    -0.04846235364675522,
                    -0.09669575095176697
                ],
                [
                    -0.29854509234428406,
                    -0.07749934494495392,
                    -0.11394258588552475
                ]
            ],
            [
                [
                    -0.18718253076076508,
                    -0.2158925086259842,
                    -0.08556213974952698
                ],
                [
                    -0.6042638421058655,
                    -0.1837599128484726,
                    -0.04810353368520737
                ],
                [
                    -0.7005541920661926,
                    -0.17784476280212402,
                    0.005446522030979395
                ]
            ],
            [
                [
                    -0.20964236557483673,
                    -0.040336236357688904,
                    -0.015927767381072044
                ],
                [
                    0.012760447338223457,
                    -0.12214959412813187,
                    0.054527077823877335
                ],
                [
                    -0.04710869491100311,
                    -0.10492276400327682,
                    0.005332864820957184
                ]
            ],
            [
                [
                    -0.2709883451461792,
                    -0.36082109808921814,
                    -0.13030840456485748
                ],
                [
                    -0.9667358994483948,
                    -0.25235220789909363,
                    -0.1051543727517128
                ],
                [
                    -0.9326246976852417,
                    -0.26315003633499146,
                    -0.0751258134841919
                ]
            ]
        ],
        [
            [
                [
                    0.04573729634284973,
                    0.07333308458328247,
                    0.005274387542158365
                ],
                [
                    0.07080642133951187,
                    -0.20317862927913666,
                    0.013976981863379478
                ],
                [
                    0.0657375380396843,
                    -0.032658129930496216,
                    0.05873750522732735
                ]
            ],
            [
                [
                    0.027875203639268875,
                    -0.21868321299552917,
                    -0.20299428701400757
                ],
                [
                    0.25252845883369446,
                    -0.07638534158468246,
                    0.05510001629590988
                ],
                [
                    0.22309185564517975,
                    0.2643451690673828,
                    0.3086167871952057
                ]
            ],
            [
                [
                    0.11874163150787354,
                    -0.13124027848243713,
                    -0.2388189136981964
                ],
                [
                    0.07432491332292557,
                    -0.3131200671195984,
                    -0.21922734379768372
                ],
                [
                    0.0051455325447022915,
                    -0.35160937905311584,
                    -0.1622178852558136
                ]
            ],
            [
                [
                    0.0091937817633152,
                    0.1557769775390625,
                    -0.05788658186793327
                ],
                [
                    0.04644379764795303,
                    0.12359273433685303,
                    -0.011424176394939423
                ],
                [
                    -0.11416581273078918,
                    0.004434096161276102,
                    0.044405076652765274
                ]
            ],
            [
                [
                    -0.05357908457517624,
                    -0.11646654456853867,
                    -0.268970787525177
                ],
                [
                    0.19420665502548218,
                    0.03622175008058548,
                    -0.21566198766231537
                ],
                [
                    0.30717283487319946,
                    0.008920774795114994,
                    0.05699501559138298
                ]
            ],
            [
                [
                    0.021681444719433784,
                    -0.023163070902228355,
                    -0.08005926758050919
                ],
                [
                    -0.02159576490521431,
                    -0.18455870449543,
                    -0.12327022105455399
                ],
                [
                    -0.033744730055332184,
                    -0.04508708417415619,
                    -0.07835859060287476
                ]
            ],
            [
                [
                    -0.01392475888133049,
                    -0.0930551141500473,
                    -0.13496945798397064
                ],
                [
                    -0.03584977984428406,
                    0.003557500196620822,
                    -0.018439311534166336
                ],
                [
                    -0.15771767497062683,
                    -0.13417115807533264,
                    -0.06782907992601395
                ]
            ],
            [
                [
                    -0.038264233618974686,
                    -0.030690491199493408,
                    -0.07334769517183304
                ],
                [
                    -0.10462994128465652,
                    -0.14944738149642944,
                    -0.04412417858839035
                ],
                [
                    -0.14270608127117157,
                    -0.16619090735912323,
                    0.045705463737249374
                ]
            ],
            [
                [
                    -0.17133310437202454,
                    -0.090297169983387,
                    -0.327812522649765
                ],
                [
                    0.05245915800333023,
                    0.054930198937654495,
                    -0.21280983090400696
                ],
                [
                    -0.015415971167385578,
                    -0.21296487748622894,
                    -0.17106933891773224
                ]
            ],
            [
                [
                    0.19510994851589203,
                    0.24253588914871216,
                    0.029008546844124794
                ],
                [
                    0.20751778781414032,
                    -0.089394710958004,
                    -0.03508933261036873
                ],
                [
                    -0.05887214094400406,
                    -0.0875229611992836,
                    -0.16009920835494995
                ]
            ],
            [
                [
                    0.03013044036924839,
                    0.25137704610824585,
                    0.10919425636529922
                ],
                [
                    -0.2612529397010803,
                    0.24463438987731934,
                    -0.3007183074951172
                ],
                [
                    -0.40055111050605774,
                    -0.03626399114727974,
                    -0.26750046014785767
                ]
            ],
            [
                [
                    0.4039405584335327,
                    0.28953632712364197,
                    0.13967566192150116
                ],
                [
                    0.3261435925960541,
                    0.22627967596054077,
                    0.38578760623931885
                ],
                [
                    0.4813014566898346,
                    0.23915641009807587,
                    0.2708843946456909
                ]
            ],
            [
                [
                    0.004919126164168119,
                    0.12180637568235397,
                    -0.025596799328923225
                ],
                [
                    0.10235957056283951,
                    0.27751296758651733,
                    -0.020390231162309647
                ],
                [
                    0.05878612771630287,
                    0.1429855078458786,
                    0.023486994206905365
                ]
            ],
            [
                [
                    0.2218882292509079,
                    0.17377959191799164,
                    -0.06407497823238373
                ],
                [
                    0.23840704560279846,
                    0.1731642484664917,
                    0.10086862742900848
                ],
                [
                    0.2335827648639679,
                    0.22907619178295135,
                    0.044298067688941956
                ]
            ],
            [
                [
                    -0.026547148823738098,
                    0.25375401973724365,
                    -0.02338726446032524
                ],
                [
                    -0.09801839292049408,
                    0.3797490894794464,
                    -0.04259447380900383
                ],
                [
                    -0.08573763072490692,
                    0.02827265113592148,
                    0.058302946388721466
                ]
            ],
            [
                [
                    -0.19270828366279602,
                    -0.22664178907871246,
                    -0.24498015642166138
                ],
                [
                    -0.12800511717796326,
                    -0.06798949837684631,
                    -0.07588803768157959
                ],
                [
                    0.06428977102041245,
                    0.0953780934214592,
                    0.07605227082967758
                ]
            ],
            [
                [
                    -0.2158251851797104,
                    0.37102970480918884,
                    0.1485103964805603
                ],
                [
                    -0.19445975124835968,
                    0.49731239676475525,
                    0.10465145856142044
                ],
                [
                    -0.08906643092632294,
                    0.47434332966804504,
                    0.18702927231788635
                ]
            ],
            [
                [
                    0.2652362287044525,
                    0.15219110250473022,
                    0.018748797476291656
                ],
                [
                    0.27636808156967163,
                    0.16052086651325226,
                    0.014180071651935577
                ],
                [
                    0.2828114628791809,
                    0.09201779216527939,
                    0.08928524702787399
                ]
            ],
            [
                [
                    -0.11297057569026947,
                    0.4167588949203491,
                    0.24273988604545593
                ],
                [
                    -0.28639402985572815,
                    0.5976972579956055,
                    -0.04704194888472557
                ],
                [
                    -0.39437294006347656,
                    0.5493619441986084,
                    -0.034615445882081985
                ]
            ]
        ],
        [
            [
                [
                    -0.046619828790426254,
                    0.049238480627536774,
                    -0.05802151560783386
                ],
                [
                    -0.027049202471971512,
                    0.055038534104824066,
                    -0.02047598920762539
                ],
                [
                    0.006226494908332825,
                    -0.005706788506358862,
                    -0.06388159841299057
                ]
            ],
            [
                [
                    -0.08729690313339233,
                    0.006400578655302525,
                    -0.04164924472570419
                ],
                [
                    -0.06513961404561996,
                    0.059101808816194534,
                    0.012071128934621811
                ],
                [
                    -0.08897604793310165,
                    0.0024066949263215065,
                    -0.05253029614686966
                ]
            ],
            [
                [
                    -0.1480591595172882,
                    -0.08744723349809647,
                    -0.06467267125844955
                ],
                [
                    -0.07983893156051636,
                    -0.022950757294893265,
                    -0.03686041012406349
                ],
                [
                    -0.17754222452640533,
                    0.02191852405667305,
                    -0.03631147742271423
                ]
            ],
            [
                [
                    -0.06540419906377792,
                    -0.09859620779752731,
                    -0.07009412348270416
                ],
                [
                    -0.09456311911344528,
                    -0.09821722656488419,
                    -0.07007832825183868
                ],
                [
                    -0.05446163937449455,
                    -0.0788252204656601,
                    -0.06346455216407776
                ]
            ],
            [
                [
                    -0.03792402893304825,
                    0.027354558929800987,
                    -0.05809232220053673
                ],
                [
                    -0.0114956796169281,
                    0.02248723804950714,
                    -0.016930995509028435
                ],
                [
                    -0.0003442404849920422,
                    -0.06977356970310211,
                    0.02697831764817238
                ]
            ],
            [
                [
                    -0.016891874372959137,
                    -0.03975476697087288,
                    -0.06475961208343506
                ],
                [
                    -0.029221221804618835,
                    0.014316362328827381,
                    -0.014674504287540913
                ],
                [
                    -0.029171233996748924,
                    0.0026862449012696743,
                    -0.020201124250888824
                ]
            ],
            [
                [
                    -0.02895478904247284,
                    0.0556425079703331,
                    -0.016822272911667824
                ],
                [
                    -0.10580641031265259,
                    -0.021479856222867966,
                    0.016591638326644897
                ],
                [
                    -0.06941729784011841,
                    -0.06316369026899338,
                    0.04141295701265335
                ]
            ],
            [
                [
                    -0.00742066465318203,
                    -0.0492837131023407,
                    -0.002395215444266796
                ],
                [
                    -0.0499015673995018,
                    -0.027964996173977852,
                    -0.005393635015934706
                ],
                [
                    -0.09010785073041916,
                    -0.02916567027568817,
                    0.001304094330407679
                ]
            ],
            [
                [
                    -0.038866132497787476,
                    -0.050024498254060745,
                    0.00916822999715805
                ],
                [
                    -0.10192153602838516,
                    -0.006939269602298737,
                    0.028956139460206032
                ],
                [
                    -0.04558635503053665,
                    -0.08963357657194138,
                    -0.003960342146456242
                ]
            ],
            [
                [
                    -0.050395864993333817,
                    -0.09625345468521118,
                    -0.0682804211974144
                ],
                [
                    0.010956261307001114,
                    0.026801789179444313,
                    0.016621677204966545
                ],
                [
                    -0.008024465292692184,
                    -0.008004202507436275,
                    0.02002066932618618
                ]
            ],
            [
                [
                    0.01411400455981493,
                    -0.04075869545340538,
                    -0.01899881847202778
