weights['2048'] = {
    "bn1.num_batches_tracked": 7590,
    "bn1.running_mean": [
        5.605193857299268e-45,
        5.605193857299268e-45,
        3.8182670358821724e-09,
        3.122413158416748,
        2.738391876220703,
        5.71527624130249,
        5.597479343414307,
        5.715419769287109,
        5.605193857299268e-45,
        1.6196776628494263,
        2.0959296226501465,
        0.4218583106994629,
        5.605193857299268e-45,
        5.605193857299268e-45,
        2.7288990020751953,
        5.605193857299268e-45,
        5.605193857299268e-45,
        1.1355923414230347,
        5.170525550842285
    ],
    "bn1.running_var": [
        5.605193857299268e-45,
        5.605193857299268e-45,
        1.1930083657074597e-11,
        67.26747131347656,
        36.95454788208008,
        384.93902587890625,
        64.6921615600586,
        189.1620330810547,
        5.605193857299268e-45,
        51.43452453613281,
        51.64643859863281,
        5.903075218200684,
        5.605193857299268e-45,
        5.605193857299268e-45,
        74.27938842773438,
        5.605193857299268e-45,
        5.605193857299268e-45,
        27.58966064453125,
        78.89274597167969
    ],
    "bn2.num_batches_tracked": 7590,
    "bn2.running_mean": [
        3.382662296295166,
        1.9834455251693726,
        1.9764602184295654,
        1.9734621047973633,
        3.748380661010742,
        2.750713348388672,
        2.227024555206299,
        1.821311593055725,
        3.900876998901367,
        2.459174394607544,
        1.8543392419815063,
        2.3654050827026367,
        2.5668609142303467,
        1.5251318216323853,
        2.460634708404541,
        1.6210922002792358,
        1.329728603363037,
        2.2011284828186035,
        3.970686674118042
    ],
    "bn2.running_var": [
        4.504174709320068,
        2.1316728591918945,
        1.8700426816940308,
        3.877261161804199,
        3.5391955375671387,
        3.151434898376465,
        1.3505040407180786,
        3.1429827213287354,
        12.533198356628418,
        6.419776439666748,
        2.8480491638183594,
        6.834405422210693,
        14.21808910369873,
        0.8933457732200623,
        24.894994735717773,
        3.2245066165924072,
        1.0540902614593506,
        3.7469356060028076,
        78.7142333984375
    ],
    "bn3.num_batches_tracked": 7590,
    "bn3.running_mean": [
        1.029115080833435,
        1.133799433708191,
        1.0842527151107788,
        0.7634875774383545,
        1.2096281051635742,
        0.6455733180046082,
        0.983616828918457,
        0.6629034280776978,
        0.9928387999534607,
        0.6808657050132751,
        0.9688469767570496,
        0.4326290786266327,
        0.8548345565795898,
        0.9189882874488831,
        2.3490374088287354,
        0.9973204731941223,
        1.1597203016281128,
        0.8306270241737366,
        0.580085277557373
    ],
    "bn3.running_var": [
        6.264991283416748,
        2.696702718734741,
        6.516651153564453,
        3.450202703475952,
        8.091680526733398,
        2.226686477661133,
        2.546135187149048,
        3.3996174335479736,
        3.0247998237609863,
        2.7214901447296143,
        4.398500919342041,
        2.295193910598755,
        8.394868850708008,
        4.060403347015381,
        4.938342571258545,
        6.139983654022217,
        3.1786623001098633,
        4.26296854019165,
        2.0959203243255615
    ],
    "bn4.num_batches_tracked": 7590,
    "bn4.running_mean": [
        5.779557228088379,
        3.6626110076904297,
        4.920209884643555,
        4.2080397605896,
        4.928027153015137,
        4.241706371307373,
        4.389499664306641,
        3.5267343521118164,
        5.327890396118164,
        4.310449123382568,
        3.7804675102233887,
        2.958801507949829,
        3.5434255599975586,
        2.2842929363250732,
        3.296480894088745,
        4.244349002838135,
        3.20906138420105,
        3.44223690032959,
        4.305117607116699
    ],
    "bn4.running_var": [
        16.778032302856445,
        5.649725437164307,
        6.208252906799316,
        6.611783981323242,
        5.228116512298584,
        10.82229232788086,
        5.4752044677734375,
        4.1929240226745605,
        14.853307723999023,
        12.575539588928223,
        5.657431602478027,
        7.2362213134765625,
        14.37464714050293,
        2.818688154220581,
        27.546579360961914,
        7.107006549835205,
        4.458723545074463,
        5.410147190093994,
        81.39625549316406
    ],
    "bn5.num_batches_tracked": 7590,
    "bn5.running_mean": [
        0.5451406240463257,
        1.4258079528808594,
        0.8813093900680542,
        1.8765830993652344,
        0.6716688871383667,
        0.545333206653595,
        1.6134032011032104,
        0.9574866890907288,
        1.5933107137680054,
        0.7756742238998413,
        0.6100983023643494,
        0.5545479655265808,
        0.5311188697814941,
        1.0359928607940674,
        1.2828783988952637,
        1.6960809230804443,
        0.9100590348243713,
        0.5585068464279175,
        0.7126514911651611
    ],
    "bn5.running_var": [
        2.903006076812744,
        1.825506329536438,
        3.3187224864959717,
        8.664935111999512,
        0.8999904990196228,
        2.014063835144043,
        3.1428282260894775,
        1.7469807863235474,
        6.550032615661621,
        1.3632376194000244,
        1.9422519207000732,
        1.902017593383789,
        0.9908323287963867,
        7.453043460845947,
        6.102185249328613,
        4.119700908660889,
        1.734063744544983,
        1.6986050605773926,
        2.6450016498565674
    ],
    "bn6.num_batches_tracked": 7590,
    "bn6.running_mean": [
        8.224488258361816,
        5.195950508117676,
        7.609989166259766,
        6.196425914764404,
        6.914766311645508,
        6.001228332519531,
        6.2325053215026855,
        5.722286224365234,
        7.345686435699463,
        6.001242637634277,
        5.5693039894104,
        5.124622821807861,
        4.83647346496582,
        3.951425313949585,
        5.066050052642822,
        6.744801044464111,
        5.6982574462890625,
        6.064608097076416,
        5.2408671379089355
    ],
    "bn6.running_var": [
        15.816287994384766,
        37.24771499633789,
        16.310876846313477,
        38.02962112426758,
        9.619916915893555,
        42.68959045410156,
        12.021248817443848,
        19.046430587768555,
        43.8105354309082,
        35.78404235839844,
        7.263278484344482,
        14.661113739013672,
        26.84760856628418,
        15.102882385253906,
        30.808332443237305,
        14.343719482421875,
        28.71978187561035,
        10.776070594787598,
        79.0421142578125
    ],
    "conv0.weight": [
        [
            [
                [
                    1.6822075843811035,
                    -2.243511199951172,
                    0.5615400671958923
                ],
                [
                    0.674125075340271,
                    -0.1593274027109146,
                    -0.7311849594116211
                ],
                [
                    -0.8917511105537415,
                    2.8793118000030518,
                    -1.0199400186538696
                ]
            ]
        ],
        [
            [
                [
                    0.032295502722263336,
                    0.45982107520103455,
                    0.13154104351997375
                ],
                [
                    -1.6981325149536133,
                    -2.0806691646575928,
                    -1.2730530500411987
                ],
                [
                    1.7687333822250366,
                    1.7439669370651245,
                    1.709939956665039
                ]
            ]
        ],
        [
            [
                [
                    0.346544474363327,
                    0.232577845454216,
                    -0.05903202295303345
                ],
                [
                    0.4202532470226288,
                    -0.07044737040996552,
                    0.46906012296676636
                ],
                [
                    -0.5850752592086792,
                    -0.16014225780963898,
                    0.6815418004989624
                ]
            ]
        ],
        [
            [
                [
                    -1.596081256866455,
                    0.7362257838249207,
                    -0.36270084977149963
                ],
                [
                    0.11165012419223785,
                    0.6347636580467224,
                    -0.9600821733474731
                ],
                [
                    2.119070291519165,
                    -0.2423282116651535,
                    -0.1312175840139389
                ]
            ]
        ],
        [
            [
                [
                    -1.4334052801132202,
                    2.6914312839508057,
                    -0.7804365158081055
                ],
                [
                    0.901581346988678,
                    0.30290940403938293,
                    -0.9083883166313171
                ],
                [
                    1.7208726406097412,
                    -2.4938032627105713,
                    0.04486360773444176
                ]
            ]
        ],
        [
            [
                [
                    -0.07529986649751663,
                    0.6465775966644287,
                    0.25429800152778625
                ],
                [
                    -0.11973562091588974,
                    0.3833688199520111,
                    0.4415983259677887
                ],
                [
                    0.5121663808822632,
                    0.28486379981040955,
                    0.7447438836097717
                ]
            ]
        ],
        [
            [
                [
                    0.9832620620727539,
                    -0.37343746423721313,
                    -0.6490518450737
                ],
                [
                    0.0929439440369606,
                    0.16810229420661926,
                    -0.7625808119773865
                ],
                [
                    -0.26104462146759033,
                    1.3136628866195679,
                    -0.9851260185241699
                ]
            ]
        ],
        [
            [
                [
                    0.2709867060184479,
                    0.3785281181335449,
                    0.16495591402053833
                ],
                [
                    0.07880931347608566,
                    -0.14563611149787903,
                    0.22906829416751862
                ],
                [
                    0.33237138390541077,
                    -0.4651750922203064,
                    -0.025055238977074623
                ]
            ]
        ],
        [
            [
                [
                    2.317911148071289,
                    2.0892229080200195,
                    1.876571774482727
                ],
                [
                    0.3589276671409607,
                    0.3793087899684906,
                    0.18544262647628784
                ],
                [
                    -3.0244967937469482,
                    -2.397500514984131,
                    -1.235363483428955
                ]
            ]
        ],
        [
            [
                [
                    0.8355914354324341,
                    0.10900983214378357,
                    -0.5636719465255737
                ],
                [
                    0.6394339203834534,
                    -0.1001603826880455,
                    -0.3736797869205475
                ],
                [
                    0.31669291853904724,
                    0.25413021445274353,
                    -0.39179614186286926
                ]
            ]
        ],
        [
            [
                [
                    0.9691272974014282,
                    0.9820656180381775,
                    0.8587836027145386
                ],
                [
                    -0.8312352895736694,
                    -1.0866631269454956,
                    -0.8767594695091248
                ],
                [
                    0.00028470129473134875,
                    0.4004441797733307,
                    -0.13479569554328918
                ]
            ]
        ],
        [
            [
                [
                    -0.006596417166292667,
                    0.7526994943618774,
                    0.19239434599876404
                ],
                [
                    0.19139790534973145,
                    -0.40865373611450195,
                    -0.38376525044441223
                ],
                [
                    0.2561171352863312,
                    -0.8658815026283264,
                    -0.3431122303009033
                ]
            ]
        ],
        [
            [
                [
                    -0.1566672921180725,
                    0.4950331449508667,
                    0.683086097240448
                ],
                [
                    0.39928486943244934,
                    -0.4431821405887604,
                    0.4732419550418854
                ],
                [
                    0.648279070854187,
                    -0.6218001842498779,
                    -0.5826928019523621
                ]
            ]
        ],
        [
            [
                [
                    0.07965116947889328,
                    0.3576469421386719,
                    -0.6176568865776062
                ],
                [
                    0.3046167492866516,
                    0.1936585158109665,
                    -0.20990073680877686
                ],
                [
                    0.4946349859237671,
                    -0.17917408049106598,
                    0.36428284645080566
                ]
            ]
        ],
        [
            [
                [
                    0.28061750531196594,
                    -0.10234681516885757,
                    -1.1255977153778076
                ],
                [
                    -0.45035314559936523,
                    -0.4610595107078552,
                    -0.4846436381340027
                ],
                [
                    -0.16169236600399017,
                    -0.0810532420873642,
                    0.2520093619823456
                ]
            ]
        ],
        [
            [
                [
                    -0.67078697681427,
                    -0.7420023083686829,
                    -0.34401556849479675
                ],
                [
                    0.03473832458257675,
                    0.34970995783805847,
                    0.6162014007568359
                ],
                [
                    0.6979203224182129,
                    0.46423500776290894,
                    0.11445994675159454
                ]
            ]
        ],
        [
            [
                [
                    -0.12171123921871185,
                    0.17627102136611938,
                    0.5052474141120911
                ],
                [
                    0.3750075399875641,
                    0.15593332052230835,
                    -0.6342613101005554
                ],
                [
                    -0.06184030696749687,
                    -0.08187653869390488,
                    -0.10735448449850082
                ]
            ]
        ],
        [
            [
                [
                    0.27518031001091003,
                    0.28555792570114136,
                    -1.502036213874817
                ],
                [
                    0.6276273727416992,
                    -0.05957355350255966,
                    0.05956577509641647
                ],
                [
                    0.04431546851992607,
                    -0.042767513543367386,
                    1.573631763458252
                ]
            ]
        ],
        [
            [
                [
                    -1.8055752515792847,
                    -0.5571280717849731,
                    0.3934490382671356
                ],
                [
                    -0.1266937106847763,
                    0.2533855140209198,
                    0.6613399386405945
                ],
                [
                    0.41440773010253906,
                    0.8128846287727356,
                    1.5007219314575195
                ]
            ]
        ]
    ],
    "conv1.weight": [
        [
            [
                [
                    -0.12502023577690125,
                    -0.00325483875349164,
                    0.02305554412305355
                ],
                [
                    -0.14788924157619476,
                    0.026898382231593132,
                    -0.011484749615192413
                ],
                [
                    -0.1147024929523468,
                    0.0502399280667305,
                    -0.06309597194194794
                ]
            ],
            [
                [
                    -0.1351018249988556,
                    -0.0722283348441124,
                    0.04599769786000252
                ],
                [
                    -0.12797316908836365,
                    0.00801246426999569,
                    0.023712560534477234
                ],
                [
                    -0.17057186365127563,
                    -0.024636028334498405,
                    -0.06529501080513
                ]
            ],
            [
                [
                    -0.07886959612369537,
                    0.026367340236902237,
                    0.04976522549986839
                ],
                [
                    -0.12794452905654907,
                    -0.012168611399829388,
                    -0.05608966201543808
                ],
                [
                    -0.11440262943506241,
                    -0.04849519580602646,
                    0.02506430447101593
                ]
            ],
            [
                [
                    -0.29580721259117126,
                    -0.04064006730914116,
                    -0.013170361518859863
                ],
                [
                    -0.21711865067481995,
                    -0.09815806895494461,
                    -0.05979566648602486
                ],
                [
                    -0.3155541718006134,
                    0.03391692414879799,
                    -0.03992529585957527
                ]
            ],
            [
                [
                    0.02837206795811653,
                    -0.02335205301642418,
                    0.0019415155984461308
                ],
                [
                    -0.02227424830198288,
                    -0.026287032291293144,
                    0.007064010947942734
                ],
                [
                    -0.03644247725605965,
                    -0.0058642239309847355,
                    0.006118301302194595
                ]
            ],
            [
                [
                    -0.08550579845905304,
                    -0.049402642995119095,
                    0.07114671170711517
                ],
                [
                    -0.08534721285104752,
                    -0.024778274819254875,
                    0.07352124154567719
                ],
                [
                    -0.0003551198460627347,
                    -0.008397014811635017,
                    -0.06069829314947128
                ]
            ],
            [
                [
                    -0.0715298056602478,
                    -0.07134058326482773,
                    -0.028808368369936943
                ],
                [
                    -0.13182155787944794,
                    -0.029167477041482925,
                    -0.004006634932011366
                ],
                [
                    -0.05234362185001373,
                    0.00014155934331938624,
                    0.05859287455677986
                ]
            ],
            [
                [
                    0.04652782157063484,
                    -0.07230917364358902,
                    0.0396752655506134
                ],
                [
                    -0.07989849150180817,
                    -0.051188502460718155,
                    0.01918654330074787
                ],
                [
                    -0.0017867755377665162,
                    0.04141300916671753,
                    -0.022291740402579308
                ]
            ],
            [
                [
                    -0.03129403665661812,
                    -0.04307195544242859,
                    -0.07509753853082657
                ],
                [
                    0.0307267215102911,
                    -0.08442743867635727,
                    -0.0016307223122566938
                ],
                [
                    -0.029895629733800888,
                    -0.0591822974383831,
                    0.009410660713911057
                ]
            ],
            [
                [
                    0.07841095328330994,
                    -0.0416262112557888,
                    -0.04878391698002815
                ],
                [
                    -0.027263259515166283,
                    -0.08721044659614563,
                    0.030468901619315147
                ],
                [
                    -0.03836415335536003,
                    -0.0649285688996315,
                    -0.04561454802751541
                ]
            ],
            [
                [
                    0.01333282794803381,
                    0.0016970387659966946,
                    0.054021455347537994
                ],
                [
                    0.009677847847342491,
                    -0.04135015234351158,
                    -0.02262452058494091
                ],
                [
                    0.008003382943570614,
                    0.04617820680141449,
                    0.019493723288178444
                ]
            ],
            [
                [
                    -0.16708658635616302,
                    -0.048717036843299866,
                    -0.06766477972269058
                ],
                [
                    -0.12379037588834763,
                    -0.06930559873580933,
                    -0.07124999910593033
                ],
                [
                    -0.0788600817322731,
                    -0.059660766273736954,
                    -0.017436427995562553
                ]
            ],
            [
                [
                    -0.14769670367240906,
                    -0.039975691586732864,
                    -0.05396970361471176
                ],
                [
                    -0.23899194598197937,
                    0.022205065935850143,
                    0.006761730648577213
                ],
                [
                    -0.11697154492139816,
                    -0.039793711155653,
                    0.016606727614998817
                ]
            ],
            [
                [
                    -0.09610778093338013,
                    -0.010986823588609695,
                    -0.048580970615148544
                ],
                [
                    -0.0659896656870842,
                    0.0034453494008630514,
                    -0.004879648797214031
                ],
                [
                    -0.10861608386039734,
                    -0.05606156587600708,
                    0.04546375945210457
                ]
            ],
            [
                [
                    -0.33875226974487305,
                    -0.015374921262264252,
                    -0.02890780009329319
                ],
                [
                    -0.3277135193347931,
                    -0.04017329588532448,
                    -0.04001295566558838
                ],
                [
                    -0.28037846088409424,
                    -0.004252362065017223,
                    -0.06115807592868805
                ]
            ],
            [
                [
                    0.003781662555411458,
                    -0.005616525188088417,
                    0.03203314542770386
                ],
                [
                    -0.027774624526500702,
                    -0.08451411128044128,
                    -0.013311471790075302
                ],
                [
                    0.007264531683176756,
                    -0.045739322900772095,
                    0.03384255990386009
                ]
            ],
            [
                [
                    -0.3375750184059143,
                    -0.06439752131700516,
                    0.0001426929811714217
                ],
                [
                    -0.3698230981826782,
                    -0.06003749370574951,
                    -0.00035870447754859924
                ],
                [
                    -0.4025709629058838,
                    -0.08446054905653,
                    -0.006650527007877827
                ]
            ],
            [
                [
                    0.05679730698466301,
                    0.05715346336364746,
                    0.039770931005477905
                ],
                [
                    0.002093379618600011,
                    0.021266477182507515,
                    -0.039071906358003616
                ],
                [
                    -0.07261926680803299,
                    -0.07189998030662537,
                    0.06957481801509857
                ]
            ],
            [
                [
                    -0.3333415687084198,
                    -0.10648972541093826,
                    0.015311766415834427
                ],
                [
                    -0.336173951625824,
                    0.012859164737164974,
                    0.06291097402572632
                ],
                [
                    -0.343802809715271,
                    -0.0415048711001873,
                    -0.03333152085542679
                ]
            ]
        ],
        [
            [
                [
                    0.06660514324903488,
                    -0.053849875926971436,
                    -0.16310401260852814
                ],
                [
                    0.13995705544948578,
                    0.0048903729766607285,
                    0.040611956268548965
                ],
                [
                    0.03648253530263901,
                    -0.03124745935201645,
                    -0.022457044571638107
                ]
            ],
            [
                [
                    -0.05525007098913193,
                    -0.15548470616340637,
                    -0.051091358065605164
                ],
                [
                    -0.10022997111082077,
                    -0.027631564065814018,
                    -0.040149785578250885
                ],
                [
                    -0.03998939320445061,
                    -0.13220389187335968,
                    -0.014043789356946945
                ]
            ],
            [
                [
                    0.12061063200235367,
                    -0.16929225623607635,
                    -0.07171362638473511
                ],
                [
                    0.4154226779937744,
                    0.27024948596954346,
                    0.3588549792766571
                ],
                [
                    0.4154658019542694,
                    0.014680957421660423,
                    0.06770101934671402
                ]
            ],
            [
                [
                    -0.235051691532135,
                    -0.2672005295753479,
                    -0.1672482192516327
                ],
                [
                    -0.2007731795310974,
                    -0.2163493037223816,
                    -0.22880394756793976
                ],
                [
                    -0.19629940390586853,
                    -0.09635500609874725,
                    -0.09613383561372757
                ]
            ],
            [
                [
                    -0.2134740650653839,
                    -0.2654522657394409,
                    -0.16680870950222015
                ],
                [
                    -0.19466321170330048,
                    -0.1962791234254837,
                    -0.03728213161230087
                ],
                [
                    -0.255521684885025,
                    -0.06461342424154282,
                    -0.06417125463485718
                ]
            ],
            [
                [
                    0.24456407129764557,
                    -0.10226870328187943,
                    -0.03750982508063316
                ],
                [
                    0.2643830478191376,
                    0.05245479941368103,
                    -0.03661903738975525
                ],
                [
                    0.16923971474170685,
                    -0.049521055072546005,
                    -0.005071667023003101
                ]
            ],
            [
                [
                    -0.19845515489578247,
                    -0.20002341270446777,
                    -0.1768338829278946
                ],
                [
                    -0.1396067589521408,
                    -0.08888603001832962,
                    -0.040347736328840256
                ],
                [
                    -0.23601658642292023,
                    -0.05036519095301628,
                    0.02036847360432148
                ]
            ],
            [
                [
                    -0.17546537518501282,
                    -0.020596083253622055,
                    -0.039064597338438034
                ],
                [
                    -0.12527015805244446,
                    -0.010752476751804352,
                    -0.08666060119867325
                ],
                [
                    -0.1265878677368164,
                    -0.012717889621853828,
                    -0.04137636721134186
                ]
            ],
            [
                [
                    -0.34459781646728516,
                    -0.32023027539253235,
                    -0.26977965235710144
                ],
                [
                    -0.10554767400026321,
                    -0.17276567220687866,
                    0.01887918822467327
                ],
                [
                    -0.2566690444946289,
                    -0.0644894540309906,
                    -0.02208700217306614
                ]
            ],
            [
                [
                    -0.2829599380493164,
                    -0.1885332465171814,
                    -0.3223707973957062
                ],
                [
                    -0.23599641025066376,
                    -0.19640858471393585,
                    -0.15977028012275696
                ],
                [
                    -0.2200409173965454,
                    -0.16700379550457,
                    -0.02669461816549301
                ]
            ],
            [
                [
                    -0.014698833227157593,
                    -0.13834010064601898,
                    -0.11094361543655396
                ],
                [
                    -0.03874404355883598,
                    -0.07845788449048996,
                    -0.062430381774902344
                ],
                [
                    -0.03871313855051994,
                    -0.10905338078737259,
                    -0.07924744486808777
                ]
            ],
            [
                [
                    -0.3353573679924011,
                    -0.24620893597602844,
                    -0.17892199754714966
                ],
                [
                    -0.2576408088207245,
                    -0.11813511699438095,
                    -0.2317187488079071
                ],
                [
                    -0.22456899285316467,
                    -0.17611978948116302,
                    -0.2618776559829712
                ]
            ],
            [
                [
                    -0.11839978396892548,
                    -0.08183610439300537,
                    -0.06990377604961395
                ],
                [
                    -0.09622474014759064,
                    -0.11629856377840042,
                    -0.004865019116550684
                ],
                [
                    -0.14132387936115265,
                    -0.06794343143701553,
                    -0.14678147435188293
                ]
            ],
            [
                [
                    -0.15334951877593994,
                    -0.18764573335647583,
                    -0.1609872728586197
                ],
                [
                    -0.07319115102291107,
                    -0.1330823302268982,
                    -0.06445176154375076
                ],
                [
                    -0.07372384518384933,
                    -0.07216022163629532,
                    -0.11400444060564041
                ]
            ],
            [
                [
                    -0.3497219681739807,
                    -0.214360311627388,
                    -0.09808028489351273
                ],
                [
                    -0.1757705956697464,
                    -0.11034118384122849,
                    -0.12251890450716019
                ],
                [
                    -0.26647356152534485,
                    -0.23880504071712494,
                    -0.16748392581939697
                ]
            ],
            [
                [
                    0.021551121026277542,
                    -0.13736456632614136,
                    -0.0456271730363369
                ],
                [
                    -0.0005878606461919844,
                    -0.020459560677409172,
                    -0.04879296198487282
                ],
                [
                    0.10928896814584732,
                    -0.08550930768251419,
                    -0.010655081830918789
                ]
            ],
            [
                [
                    -0.12027660012245178,
                    -0.11508262902498245,
                    -0.15320611000061035
                ],
                [
                    -0.1590385138988495,
                    -0.125676229596138,
                    -0.12792621552944183
                ],
                [
                    -0.16001130640506744,
                    -0.16894933581352234,
                    -0.09705998748540878
                ]
            ],
            [
                [
                    -0.048333436250686646,
                    -0.155930295586586,
                    -0.13803189992904663
                ],
                [
                    0.04161939024925232,
                    0.006227424368262291,
                    -0.12609083950519562
                ],
                [
                    0.0029655348043888807,
                    -0.034386828541755676,
                    0.0005483979475684464
                ]
            ],
            [
                [
                    -0.423089861869812,
                    -0.2924134433269501,
                    -0.13577920198440552
                ],
                [
                    -0.43192633986473083,
                    -0.1970856785774231,
                    -0.09145372360944748
                ],
                [
                    -0.4548923969268799,
                    -0.18136662244796753,
                    -0.18242545425891876
                ]
            ]
        ],
        [
            [
                [
                    -0.08755920082330704,
                    0.011329387314617634,
                    0.04251403734087944
                ],
                [
                    -0.15350379049777985,
                    -0.021604865789413452,
                    0.07289998978376389
                ],
                [
                    -0.1660136729478836,
                    -0.047252267599105835,
                    -0.009314889088273048
                ]
            ],
            [
                [
                    0.02085065469145775,
                    -0.07065936177968979,
                    -0.03775905817747116
                ],
                [
                    -0.01101671438664198,
                    0.05366267263889313,
                    0.006077482830733061
                ],
                [
                    0.0022818902507424355,
                    -0.07694315910339355,
                    0.06906256824731827
                ]
            ],
            [
                [
                    0.014167806133627892,
                    0.08595119416713715,
                    0.026714760810136795
                ],
                [
                    -0.1483229249715805,
                    0.12246373295783997,
                    0.08484968543052673
                ],
                [
                    -0.19349227845668793,
                    0.011924343183636665,
                    0.09309562295675278
                ]
            ],
            [
                [
                    -0.01948421075940132,
                    -0.023647697642445564,
                    -0.09732221812009811
                ],
                [
                    -0.04593464732170105,
                    -0.04196304827928543,
                    -0.007943706586956978
                ],
                [
                    -0.026167981326580048,
                    -0.07269933074712753,
                    -0.09290635585784912
                ]
            ],
            [
                [
                    -0.03174971789121628,
                    -0.16901996731758118,
                    -0.09948704391717911
                ],
                [
                    -0.049611736088991165,
                    -0.110870361328125,
                    0.027426360175013542
                ],
                [
                    -0.1401997059583664,
                    -0.09197644144296646,
                    -0.017182674258947372
                ]
            ],
            [
                [
                    -0.035091303288936615,
                    0.07718123495578766,
                    -0.04381271079182625
                ],
                [
                    -0.13021400570869446,
                    0.04203983396291733,
                    0.08526226133108139
                ],
                [
                    -0.16303345561027527,
                    0.08453118056058884,
                    0.012481934390962124
                ]
            ],
            [
                [
                    -0.11410987377166748,
                    -0.011686563491821289,
                    0.02509179897606373
                ],
                [
                    -0.10479851812124252,
                    -0.04257876053452492,
                    -0.01670946553349495
                ],
                [
                    -0.23098361492156982,
                    -0.10968025028705597,
                    0.06395527720451355
                ]
            ],
            [
                [
                    -0.15042732656002045,
                    -0.17754320800304413,
                    0.03088158741593361
                ],
                [
                    -0.012295261025428772,
                    -0.1239553838968277,
                    -0.048753056675195694
                ],
                [
                    -0.37061038613319397,
                    -0.08698580414056778,
                    -0.0032421834766864777
                ]
            ],
            [
                [
                    -0.016889911144971848,
                    -0.10220559686422348,
                    0.0031315151136368513
                ],
                [
                    0.04492400214076042,
                    -0.004331613425165415,
                    0.0049236542545259
                ],
                [
                    -0.2483321577310562,
                    -0.142433762550354,
                    0.062240321189165115
                ]
            ],
            [
                [
                    -0.05773232504725456,
                    -0.07710180431604385,
                    -0.10661181807518005
                ],
                [
                    -0.09489957988262177,
                    -0.04458390176296234,
                    0.06419896334409714
                ],
                [
                    -0.2620460093021393,
                    -0.1505766659975052,
                    -0.05892828106880188
                ]
            ],
            [
                [
                    0.03993042930960655,
                    -0.0591772198677063,
                    -0.0231682900339365
                ],
                [
                    -0.0009156653541140258,
                    -0.04561527073383331,
                    -0.005326376762241125
                ],
                [
                    -0.09342720359563828,
                    -0.034698236733675,
                    -0.03791464492678642
                ]
            ],
            [
                [
                    0.015385531820356846,
                    -0.13946488499641418,
                    -0.043592505156993866
                ],
                [
                    0.08129513263702393,
                    -0.05994224548339844,
                    -0.047907210886478424
                ],
                [
                    -0.08329778164625168,
                    -0.08365404605865479,
                    -0.09363500773906708
                ]
            ],
            [
                [
                    -0.045305926352739334,
                    -0.11060398817062378,
                    -0.06172651797533035
                ],
                [
                    -0.06219957768917084,
                    -0.17797428369522095,
                    0.08449520915746689
                ],
                [
                    -0.3214159607887268,
                    -0.20702648162841797,
                    -0.00660648662596941
                ]
            ],
            [
                [
                    -0.006693290080875158,
                    -0.11673566699028015,
                    -0.010526751168072224
                ],
                [
                    -0.01133016124367714,
                    -0.107504703104496,
                    -0.03629171475768089
                ],
                [
                    -0.14741002023220062,
                    -0.20559649169445038,
                    -0.08196822553873062
                ]
            ],
            [
                [
                    -0.07759413868188858,
                    -0.13881723582744598,
                    -0.015968693420290947
                ],
                [
                    0.14035941660404205,
                    -0.07650176435709,
                    -0.09076657891273499
                ],
                [
                    -0.004999494180083275,
                    -0.11628425121307373,
                    0.019467204809188843
                ]
            ],
            [
                [
                    -0.11711708456277847,
                    -0.01659216731786728,
                    0.07122357189655304
                ],
                [
                    -0.07652385532855988,
                    0.06704726070165634,
                    -0.006448426283895969
                ],
                [
                    -0.13602320849895477,
                    -0.04808146506547928,
                    0.040990784764289856
                ]
            ],
            [
                [
                    0.18333490192890167,
                    -0.047783128917217255,
                    -0.024907058104872704
                ],
                [
                    0.090022012591362,
                    -0.022681428119540215,
                    0.006186983548104763
                ],
                [
                    0.058389294892549515,
                    -0.021384822204709053,
                    0.017694955691695213
                ]
            ],
            [
                [
                    -0.09501942992210388,
                    -0.002611166099086404,
                    -0.03649001196026802
                ],
                [
                    -0.024819642305374146,
                    -0.13274280726909637,
                    -0.01373622752726078
                ],
                [
                    -0.15645045042037964,
                    -0.04963741824030876,
                    0.021101510152220726
                ]
            ],
            [
                [
                    -0.28247377276420593,
                    -0.15607355535030365,
                    -0.008113405667245388
                ],
                [
                    -0.062095679342746735,
                    -0.15250185132026672,
                    0.05672231316566467
                ],
                [
                    -0.4850543439388275,
                    -0.1192803904414177,
                    -0.03494179993867874
                ]
            ]
        ],
        [
            [
                [
                    -0.37767890095710754,
                    -0.3949047327041626,
                    -0.2405201643705368
                ],
                [
                    -0.2517565190792084,
                    -0.14311999082565308,
                    -0.11434419453144073
                ],
                [
                    -0.2006889283657074,
                    0.08761217445135117,
                    -0.0961177721619606
                ]
            ],
            [
                [
                    0.08027128875255585,
                    0.05501937493681908,
                    -0.04297897592186928
                ],
                [
                    0.14587698876857758,
                    0.06316109746694565,
                    0.1260160505771637
                ],
                [
                    0.19571638107299805,
                    0.28217437863349915,
                    0.2930822968482971
                ]
            ],
            [
                [
                    0.08430484682321548,
                    -0.0780191570520401,
                    -0.20983192324638367
                ],
                [
                    0.13421358168125153,
                    0.01737142540514469,
                    -0.0228065587580204
                ],
                [
                    0.052651792764663696,
                    0.09758175164461136,
                    -0.1480100303888321
                ]
            ],
            [
                [
                    -0.26392337679862976,
                    0.24621304869651794,
                    -0.12328531593084335
                ],
                [
                    -0.15448005497455597,
                    0.3224571943283081,
                    -0.03282010927796364
                ],
                [
                    -0.18758060038089752,
                    0.4930048882961273,
                    0.09391232579946518
                ]
            ],
            [
                [
                    -0.0835392102599144,
                    0.20576104521751404,
                    -0.29179415106773376
                ],
                [
                    -0.099192313849926,
                    0.40875837206840515,
                    -0.06447384506464005
                ],
                [
                    -0.06335174292325974,
                    0.2740747630596161,
                    0.08376669883728027
                ]
            ],
            [
                [
                    -0.050027549266815186,
                    0.0657125785946846,
                    -0.15820752084255219
                ],
                [
                    -0.04781430959701538,
                    0.14613540470600128,
                    -0.13862018287181854
                ],
                [
                    -0.027382005006074905,
                    0.08688851445913315,
                    -0.16165004670619965
                ]
            ],
            [
                [
                    -0.2657597064971924,
                    -0.11314232647418976,
                    -0.10792788863182068
                ],
                [
                    -0.12830621004104614,
                    0.2558288872241974,
                    -0.05773620307445526
                ],
                [
                    -0.2107398808002472,
                    0.3417818546295166,
                    -0.11926433444023132
                ]
            ],
            [
                [
                    -0.11095926910638809,
                    0.021953748539090157,
                    0.05971980839967728
                ],
                [
                    -0.1213214322924614,
                    0.1267760694026947,
                    0.17638657987117767
                ],
                [
                    -0.05432695522904396,
                    0.030563252046704292,
                    0.140593022108078
                ]
            ],
            [
                [
                    -0.18987827003002167,
                    -0.06794075667858124,
                    -0.21063120663166046
                ],
                [
                    0.10874953866004944,
                    -0.08128110319375992,
                    0.10610532760620117
                ],
                [
                    0.22187291085720062,
                    -0.08935689181089401,
                    0.14777877926826477
                ]
            ],
            [
                [
                    -0.22576625645160675,
                    -0.17378292977809906,
                    -0.16695965826511383
                ],
                [
                    -0.08737587928771973,
                    0.04627580568194389,
                    -0.08478067070245743
                ],
                [
                    -0.24895519018173218,
                    0.23663312196731567,
                    -0.07110128551721573
                ]
            ],
            [
                [
                    0.101045161485672,
                    0.09998417645692825,
                    0.11539143323898315
                ],
                [
                    0.1341354250907898,
                    0.33833619952201843,
                    0.08963234722614288
                ],
                [
                    0.1356961727142334,
                    0.2851276099681854,
                    0.21538230776786804
                ]
            ],
            [
                [
                    -0.23044224083423615,
                    -0.005347736179828644,
                    -0.08169730752706528
                ],
                [
                    -0.23486922681331635,
                    0.012648265808820724,
                    0.05024665594100952
                ],
                [
                    -0.2505159378051758,
                    -0.15508562326431274,
                    0.07307206094264984
                ]
            ],
            [
                [
                    -0.09094016999006271,
                    0.004069961607456207,
                    0.08992180973291397
                ],
                [
                    -0.145332932472229,
                    0.0835106149315834,
                    0.11181315034627914
                ],
                [
                    -0.19508595764636993,
                    -0.015587338246405125,
                    0.20512598752975464
                ]
            ],
            [
                [
                    -0.10696344822645187,
                    0.03171679377555847,
                    -0.1293874979019165
                ],
                [
                    -0.018003053963184357,
                    0.13088259100914001,
                    0.07839102298021317
                ],
                [
                    -0.13453088700771332,
                    0.07873670011758804,
                    0.04900311678647995
                ]
            ],
            [
                [
                    -0.08975831419229507,
                    -0.10533098876476288,
                    -0.0016615376807749271
                ],
                [
                    -0.11650731414556503,
                    -0.02311594784259796,
                    0.12477929145097733
                ],
                [
                    -0.1559353768825531,
                    -0.2841354012489319,
                    0.025154007598757744
                ]
            ],
            [
                [
                    0.02925974875688553,
                    0.11237315088510513,
                    -0.06799440830945969
                ],
                [
                    0.005442329682409763,
                    0.04624777287244797,
                    -0.02866588532924652
                ],
                [
                    -0.03502926975488663,
                    0.11409120261669159,
                    -0.033996786922216415
                ]
            ],
            [
                [
                    -0.05560768023133278,
                    0.11038295179605484,
                    0.05763824284076691
                ],
                [
                    -0.04144354164600372,
                    0.16417722404003143,
                    0.028561022132635117
                ],
                [
                    -0.0877341702580452,
                    0.1891590654850006,
                    0.07676444202661514
                ]
            ],
            [
                [
                    -0.05718405172228813,
                    -0.0541486032307148,
                    -0.06796887516975403
                ],
                [
                    -0.06047648563981056,
                    0.03957904130220413,
                    -0.07583096623420715
                ],
                [
                    -0.00839079637080431,
                    0.057485565543174744,
                    -0.04841375723481178
                ]
            ],
            [
                [
                    0.024603988975286484,
                    0.612226665019989,
                    -0.06373917311429977
                ],
                [
                    0.1803203672170639,
                    0.3515840172767639,
                    0.3420257568359375
                ],
                [
                    0.12389019876718521,
                    -0.06724109500646591,
                    0.47273436188697815
                ]
            ]
        ],
        [
            [
                [
                    0.8757929801940918,
                    0.03666917234659195,
                    -0.31488919258117676
                ],
                [
                    0.18691296875476837,
                    -0.09075187146663666,
                    -0.02700437605381012
                ],
                [
                    0.17525824904441833,
                    -0.20129260420799255,
                    0.05016443505883217
                ]
            ],
            [
                [
                    -0.041022732853889465,
                    0.32109004259109497,
                    -0.15973421931266785
                ],
                [
                    -0.31573864817619324,
                    -0.0299226064234972,
                    -0.1614108383655548
                ],
                [
                    0.015797356143593788,
                    -0.25643786787986755,
                    -0.3187546133995056
                ]
            ],
            [
                [
                    -0.0043932064436376095,
                    0.11667285114526749,
                    -0.06991653144359589
                ],
                [
                    0.0451151542365551,
                    0.4106596112251282,
                    -0.19923360645771027
                ],
                [
                    -0.18596979975700378,
                    0.21153667569160461,
                    0.021413808688521385
                ]
            ],
            [
                [
                    -0.08356478065252304,
                    0.38090968132019043,
                    0.20592185854911804
                ],
                [
                    -0.1130046397447586,
                    0.400559663772583,
                    0.2766209542751312
                ],
                [
                    0.2838745415210724,
                    0.1505843847990036,
                    0.10639939457178116
                ]
            ],
            [
                [
                    -0.014217626303434372,
                    0.245050311088562,
                    0.4343116879463196
                ],
                [
                    -0.4053654968738556,
                    0.5776330828666687,
                    0.41301852464675903
                ],
                [
                    0.07265876978635788,
                    0.2995368540287018,
                    0.38701173663139343
                ]
            ],
            [
                [
                    -0.08604893833398819,
                    0.13941605389118195,
                    -0.1641019731760025
                ],
                [
                    0.07768255472183228,
                    0.4696219563484192,
                    -0.26516878604888916
                ],
                [
                    -0.11868830025196075,
                    0.15200142562389374,
                    -0.024439776316285133
                ]
            ],
            [
                [
                    0.3965260684490204,
                    -0.2158966362476349,
                    -0.25964927673339844
                ],
                [
                    -0.12846870720386505,
                    -0.07692490518093109,
                    0.13972002267837524
                ],
                [
                    0.09048719704151154,
                    -0.1418977528810501,
                    0.10881068557500839
                ]
            ],
            [
                [
                    -0.16948291659355164,
                    -0.16982759535312653,
                    0.09683407098054886
                ],
                [
                    -0.09507689625024796,
                    -0.18760794401168823,
                    0.12914438545703888
                ],
                [
                    0.04106302559375763,
                    -0.16325686872005463,
                    0.17659611999988556
                ]
            ],
            [
                [
                    0.313272088766098,
                    -0.31206607818603516,
                    0.0841672420501709
                ],
                [
                    0.47378742694854736,
                    -0.26330113410949707,
                    -0.4139602482318878
                ],
                [
                    0.3142167925834656,
                    0.26360970735549927,
                    -0.10284419357776642
                ]
            ],
            [
                [
                    0.5639889240264893,
                    -0.2690342962741852,
                    -0.13444848358631134
                ],
                [
                    -0.31184133887290955,
                    0.1827382594347,
                    0.03116038255393505
                ],
                [
                    -0.31201282143592834,
                    -0.11560690402984619,
                    0.22565707564353943
                ]
            ],
            [
                [
                    -0.08998246490955353,
                    -0.20027829706668854,
                    -0.06280767917633057
                ],
                [
                    -0.11034481227397919,
                    -0.09390967339277267,
                    -0.2249756008386612
                ],
                [
                    -0.0674668624997139,
                    -0.05230384320020676,
                    -0.21968455612659454
                ]
            ],
            [
                [
                    -0.34126538038253784,
                    -0.11926661431789398,
                    0.09683344513177872
                ],
                [
                    -0.04177727550268173,
                    -0.11726608127355576,
                    0.1604732722043991
                ],
                [
                    0.20333360135555267,
                    -0.08589169383049011,
                    0.2473512887954712
                ]
            ],
            [
                [
                    -0.48232877254486084,
                    -0.30680832266807556,
                    0.08789936453104019
                ],
                [
                    -0.012723113410174847,
                    -0.22877934575080872,
                    0.07749871164560318
                ],
                [
                    -0.0018378570675849915,
                    -0.0914749875664711,
                    0.15746992826461792
                ]
            ],
            [
                [
                    0.25546327233314514,
                    -0.019663698971271515,
                    -0.04989062249660492
                ],
                [
                    -0.1447940319776535,
                    0.233797088265419,
                    0.16953152418136597
                ],
                [
                    -0.19159118831157684,
                    0.07067737728357315,
                    0.1461157649755478
                ]
            ],
            [
                [
                    -0.6584575772285461,
                    -0.06426847726106644,
                    -0.28035417199134827
                ],
                [
                    0.08908795565366745,
                    -0.4735700786113739,
                    -0.03517676144838333
                ],
                [
                    0.8851166367530823,
                    -0.10193917900323868,
                    0.21461984515190125
                ]
            ],
            [
                [
                    -0.04486847296357155,
                    0.25575920939445496,
                    -0.17271162569522858
                ],
                [
                    -0.09936831891536713,
                    0.10915054380893707,
                    -0.12039893120527267
                ],
                [
                    -0.1484440267086029,
                    -0.1381474733352661,
                    -0.11489373445510864
                ]
            ],
            [
                [
                    -0.027399875223636627,
                    -0.07703128457069397,
                    -0.15023720264434814
                ],
                [
                    0.009619536809623241,
                    -0.03435322269797325,
                    -0.09370601177215576
                ],
                [
                    0.09561644494533539,
                    -0.015692725777626038,
                    -0.0811334177851677
                ]
            ],
            [
                [
                    0.40773019194602966,
                    0.006849966011941433,
                    0.0004519736976362765
                ],
                [
                    -0.009017322212457657,
                    0.31047263741493225,
                    0.01537907961755991
                ],
                [
                    -0.10373908281326294,
                    0.1100827157497406,
                    0.30423274636268616
                ]
            ],
            [
                [
                    -1.5207244157791138,
                    -0.08622321486473083,
                    -0.34889066219329834
                ],
                [
                    0.27994436025619507,
                    -0.17592023313045502,
                    -0.4525109827518463
                ],
                [
                    0.9189980626106262,
                    -0.203959122300148,
                    -0.24333180487155914
                ]
            ]
        ],
        [
            [
                [
                    0.3684719204902649,
                    0.4788833260536194,
                    0.1485116332769394
                ],
                [
                    -0.009991029277443886,
                    0.23856604099273682,
                    0.18638218939304352
                ],
                [
                    -0.05412699654698372,
                    -0.046451617032289505,
                    -0.03809044137597084
                ]
            ],
            [
                [
                    -0.19930152595043182,
                    -0.051945097744464874,
                    -0.10238538682460785
                ],
                [
                    -0.28263992071151733,
                    0.035827308893203735,
                    -0.02018975466489792
                ],
                [
                    0.23834824562072754,
                    -0.041699353605508804,
                    -0.060261331498622894
                ]
            ],
            [
                [
                    0.24237076938152313,
                    0.02283535897731781,
                    0.11132902652025223
                ],
                [
                    0.10611781477928162,
                    0.048265647143125534,
                    0.04590331017971039
                ],
                [
                    -0.018162919208407402,
                    0.037545088678598404,
                    -0.01915702596306801
                ]
            ],
            [
                [
                    0.10662294924259186,
                    0.07749897986650467,
                    -0.058396924287080765
                ],
                [
                    0.10848800837993622,
                    0.047686342149972916,
                    -0.09336598962545395
                ],
                [
                    0.2747885286808014,
                    -0.04237953573465347,
                    -0.11140035092830658
                ]
            ],
            [
                [
                    -0.4285081624984741,
                    -0.018730254843831062,
                    -0.0026061562821269035
                ],
                [
                    -0.4217882454395294,
                    -0.12270790338516235,
                    -0.13570110499858856
                ],
                [
                    0.31246697902679443,
                    0.017991404980421066,
                    0.005458975210785866
                ]
            ],
            [
                [
                    0.2961403429508209,
                    -0.1587878167629242,
                    -0.18417811393737793
                ],
                [
                    0.10305747389793396,
                    -0.15329930186271667,
                    -0.2667236328125
                ],
                [
                    -0.2957071363925934,
                    -0.07945919781923294,
                    -0.3246470093727112
                ]
            ],
            [
                [
                    0.18316946923732758,
                    0.39199045300483704,
                    0.04534096270799637
                ],
                [
                    -0.25607967376708984,
                    0.021325550973415375,
                    -0.1350557804107666
                ],
                [
                    -0.40042802691459656,
                    -0.17980168759822845,
                    -0.37318316102027893
                ]
            ],
            [
                [
                    -0.20808309316635132,
                    -0.0403628908097744,
                    0.11373619735240936
                ],
                [
                    0.222366064786911,
                    -0.01294731441885233,
                    -0.020283056423068047
                ],
                [
                    0.5207744836807251,
                    -0.10299765318632126,
                    -0.040788765996694565
                ]
            ],
            [
                [
                    0.3186379671096802,
                    -0.4646283984184265,
                    0.17998462915420532
                ],
                [
                    0.20795440673828125,
                    -0.2924104630947113,
                    0.16286981105804443
                ],
                [
                    0.27141550183296204,
                    0.05487027019262314,
                    0.4794248342514038
                ]
            ],
            [
                [
                    0.10946737229824066,
                    0.38990986347198486,
                    0.08947308361530304
                ],
                [
                    -0.16939681768417358,
                    -0.13263079524040222,
                    -0.09002279490232468
                ],
                [
                    -0.17497894167900085,
                    -0.36499738693237305,
                    -0.30850058794021606
                ]
            ],
            [
                [
                    -0.14746637642383575,
                    -0.2139381319284439,
                    -0.12120752781629562
                ],
                [
                    -0.17149585485458374,
                    -0.10200711339712143,
                    -0.11112182587385178
                ],
                [
                    -0.0199118684977293,
                    0.01871083863079548,
                    0.005979521200060844
                ]
            ],
            [
                [
                    -0.2454882115125656,
                    -0.0324399471282959,
                    -0.0047179642133414745
                ],
                [
                    0.3938257098197937,
                    -0.18443647027015686,
                    -0.09719321131706238
                ],
                [
                    0.7504894137382507,
                    -0.0777391642332077,
                    0.10347342491149902
                ]
            ],
            [
                [
                    -0.24319760501384735,
                    -0.030316846445202827,
                    0.14738109707832336
                ],
                [
                    0.4108838140964508,
                    0.029430780559778214,
                    -0.02117079496383667
                ],
                [
                    0.8250181078910828,
                    -0.06032894551753998,
                    0.043847598135471344
                ]
            ],
            [
                [
                    -0.12820395827293396,
                    -0.010050817392766476,
                    -0.0724932923913002
                ],
                [
                    -0.014836561866104603,
                    -0.2356010228395462,
                    -0.051025375723838806
                ],
                [
                    0.023949535563588142,
                    -0.21331238746643066,
                    -0.2477632611989975
                ]
            ],
            [
                [
                    -0.8365435004234314,
                    0.4962504208087921,
                    -0.01961493492126465
                ],
                [
                    0.25811949372291565,
                    -0.02788965031504631,
                    -0.08300686627626419
                ],
                [
                    1.0892891883850098,
                    -0.019621489569544792,
                    -0.24664558470249176
                ]
            ],
            [
                [
                    -0.10815402120351791,
                    -0.15053796768188477,
                    -0.05349705368280411
                ],
                [
                    -0.13933007419109344,
                    -0.1306380033493042,
                    -0.09364771097898483
                ],
                [
                    -0.18538886308670044,
                    -0.12473448365926743,
                    -0.16451920568943024
                ]
            ],
            [
                [
                    0.06460779160261154,
                    -0.03854473680257797,
                    -0.13911914825439453
                ],
                [
                    0.019335586577653885,
                    -0.09734127670526505,
                    -0.10876784473657608
                ],
                [
                    0.13264819979667664,
                    -0.03817630559206009,
                    -0.09369291365146637
                ]
            ],
            [
                [
                    0.037450991570949554,
                    0.043648313730955124,
                    -0.004302889108657837
                ],
                [
                    0.029136929661035538,
                    -0.0748349130153656,
                    -0.0010405875509604812
                ],
                [
                    -0.02443907968699932,
                    -0.08012421429157257,
                    -0.002020390471443534
                ]
            ],
            [
                [
                    -0.6581336855888367,
                    -0.31723982095718384,
                    -0.1510019302368164
                ],
                [
                    0.434749573469162,
                    -0.4682233929634094,
                    -0.11811242252588272
                ],
                [
                    1.2384521961212158,
                    -0.6301602125167847,
                    -0.08772698044776917
                ]
            ]
        ],
        [
            [
                [
                    0.7882643342018127,
                    0.3214368224143982,
                    0.17593564093112946
                ],
                [
                    1.0342408418655396,
                    0.542034924030304,
                    0.268131822347641
                ],
                [
                    0.7404036521911621,
                    0.3259361684322357,
                    0.1137869656085968
                ]
            ],
            [
                [
                    -0.4059125483036041,
                    0.07480368763208389,
                    0.03129344806075096
                ],
                [
                    0.24050968885421753,
                    -0.2751739025115967,
                    0.39272403717041016
                ],
                [
                    0.497545450925827,
                    -0.3348585367202759,
                    0.511521577835083
                ]
            ],
            [
                [
                    -0.3246394991874695,
                    0.3505065441131592,
                    -0.2639511227607727
                ],
                [
                    0.018378932029008865,
                    0.37703919410705566,
                    -0.19831404089927673
                ],
                [
                    0.35137850046157837,
                    -0.2725037634372711,
                    -0.21594025194644928
                ]
            ],
            [
                [
                    -0.43930453062057495,
                    -0.3652631342411041,
                    -0.4134873151779175
                ],
                [
                    0.08750329166650772,
                    -0.025196854025125504,
                    -0.2709103524684906
                ],
                [
                    -0.25217941403388977,
                    -0.24513942003250122,
                    0.30716580152511597
                ]
            ],
            [
                [
                    -0.7588309645652771,
                    0.1831641048192978,
                    0.08430609852075577
                ],
                [
                    -0.1930588334798813,
                    -0.021709589287638664,
                    0.04642557352781296
                ],
                [
                    -0.3145067095756531,
                    -0.4475981295108795,
                    0.5897912383079529
                ]
            ],
            [
                [
                    -0.06768102943897247,
                    0.6789416670799255,
                    -0.30926841497421265
                ],
                [
                    0.03110169619321823,
                    0.2969279885292053,
                    -0.37233424186706543
                ],
                [
                    0.27613362669944763,
                    -0.4666813910007477,
                    -0.04342664033174515
                ]
            ],
            [
                [
                    0.8836475610733032,
                    0.4365592300891876,
                    0.09434625506401062
                ],
                [
                    0.5026150345802307,
                    0.1865151822566986,
                    -0.3393895924091339
                ],
                [
                    -0.34050557017326355,
                    -0.211163729429245,
                    -0.390807569026947
                ]
            ],
            [
                [
                    -0.3279365599155426,
                    -0.07299968600273132,
                    0.29087817668914795
                ],
                [
                    -0.21036601066589355,
                    0.15074066817760468,
                    -0.022631622850894928
                ],
                [
                    -0.2719346284866333,
                    0.3609571158885956,
                    -0.2135404646396637
                ]
            ],
            [
                [
                    0.18869264423847198,
                    -0.13119478523731232,
                    0.280009925365448
                ],
                [
                    -0.1123710572719574,
                    0.3794715106487274,
                    0.4114322066307068
                ],
                [
                    -0.001373131526634097,
                    0.053372517228126526,
                    0.09161880612373352
                ]
            ],
            [
                [
                    0.5854153633117676,
                    0.6173582077026367,
                    0.3115345239639282
                ],
                [
                    0.35737380385398865,
                    0.5439803600311279,
                    -0.0563213974237442
                ],
                [
                    -0.34438595175743103,
                    0.10151307284832001,
                    -0.08826816827058792
                ]
            ],
            [
                [
                    0.022053638473153114,
                    0.034102052450180054,
                    0.09552944451570511
                ],
                [
                    0.127595454454422,
                    0.020571039989590645,
                    0.06424153596162796
                ],
                [
                    0.29432806372642517,
                    -0.07912424206733704,
                    0.19646191596984863
                ]
            ],
            [
                [
                    -0.12102668732404709,
                    -0.5109282732009888,
                    0.43546760082244873
                ],
                [
                    -0.3576386570930481,
                    0.06842024624347687,
                    0.04921627417206764
                ],
                [
                    -0.6090494394302368,
                    0.8771604895591736,
                    -0.09632470458745956
                ]
            ],
            [
                [
                    -0.16879481077194214,
                    -0.19767838716506958,
                    0.3471493124961853
                ],
                [
                    -0.20602934062480927,
                    0.3472115993499756,
                    0.0673423632979393
                ],
                [
                    -0.28521397709846497,
                    0.5498570203781128,
                    -0.3565298616886139
                ]
            ],
            [
                [
                    -0.16281601786613464,
                    0.20707391202449799,
                    -0.04645948484539986
                ],
                [
                    -0.035483669489622116,
                    0.2450716644525528,
                    -0.04250410944223404
                ],
                [
                    -0.352145254611969,
                    0.18762513995170593,
                    0.09359080344438553
                ]
            ],
            [
                [
                    -0.4145504832267761,
                    -1.031602144241333,
                    0.5190240144729614
                ],
                [
                    -0.3898595869541168,
                    -0.2581319808959961,
                    0.6228201389312744
                ],
                [
                    -1.0471395254135132,
                    1.2375849485397339,
                    -0.31694090366363525
                ]
            ],
            [
                [
                    -0.0886627584695816,
                    0.23908285796642303,
                    -0.223381906747818
                ],
                [
                    0.10719099640846252,
                    0.04688543826341629,
                    -0.04977857321500778
                ],
                [
                    0.16070669889450073,
                    -0.3073517680168152,
                    0.059693895280361176
                ]
            ],
            [
                [
                    -0.04538514092564583,
                    0.007297644857317209,
                    0.07460104674100876
                ],
                [
                    -0.012420566752552986,
                    0.013122312724590302,
                    -0.004293916746973991
                ],
                [
                    -0.09484835714101791,
                    0.007611548062413931,
                    0.10428488254547119
                ]
            ],
            [
                [
                    -0.5355474948883057,
                    0.197709321975708,
                    -0.3577952980995178
                ],
                [
                    0.21041391789913177,
                    0.08530905842781067,
                    0.025372684001922607
                ],
                [
                    0.12622089684009552,
                    0.07603029161691666,
                    0.11503369361162186
                ]
            ],
            [
                [
                    -0.6296002268791199,
                    -0.1928037405014038,
                    -0.02678191475570202
                ],
                [
                    -0.40870776772499084,
                    -0.6571410298347473,
                    -0.12209677696228027
                ],
                [
                    -0.08077121526002884,
                    0.316313773393631,
                    0.5205864906311035
                ]
            ]
        ],
        [
            [
                [
                    -0.2091478407382965,
                    0.10211030393838882,
                    -0.14717796444892883
                ],
                [
                    -0.12242500483989716,
                    -0.06661463528871536,
                    -0.1645551323890686
                ],
                [
                    -0.1405559629201889,
                    0.030247164890170097,
                    -0.139085054397583
                ]
            ],
            [
                [
                    0.033841509371995926,
                    0.13851876556873322,
                    0.01975936070084572
                ],
                [
                    0.13953162729740143,
                    0.20101267099380493,
                    0.0934571623802185
                ],
                [
                    0.08845887333154678,
                    0.409690260887146,
                    0.2620047330856323
                ]
            ],
            [
                [
                    0.08056136220693588,
                    -0.04771117866039276,
                    -0.07776571810245514
                ],
                [
                    0.13568219542503357,
                    -0.11816570162773132,
                    0.03178107365965843
                ],
                [
                    0.08083202689886093,
                    -0.07750360667705536,
                    -0.004710288718342781
                ]
            ],
            [
                [
                    -0.16345617175102234,
                    0.3760792016983032,
                    -0.05591971054673195
                ],
                [
                    -0.13904930651187897,
                    0.34429246187210083,
                    -0.06112995371222496
                ],
                [
                    -0.20880255103111267,
                    0.2758902907371521,
                    -0.04358296096324921
                ]
            ],
            [
                [
                    0.1372136026620865,
                    0.3613302409648895,
                    0.06898996233940125
                ],
                [
                    0.04359667748212814,
                    0.2846129238605499,
                    -0.03891528770327568
                ],
                [
                    0.09359052777290344,
                    0.14889118075370789,
                    0.06490252166986465
                ]
            ],
            [
                [
                    0.1307399570941925,
                    0.17214515805244446,
                    -0.07163361459970474
                ],
                [
                    0.043882910162210464,
                    -0.08627235889434814,
                    -0.1266665756702423
                ],
                [
                    -0.08051656186580658,
                    -0.08645358681678772,
                    -0.142048642039299
                ]
            ],
            [
                [
                    -0.09788025915622711,
                    0.16967561841011047,
                    -0.07856972515583038
                ],
                [
                    -0.09285926073789597,
                    0.20111680030822754,
                    -0.10029499232769012
                ],
                [
                    -0.15231762826442719,
                    0.02290535159409046,
                    -0.25815847516059875
                ]
            ],
            [
                [
                    -0.051052603870630264,
                    0.015254891477525234,
                    0.01329319179058075
                ],
                [
                    -0.09864752739667892,
                    -0.07021494209766388,
                    0.028032777830958366
                ],
                [
                    -0.1204320564866066,
                    -0.13551262021064758,
                    0.10106517374515533
                ]
            ],
            [
                [
                    -0.179703027009964,
                    0.04906589537858963,
                    -0.3045411705970764
                ],
                [
                    -0.018571404740214348,
                    0.10419216006994247,
                    -0.11422231048345566
                ],
                [
                    0.09060024470090866,
                    -0.02660960704088211,
                    -0.049340132623910904
                ]
            ],
            [
                [
                    -0.041944753378629684,
                    0.16854631900787354,
                    0.00616089440882206
                ],
                [
                    0.024090314283967018,
                    -0.016698509454727173,
                    -0.08955095708370209
                ],
                [
                    -0.1580052673816681,
                    -0.07718183100223541,
                    -0.18455834686756134
                ]
            ],
            [
                [
                    -0.031186262145638466,
                    0.12937171757221222,
                    -0.030015459284186363
                ],
                [
                    0.0623960979282856,
                    0.12664219737052917,
                    0.007359979208558798
                ],
                [
                    0.09324076771736145,
                    0.08243674784898758,
                    0.16569364070892334
                ]
            ],
            [
                [
                    -0.004484647884964943,
                    0.3164273500442505,
                    -0.03648699074983597
                ],
                [
                    -0.012414355762302876,
                    0.3003021478652954,
                    0.07126811891794205
                ],
                [
                    0.05870508402585983,
                    0.12648050487041473,
                    -0.06805665045976639
                ]
            ],
            [
                [
                    -0.23709812760353088,
                    -0.03955735266208649,
                    0.08562088012695312
                ],
                [
                    -0.11505946516990662,
                    0.0911068394780159,
                    0.07555530965328217
                ],
                [
                    -0.1279517561197281,
                    -0.0804814025759697,
                    0.09286844730377197
                ]
            ],
            [
                [
                    0.10944502055644989,
                    0.18784935772418976,
                    -0.014944405294954777
                ],
                [
                    0.05743937939405441,
                    0.11960417032241821,
                    0.038793861865997314
                ],
                [
                    -0.01706109754741192,
                    0.11129914224147797,
                    -0.09518617391586304
                ]
            ],
            [
                [
                    -0.08020938187837601,
                    0.24887417256832123,
                    -0.038330066949129105
                ],
                [
                    -0.15087643265724182,
                    0.42871546745300293,
                    -0.07700078189373016
                ],
                [
                    -0.035664625465869904,
                    0.17153160274028778,
                    -0.09921836107969284
                ]
            ],
            [
                [
                    -0.06055509299039841,
                    -0.08526420593261719,
                    -0.050532132387161255
                ],
                [
                    -0.11185295134782791,
                    -0.021579764783382416,
                    -0.045673202723264694
                ],
                [
                    -0.003226700471714139,
                    -0.013065486215054989,
                    -0.022179191932082176
                ]
            ],
            [
                [
                    -0.13535906374454498,
                    0.32085755467414856,
                    0.006263027898967266
                ],
                [
                    -0.1639370173215866,
                    0.4296669363975525,
                    0.05250916630029678
                ],
                [
                    -0.129180908203125,
                    0.37929821014404297,
                    0.10578107833862305
                ]
            ],
            [
                [
                    0.13865946233272552,
                    0.03856344521045685,
                    -0.023956000804901123
                ],
                [
                    0.09180301427841187,
                    0.07251737266778946,
                    -0.08652620762586594
                ],
                [
                    -0.0004328420909587294,
                    0.0007262906874530017,
                    -0.053802233189344406
                ]
            ],
            [
                [
                    -0.07503923773765564,
                    0.30995866656303406,
                    0.1683136522769928
                ],
                [
                    -0.16011902689933777,
                    0.30436351895332336,
                    0.12242788821458817
                ],
                [
                    -0.2337486296892166,
                    0.20947831869125366,
                    0.2005852311849594
                ]
            ]
        ],
        [
            [
                [
                    -0.0999261811375618,
                    -0.0047052595764398575,
                    -0.0545545257627964
                ],
                [
                    -0.0417034737765789,
                    -0.01140414085239172,
                    -0.017239797860383987
                ],
                [
                    0.0037383446469902992,
                    -0.07215027511119843,
                    -0.06411056220531464
                ]
            ],
            [
                [
                    -0.16895942389965057,
                    0.012321598827838898,
                    -0.03222675994038582
                ],
                [
                    -0.05798768624663353,
                    0.05112225562334061,
                    0.02281314693391323
                ],
                [
                    -0.0576908141374588,
                    0.002473134547472,
                    -0.04937334358692169
                ]
            ],
            [
                [
                    -0.11109711229801178,
                    -0.20947495102882385,
                    -0.08127682656049728
                ],
                [
                    -0.04120916500687599,
                    -0.1459529846906662,
                    -0.04967935010790825
                ],
                [
                    -0.14401474595069885,
                    -0.11722324788570404,
                    -0.057630505412817
                ]
            ],
            [
                [
                    -0.2516690790653229,
                    -0.08177459239959717,
                    -0.05627419799566269
                ],
                [
                    -0.1326039880514145,
                    -0.08883855491876602,
                    -0.056910596787929535
                ],
                [
                    -0.019184604287147522,
                    -0.08036953210830688,
                    -0.04843652620911598
                ]
            ],
            [
                [
                    -0.024084847420454025,
                    -0.003432193072512746,
                    -0.06577892601490021
                ],
                [
                    -0.0011005280539393425,
                    0.005167227238416672,
                    -0.02294803224503994
                ],
                [
                    0.01882116124033928,
                    -0.09330560266971588,
                    0.0181733388453722
                ]
            ],
            [
                [
                    0.0059317536652088165,
                    -0.05972209945321083,
                    -0.08046142756938934
                ],
                [
                    -0.0013509932905435562,
                    0.0019530632998794317,
                    -0.026573270559310913
                ],
                [
                    -0.006548610050231218,
                    -0.0035437396727502346,
                    -0.03617122024297714
                ]
            ],
            [
                [
                    -0.049654267728328705,
                    0.04215957969427109,
                    -0.008915044367313385
                ],
                [
                    -0.0963255986571312,
                    -0.04624341055750847,
                    0.028361869975924492
                ],
                [
                    -0.04168136790394783,
                    -0.09758369624614716,
                    0.052488550543785095
                ]
            ],
            [
                [
                    -0.039184801280498505,
                    -0.04721862077713013,
                    -0.009607634507119656
                ],
                [
                    -0.06544091552495956,
                    -0.019161339849233627,
                    -0.006183252669870853
                ],
                [
                    -0.10449935495853424,
                    -0.052439138293266296,
                    0.008504519239068031
                ]
            ],
            [
                [
                    -0.026375606656074524,
                    -0.06202145293354988,
                    0.004856654442846775
                ],
                [
                    -0.09194835275411606,
                    -0.006967623718082905,
                    0.027080126106739044
                ],
                [
                    -0.0188607107847929,
                    -0.09695887565612793,
                    -0.011089008301496506
                ]
            ],
            [
                [
                    -0.028824545443058014,
                    -0.12465474754571915,
                    -0.07554516196250916
                ],
                [
                    0.029217850416898727,
                    -0.006077954079955816,
                    0.01995118334889412
                ],
                [
                    0.027519483119249344,
                    -0.050500378012657166,
                    0.02988445572555065
                ]
            ],
            [
                [
                    0.032485079020261765,
                    -0.05446591228246689,
                    -0.020656263455748558
                ],
                [
                    0.03482894226908684,
